tree
version=v2
num_class=1
num_tree_per_iteration=1
label_index=0
max_feature_idx=9
objective=binary sigmoid:1
feature_names=H25_age H25_sex H25_bmi H25_dbp H25_sbp H25_lhrate H25_a1c H25_ht H25_dm H25_is_medicine
feature_infos=[18:74] [1:2] [2.7999999999999998:65.599999999999994] [31:145] [71:228] [0.097560975609756101:8.8461538461538485] [2.7999999999999998:15.300000000000001] [0:1] [0:1] [0:2]
tree_sizes=2546 2585 2598 2607 2596 2605 2610 2611 2628 2617 2613 2623 2612 2625 2635 2624 2623 2649 2621 2632 2639 2632 2637 2630 2638

Tree=0
num_leaves=32
num_cat=0
split_feature=5 0 0 5 5 0 6 5 6 6 6 5 5 0 0 3 6 9 2 5 6 0 5 5 0 5 0 0 2 0 3
split_gain=2011.49 804.453 527.878 271.247 266.934 214.071 186.455 151.031 121.019 96.3725 90.6087 73.0406 73.0227 61.6581 60.2202 58.3489 54.416 49.3284 49.7899 46.0909 43.2512 42.5909 34.7019 33.8112 32.9171 32.6037 28.7551 26.9527 26.4688 26.4389 23.0693
threshold=2.4903810580836114 52.500000000000007 45.500000000000007 3.489578810247504 3.489578810247504 44.500000000000007 5.8500000000000005 1.7277140335392764 5.3500000000000005 5.8500000000000005 6.1500000000000012 1.8129166666666665 4.1234756097560981 56.500000000000007 50.500000000000007 92.583333333333357 6.1500000000000012 1.0000000180025095e-35 20.350000000000005 1.9346044191019247 5.5500000000000007 59.500000000000007 3.0459830866807613 3.8228758169934642 38.500000000000007 2.8174242424242428 39.500000000000007 55.500000000000007 25.350000000000005 37.500000000000007 99.166666666666671
decision_type=10 2 2 10 10 2 10 8 10 10 10 8 10 2 2 10 10 2 10 10 10 2 10 10 2 10 2 2 10 2 8
left_child=1 5 4 8 10 19 11 -7 22 23 15 21 16 -8 30 24 26 18 -15 -1 -9 -3 27 -5 -2 -26 -6 -4 -23 -21 -10
right_child=2 6 3 9 12 7 13 20 14 -11 -12 -13 -14 17 -16 -17 -18 -19 -20 29 -22 28 -24 -25 25 -27 -28 -29 -30 -31 -32
leaf_value=-2.5820537214136503 -2.556703795423195 -2.5403213132641973 -2.5151281738386055 -2.4431674555518317 -2.5187060207360643 -2.5666434196903594 -2.4800422548526777 -2.5381816648615523 -2.4769296675969987 -2.3049620592464812 -2.4268515343202339 -2.4892472008437387 -2.39519356478807 -2.5101712141625927 -2.4205132559840692 -2.4563271322839153 -2.3408089480022172 -2.5030055435606076 -2.3494191055800231 -2.5803378746893686 -2.5060372224881324 -2.4970007350769672 -2.4610033193745071 -2.3763083239584559 -2.5469498799609571 -2.5126978755365048 -2.4622462401179268 -2.4557238464108235 -2.3550872281703104 -2.5547418665667658 -2.3540681288110257
leaf_count=18721 2365 2873 1845 664 599 8038 624 5189 1462 479 284 2751 591 88 2235 317 89 139 500 2245 2171 447 907 627 1871 2217 760 321 42 4453 48
internal_value=0 -0.405215 1.10593 1.78692 0.460901 -0.616868 0.751153 -0.25975 1.43417 3.12273 0.106479 0.463709 1.6775 2.03278 1.89694 0.0152598 1.19318 2.78766 3.26478 -0.832924 0.137024 0.0836372 0.863849 2.52485 -0.065213 0.143042 0.976515 0.593307 1.1122 -0.557782 1.28398
internal_count=65962 48281 17681 8588 9093 40817 7464 15398 6818 1770 7054 6113 2039 1351 3745 6770 1448 727 588 25419 7360 3362 3073 1291 6453 4088 1359 2166 489 6698 1510
shrinkage=1


Tree=1
num_leaves=32
num_cat=0
split_feature=5 0 0 0 5 5 5 6 5 6 6 2 6 5 3 0 3 9 2 6 6 0 5 0 6 5 3 0 2 7 6
split_gain=1760.56 759.182 411.373 228.169 219.142 190.478 143.83 122.663 89.4685 81.0668 74.5799 64.4298 63.8577 56.9797 49.5565 44.8612 44.1711 34.7882 38.7264 32.9849 32.0426 30.1728 28.9771 28.4333 28.2409 26.4348 25.4225 24.7958 23.9611 22.6838 19.9746
threshold=2.4903810580836114 47.500000000000007 45.500000000000007 55.500000000000007 3.489578810247504 3.3361581920903958 1.8129166666666665 5.8500000000000005 1.9346044191019247 5.3500000000000005 6.1500000000000012 24.950000000000003 5.8500000000000005 4.5568475452196386 92.583333333333357 38.500000000000007 76.833333333333357 1.0000000180025095e-35 20.250000000000004 5.9500000000000011 4.9500000000000011 38.500000000000007 2.8174242424242428 50.500000000000007 6.7500000000000009 4.1234756097560981 87.833333333333357 32.500000000000007 27.150000000000002 1.0000000180025095e-35 5.5500000000000007
decision_type=10 2 2 2 10 10 8 10 10 10 10 8 10 10 10 2 10 2 10 10 10 2 10 2 10 10 10 2 10 2 10
left_child=1 8 4 6 10 9 24 11 -1 28 14 -5 25 16 21 -10 -6 18 -9 -17 -8 -2 -23 -11 -3 26 -7 -18 -4 30 -13
right_child=2 3 5 7 13 12 20 17 15 23 -12 29 -14 -15 -16 19 27 -19 -20 -21 -22 22 -24 -25 -26 -27 -28 -29 -30 -31 -32
leaf_value=-0.04359896145435585 -0.020514841502418727 -0.019267703748922956 0.02971860082014734 0.022271581331578805 0.031644617408153629 0.076272986323799974 0.00060286639794688603 0.0190619865967461 -0.041992612727163287 0.057758111702744856 0.094593782308252092 0.073045683575839418 0.17148095513959011 0.1541031243670358 0.070586864125806378 -0.015286639577072865 0.0046829695045009978 0.029057021007596419 0.14602237345688548 0.043131397034122533 0.033337148229484442 -0.010979784092377336 0.021254925163742888 0.093537629767094538 0.07814089273378598 0.14882522371851284 0.14499694968774934 0.10154461663330293 0.080174515066598132 -0.027732407395578775 0.1628927421407802
leaf_count=23225 2365 6872 2445 2608 900 1152 1522 104 2633 1369 284 281 616 247 317 5847 106 158 589 363 3786 1871 2217 2056 96 335 233 786 382 42 155
internal_value=0 -0.392185 1.00096 0.276203 0.429067 1.57214 0.0137072 1.05653 -0.7438 1.22147 0.100589 0.687698 2.44685 1.4859 0.0143548 -0.412684 1.23157 2.25761 2.58843 -0.234675 0.48117 -0.0623021 0.134952 1.59797 -0.354515 2.0451 1.78274 1.81027 0.738413 1.93565 2.18336
internal_count=65962 48281 17681 16213 9093 8588 12276 3937 32068 6252 7054 3086 2336 2039 6770 8843 1792 851 693 6210 5308 6453 4088 3425 6968 1720 1385 892 2827 478 436
shrinkage=0.05


Tree=2
num_leaves=32
num_cat=0
split_feature=5 0 0 5 0 5 0 6 5 5 4 6 3 5 5 6 2 4 6 6 5 4 6 0 5 0 6 6 2 2 9
split_gain=1561.87 601.195 411.504 207.821 197.684 197.348 93.1299 87.3476 86.8916 55.652 53.8249 52.2494 50.4955 49.6659 48.0313 41.9939 40.3295 36.8169 34.1655 33.5409 32.398 31.3862 29.3326 28.7333 27.2488 26.2963 26.295 26.2579 23.3263 22.5066 22.3588
threshold=2.3039596273291929 47.500000000000007 44.500000000000007 3.3361581920903958 55.500000000000007 3.489578810247504 52.500000000000007 5.8500000000000005 1.603057889822596 2.8941769316909305 145.83333333333334 5.8500000000000005 91.833333333333357 1.6193064182194619 4.1234756097560981 6.4500000000000011 24.850000000000005 137.16666666666671 6.0500000000000007 6.3500000000000005 2.8303485769107777 132.83333333333334 5.7500000000000009 34.500000000000007 2.4012987012987019 44.500000000000007 4.9500000000000011 6.1500000000000012 25.150000000000002 22.450000000000003 1.0000000180025095e-35
decision_type=10 2 2 10 2 10 2 10 8 10 10 10 10 10 10 10 8 10 10 10 10 10 10 2 10 2 10 10 10 10 2
left_child=1 13 5 6 8 9 10 16 -3 23 20 21 27 -1 19 25 -6 18 -8 -7 22 -5 -4 -2 -19 -15 28 -11 -10 -9 -31
right_child=2 4 3 11 7 14 17 29 26 12 -12 -13 -14 15 -16 -17 -18 24 -20 -21 -22 -23 -24 -25 -26 -27 -28 -29 -30 30 -32
leaf_value=-0.045993565428152847 -0.039479495020090995 -0.022642507141150379 0.010307227077722761 0.072502012737219873 0.019958714842102612 0.034574109793714482 0.05230119804357021 0.054257880718722395 -0.019965293588623197 0.0065614873153903479 0.096922393949700716 0.14431019804289408 0.10284026304975172 -0.035879075690487469 0.10540990703050022 0.061508978975713148 0.080502094797240104 0.0094918781279766246 0.10966957082253644 0.1561378911844459 0.047506652430021917 0.12431287700164535 0.053237711280610202 -0.0065428167573514722 0.1234636671068933 -0.014577917756196074 0.019322031905446249 0.095780883415146165 0.039164806951657388 0.13918233680603198 0.03635344877296811
leaf_count=16697 1338 5137 2986 1385 2327 1247 2111 276 1332 2585 416 666 198 9732 539 170 425 81 390 61 2073 533 649 4040 585 2883 4256 95 285 362 102
internal_value=0 -0.442056 0.787979 1.23285 0.183106 0.212451 0.962158 0.935806 -0.0784676 -0.0565062 0.686449 2.08761 0.364586 -0.775579 1.25677 -0.590489 0.605449 1.45652 1.2435 0.850074 0.587847 1.75724 0.369588 -0.292277 2.21041 -0.617895 0.232372 0.215023 -0.18468 1.97094 2.42727
internal_count=65962 43984 21978 11875 14502 10103 9291 3492 11010 8256 6124 2584 2878 29482 1847 12785 2752 3167 2501 1308 5708 1918 3635 5378 666 12615 5873 2680 1617 740 464
shrinkage=0.05


Tree=3
num_leaves=32
num_cat=0
split_feature=5 0 0 1 5 0 5 5 1 5 0 1 5 4 0 0 5 5 9 0 3 5 4 5 0 0 3 1 4 9 0
split_gain=1390.47 568.021 337.938 238.591 187.734 171.031 170.429 79.4883 120.053 69.9081 66.3122 51.9746 49.6404 47.6482 39.1348 36.0929 36.0301 34.6672 31.2202 30.0784 29.0802 28.4903 27.0612 25.4743 25.044 23.8471 23.2802 22.0124 18.4398 19.1534 18.3574
threshold=2.3039596273291929 47.500000000000007 44.500000000000007 1.5000000000000002 3.3361581920903958 55.500000000000007 2.9954166666666668 1.603057889822596 1.5000000000000002 4.1234756097560981 58.500000000000007 1.5000000000000002 1.6193064182194619 142.83333333333334 60.500000000000007 37.500000000000007 2.1134219554030884 2.8174242424242428 1.0000000180025095e-35 37.500000000000007 93.833333333333357 3.7242021276595749 132.83333333333334 2.4012987012987019 40.500000000000007 48.500000000000007 95.833333333333357 1.5000000000000002 120.25000000000001 1.0000000180025095e-35 40.500000000000007
decision_type=10 2 2 2 10 2 10 8 2 10 2 2 10 10 2 2 8 10 2 2 10 10 10 10 2 2 10 2 10 2 2
left_child=1 12 6 4 10 7 19 -3 26 15 13 14 -1 17 -7 -8 -10 -4 24 -2 27 -6 -21 -5 -14 -25 -9 -17 -13 -30 -11
right_child=2 5 3 23 21 11 9 8 16 30 -12 28 18 -15 -16 20 -18 -19 -20 22 -22 -23 -24 25 -26 -27 -28 -29 29 -31 -32
leaf_value=-0.045520013745217761 -0.031578597780330495 -0.02194658695938833 0.0082407305721547645 0.057657435333397726 0.065599326530566437 0.014606544284035936 -0.0005376348168887674 -0.011695824576839374 0.035415967395386126 0.061881455048512092 0.081307562118396279 0.048192459094528017 -0.040059200608521695 0.068185482068574499 0.069196479600395669 0.027224574049382999 0.099089534809331095 0.035687086523848027 0.030242974652345142 -0.010458830617652822 0.10923823921538821 0.10392155941126287 0.02813432400737172 0.082622648312981981 -0.02202373284986615 0.13529881431883961 0.052244569154450061 0.087295212063637981 0.10642658654329479 -0.010326544492715457 0.12785297061486295
leaf_count=16697 2015 5137 3849 285 1218 1845 1164 3721 1569 310 670 532 5885 676 533 2050 384 2458 317 3138 155 1111 821 475 6583 1133 199 221 532 50 229
internal_value=0 -0.428601 0.724175 1.11271 0.892999 0.172457 0.200116 -0.0749719 0.218501 0.752247 0.601138 0.855796 -0.762673 0.490249 0.55016 0.543763 0.977788 0.387005 -0.575888 -0.235236 0.79055 1.69938 -0.0437961 2.26125 -0.608323 2.42862 -0.164607 0.670495 1.49827 1.93966 1.84062
internal_count=65962 43984 21978 11875 9982 14502 10103 11010 5873 4129 7653 3492 29482 6983 2378 3590 1953 6307 12785 5974 2426 2329 3959 1893 12468 1608 3920 2271 1114 582 539
shrinkage=0.05


Tree=4
num_leaves=32
num_cat=0
split_feature=5 6 6 5 5 1 1 4 5 5 4 4 4 1 6 3 4 7 1 5 2 3 1 6 2 3 4 6 5 4 2
split_gain=1240.68 263.305 234.997 176.729 146.612 118.352 103.401 66.1797 64.3476 53.6403 51.7799 48.5556 43.2909 37.6409 36.7594 35.5874 33.7506 26.7589 24.905 23.01 21.6161 20.9136 18.999 20.7604 19.6891 18.7062 18.1363 17.1256 16.1546 16.1376 16.8663
threshold=2.3039596273291929 5.8500000000000005 5.8500000000000005 3.0064102564102568 1.8129166666666665 1.5000000000000002 1.5000000000000002 137.16666666666671 4.1234756097560981 3.3099343185550087 131.83333333333334 137.16666666666671 130.25000000000003 1.5000000000000002 7.3500000000000005 75.833333333333357 128.83333333333334 1.0000000180025095e-35 1.5000000000000002 1.32866927592955 27.650000000000002 95.833333333333357 1.5000000000000002 5.4500000000000011 21.150000000000002 73.833333333333357 129.83333333333334 5.3500000000000005 4.901219512195123 101.25000000000001 19.750000000000004
decision_type=10 10 10 10 10 2 2 10 10 10 8 10 10 2 10 10 10 2 2 10 10 10 2 10 10 10 10 10 10 10 8
left_child=2 3 4 5 10 7 15 25 11 13 19 17 14 -3 -4 -6 27 22 -11 -1 -13 -17 -5 -24 -25 -2 -15 -8 -10 -7 -31
right_child=1 9 12 8 6 29 16 -9 28 18 -12 20 -14 26 -16 21 -18 -19 -20 -21 -22 -23 23 24 -26 -27 -28 -29 -30 30 -32
leaf_value=-0.044039803376829903 -0.015439382774118375 0.047394184158780328 0.004323031542396826 0.02590396500159238 -0.032091720371150989 0.0074898794825408932 -0.0057413918874221134 0.038978981737986564 0.073777889171938102 0.09520086192734542 -0.01338637118024312 0.093088623320397454 0.05721470091008523 0.070254780538384839 0.092334436475102144 -0.011242326017492714 0.056956649031314525 0.10535233017986045 0.17848726350227068 -0.031233082407471226 0.035194538302648258 0.037276956268835343 0.024375700857145605 -0.0030014421109338489 0.12117583747824562 0.002459383023051417 0.14173760964680143 0.023801480195750024 0.13374866307271832 0.10737984024986005 0.049599204765488174
leaf_count=11416 3722 1765 2024 4665 4415 267 1406 1270 669 904 4285 602 1035 309 158 4311 669 133 102 12393 304 328 245 46 185 4776 191 1544 153 191 1479
internal_value=0 0.667439 -0.415378 0.488229 -0.503457 0.194391 -0.159418 0.0215906 0.913104 1.52911 -0.67114 0.774993 0.544588 1.20139 0.233902 -0.38507 0.388768 0.637016 2.11231 -0.74651 1.49621 -0.150235 0.591588 1.2463 1.95298 -0.104163 2.02046 0.203085 1.73451 1.01092 1.14018
internal_count=65962 21978 43984 18707 40767 11705 12673 9768 7002 3271 28094 6180 3217 2265 2182 9054 3619 5274 1006 23809 906 4639 5141 476 231 8498 500 2950 822 1937 1670
shrinkage=0.05


Tree=5
num_leaves=32
num_cat=0
split_feature=5 0 0 0 5 5 5 6 0 6 5 5 4 6 2 4 0 0 0 5 9 6 0 4 6 5 2 6 0 2 2
split_gain=1110.13 534.263 262.555 145.411 133.783 101.572 69.1435 59.9427 56.6511 55.9658 48.5521 47.3199 39.5317 34.7408 34.1778 30.6501 29.9144 26.3504 25.299 24.3411 23.8235 21.9668 21.8249 20.6606 19.5566 19.6943 19.3777 17.5341 17.41 16.3063 16.2015
threshold=2.3039596273291929 47.500000000000007 44.500000000000007 55.500000000000007 2.9595918367346945 3.2386128364389237 1.7615493958777544 5.5500000000000007 52.500000000000007 6.1500000000000012 1.6193064182194619 4.1234756097560981 133.83333333333334 6.4500000000000011 25.250000000000004 145.83333333333334 39.500000000000007 34.500000000000007 44.500000000000007 4.360042735042736 1.0000000180025095e-35 6.7500000000000009 57.500000000000007 137.83333333333334 5.7500000000000009 2.8174242424242428 27.050000000000004 5.3500000000000005 59.500000000000007 25.050000000000004 20.950000000000003
decision_type=10 2 2 2 10 10 8 10 2 10 10 10 10 10 10 10 2 2 2 10 2 10 2 10 10 10 8 10 2 8 10
left_child=1 10 4 6 17 8 21 -5 15 11 -1 16 19 18 28 24 -6 -2 29 22 -16 -3 -7 -19 25 -4 -10 -8 -9 -12 -30
right_child=2 3 5 7 9 12 27 14 26 -11 13 -13 -14 -15 20 -17 -18 23 -20 -21 -22 -23 -24 -25 -26 -27 -28 -29 30 -31 -32
leaf_value=-0.04467707584327206 -0.036493483809897219 -0.01813612871384453 0.0073486041071657397 0.016501335665475052 -0.0014582336217889725 0.045780020299635155 0.0016969807482807764 0.030367554789267972 0.04879085098248017 0.1034698145094321 -0.038278927038751714 0.068498029214615272 0.098389241133469252 0.051531845433360673 0.12466118277943682 0.070750796817940206 0.031676099884253579 -0.010104599671969432 -0.012846806739279832 0.10529548882292759 0.011853342932191605 0.066246130270210341 0.10073560082847931 0.031031126966719787 0.043156756331656096 0.032867083210302378 0.086603413717159711 0.025072963577852183 0.0266876451107067 -0.016587029629627877 0.095667874523142835
leaf_count=16697 1422 6412 2928 1889 1754 1780 2148 767 2556 231 7924 491 892 170 284 383 1846 3904 2883 220 75 91 201 455 1021 1442 452 2359 175 1808 302
internal_value=0 -0.402219 0.617361 0.176248 0.157982 0.943116 -0.0577055 0.792908 0.734621 0.606297 -0.740888 0.494419 1.42238 -0.55407 1.26333 0.517113 0.326415 -0.250579 -0.581832 1.17509 2.12527 -0.330984 1.04307 -0.106391 0.440111 0.327919 1.10118 0.287751 0.956954 -0.684558 1.46523
internal_count=65962 43984 21978 14502 10103 11875 11010 3492 8782 4322 29482 4091 3093 12785 1603 5774 3600 5781 12615 2201 359 6503 1981 4359 5391 4370 3008 4507 1244 9732 477
shrinkage=0.05


Tree=6
num_leaves=32
num_cat=0
split_feature=5 0 0 1 5 5 0 0 1 0 5 5 2 0 0 4 1 0 5 3 2 2 2 5 5 3 4 4 5 9 2
split_gain=998.381 422.04 275.509 175.941 153.737 135.242 80.2635 74.9712 56.4625 54.2844 45.6121 42.4624 37.8917 36.41 34.7043 34.1506 31.9719 30.5762 28.736 27.8144 24.9915 22.699 22.0361 21.4031 21.3198 20.8479 20.202 19.0952 18.4705 18.4666 17.0934
threshold=2.1134219554030884 50.500000000000007 44.500000000000007 1.5000000000000002 2.8941769316909305 3.2386128364389237 44.500000000000007 59.500000000000007 1.5000000000000002 58.500000000000007 1.603057889822596 3.9518002322880381 23.250000000000004 38.500000000000007 53.500000000000007 142.83333333333334 1.5000000000000002 48.500000000000007 2.8174242424242428 77.833333333333357 26.350000000000005 21.350000000000005 26.750000000000004 3.7242021276595749 1.7615493958777544 79.833333333333357 133.83333333333334 133.83333333333334 2.479309360730594 1.0000000180025095e-35 21.550000000000004
decision_type=10 2 2 2 10 10 2 2 2 2 10 10 10 2 2 10 2 2 10 10 10 10 10 10 8 10 10 10 10 2 10
left_child=1 6 4 5 13 9 20 8 12 15 -8 19 -3 -2 24 18 -12 28 22 -6 -1 -9 -4 26 -10 -13 -7 -15 -5 -23 -16
right_child=2 7 3 17 11 23 10 21 14 -11 16 25 -14 27 30 -17 -18 -19 -20 -21 -22 29 -24 -25 -26 -27 -28 -29 -30 -31 -32
leaf_value=-0.044197233642586847 -0.033657830716573266 -0.019148340322111115 -0.0021284332744131956 0.020856902784210134 0.0041919528449764687 0.034734420439376426 -0.032900466538914167 0.023660329713442077 -0.0099915260688540636 0.05814813988521092 -0.018208038906522391 0.036901899778776871 0.01703671261131269 -0.011440584291844726 0.031555436253941686 0.046463826521629607 0.016108764468900996 0.089638343411564125 0.026868569215398604 0.034490187095378419 -0.013959583319134073 0.090405084682802353 0.030294910518157039 0.074935507319668443 0.043759853404214434 0.090523601635687442 0.073408221508763999 0.019837226036242904 0.073261587926726865 -0.00020861798430292486 0.075650723282338891
leaf_count=19903 2984 2859 4652 449 2243 1205 5494 381 966 838 2777 473 1584 3825 773 806 1596 1774 2094 1711 1287 485 778 1111 335 298 464 850 396 80 491
internal_value=0 -0.453517 0.492089 0.790082 0.0583331 0.608827 -0.693364 0.296675 0.147151 0.37906 -0.396142 0.530606 -0.113103 -0.315753 0.591641 0.284178 -0.107649 1.56242 0.203073 0.359578 -0.845986 1.18044 0.0558055 1.18495 0.127588 1.18266 0.935845 -0.105584 0.976561 1.58405 1.00821
internal_count=65962 39011 26951 14567 12384 11948 31057 7954 7008 9168 9867 4725 4443 7659 2565 8330 4373 2619 7524 3954 21190 946 5430 2780 1301 771 1669 4675 845 565 1264
shrinkage=0.05


Tree=7
num_leaves=32
num_cat=0
split_feature=5 0 0 1 5 5 6 0 0 1 6 5 6 5 0 0 9 1 0 5 6 0 4 0 4 9 5 1 5 6 4
split_gain=901.471 395.861 235.731 140.928 137.421 112.989 85.1367 79.0899 51.2486 45.3152 45.0606 43.3847 38.2565 36.2239 34.533 32.0099 30.4045 29.0695 27.1882 26.0552 25.3135 23.0301 20.1505 19.6614 17.4315 17.3278 17.0487 17.0153 16.7305 15.6991 15.2514
threshold=2.1134219554030884 50.500000000000007 44.500000000000007 1.5000000000000002 2.8941769316909305 3.0459830866807613 5.8500000000000005 44.500000000000007 58.500000000000007 1.5000000000000002 6.1500000000000012 1.603057889822596 5.8500000000000005 4.1234756097560981 38.500000000000007 53.500000000000007 1.0000000180025095e-35 1.5000000000000002 60.500000000000007 3.7242021276595749 6.3500000000000005 37.500000000000007 129.83333333333334 47.500000000000007 137.83333333333334 1.0000000180025095e-35 2.6347680097680102 1.5000000000000002 1.7615493958777544 6.1500000000000012 136.83333333333334
decision_type=10 2 2 2 10 10 10 2 2 2 10 10 10 10 2 2 2 2 2 10 10 2 8 2 10 2 10 2 8 10 10
left_child=1 7 4 5 14 8 9 25 12 18 13 -9 16 21 -2 28 -4 -13 22 -7 23 -6 -3 26 29 -1 -5 -8 -11 -16 -25
right_child=2 6 3 20 10 19 27 11 -10 15 -12 17 -14 -15 24 -17 -18 -19 -20 -21 -22 -23 -24 30 -26 -27 -28 -29 -30 -31 -32
leaf_value=-0.04246110008104504 -0.032958107869507501 -0.023235464360481298 0.00088669194685559111 0.012173934809222343 -0.0075884542830468808 0.039842349097650678 0.038514300719415855 -0.03219911935279867 0.054585546669689317 -0.01592762611014242 0.085453278201544025 -0.01758153293185739 0.037771800225077388 0.056539814982940209 -0.0118719373959122 0.042372302093463605 0.05047235084752464 0.015098512395103368 0.039433424725182416 0.067383056213371137 0.13195157969252111 0.022056307814839846 0.0051062024308904464 0.064558717559543816 0.026891235730170555 0.012148020487873791 0.07214229920167968 0.08151012904471043 0.034674388954146755 0.050581548829660289 0.10172774175410669
leaf_count=20943 2984 2449 5839 409 1318 2682 779 5494 755 861 246 2777 1162 491 4056 1357 399 1596 319 1111 135 2670 1484 1524 497 247 195 418 287 122 356
internal_value=0 -0.440151 0.458346 0.727518 0.0551353 0.56476 0.278409 -0.679792 0.308092 0.0951652 0.493656 -0.383242 0.207512 0.397808 -0.30437 0.490249 0.0869346 -0.102873 -0.1484 0.985447 1.39596 0.261397 -0.24718 1.30502 -0.100816 -0.835169 0.72144 1.08688 -0.00877078 -0.189606 1.45349
internal_count=65962 39011 26951 14567 12384 11948 7954 31057 8155 6757 4725 9867 7400 4479 7659 2505 6238 4373 4252 3793 2619 3988 3933 2484 4675 21190 604 1197 1148 4178 1880
shrinkage=0.05


Tree=8
num_leaves=32
num_cat=0
split_feature=5 0 0 5 1 0 5 0 5 1 2 6 5 0 2 0 1 0 6 2 6 4 6 5 5 4 6 4 4 9 9
split_gain=815.121 375.459 202.731 123.249 114.977 99.8999 95.4218 42.623 39.3159 51.8416 39.0403 35.5035 32.7092 31.0614 30.8142 30.3381 25.4961 23.7917 23.6705 21.7261 21.1021 20.5856 19.2503 18.9307 17.6891 17.179 17.0983 16.5479 16.0719 15.4983 15.2883
threshold=2.1134219554030884 47.500000000000007 44.500000000000007 2.9595918367346945 1.5000000000000002 55.500000000000007 3.2386128364389237 55.500000000000007 1.4861748216106017 1.5000000000000002 25.250000000000004 6.1500000000000012 2.7558265582655825 39.500000000000007 24.450000000000003 38.500000000000007 1.5000000000000002 44.500000000000007 7.4500000000000011 23.750000000000004 5.7500000000000009 133.83333333333334 6.3500000000000005 4.1234756097560981 1.550280898876405 132.83333333333334 6.3500000000000005 135.83333333333334 101.25000000000001 1.0000000180025095e-35 1.0000000180025095e-35
decision_type=10 2 2 10 2 2 10 2 8 2 8 10 10 2 10 2 2 2 10 10 10 10 10 10 10 10 8 10 10 2 2
left_child=1 14 3 15 6 8 7 12 -3 19 16 13 20 27 17 -2 18 -1 -7 -10 30 -17 28 -15 -19 -8 -18 -5 -6 -12 -4
right_child=2 5 4 11 22 10 25 -9 9 -11 29 -13 -14 23 -16 21 26 24 -20 -21 -22 -23 -24 -25 -26 -27 -28 -29 -30 -31 -32
leaf_value=-0.044218573826725019 -0.030059779990417451 -0.021918583662390068 -0.0078821812023375862 -0.0041103577462670042 0.021764891482087191 0.0045436739012796792 0.040767081518084849 0.038830692319980133 -0.022784598304439792 0.026806685371809504 0.084310010376752939 0.077986987155790333 0.025721453279127962 0.026137770776431441 -0.019258477560480949 -0.010736829263175136 0.037569357196279046 -0.039559662557792225 0.13222477274337688 0.0094438609932617178 0.024180564584727473 0.02053196877154248 0.11485252863378126 0.068649635088274111 -0.012683261235451663 0.066197723996415853 0.13252148427637656 0.038438214118315259 0.063436961955130933 -0.0027180979947489898 0.037278381418116256
leaf_count=18376 3130 4120 3828 1674 290 1637 1938 1739 2231 2049 365 231 2451 1846 3670 4039 815 2438 27 1184 913 893 135 258 1981 842 46 313 2194 72 237
internal_value=0 -0.426981 0.427814 0.0521787 0.672103 0.0893367 0.524868 0.331179 -0.12693 0.0772954 0.621429 0.488973 0.204202 0.398082 -0.749677 -0.271123 0.433396 -0.811262 0.164137 -0.224217 0.0254129 -0.0875807 1.25873 0.672191 -0.531289 0.986035 0.894715 0.0676912 1.17978 1.46254 -0.0970228
internal_count=65962 39011 26951 12384 14567 12546 11948 9168 9584 5464 2962 4322 7429 4091 26465 8062 2525 22795 1664 3415 4978 4932 2619 2104 4419 2780 861 1987 2484 437 4065
shrinkage=0.05


Tree=9
num_leaves=32
num_cat=0
split_feature=0 2 0 2 3 2 1 3 0 1 1 2 0 0 0 2 3 1 0 9 4 3 7 4 4 9 0 2 2 9 9
split_gain=602.102 245.38 132.171 79.477 48.5509 43.0709 42.3861 41.8288 32.8599 30.7534 27.9598 26.807 25.7958 24.4067 23.256 22.9807 19.2023 18.0983 17.9388 17.8747 16.8585 16.6396 15.3785 14.8705 13.971 12.6356 11.9898 12.2091 11.9172 11.7466 11.6496
threshold=45.500000000000007 24.350000000000005 55.500000000000007 23.350000000000005 85.833333333333357 20.950000000000003 1.5000000000000002 76.833333333333357 39.500000000000007 1.5000000000000002 1.5000000000000002 26.350000000000005 52.500000000000007 36.500000000000007 52.500000000000007 21.350000000000005 78.166666666666671 1.5000000000000002 59.500000000000007 1.0000000180025095e-35 141.16666666666671 102.83333333333336 1.0000000180025095e-35 137.83333333333334 153.25000000000003 1.0000000180025095e-35 36.500000000000007 20.050000000000004 34.750000000000007 1.0000000180025095e-35 1.0000000180025095e-35
decision_type=2 10 2 10 10 10 2 10 2 2 2 10 2 2 2 10 10 2 2 2 10 10 2 10 10 2 2 8 10 2 2
left_child=1 4 3 6 8 17 20 13 -1 11 18 19 16 -3 -11 -10 -8 -4 24 23 -2 25 -12 -5 -7 28 -6 -28 -9 -16 -26
right_child=2 7 5 9 26 10 12 21 15 14 22 -13 -14 -15 29 -17 -18 -19 -20 -21 -22 -23 -24 -25 30 -27 27 -29 -30 -31 -32
leaf_value=-0.041136523256865613 -0.010240519784212285 -0.027987311128178607 -0.0073221391527872742 0.0016064270120574387 -0.040942284552830319 0.027187493264083092 0.00079884726819271575 0.0096337764704925877 -0.034609927390818057 0.031001243639389837 0.074176011098359335 0.030777660080267822 0.037617484026626451 0.0017399473599044189 0.063510945833248192 -0.016446797693642868 0.032885155157473249 0.031742333328198612 0.05534163151653318 0.04139534623675787 0.022779419168938109 0.070448682894648812 -0.0067150222649100385 0.02773928117602531 0.10740758467189522 0.046256441028029033 -0.038698036258895077 0.019028728127339703 0.05469074788202645 0.15539671324630924 -0.010515246968174309
leaf_count=12998 7559 1750 744 3902 214 2251 3804 4466 6621 1404 847 2638 1075 3065 349 5855 821 623 1060 466 540 151 60 754 86 338 179 1102 178 34 28
internal_value=0 -0.38508 0.350689 0.216613 -0.616549 0.778401 0.0209985 0.108565 -0.663411 0.447703 0.923865 0.351304 0.272152 -0.163445 0.847322 -0.511057 0.135367 0.237678 0.778826 0.1948 -0.155852 0.332379 1.38587 0.125601 0.607969 0.290349 0.0913422 0.232808 0.234704 1.5302 1.65789
internal_count=65962 36917 29045 23346 26969 5699 13799 9948 25474 9547 4332 7760 5700 4815 1787 12476 4625 1367 3425 5122 8099 5133 907 4656 2365 4982 1495 1281 4644 383 114
shrinkage=0.05


Tree=10
num_leaves=32
num_cat=0
split_feature=0 2 6 6 0 2 3 3 0 0 1 9 6 1 0 2 2 2 2 2 3 2 6 0 2 6 3 2 1 0 2
split_gain=545.528 231.135 175.037 56.5628 53.7483 48.917 48.8252 32.7667 31.4702 30.4692 25.5128 22.0212 21.8933 20.167 27.8366 19.955 19.4833 19.4717 17.558 15.657 15.4046 16.4569 15.3291 14.8953 12.6669 11.9853 14.7497 11.8592 11.1506 11.0674 10.6352
threshold=45.500000000000007 24.050000000000004 5.5500000000000007 6.3500000000000005 56.500000000000007 23.250000000000004 85.833333333333357 90.583333333333357 35.500000000000007 39.500000000000007 1.5000000000000002 1.0000000180025095e-35 6.3500000000000005 1.5000000000000002 48.500000000000007 20.950000000000003 27.150000000000002 20.950000000000003 26.450000000000003 19.650000000000002 70.833333333333357 21.350000000000005 7.1500000000000012 53.500000000000007 35.150000000000013 5.5500000000000007 100.83333333333336 21.150000000000002 1.5000000000000002 36.500000000000007 32.250000000000007
decision_type=2 10 10 10 2 10 10 10 2 2 2 2 10 2 2 10 10 10 10 8 10 10 10 2 10 10 8 8 2 2 10
left_child=1 6 5 8 7 10 9 12 24 -1 23 15 13 19 -15 -6 -7 -11 -10 -4 -12 -22 28 -2 -3 26 -20 -8 -17 -29 -5
right_child=2 3 4 30 11 16 27 -9 18 17 20 -13 -14 14 -16 22 -18 -19 25 -21 21 -23 -24 -25 -26 -27 -28 29 -30 -31 -32
leaf_value=-0.041256814593846051 -0.015154213254012092 -0.022680087645550288 -0.043006411883590279 0.075466611123466504 0.025524157104199592 0.01144841555384624 -0.023158769936037389 0.05720952874058885 -0.0025023168385524411 -0.035293103528964871 -0.0011186437260493284 0.012211887210527244 0.044141922333754274 0.0007520060644097713 0.040338751274902641 0.051015467459958636 0.03368673112474091 -0.017890987561353978 0.0041169222099525227 0.01141789211081394 0.00896140231861982 0.046620906474259136 0.11667487832096862 0.0033513819950043086 0.038216104333822977 0.029609227840766694 0.080085426918483471 -0.039518470425538882 0.079995116176220377 0.025274537557511436 0.020549193876928881
leaf_count=12592 5417 2571 193 295 455 5877 448 729 4337 5770 2464 308 905 884 1788 1119 1369 6240 2241 3236 1226 542 100 2021 109 1169 65 124 412 826 130
internal_value=0 -0.372532 0.328718 0.0747276 0.66423 0.105542 -0.617337 0.512216 0.00590508 -0.665941 -0.0546779 1.04657 0.433687 0.350991 0.580849 1.15157 0.322679 -0.514291 0.119693 0.176882 0.177703 0.435371 1.28908 -0.1901 -0.386125 0.308722 0.144189 0.117899 1.19863 0.353487 1.1744
internal_count=65962 36917 29045 10917 10129 18916 26000 7735 10492 24602 11670 2394 7006 6101 2672 2086 7246 12010 7812 3429 4232 1768 1631 7438 2680 3475 2306 1398 1531 950 425
shrinkage=0.05


Tree=11
num_leaves=32
num_cat=0
split_feature=0 2 0 4 3 3 2 2 0 1 4 0 0 1 1 2 2 0 2 9 1 0 2 9 2 4 2 7 0 3 1
split_gain=494.4 217.605 101.113 66.7368 46.3914 36.8952 32.2679 30.9225 30.1931 29.8714 23.4203 20.9421 20.6437 20.5724 18.9262 22.4514 18.9173 15.7943 15.6899 14.9391 13.0845 12.4684 11.4653 11.2832 10.7186 10.4822 10.2423 10.1425 10.0623 9.6158 8.98046
threshold=45.500000000000007 24.050000000000004 55.500000000000007 132.16666666666671 85.833333333333357 76.833333333333357 21.350000000000005 23.350000000000005 39.500000000000007 1.5000000000000002 174.50000000000003 48.500000000000007 36.500000000000007 1.5000000000000002 1.5000000000000002 20.550000000000004 20.950000000000003 59.500000000000007 25.350000000000005 1.5000000000000002 1.5000000000000002 47.500000000000007 26.450000000000003 1.0000000180025095e-35 21.150000000000002 114.25000000000001 21.350000000000005 1.0000000180025095e-35 36.500000000000007 93.833333333333357 1.5000000000000002
decision_type=2 10 2 10 10 10 10 10 2 2 10 2 2 2 2 10 10 2 8 2 2 2 10 2 8 10 8 2 2 10 2
left_child=1 4 3 7 8 12 20 9 -1 26 14 -11 -3 17 18 -16 -10 25 -5 29 -4 -9 -14 -17 -6 -8 -2 -15 -26 -7 -23
right_child=2 5 6 10 24 19 13 21 16 11 -12 -13 22 27 15 23 -18 -19 -20 -21 -22 30 -24 -25 28 -27 -28 -29 -30 -31 -32
leaf_value=-0.040708785263566777 -0.020388884655923686 -0.026451477441311599 -0.0013086165934503016 0.0092413608156097175 -0.022494860753993887 0.0094693803883411642 0.00069747202427897052 -0.00027862940683647664 -0.034630143264197492 -0.0074630728401025737 0.10832934407943123 0.017781957725850266 -0.0092114829363222454 0.064140729661468068 -0.002788407264517082 0.045266674202628226 -0.01727117361057174 0.049418906179943434 0.030512928488648013 0.10626111052648002 0.02863366995839265 0.013667262340240497 0.013281013678702332 0.098925353733314944 -0.038996817566979619 0.0308438959219435 -0.004829650274926601 -0.0038400502115746027 0.023522650858103983 0.031399031820942114 0.032597508581750916
leaf_count=12592 2861 1948 924 2647 448 4799 365 1677 5770 2127 76 2872 2165 760 307 846 6240 1001 1560 34 714 3776 1310 116 124 1879 3638 56 826 661 843
internal_value=0 -0.360239 0.30837 0.190605 -0.603355 0.0709127 0.671511 0.0745086 -0.652227 -0.0513951 0.5121 0.166534 -0.170869 0.808036 0.480939 0.842044 -0.500145 0.684197 0.366874 0.274315 0.260871 0.26112 -0.00279338 1.06607 0.110699 0.52341 -0.225477 1.20588 0.330249 0.253784 0.34929
internal_count=65962 36917 29045 23346 26000 10917 5699 17794 24602 11498 5552 4999 5423 4061 5476 1269 12010 3245 4207 5494 1638 6296 3475 962 1398 2244 6499 816 950 5460 4619
shrinkage=0.05


Tree=12
num_leaves=32
num_cat=0
split_feature=5 5 6 1 6 3 5 1 3 3 5 5 1 2 3 2 9 2 9 3 6 6 6 5 6 6 3 6 2 1 5
split_gain=670.326 171.605 96.9168 94.3985 78.4276 48.4028 48.2573 42.1519 39.2469 34.9731 25.5969 20.7099 31.1965 17.1254 16.6651 16.3683 15.8361 21.8676 15.0046 14.2889 14.1259 14.1199 14.1195 13.1947 13.5399 13.158 13.025 12.4808 11.0331 10.4083 10.2352
threshold=1.9617818889970788 2.8303485769107777 5.8500000000000005 1.5000000000000002 5.8500000000000005 73.833333333333357 3.7242021276595749 1.5000000000000002 92.583333333333357 72.833333333333357 1.5958521384053301 1.3514998514998515 1.5000000000000002 33.650000000000013 96.583333333333357 22.150000000000002 1.0000000180025095e-35 25.650000000000002 1.0000000180025095e-35 61.583333333333336 7.2500000000000009 7.7500000000000009 7.3500000000000005 4.901219512195123 6.6500000000000012 4.9500000000000011 79.833333333333357 5.6500000000000012 19.250000000000004 1.5000000000000002 1.7371710526315793
decision_type=10 10 10 2 10 8 10 2 10 10 8 10 2 10 10 10 2 8 2 10 10 8 10 10 8 10 10 8 8 2 10
left_child=2 3 5 4 9 11 7 8 13 -2 -7 -1 -13 16 18 21 20 22 -11 -5 28 -4 -18 27 -25 -9 -22 -8 -3 -29 -14
right_child=1 6 15 19 -6 10 23 25 -10 14 -12 12 30 -15 -16 -17 17 -19 -20 -21 26 -23 -24 24 -26 -27 -28 29 -30 -31 -32
leaf_value=-0.041971910951957188 -0.021959766821251777 0.074341952609018255 -0.0096532266481936368 0.0057888696622466285 0.029225976522991387 -0.025189650266924515 0.030328278169955661 -0.0065632649285297636 0.056402600263093808 -0.0052580453896184896 -0.0062794524552220385 -0.040484991370329293 -0.022529254697187345 0.066448109926944138 0.0314589331463625 0.027126778834074605 0.10709655200746948 0.011742069557164716 0.02801190136957726 0.03130573149215405 -0.006902357744674183 0.088817555630959333 -0.014316082615738948 0.10160835501340451 0.026540649606264101 0.058413309331334019 0.11766655863494224 0.049112889708084653 0.011058585370137436 0.097285918594839357 -0.0026750874275965858
leaf_count=9135 5061 80 1035 928 1773 7248 926 93 584 8112 5419 4876 4085 166 409 1096 130 196 424 3635 26 35 22 152 66 917 42 1210 6433 84 1564
internal_value=0 0.327979 -0.459105 0.104195 -0.0448404 -0.529935 0.627001 0.499375 0.406899 -0.158795 -0.332907 -0.674589 -0.543952 0.327833 -0.0240022 0.271005 0.29994 0.92 -0.0646492 0.535398 0.257574 -0.0907202 1.75936 0.974865 1.60216 1.07126 1.49779 0.895445 0.237235 1.06831 -0.329148
internal_count=65962 31469 34493 20342 15779 32327 11127 8689 7679 14006 12667 19660 10525 7095 8945 2166 6929 348 8536 4563 6581 1070 152 2438 218 1010 68 2220 6513 1294 5649
shrinkage=0.05


Tree=13
num_leaves=32
num_cat=0
split_feature=5 0 5 0 1 0 0 0 0 5 1 2 2 5 1 1 3 5 3 2 9 0 3 5 2 2 3 5 3 5 2
split_gain=610.083 244.549 149.307 150.468 67.6138 57.8841 44.8008 43.8831 38.622 32.3584 31.513 28.0471 27.2125 25.1482 24.0375 19.5185 19.1567 17.9691 16.2242 16.0543 15.9387 14.8703 14.5428 14.423 13.1418 12.7794 10.8626 10.5666 12.8288 10.5073 10.1825
threshold=1.9617818889970788 47.500000000000007 2.8303485769107777 47.500000000000007 1.5000000000000002 54.500000000000007 39.500000000000007 38.500000000000007 57.500000000000007 3.489578810247504 1.5000000000000002 24.950000000000003 25.350000000000005 1.3834474885844752 1.5000000000000002 1.5000000000000002 93.833333333333357 1.5426150121065378 73.833333333333357 24.750000000000004 1.0000000180025095e-35 60.500000000000007 83.416666666666671 3.7242021276595749 19.250000000000004 21.950000000000003 97.833333333333357 4.5568475452196386 87.833333333333357 2.4012987012987019 21.850000000000005
decision_type=10 2 10 2 2 2 2 2 2 10 2 8 10 8 2 2 10 8 10 10 2 2 10 10 8 10 10 10 10 10 10
left_child=1 17 3 7 8 13 23 -2 26 10 16 15 -10 -3 19 21 24 -1 -19 -15 22 -7 -9 -4 -8 -23 -5 28 -11 -6 -12
right_child=2 5 6 4 29 11 9 20 12 27 30 -13 -14 14 -16 -17 -18 18 -20 -21 -22 25 -24 -25 -26 -27 -28 -29 -30 -31 -32
leaf_value=-0.043483366988589955 -0.032264312244217851 -0.025899158126038064 -0.002095204186859614 0.0019224981153775204 0.034846194606438716 -0.010588266623214933 0.092868395646066026 -0.010579886254694457 0.020734599295780989 0.03631460823357107 0.022452947329745433 0.051209410012939431 0.074752314872021788 -0.022853880067153949 0.013532682233080844 0.028388361995841938 0.051440319851462468 -0.037440500409102379 -0.018825455978348032 0.013721458500963927 0.031015661044594047 -0.0051058913677695904 0.0090488862461592014 0.027771014861077206 0.016472498331360354 0.062654854323799136 0.039380227693979371 0.067119620639208968 0.062000110954805468 0.058033937031189302 0.063030778468303281
leaf_count=13156 3644 3021 1901 4873 1259 1416 53 6557 788 2140 190 465 275 2174 1918 956 382 6799 3766 542 352 149 1707 581 4542 131 195 334 454 692 550
internal_value=0 -0.445559 0.307969 0.098508 0.419175 -0.00523398 0.582714 -0.219658 0.221855 0.672902 0.521058 0.364771 0.734937 -0.214024 -0.0411422 0.206227 0.417502 -0.748476 -0.607958 -0.291924 -0.0802597 -0.0398306 -0.120771 0.139276 0.350597 0.612936 0.0763021 0.904742 0.83214 0.887111 1.06643
internal_count=65962 34493 31469 20342 8082 10772 11127 12260 6131 8645 5717 3117 1063 7655 4634 2652 4977 23721 10565 2716 8616 1696 8264 2482 4595 280 5068 2928 2594 1951 740
shrinkage=0.05


Tree=14
num_leaves=32
num_cat=0
split_feature=5 0 0 5 1 5 0 6 0 5 5 1 1 0 5 6 0 7 3 3 6 6 6 5 5 4 6 0 3 4 4
split_gain=555.721 233.228 133.161 110.671 62.5161 69.0004 52.068 37.5109 27.9233 23.5651 23.5047 22.4398 21.7799 20.4556 18.0229 17.6498 17.5535 17.1242 16.155 15.8842 14.9744 14.3471 13.9917 13.301 13.2265 12.9794 12.2556 12.1941 12.0478 12.0212 10.9345
threshold=1.9617818889970788 47.500000000000007 44.500000000000007 2.8303485769107777 1.5000000000000002 3.0459830866807613 54.500000000000007 6.0500000000000007 34.500000000000007 3.489578810247504 1.3834474885844752 1.5000000000000002 1.5000000000000002 57.500000000000007 1.5426150121065378 6.1500000000000012 60.500000000000007 1.0000000180025095e-35 90.833333333333357 73.833333333333357 5.5500000000000007 6.3500000000000005 6.1500000000000012 2.3039596273291929 3.5949163449163457 137.83333333333334 7.1500000000000012 34.500000000000007 59.833333333333336 138.83333333333334 130.83333333333334
decision_type=10 2 2 10 2 10 2 10 2 10 8 2 2 2 8 8 2 2 10 10 10 10 10 10 10 10 10 2 10 10 10
left_child=1 14 3 8 5 7 10 13 -2 18 30 16 -12 17 -1 28 -8 23 20 -16 -5 29 25 -4 -7 -10 -9 -11 -13 -6 -3
right_child=2 6 4 9 21 24 11 26 22 27 12 15 -14 -15 19 -17 -18 -19 -20 -21 -22 -23 -24 -25 -26 -27 -28 -29 -30 -31 -32
leaf_value=-0.043019425572267705 -0.038931412432606873 -0.032583232887637245 -0.012003782081823518 -0.004112320287161483 0.03393477122556645 0.025638636481386964 -0.0031004608348863655 0.025658612413260104 -0.015361942512812674 0.0048542616962770398 -0.014055346534588684 -0.021193010543006253 0.012712856350931959 0.024962209407118439 -0.036826514074783871 0.090809548674936139 0.035890503019449314 0.030619272089822309 0.044576351115202507 -0.018197704159341424 0.024287902084774965 0.077614614483848987 0.032835468180941255 0.0042942738991463445 0.043033088179004503 0.012688555434478868 0.063948622099842187 0.03729812859501918 0.033471020008360296 0.059767799473820986 -0.0033150987127192767
leaf_count=13156 2239 2294 2761 2358 2752 2351 1685 789 6191 407 2716 121 1918 996 6799 92 348 489 238 3766 752 167 202 4580 1442 638 256 1440 871 421 727
internal_value=0 -0.432498 0.289464 -0.0060081 0.461299 0.354961 -0.00509916 0.181075 -0.320813 0.357782 -0.205479 0.342117 -0.0392866 0.0954544 -0.736256 0.697367 0.110667 0.0239744 0.159557 -0.594077 0.073779 0.817468 -0.202415 -0.0242044 0.665812 -0.241405 0.715395 0.624075 0.542918 0.761925 -0.503789
internal_count=65962 34493 31469 14465 17004 13664 10772 9871 9270 5195 7655 3117 4634 8826 23721 1084 2033 7830 3348 10565 3110 3340 7031 7341 3793 6829 1045 1847 992 3173 3021
shrinkage=0.05


Tree=15
num_leaves=32
num_cat=0
split_feature=5 0 0 5 1 5 0 0 0 2 5 4 4 5 6 5 1 6 2 2 6 9 0 5 1 6 9 6 5 2 4
split_gain=509.385 183.993 139.374 117.004 60.2082 66.7468 46.6988 45.238 30.0909 21.058 20.6371 19.4751 18.7877 17.3843 17.0773 17.1871 17.7196 17.0401 16.7858 16.0969 15.7202 16.13 14.1611 14.008 13.4776 13.9116 13.1394 12.8585 13.0954 11.7241 11.6738
threshold=1.8602325581395351 47.500000000000007 44.500000000000007 2.8303485769107777 1.5000000000000002 2.8174242424242428 56.500000000000007 55.500000000000007 34.500000000000007 25.450000000000003 3.9518002322880381 122.25000000000001 133.83333333333334 3.5949163449163457 7.3500000000000005 1.3834474885844752 1.5000000000000002 5.8500000000000005 25.550000000000004 27.250000000000004 6.1500000000000012 1.0000000180025095e-35 30.500000000000004 2.4128709454796415 1.5000000000000002 6.1500000000000012 1.0000000180025095e-35 5.6500000000000012 1.1974496426250816 33.650000000000013 141.16666666666671
decision_type=10 2 2 10 2 10 2 2 2 8 10 10 10 10 10 8 2 10 10 10 10 2 2 10 2 8 2 10 10 10 10
left_child=1 12 3 8 5 7 14 17 -2 24 20 -9 -1 29 15 30 18 26 -17 -10 21 22 -5 -6 27 -26 -4 -8 -29 -7 -3
right_child=2 6 4 10 23 13 9 11 19 -11 -12 -13 -14 -15 -16 16 -18 -19 -20 -21 -22 -23 -24 -25 25 -27 -28 28 -30 -31 -32
leaf_value=-0.039838802885342028 -0.039503209721546584 -0.026781244272740118 -0.007884627384275613 -0.022821141886624135 0.027963824754178225 0.02047587406912257 -0.014701536593141452 0.0049529518891120927 -0.015352347125650732 0.059608515990507954 0.037454672260733166 0.038335645353610309 -0.016295524585812834 0.039738693274683684 0.067447329823643473 -0.02203947994052835 0.0096299734899014441 0.017560904242193431 0.026050701801949336 0.010146328362553051 0.046749832437240207 0.075009958277587122 0.010018633021352011 0.046194480569853161 0.021341185741039364 0.099244991965577276 0.024166407322917589 -0.030454902051444868 0.04474761624454001 0.077999553217254922 0.015787073396651103
leaf_count=19763 2641 3175 6191 548 2284 3818 726 683 7041 215 771 1143 2028 1442 65 2194 1826 1020 285 1081 209 79 3588 1580 504 43 387 76 215 67 274
internal_value=0 -0.460684 0.248921 -0.0444555 0.416348 0.31289 -0.0530387 0.112356 -0.342686 0.401189 0.335436 0.531139 -0.747832 0.556017 -0.210716 -0.232932 -0.074277 -0.0312047 -0.308489 -0.225725 0.224711 0.162596 0.125853 0.739758 0.240615 0.61615 -0.110436 -0.0138476 0.519682 0.436067 -0.460087
internal_count=65962 31389 34573 15958 18615 14751 9598 9424 10763 1779 5195 1826 21791 5327 7819 7754 4305 7598 2479 8122 4424 4215 4136 3864 1564 547 6578 1017 291 3885 3449
shrinkage=0.05


Tree=16
num_leaves=32
num_cat=0
split_feature=5 5 6 1 6 4 4 6 5 1 3 4 5 6 4 6 5 5 2 2 7 2 3 5 6 1 2 3 2 6 2
split_gain=465.315 116.212 85.3662 67.7582 57.8564 36.0545 34.4458 30.8517 22.869 21.1894 20.7268 18.1211 13.6384 13.3253 12.6942 12.5231 12.0394 11.9473 11.812 11.4001 11.978 13.9111 11.1801 11.1362 10.1028 9.7974 11.7207 10.4111 9.34248 8.88872 8.78064
threshold=1.8602325581395351 2.8303485769107777 5.6500000000000012 1.5000000000000002 5.8500000000000005 131.83333333333334 123.83333333333336 5.5500000000000007 1.32866927592955 1.5000000000000002 78.583333333333357 133.83333333333334 3.489578810247504 5.2500000000000009 130.25000000000003 6.1500000000000012 2.4012987012987019 3.7242021276595749 20.250000000000004 19.250000000000004 1.0000000180025095e-35 25.750000000000004 97.833333333333357 2.2204636091724832 10.950000000000001 1.5000000000000002 26.350000000000005 74.833333333333357 18.945000000000004 6.7500000000000009 26.450000000000003
decision_type=10 10 10 2 10 8 10 10 8 2 10 10 10 10 10 10 10 10 8 8 2 8 10 10 8 2 10 10 10 8 10
left_child=2 3 5 4 6 8 23 11 -1 12 15 17 -9 -10 16 -4 -5 19 -17 -3 -21 -22 -8 -2 -6 26 -15 -28 -12 -18 -25
right_child=1 7 10 14 24 -7 22 9 13 -11 28 -13 -14 25 -16 18 29 -19 -20 20 21 -23 -24 30 -26 -27 27 -29 -30 -31 -32
leaf_value=-0.0416360148747182 -0.0264800461954121 0.062183946043489972 -0.013882872362954152 0.0082776142946921968 0.020368461130767922 -0.0098593737576554812 -0.00084698483953487842 0.019626392325774233 -0.031944007730324644 0.055510416175073962 -0.030247870147533346 0.030769637238504843 0.038181466631112437 -0.033672781308388286 0.033302053823194698 -0.034232808909162915 0.032684942318235904 0.025036033693366006 0.036998774819073585 0.0046734764913285596 0.10473785735021526 -0.0054354793027297484 0.02764915504684707 -0.014202458711978764 0.10857412926483155 -0.0092457837439973208 -0.038347259556695656 0.074731438691610724 0.024740546791204993 -0.018752076647498721 0.012417746744774812
leaf_count=8991 3653 95 2618 3350 1922 4082 7053 2056 8763 613 122 1541 1345 2025 1130 110 1007 1105 275 4277 48 47 398 4288 24 3050 51 66 1236 108 513
internal_value=0 0.234459 -0.447485 0.064681 -0.0614751 -0.558159 -0.157254 0.473853 -0.637667 0.664938 0.0535325 0.336794 0.565865 -0.521969 0.385326 -0.154753 0.288261 0.242162 0.416208 0.152549 0.125169 1.13245 0.0240419 -0.34523 0.440248 -0.343956 -0.583346 0.629278 0.408654 0.568231 -0.222211
internal_count=65962 34573 31389 23446 17851 27028 15905 11127 22946 4014 4361 7113 3401 13955 5595 3003 4465 5572 385 4467 4372 95 7451 8454 1946 5192 2142 117 1358 1115 4801
shrinkage=0.05


Tree=17
num_leaves=32
num_cat=0
split_feature=5 0 0 5 0 5 0 6 5 9 6 4 6 6 6 4 5 0 3 6 5 4 9 5 4 6 5 5 5 9 5
split_gain=425.102 176.081 120.965 79.7006 75.0196 41.6846 41.1077 25.1318 21.0117 18.4512 16.7763 19.2739 15.3675 15.2825 13.4777 12.6274 12.5349 12.4497 12.0057 11.4605 10.9839 10.9169 10.8145 10.4182 11.6622 9.90715 10.5718 9.77337 9.62815 8.60543 8.58759
threshold=1.8602325581395351 47.500000000000007 38.500000000000007 3.2129403557725849 47.500000000000007 2.5596610169491529 56.500000000000007 6.3500000000000005 2.2402531645569623 1.0000000180025095e-35 4.9500000000000011 140.83333333333334 5.8500000000000005 5.5500000000000007 5.6500000000000012 133.83333333333334 1.4861748216106017 44.500000000000007 96.583333333333357 7.1500000000000012 3.7242021276595749 142.83333333333334 1.0000000180025095e-35 4.1234756097560981 100.25000000000001 5.5500000000000007 2.7280431432973811 2.4012987012987019 1.3514998514998515 1.0000000180025095e-35 1.2875856164383566
decision_type=10 2 2 10 2 10 2 10 10 2 10 10 10 10 10 10 8 2 8 10 10 10 2 10 10 10 10 10 8 2 10
left_child=1 9 5 4 7 -2 13 8 -4 17 11 -6 15 16 -8 23 21 -1 -15 27 -7 -3 -21 29 -25 -10 -27 -12 -11 -5 -19
right_child=2 6 3 12 10 20 14 -9 25 28 19 -13 -14 18 -16 -17 -18 30 -20 22 -22 -23 -24 24 -26 26 -28 -29 -30 -31 -32
leaf_value=-0.040551617090777606 -0.036632353966663658 -0.028750035699798723 -0.015507466114610693 0.013971989325182149 0.0011701130037831823 -0.0082575992939259921 0.0069096889724517708 0.037322096684216467 -0.0022181034545388722 -0.036284450710553272 0.014511653764614121 0.045792156226493616 0.043492686721451256 0.00075367949365406635 0.03548310797686572 0.038991206753541542 -0.0050501583416210187 -0.041268267260020697 0.073621323603134545 0.070842502953095521 0.018908489350176878 0.017783738624681869 0.015774272373498828 -0.033105189976598164 0.042409821262969383 -0.00022540881031398856 0.026883903682650895 0.025560351399035054 0.039920916063063298 0.060273763650199513 -0.017829339700960862
leaf_count=17418 3347 2931 4595 2460 2664 2466 1150 363 5361 119 4191 275 1048 2225 629 933 2386 1426 63 160 459 214 135 33 464 1007 767 3769 206 76 2622
internal_value=0 -0.43423 0.221003 0.296959 0.194194 -0.331091 -0.0353883 -0.0351481 -0.0744942 -0.726974 0.366387 0.128017 0.603445 -0.186987 0.387882 0.51011 -0.312858 -0.747396 0.0701304 0.431472 -0.0335157 -0.500409 0.968645 0.4087 0.741901 0.0401547 0.263701 0.405566 0.299206 0.316319 -0.510447
internal_count=65962 31389 34573 28301 23287 6272 9598 12093 11730 21791 11194 2939 5014 7819 1779 3966 5531 21466 2288 8255 2925 3145 295 3033 497 7135 1774 7960 325 2536 4048
shrinkage=0.05


Tree=18
num_leaves=32
num_cat=0
split_feature=5 0 0 5 0 5 0 0 3 4 2 3 0 4 6 5 4 5 5 6 5 6 5 2 3 4 2 4 3 3 3
split_gain=389.208 152.209 115.583 98.2541 38.4804 33.5696 24.6024 23.4962 21.187 16.7813 16.364 16.0652 14.5999 14.0284 13.8634 13.1238 12.2572 13.1679 11.1552 10.6053 10.495 10.1659 10.0847 9.77687 12.3565 9.7527 9.81862 9.58668 10.6474 8.90038 9.2642
threshold=1.8129166666666665 47.500000000000007 44.500000000000007 2.7280431432973811 56.500000000000007 2.5723809523809531 49.500000000000007 34.500000000000007 77.833333333333357 133.83333333333334 24.950000000000003 85.833333333333357 58.500000000000007 133.83333333333334 6.1500000000000012 4.5568475452196386 139.25000000000003 1.2780641466208478 3.5604878048780493 5.5500000000000007 2.2010638297872345 5.8500000000000005 1.5426150121065378 27.750000000000004 70.833333333333357 137.83333333333334 26.450000000000003 138.83333333333334 87.583333333333357 77.833333333333357 81.833333333333357
decision_type=10 2 2 10 2 10 2 2 10 10 8 10 2 10 10 10 10 8 10 10 10 10 8 8 10 10 10 10 10 10 10
left_child=1 9 3 7 16 6 27 -2 14 22 21 -12 13 15 18 -7 17 -3 -5 -8 25 -6 -1 24 -16 26 -9 -4 -29 -14 -31
right_child=2 4 5 8 10 12 19 20 -10 -11 11 -13 29 -15 23 -17 -18 -19 -20 -21 -22 -23 -24 -25 -26 -27 -28 28 -30 30 -32
leaf_value=-0.043579963261571868 -0.038704561551195803 -0.026886115176520745 -0.0034313732538175166 -0.0073852142125115641 0.0020810923309725216 0.015784710224443235 0.010171689874352019 -0.029585527258269052 0.022925321434085429 -0.015202877975972973 0.074434426788172761 0.0010449864377006166 0.058675311587007707 0.030832906941796037 0.14286747273018283 0.053395111278370967 0.013547065975696325 -0.0070982722283263328 0.014452929604981344 0.023812138249277973 -0.0057773909761648498 0.0356091964137722 -0.030996776930871994 0.0063158166837403301 0.00740182658450814 0.01230664930745784 0.0052620059344832904 0.055060479802541334 0.0031689969187831965 -0.0020444329088107551 0.040572563322730057
leaf_count=12053 2650 2345 4271 2499 1183 5565 3603 3338 2525 1915 161 87 304 2110 25 137 692 4332 856 2506 4004 228 6869 51 23 314 403 174 318 126 295
internal_value=0 -0.44111 0.199208 -0.0657504 -0.0566123 0.345088 0.206497 -0.361965 0.246173 -0.725798 0.36384 0.988543 0.471065 0.429372 0.0533557 0.345389 -0.210691 -0.26892 0.000787903 0.332631 -0.256538 0.19749 -0.776294 1.02066 1.81683 -0.428169 -0.500972 -0.00550755 0.434438 0.826429 0.563811
internal_count=65962 29865 36097 16688 9028 19409 10872 10709 5979 20837 1659 248 8537 7812 3454 5702 7369 6677 3355 6109 8059 1411 18922 99 48 4055 3741 4763 492 725 421
shrinkage=0.05


Tree=19
num_leaves=32
num_cat=0
split_feature=5 0 0 5 0 1 5 0 6 5 6 0 9 5 2 3 1 1 9 2 0 6 0 4 2 2 1 2 6 5 0
split_gain=356.12 145.514 106.199 66.6647 65.2582 48.3881 39.663 34.7293 23.5981 20.877 18.0868 16.6486 16.5381 15.6165 14.11 13.4496 12.8544 12.6101 16.6623 15.8758 15.1937 12.4664 11.9872 11.7973 11.3314 15.7363 11.3033 11.2123 11.1805 11.0271 10.0188
threshold=1.8129166666666665 47.500000000000007 38.500000000000007 3.2129403557725849 47.500000000000007 1.5000000000000002 2.5596610169491529 56.500000000000007 6.3500000000000005 2.2402531645569623 7.1500000000000012 57.500000000000007 1.0000000180025095e-35 2.8174242424242428 24.950000000000003 85.833333333333357 1.5000000000000002 1.5000000000000002 1.0000000180025095e-35 24.650000000000002 52.500000000000007 5.8500000000000005 44.500000000000007 122.25000000000001 20.150000000000002 25.350000000000005 1.5000000000000002 21.950000000000003 5.4500000000000011 4.901219512195123 30.500000000000004
decision_type=10 2 2 10 2 2 10 2 10 10 10 2 2 10 8 10 2 2 2 10 2 10 2 10 10 10 2 10 10 10 2
left_child=1 12 6 4 8 10 -2 17 9 16 11 13 22 -6 26 -16 -4 19 20 -3 -19 29 -1 -13 -20 -26 27 -9 -22 -5 -8
right_child=2 7 3 21 5 -7 30 14 -10 -11 -12 23 -14 -15 15 -17 -18 18 24 -21 28 -23 -24 -25 25 -27 -28 -29 -30 -31 -32
leaf_value=-0.04002802785166909 -0.035754606804223453 -0.024981464368297256 -0.022778937042713013 0.020797919683470584 -0.00073393834534459998 0.031507861868944866 -0.018644009506740451 -0.021778868979863641 0.034550995663760832 0.0016511828188910079 0.044607399132442202 0.00368287266666634 0.015116307096245941 0.018020136543415045 0.067619466616861829 0.00099632322822308553 0.00016182631411563452 -0.013914057767363429 -0.023583130581724704 0.0093859978541105775 -0.0087880137112369746 0.038375498792980335 -0.024372973752476979 0.031329241942778745 0.13630434113834713 -0.019856423527018909 0.026683713792199498 0.016718966120971002 0.032497338060907641 0.057435415421003014 0.0055176301515357682
leaf_count=16694 3645 3339 3619 3844 5840 2826 957 505 373 7135 263 549 306 1384 161 87 1622 2386 37 624 410 1048 3837 902 61 23 508 398 489 122 1968
internal_value=0 -0.428188 0.188021 0.256335 0.165443 0.31942 -0.328292 -0.0539817 -0.0462828 -0.0841336 0.184713 0.152902 -0.713636 0.0754341 0.341974 0.911808 -0.305883 -0.202164 -0.0279587 -0.370452 -0.0893995 0.532684 -0.734414 0.430341 1.23912 1.85648 0.186554 -0.0671474 0.303291 0.449681 -0.0367776
internal_count=65962 29865 36097 29527 24513 11764 6570 9028 12749 12376 8938 8675 20837 7224 1659 248 5241 7369 3406 3963 3285 5014 20531 1451 121 84 1411 903 899 3966 2925
shrinkage=0.05


Tree=20
num_leaves=32
num_cat=0
split_feature=5 0 0 5 0 1 5 0 1 6 5 4 0 5 2 4 9 1 0 6 6 6 5 4 0 2 9 5 6 4 6
split_gain=325.766 138.934 95.7143 58.3859 57.9908 41.9595 37.6713 31.3852 22.9091 20.9054 19.168 16.9128 16.3193 15.025 14.6543 12.8776 12.8169 12.0153 11.2083 11.0457 10.9811 10.7811 10.5663 9.7132 9.17411 9.71582 8.99881 8.64918 8.63091 8.99764 8.6119
threshold=1.8129166666666665 47.500000000000007 38.500000000000007 3.2129403557725849 47.500000000000007 1.5000000000000002 2.5596610169491529 53.500000000000007 1.5000000000000002 6.3500000000000005 2.2402531645569623 133.83333333333334 55.500000000000007 2.8303485769107777 24.850000000000005 116.16666666666667 1.0000000180025095e-35 1.5000000000000002 60.500000000000007 5.8500000000000005 5.8500000000000005 5.8500000000000005 1.5426150121065378 133.83333333333334 30.500000000000004 28.550000000000004 1.0000000180025095e-35 1.4790199530516432 5.5500000000000007 135.83333333333334 6.4500000000000011
decision_type=10 2 2 10 2 2 10 2 2 10 10 10 2 10 8 10 2 2 2 8 10 10 8 10 2 10 2 8 10 10 8
left_child=1 11 6 4 9 12 -2 16 14 10 17 22 13 -6 20 18 27 -4 -14 -10 -9 23 -1 -5 25 -8 -13 -3 -12 -30 -28
right_child=2 7 3 21 5 -7 24 8 19 -11 28 26 15 -15 -16 -17 -18 -19 -20 -21 -22 -23 -24 -25 -26 -27 30 -29 29 -31 -32
leaf_value=-0.042787513600832952 -0.035128798832682745 -0.023913801103873825 -0.02209795804060816 0.016666699114695607 -0.00088242917739672535 0.029282992270151176 -0.031804819421539003 -0.018138695373031869 0.017404816710369544 0.032041185509678383 -0.0023917040391244603 -0.018518104224241796 -0.01597562053034397 0.018571885842659248 0.025700214637904079 0.024361339404645226 0.023797138501463005 0.00015380129984270751 0.034138337065125118 0.053159996146800996 0.018591738932466597 0.035671416406917823 -0.029510612363969208 0.032499582758480326 0.0052196389367000209 0.010588556342678239 -0.0060244235551658682 -0.006691076808145179 0.004929798349950814 0.034147162357243875 0.099853041058577174
leaf_count=12053 3645 3170 3619 3033 5356 2826 700 1516 986 373 5361 1794 420 1215 328 1827 317 1622 120 221 247 1048 6869 933 1968 257 83 2243 1436 338 38
internal_value=0 -0.415443 0.177517 0.241449 0.156256 0.300043 -0.31692 -0.0514623 0.196989 -0.0441277 -0.0803067 -0.701336 0.174357 0.0749168 -0.0506711 0.37605 -0.265726 -0.294769 -0.05382 0.53527 -0.213083 0.497544 -0.754414 0.420754 -0.0351105 -0.360206 -0.270161 -0.319684 0.0313317 0.23787 0.770823
internal_count=65962 29865 36097 29527 24513 11764 6570 9028 3298 12749 12376 20837 8938 6571 2091 2367 5730 5241 540 1207 1763 5014 18922 3966 2925 957 1915 5413 7135 1774 121
shrinkage=0.05


Tree=21
num_leaves=32
num_cat=0
split_feature=5 0 0 5 0 1 5 0 6 5 4 6 0 3 2 1 2 9 0 5 1 5 3 0 6 2 2 5 5 6 5
split_gain=297.957 132.479 86.3259 51.2414 51.5685 36.5081 35.7339 29.0817 18.5525 17.6304 16.6115 15.4516 13.29 12.5172 12.1188 11.5095 14.7198 13.7168 12.4398 10.6204 10.5094 9.63826 12.2183 11.9521 9.4791 9.38518 12.47 9.12705 9.01272 8.98004 8.91478
threshold=1.8129166666666665 47.500000000000007 38.500000000000007 3.2129403557725849 47.500000000000007 1.5000000000000002 2.5596610169491529 56.500000000000007 6.3500000000000005 2.2204636091724832 133.83333333333334 7.1500000000000012 58.500000000000007 68.833333333333357 21.350000000000005 1.5000000000000002 23.750000000000004 1.0000000180025095e-35 52.500000000000007 1.5426150121065378 1.5000000000000002 4.5568475452196386 90.250000000000014 62.500000000000007 5.4500000000000011 20.150000000000002 25.350000000000005 3.0259784075573548 3.7242021276595749 5.1500000000000012 1.1472136222910219
decision_type=10 2 2 10 2 2 10 2 10 10 10 10 2 10 8 2 10 2 2 8 2 10 10 2 10 10 10 10 10 10 8
left_child=1 10 6 4 8 11 -2 15 9 20 19 12 13 -6 -9 16 -3 18 30 -1 -4 22 23 -5 -20 -19 -27 -15 -8 -24 -17
right_child=2 7 3 21 5 -7 28 14 -10 -11 -12 -13 -14 27 -16 17 -18 25 24 -21 -22 -23 29 -25 -26 26 -28 -29 -30 -31 -32
leaf_value=-0.042344385624463958 -0.034497542844439281 -0.026025657944336658 -0.021791813835001225 0.017509304000711139 -0.014785754944793792 0.027263972073321947 -0.007757660621415966 -0.0018980053546726384 0.029774444527788803 0.0013059822822548161 -0.012969558271998466 0.040315285601123949 0.021076600017785781 0.0042134335425690487 0.026066575554882093 -0.037190307932826704 0.0027681459032308934 -0.023551443170552324 -0.0087575438493805429 -0.028831126272432644 -0.00043353450262234756 0.041921994555651876 0.007121739992131549 0.072117988571112193 0.028954882140215146 0.11610790725040124 -0.019931780672106894 0.024935565554108544 0.016644918498218753 0.049077406613454146 -0.0059126875422970994
leaf_count=12053 3645 2965 3455 4134 1016 2826 2466 740 373 7356 1915 263 1079 6066 919 597 998 37 410 6869 1565 354 113 55 489 61 23 514 459 358 1789
internal_value=0 -0.402863 0.167664 0.22756 0.147639 0.282028 -0.305859 -0.0490939 -0.0420513 -0.0766282 -0.688901 0.164601 0.135035 0.0758167 0.30844 -0.187499 -0.351108 -0.0212661 -0.0792905 -0.74294 -0.291766 0.465312 0.425854 0.371724 0.269371 1.09144 1.61557 0.127339 -0.0335866 0.801222 -0.255307
internal_count=65962 29865 36097 29527 24513 11764 6570 9028 12749 12376 20837 8938 8675 7596 1659 7369 3963 3406 3285 18922 5020 5014 4660 4189 899 121 84 6580 2925 471 2386
shrinkage=0.05


Tree=22
num_leaves=32
num_cat=0
split_feature=5 0 0 5 0 5 0 4 9 1 1 2 5 1 5 2 0 4 5 0 1 2 3 5 4 2 0 3 5 0 0
split_gain=272.612 126.676 77.8848 45.5976 48.292 33.8729 29.2765 25.0627 24.7118 23.1106 19.2386 17.9599 17.2289 13.5704 12.7137 12.3343 11.8321 12.2176 11.7896 10.6987 10.6434 9.70587 9.70303 9.23776 8.90335 8.72635 8.78656 10.2934 9.80177 8.63474 8.4226
threshold=1.8129166666666665 46.500000000000007 38.500000000000007 3.3907741251325558 49.500000000000007 2.5596610169491529 53.500000000000007 137.83333333333334 1.0000000180025095e-35 1.5000000000000002 1.5000000000000002 25.550000000000004 2.2204636091724832 1.5000000000000002 1.3834474885844752 24.850000000000005 61.500000000000007 121.16666666666667 2.7698612862547294 57.500000000000007 1.5000000000000002 26.650000000000002 97.833333333333357 4.5568475452196386 128.83333333333334 24.450000000000003 45.500000000000007 66.833333333333357 2.9270509977827057 44.500000000000007 30.500000000000004
decision_type=10 2 2 10 2 10 2 10 2 2 2 10 10 2 8 8 2 10 10 2 2 10 10 10 10 8 2 10 10 2 2
left_child=1 11 5 4 7 -2 14 8 12 16 15 29 13 -4 24 -8 17 18 -6 23 -14 -18 -16 -5 -3 26 28 -28 -22 -1 -7
right_child=2 6 3 19 9 30 10 -9 -10 -11 -12 -13 20 -15 22 -17 21 -19 -20 -21 25 -23 -24 -25 -26 -27 27 -29 -30 -31 -32
leaf_value=-0.039979876474547676 -0.033861076553799239 -0.032337622743518452 -0.022848800630866414 0.019055229249745106 -0.0087004396399433699 -0.01735508171264535 -0.01023196469782621 0.017399981322102954 0.033119276567470136 0.027001363779242855 0.02400678816347734 -0.007056359667649649 -0.0030340652502351532 -0.00052918857885746434 -0.0067132127877289095 0.022771021303048356 0.022313779382858903 0.01353737741534816 0.015703156345034615 0.047830244125842886 -0.0067640057070392544 0.077943092783058568 0.059179030368910882 0.040148224530204779 -0.0050339541384626131 -0.0036149803961385285 0.004916502458185648 0.056483200851917381 0.054446674182860824 -0.023773525717561972 0.0050310315467055663
leaf_count=15766 3645 2310 3627 3095 1898 957 1763 1984 471 2222 1207 1333 7004 1753 3512 328 328 4404 663 244 482 60 66 330 825 520 139 228 75 2755 1968
internal_value=0 -0.390496 0.158472 0.214629 0.150989 -0.295022 -0.0668 0.0119696 -0.0517896 0.309428 0.176478 -0.695163 -0.0868941 -0.289264 -0.259314 -0.0525159 0.211142 0.174865 -0.0156624 0.478494 0.00384378 0.668533 -0.0979392 0.434469 -0.486017 0.257728 0.4578 0.76962 0.111251 -0.744429 -0.0319701
internal_count=65962 29865 36097 29527 25858 6570 10011 16283 14299 9575 3298 19854 13828 5380 6713 2091 7353 6965 2561 3669 8448 388 3578 3425 3135 1444 924 367 557 18521 2925
shrinkage=0.05


Tree=23
num_leaves=32
num_cat=0
split_feature=0 2 6 3 4 0 0 3 6 7 0 1 2 2 2 6 6 4 0 1 0 3 6 6 4 0 6 4 2 3 4
split_gain=194.141 109.994 59.9279 31.3208 24.4271 20.2335 19.097 16.7351 16.454 16.2915 13.6407 12.8618 17.5072 12.7727 11.5308 11.4444 10.1747 10.0528 11.9742 9.45079 9.1175 9.07555 8.4581 8.35014 8.2502 8.16854 8.14552 7.77937 8.81421 7.1246 11.4316
threshold=44.500000000000007 24.050000000000004 5.5500000000000007 85.833333333333357 132.83333333333334 39.500000000000007 59.500000000000007 76.833333333333357 7.1500000000000012 1.0000000180025095e-35 47.500000000000007 1.5000000000000002 19.650000000000002 21.350000000000005 22.750000000000004 5.3500000000000005 6.8500000000000005 142.83333333333334 48.500000000000007 1.5000000000000002 36.500000000000007 86.833333333333357 6.0500000000000007 8.2500000000000018 177.50000000000003 34.500000000000007 6.9500000000000011 102.25000000000001 19.650000000000002 80.833333333333357 115.33333333333336
decision_type=2 10 10 10 8 2 2 10 10 2 2 2 8 10 10 8 10 10 2 2 2 10 10 10 10 2 10 10 8 10 10
left_child=1 3 4 5 10 16 8 15 11 -8 -2 12 -4 -7 19 -3 -1 18 -13 21 -17 -12 -9 -24 -6 -5 -14 28 -21 -16 -31
right_child=2 7 6 25 24 13 9 22 -10 -11 14 17 26 -15 29 20 -18 -19 -20 27 -22 -23 23 -25 -26 -27 -28 -29 -30 30 -32
leaf_value=-0.035997082909001381 -0.011295420564257568 -0.022788239639980723 -0.038961197516291179 -0.044487540355141242 0.010647249170240826 -0.029062910311876251 0.037837747807719861 0.005601455867804756 0.035495907965809419 -0.018417778893041546 -0.013102493187865714 0.00020710716987044667 0.009897591108787962 -0.011633061092187272 0.01184876644867148 -0.01812435314545028 0.068699241282138168 0.044020312737601958 0.022209669088079403 0.0083774799920265288 0.0054344152757456023 0.027469954854676078 0.037260980914800561 -0.016475493300295092 0.070792455174994051 0.014137350416707817 -0.029744349837665426 0.0096345870669365674 -0.03303576902256708 0.06584831524759048 -0.0064282164390972833
leaf_count=12570 5495 1646 300 144 4900 5547 944 4396 579 104 3717 1224 5473 4466 3018 1165 22 285 2145 351 2201 211 323 62 44 1032 96 1850 332 54 1266
internal_value=0 -0.284222 0.155975 -0.506736 0.0287715 -0.557045 0.326873 0.0298352 0.276993 0.65541 -0.0481776 0.23946 0.147659 -0.400352 0.0188875 -0.149353 -0.70976 0.388702 0.330027 -0.0896293 -0.0205683 -0.216332 0.17251 0.559204 0.229375 0.167087 0.179663 0.075819 -0.261716 0.146527 -0.0590122
internal_count=65962 33574 32388 23781 21238 22605 11150 9793 10102 1048 16294 9523 5869 10013 10799 5012 12592 3654 3369 6461 3366 3928 4781 385 4944 1176 5569 2533 683 4338 1320
shrinkage=0.05


Tree=24
num_leaves=32
num_cat=0
split_feature=5 0 0 5 0 6 5 1 1 2 5 4 5 0 1 4 0 2 3 0 6 4 3 9 2 5 0 3 5 3 6
split_gain=242.176 113.943 64.4643 43.2616 41.1855 27.9156 27.5552 23.059 18.2906 17.0684 16.201 17.0904 14.7382 13.9472 13.4481 11.1514 11.7638 10.6106 9.92415 9.83043 9.79605 11.7814 9.79458 9.43294 11.5033 9.3181 9.19436 9.11076 8.70024 8.37409 8.3734
threshold=1.8129166666666665 46.500000000000007 37.500000000000007 2.6605458221024265 48.500000000000007 5.7500000000000009 2.5596610169491529 1.5000000000000002 1.5000000000000002 25.550000000000004 3.489578810247504 137.16666666666671 1.269446845289542 55.500000000000007 1.5000000000000002 116.16666666666667 60.500000000000007 20.250000000000004 105.33333333333336 59.500000000000007 6.3500000000000005 171.33333333333334 73.166666666666671 1.0000000180025095e-35 25.850000000000005 2.0863133248190726 52.500000000000007 65.833333333333357 2.5723809523809531 85.833333333333357 5.3500000000000005
decision_type=10 2 2 10 2 10 10 2 2 10 10 10 8 2 2 10 2 10 10 2 10 10 8 2 8 10 2 10 10 10 10
left_child=1 9 6 4 20 12 -2 13 10 29 11 23 26 -6 22 16 -15 -7 -13 -16 21 25 -14 -5 -25 -4 -3 -21 -17 -1 -28
right_child=2 5 3 8 7 17 -8 -9 -10 -11 -12 18 14 15 19 28 -18 -19 -20 27 -22 -23 -24 24 -26 -27 30 -29 -30 -31 -32
leaf_value=-0.037878491587782122 -0.035385686985794217 -0.033777062366496961 -0.016527424553403055 0.0032795187926976778 -0.001736711407296314 -0.0099786409181845497 -0.0028077632547411704 0.023230144378001985 0.029659187992806479 -0.0067084250253256405 0.021150558047978937 0.019745057179686346 -0.031773608591465448 -0.025810297135272348 0.0030032178170241505 0.01769717782154568 0.033367937629059694 0.023098623133811818 0.067208521284683867 -0.021582706272246874 0.021947511659716742 0.089851061461282328 -0.0054603939946613958 0.053063729977217582 0.0032534643978246363 -0.0033984950977037514 -0.025096262723685061 0.065251772169630143 0.059619147433356584 -0.012900661239003137 0.008684880864326323
leaf_count=17582 3114 1864 4037 5968 3920 438 2455 2019 1424 1333 2963 1191 976 301 2217 1178 90 1154 77 34 275 22 2140 169 204 6590 617 99 100 939 472
internal_value=0 -0.374435 0.147241 0.192154 0.0681031 -0.0718932 -0.319679 0.226785 0.316666 -0.675158 0.268947 0.180482 -0.185863 0.0982597 -0.0676343 0.311257 -0.167478 0.318745 0.468538 0.142385 -0.11651 -0.143464 -0.259058 0.102239 0.533351 -0.153017 -0.443411 0.894162 0.433565 -0.725665 -0.180099
internal_count=65962 29865 36097 30528 18532 10011 5569 7608 11996 19854 10572 7609 8419 5589 5466 1669 391 1592 1268 2350 10924 10649 3116 6341 373 10627 2953 133 1278 18521 1089
shrinkage=0.05


end of trees

feature importances:
H25_lhrate=170
H25_age=165
H25_a1c=108
H25_bmi=96
H25_sbp=68
H25_sex=67
H25_dbp=61
H25_is_medicine=33
H25_ht=7

parameters:
[boosting: gbdt]
[objective: binary]
[metric: binary]
[tree_learner: serial]
[device_type: cpu]
[data: ]
[valid: ]
[num_iterations: 100]
[learning_rate: 0.05]
[num_leaves: 32]
[num_threads: 0]
[max_depth: -1]
[min_data_in_leaf: 20]
[min_sum_hessian_in_leaf: 1]
[bagging_fraction: 0.4]
[bagging_freq: 0]
[bagging_seed: 3]
[feature_fraction: 0.8]
[feature_fraction_seed: 2]
[early_stopping_round: 0]
[max_delta_step: 0]
[lambda_l1: 0]
[lambda_l2: 1]
[min_gain_to_split: 0]
[drop_rate: 0.1]
[max_drop: 50]
[skip_drop: 0.5]
[xgboost_dart_mode: 0]
[uniform_drop: 0]
[drop_seed: 4]
[top_rate: 0.2]
[other_rate: 0.1]
[min_data_per_group: 100]
[max_cat_threshold: 32]
[cat_l2: 10]
[cat_smooth: 10]
[max_cat_to_onehot: 4]
[top_k: 20]
[monotone_constraints: ]
[feature_contri: ]
[forcedsplits_filename: ]
[refit_decay_rate: 0.9]
[verbosity: 0]
[max_bin: 255]
[min_data_in_bin: 3]
[bin_construct_sample_cnt: 200000]
[histogram_pool_size: -1]
[data_random_seed: 1]
[output_model: LightGBM_model.txt]
[snapshot_freq: -1]
[input_model: ]
[output_result: LightGBM_predict_result.txt]
[initscore_filename: ]
[valid_data_initscores: ]
[pre_partition: 0]
[enable_bundle: 1]
[max_conflict_rate: 0]
[is_enable_sparse: 1]
[sparse_threshold: 0.8]
[use_missing: 1]
[zero_as_missing: 0]
[two_round: 0]
[save_binary: 0]
[enable_load_from_binary_file: 1]
[header: 0]
[label_column: ]
[weight_column: ]
[group_column: ]
[ignore_column: ]
[categorical_feature: ]
[predict_raw_score: 0]
[predict_leaf_index: 0]
[predict_contrib: 0]
[num_iteration_predict: -1]
[pred_early_stop: 0]
[pred_early_stop_freq: 10]
[pred_early_stop_margin: 10]
[convert_model_language: ]
[convert_model: gbdt_prediction.cpp]
[num_class: 1]
[is_unbalance: 0]
[scale_pos_weight: 1]
[sigmoid: 1]
[boost_from_average: 1]
[reg_sqrt: 0]
[alpha: 0.9]
[fair_c: 1]
[poisson_max_delta_step: 0.7]
[tweedie_variance_power: 1.5]
[max_position: 20]
[label_gain: ]
[metric_freq: 1]
[is_provide_training_metric: 0]
[eval_at: ]
[num_machines: 1]
[local_listen_port: 12400]
[time_out: 120]
[machine_list_filename: ]
[machines: ]
[gpu_platform_id: -1]
[gpu_device_id: -1]
[gpu_use_dp: 0]

end of parameters

pandas_categorical:[]
