tree
version=v2
num_class=1
num_tree_per_iteration=1
label_index=0
max_feature_idx=9
objective=binary sigmoid:1
feature_names=H25_age H25_sex H25_bmi H25_dbp H25_sbp H25_lhrate H25_a1c H25_ht H25_dm H25_is_medicine
feature_infos=[18:74] [1:2] [0:54.899999999999999] [0:169] [0:238] [0.097560975609756101:7.8064516129032269] [3:14.800000000000001] [0:1] [0:1] [0:2]
tree_sizes=2550 2595 2591 2611 2619 2605 2607 2617 2619 2633 2606 2637 2636 2632 2634 2633 2631 2636 2625 2631 2638 2633 2622 2624 2632

Tree=0
num_leaves=32
num_cat=0
split_feature=5 0 5 6 0 5 5 0 0 6 0 6 3 6 0 9 0 0 5 6 5 3 0 6 0 6 2 2 0 0 3
split_gain=1892.69 697.208 424.441 254.429 197.293 162.458 160.556 160.085 90.2993 80.1241 61.5792 55.0081 51.3901 48.7211 48.0363 42.477 38.5075 37.6865 35.101 35.0795 34.2689 34.0686 32.9265 30.6362 29.8196 29.247 28.3215 26.7886 25.3124 25.1557 23.9562
threshold=2.5855400696864117 49.500000000000007 3.7052139037433163 5.8500000000000005 59.500000000000007 1.9602631578947369 1.8091736694677871 45.500000000000007 43.500000000000007 5.8500000000000005 44.500000000000007 5.8500000000000005 92.833333333333357 5.5500000000000007 48.500000000000007 1.0000000180025095e-35 55.500000000000007 34.500000000000007 4.3363095238095246 5.9500000000000011 2.8086670838548189 71.833333333333357 45.500000000000007 6.1500000000000012 52.500000000000007 6.5500000000000007 23.150000000000002 25.250000000000004 38.500000000000007 55.500000000000007 96.166666666666671
decision_type=10 2 10 10 2 10 8 2 2 10 2 10 10 10 2 2 2 2 10 10 10 10 2 10 2 10 10 10 2 2 10
left_child=1 5 3 7 6 22 11 17 21 27 28 29 14 -8 23 16 -9 -2 25 -12 -19 -4 -1 -5 -13 -10 -26 -6 -7 -3 -22
right_child=2 4 8 12 9 10 13 15 18 -11 19 24 -14 -15 -16 -17 -18 20 -20 -21 30 -23 -24 -25 26 -27 -28 -29 -30 -31 -32
leaf_value=-2.581109524383375 -2.5775314643727363 -2.5583412115391546 -2.5207179382350433 -2.5080899243301911 -2.4906629960451694 -2.5826330875460015 -2.5171639556095471 -2.4928308934663126 -2.4104491451842658 -2.3657667197601988 -2.5371646071330716 -2.5468195500596984 -2.355958099595715 -2.4826319995806028 -2.4175694258949778 -2.4145482647606342 -2.447838164543195 -2.5447186283227508 -2.3268760372098658 -2.4790043534492487 -2.5140963605716711 -2.4343979263384803 -2.5649936250665526 -2.4403200532246023 -2.5143156833521783 -2.2896149722547503 -2.4257050705515004 -2.3984790567316656 -2.5542806611432352 -2.5282641789215776 -2.422950806679868
leaf_count=18065 482 4731 232 564 819 1495 3696 4397 1086 324 4145 314 272 2545 1076 326 842 1645 425 405 3233 654 6440 444 299 86 237 128 5165 1295 96
internal_value=0 -0.365462 1.15379 0.881658 0.346922 -0.652475 0.206174 0.635491 2.60609 1.7805 -0.269649 -0.197856 2.02211 0.650732 1.79356 1.0922 1.00306 0.167976 3.15421 0.0741064 0.267848 1.58275 -0.827335 1.16457 0.707415 2.73764 1.24557 1.18459 -0.504143 -0.32696 0.490863
internal_count=65963 50103 15860 13377 14388 35715 13117 11021 2483 1271 11210 6876 2356 6241 2084 5565 5239 5456 1597 4550 4974 886 24505 1008 850 1172 536 947 6660 6026 3329
shrinkage=1


Tree=1
num_leaves=32
num_cat=0
split_feature=5 0 5 0 0 5 6 5 6 6 0 6 0 5 2 5 6 0 5 0 9 2 6 6 3 9 3 5 6 5 0
split_gain=1650.95 654.918 313.929 217.429 204.649 162.684 131.786 113.237 97.8504 73.5116 63.2272 58.3043 39.0489 35.3222 35.2021 33.9518 40.235 33.2214 33.2202 32.7259 30.7936 30.5443 27.0414 25.593 25.5832 25.2519 23.9959 19.3312 19.2972 18.5 18.4594
threshold=2.5855400696864117 47.500000000000007 3.7052139037433163 55.500000000000007 45.500000000000007 1.8091736694677871 5.8500000000000005 1.9602631578947369 5.8500000000000005 6.1500000000000012 40.500000000000007 6.3500000000000005 34.500000000000007 2.8086670838548189 25.250000000000004 4.5147186147186167 6.1500000000000012 38.500000000000007 3.5463121783876503 55.500000000000007 1.0000000180025095e-35 20.250000000000004 5.5500000000000007 6.7500000000000009 99.833333333333357 1.0000000180025095e-35 86.833333333333357 2.2243138634764255 7.1500000000000012 3.0459830866807613 60.500000000000007
decision_type=10 2 10 2 2 8 10 10 10 10 2 10 2 10 10 10 10 2 10 2 2 10 10 10 10 2 10 10 10 10 2
left_child=1 7 4 5 9 23 14 -1 19 12 -4 17 -2 -14 30 16 26 -9 28 25 21 -8 -7 -3 -15 29 -12 -19 -10 -6 -5
right_child=2 3 10 6 8 22 20 11 18 -11 15 -13 13 24 -16 -17 -18 27 -20 -21 -22 -23 -24 -25 -26 -27 -28 -29 -30 -31 -32
leaf_value=-0.043325452135291542 -0.041914443446611105 -0.021930562950276646 0.046961910135951801 0.012500009885274563 0.028404601060212083 0.010584527009605212 0.025065754252737084 -0.047094925703112689 0.081084602372309952 0.094353641237939864 0.0861734130802458 0.07419330500357689 -0.0082331816289154432 0.022096994525704149 0.074289255504563778 0.17658918795993406 0.18798426204148652 -0.025375422268960446 0.18794956973848492 0.08138734361229305 0.027510993213482528 0.13442166577418435 0.035251521128214419 0.057885643856560823 0.12609402161250047 0.097799083339006734 0.14876784512084701 -0.0061173365065394225 0.14319372810010184 0.053458811223508353 0.049710920963186703
leaf_count=21410 501 7822 463 2333 2546 4389 107 1482 1209 352 1190 229 1765 3563 489 356 195 3683 135 915 153 693 2506 134 68 253 279 4087 219 1851 586
internal_value=0 -0.353099 1.04265 0.196637 0.806068 -0.0281649 0.930646 -0.707919 1.23195 0.296936 2.2198 -0.357006 0.189397 0.28248 0.569956 2.4905 2.23218 -0.406229 2.03467 0.990159 2.12418 2.41028 0.395066 -0.408518 0.493901 0.855494 1.98692 -0.305493 1.83771 0.781791 0.406105
internal_count=65963 50103 15860 19212 13377 14851 4361 30891 7128 6249 2483 9481 5897 5396 3408 2020 1664 9252 1563 5565 953 800 6895 7956 3631 4650 1469 7770 1428 4397 2919
shrinkage=0.05


Tree=2
num_leaves=32
num_cat=0
split_feature=5 0 5 0 0 6 6 6 5 0 6 5 5 5 0 4 0 4 6 5 0 4 6 9 4 3 5 0 2 3 9
split_gain=1455.92 503.504 351.354 219.652 131.867 109.355 105.866 85.7709 69.9426 67.9969 57.3608 56.3599 50.1114 47.3442 45.6036 41.0364 33.8124 31.7831 31.395 28.3907 27.2204 25.3792 22.0725 21.8846 20.847 30.7865 28.7613 20.1598 17.3048 17.1859 16.8175
threshold=2.3006024096385547 52.500000000000007 3.3826658322903631 49.500000000000007 47.500000000000007 5.8500000000000005 5.8500000000000005 6.1500000000000012 1.8091736694677871 38.500000000000007 5.8500000000000005 4.1023024594453172 2.8086670838548189 1.8512075905692931 59.500000000000007 133.83333333333334 44.500000000000007 135.16666666666671 6.4500000000000011 1.7783625730994153 55.500000000000007 147.25000000000003 5.4500000000000011 1.0000000180025095e-35 137.16666666666671 70.583333333333357 2.6459935897435898 45.500000000000007 24.850000000000005 91.833333333333357 1.0000000180025095e-35
decision_type=10 2 10 2 2 10 10 10 8 2 10 10 10 8 2 10 2 10 10 10 2 10 8 2 10 10 10 2 10 10 2
left_child=1 4 3 7 13 14 11 9 -6 -2 24 15 21 -1 19 -4 -17 -14 -15 -3 -7 -11 -16 -10 25 -5 -26 -13 -24 -8 -22
right_child=2 5 6 10 8 20 29 -9 23 12 -12 27 17 18 22 16 -18 -19 -20 -21 30 -23 28 -25 26 -27 -28 -29 -30 -31 -32
leaf_value=-0.043972622754718679 -0.033668714849960028 -0.0069894218156410226 0.038533049627860139 0.065495109698910273 -0.024751642138189426 0.034408345698718312 0.11666209014097079 0.072131671635727312 0.0059077398532839378 -0.0021066536192648321 0.085374938558155603 0.074047680253870568 0.019365207715042521 -0.027607721043505458 0.015514113372288779 0.037682896427335223 0.12171308962886825 0.061845355258365722 0.054632164424703603 0.02175852767258793 0.10155541037724321 0.059023092191898677 0.056633919232462686 0.066141086791202799 0.028591691752707472 0.026522241228712468 0.098175372633923896 0.13284741763975957 0.14755811247017911 0.18742457985045125 0.026238064539310532
leaf_count=19249 1443 3068 2059 941 5755 495 856 655 3087 5910 1361 432 3192 7706 345 278 406 739 154 2065 643 243 388 214 373 2685 472 390 81 151 127
internal_value=0 -0.434335 0.747443 0.501598 -0.630943 0.465352 1.61802 0.204037 -0.229645 0.122193 1.07683 1.30882 0.229272 -0.771856 0.238293 1.03933 1.7982 0.55365 -0.514751 0.0992991 1.41118 0.00939 1.03434 0.203004 0.863694 0.736262 1.38499 2.09331 1.54242 2.5945 1.81018
internal_count=65963 43377 22586 18014 36165 7212 4572 12182 9056 11527 5832 3565 10084 27109 5947 2743 684 3931 7860 5133 1265 6153 814 3301 4471 3626 845 822 469 1007 770
shrinkage=0.05


Tree=3
num_leaves=32
num_cat=0
split_feature=5 0 5 1 0 0 1 5 4 1 5 1 4 0 0 5 9 0 5 5 0 0 0 5 9 5 5 5 9 4 4
split_gain=1299.21 464.913 295.213 229.546 221.353 154.903 97.4943 142.864 91.4973 77.7118 70.1408 62.8133 60.9133 59.6885 47.5194 40.8805 33.7365 29.8928 29.0364 29.0026 26.0979 25.3693 25.2517 24.6117 26.0489 24.565 23.4785 21.6105 19.0272 18.8288 26.0354
threshold=2.2720779220779228 47.500000000000007 3.2288690476190482 1.5000000000000002 47.500000000000007 55.500000000000007 1.5000000000000002 1.8091736694677871 137.16666666666671 1.5000000000000002 4.1023024594453172 1.5000000000000002 133.83333333333334 38.500000000000007 55.500000000000007 1.8512075905692931 1.0000000180025095e-35 39.500000000000007 2.8263768115942036 2.9059551886792456 60.500000000000007 38.500000000000007 44.500000000000007 1.7783625730994153 1.0000000180025095e-35 1.4861748216106017 2.1094820205479459 2.6597872340425535 1.0000000180025095e-35 122.25000000000001 124.16666666666667
decision_type=10 2 10 2 2 2 2 8 10 2 10 2 10 2 2 8 2 2 10 10 2 2 2 10 2 10 8 10 2 10 10
left_child=1 15 3 8 19 6 23 25 13 10 12 20 17 -2 16 -1 18 -4 -15 -5 -7 -12 -14 -3 -25 -8 -9 -10 -17 -16 -31
right_child=2 5 9 4 -6 11 7 26 27 -11 21 -13 22 14 29 28 -18 -19 -20 -21 -22 -23 -24 24 -26 -27 -28 -29 -30 30 -32
leaf_value=-0.043441238494885945 -0.041898201446096628 -0.029959752095332429 -0.012229796707468975 0.0042597000081396842 0.12121853549926723 0.011066505647776545 -0.01874670076603191 0.052153989285130625 0.024602693396669657 0.13279938630417221 -0.0026171204770061088 0.072825860780406773 0.04570707295273712 -0.0059240768233651568 0.016779662001119338 -0.027763691500329132 0.048837237452285964 0.042418904319309086 0.015863734523506812 0.071415958751226305 0.057589177590196439 0.10487435667850416 0.10012541163622733 -0.013452700285211519 0.042812987882340642 0.016043542647582839 0.11172810777256713 0.060140325397841081 0.026866530452522339 0.14827784010505887 0.04626015402061201
leaf_count=19249 1002 4407 384 1255 1311 2067 2095 806 1130 487 72 1077 444 6539 493 7176 488 2890 3084 260 453 955 772 3163 293 1240 348 1197 235 85 506
internal_value=0 -0.431627 0.671575 0.412962 1.38048 0.0721548 -0.142986 0.314693 0.223634 1.32542 1.20265 0.7271 0.995526 0.0906104 0.163949 -0.768464 0.0793976 0.730143 0.0274465 0.34307 0.407289 1.96723 1.64522 -0.399987 -0.166181 -0.115594 1.42668 0.878872 -0.517635 0.85769 1.27667
internal_count=65963 42609 23354 17350 2826 15949 12352 4489 14524 6004 5517 3597 4490 12197 11195 26660 10111 3274 9623 1515 2520 1027 1216 7863 3456 3335 1154 2327 7411 1084 591
shrinkage=0.05


Tree=4
num_leaves=32
num_cat=0
split_feature=5 5 1 6 5 6 1 4 6 5 5 3 4 6 4 3 1 4 5 4 1 1 8 5 6 5 7 6 5 6 5
split_gain=1161.61 241.613 190.276 168.862 124.132 107.392 90.2216 73.6326 70.8033 39.2504 38.2593 38.1472 35.1419 33.9736 32.2582 30.2939 26.1255 25.0419 24.4242 24.2412 32.1155 23.0848 19.4369 18.6793 24.1502 18.1098 17.7788 17.3445 16.3261 16.5134 15.8326
threshold=2.2720779220779228 3.3826658322903631 1.5000000000000002 5.8500000000000005 1.7005154639175259 5.9500000000000011 1.5000000000000002 137.16666666666671 5.9500000000000011 2.8263768115942036 4.2055052790346918 82.833333333333357 128.83333333333334 6.8500000000000005 138.16666666666671 81.833333333333357 1.5000000000000002 131.83333333333334 2.5963225371120111 121.16666666666667 1.5000000000000002 1.5000000000000002 1.0000000180025095e-35 2.7093841642228744 5.2500000000000009 1.3371439770054874 1.0000000180025095e-35 7.2500000000000009 1.859512061403509 5.5500000000000007 3.9306335204490783
decision_type=10 10 2 10 10 10 2 10 10 10 10 10 10 10 10 10 2 10 10 10 2 2 2 10 10 8 2 10 10 10 10
left_child=3 2 5 4 17 7 11 9 10 -2 15 -6 28 19 23 21 -10 25 -9 -5 -21 -3 -15 -4 -25 -1 -11 -7 -8 -30 -23
right_child=1 8 14 13 6 27 12 18 16 26 -12 -13 -14 22 -16 -17 -18 -19 -20 20 -22 30 -24 24 -26 -27 -28 -29 29 -31 -32
leaf_value=-0.043741501928384427 -0.0075016565648753936 0.025010016338115906 0.042027072201438281 -0.0094209499289161155 -0.028428408051681231 0.043086589531259989 -0.014358028379474683 0.011486128617891169 0.095785115639731452 0.012257546011075125 0.087590807843432872 -0.0026139160529073014 0.046086624948878122 0.088253843332066928 0.11158728044630856 0.066942401621389799 0.19859917189901868 -0.019930697531202829 0.052302534727390264 0.0072344613468726645 0.063704271705581295 0.11065007277676431 0.01915069511065922 0.017478948256697571 0.088009958234688351 -0.031116040943969626 0.074392450209439229 0.087009430809739899 0.0023294844834268048 0.038118378197327822 -0.023462915229383416
leaf_count=9901 7568 1795 1644 1375 8074 1483 1411 806 722 4232 684 2993 840 298 355 1137 67 3978 1271 1152 484 143 259 208 765 9466 131 319 1743 635 24
internal_value=0 0.620051 0.421174 -0.418331 -0.499151 0.256451 -0.232345 0.137843 1.29741 0.0199643 1.08584 -0.425839 0.224984 0.357952 1.25295 0.903555 2.14565 -0.690423 0.756359 0.192078 0.491204 0.628165 1.16931 1.09856 1.484 -0.751663 0.291469 1.03642 0.0585198 0.249662 1.79242
internal_count=65963 23354 18782 42609 39041 15810 15696 14008 4572 11931 3783 11067 4629 3568 2972 3099 789 23345 2077 3011 1636 1962 557 2617 973 19367 4363 1802 3789 2378 167
shrinkage=0.05


Tree=5
num_leaves=32
num_cat=0
split_feature=5 0 0 5 5 0 6 6 0 5 6 0 4 0 4 3 0 5 2 5 9 9 4 2 4 2 9 6 5 6 6
split_gain=1046.9 405.751 237.611 132.048 127.085 89.8706 82.002 61.9458 56.8212 50.9755 48.7836 40.9376 36.598 32.377 32.228 28.4034 24.7266 24.4238 23.6354 22.9411 21.4869 21.0704 20.7785 17.6108 16.5628 16.0259 15.7413 14.7965 14.4244 14.3738 13.2231
threshold=2.1677489177489182 51.500000000000007 45.500000000000007 3.5463121783876503 2.8086670838548189 44.500000000000007 5.8500000000000005 5.5500000000000007 37.500000000000007 1.603610930383865 6.1500000000000012 55.500000000000007 137.83333333333334 59.500000000000007 131.16666666666671 99.833333333333357 38.500000000000007 1.7783625730994153 22.150000000000002 3.7052139037433163 1.0000000180025095e-35 1.0000000180025095e-35 161.33333333333334 27.650000000000002 157.25000000000003 25.350000000000005 1.0000000180025095e-35 6.4500000000000011 2.4621125143513205 5.9500000000000011 5.5500000000000007
decision_type=10 2 2 10 10 2 10 10 2 8 10 2 10 2 10 10 2 10 10 10 2 2 8 8 10 10 2 10 10 10 10
left_child=1 5 4 7 16 27 13 12 -6 -7 15 22 -4 17 29 19 -2 23 -8 26 -11 24 -9 -3 -18 -15 30 -1 -14 -5 -10
right_child=2 6 3 14 8 9 18 11 10 20 -12 -13 28 25 -16 -17 21 -19 -20 -21 -22 -23 -24 -25 -26 -27 -28 -29 -30 -31 -32
leaf_value=-0.043037531132412744 -0.038136881411473027 -0.010813770998092848 0.016538050356624555 0.052683188948262238 -0.026869745514376344 -0.032867170893790758 0.023127745160423763 0.036415846489812408 0.0061790859525650355 -0.010895398252467298 0.088326317398179283 0.073799346831679699 0.020267285076593842 0.03003536905698688 0.10859926149973645 0.10832164287819504 -0.010293824504210854 0.017650326856213896 0.073173500204819525 0.045711899832257936 0.036026193221371648 0.051065175090108633 0.12097998946874773 0.067251760627197302 0.08402204142221889 0.10788324539363202 0.08855889162477909 0.021852419484653437 0.062734149384797822 0.096544642209531614 0.030698416690640828
leaf_count=18632 1218 3684 5974 932 639 6973 477 3725 2264 5962 348 1272 407 632 613 96 5311 1946 787 956 358 189 70 98 50 77 79 126 797 232 1039
internal_value=0 -0.443296 0.527311 0.825809 0.136111 -0.661182 0.317322 0.678572 0.519546 -0.41057 0.641898 0.963611 0.453768 0.126755 1.60905 0.529083 -0.239185 0.0219953 1.10741 0.478797 -0.158269 -0.132989 0.771907 -0.169455 -0.181567 0.828483 0.325527 -0.850409 1.00346 1.26754 0.282167
internal_count=65963 39752 26211 14022 12189 32051 7701 12245 5421 13293 4782 5067 7178 6437 1777 4434 6768 5728 1264 4338 6320 5550 3795 3782 5361 709 3382 18758 1204 1164 3303
shrinkage=0.05


Tree=6
num_leaves=32
num_cat=0
split_feature=5 0 0 1 5 5 1 0 2 0 5 0 0 5 1 5 0 5 5 5 2 0 4 4 4 4 4 0 4 4 2
split_gain=943.413 381.32 201.764 222.473 150.542 112.921 98.4136 64.2286 61.5566 54.3764 52.1806 50.1832 39.5842 34.1355 37.7937 33.6908 33.0936 28.986 28.345 28.0122 27.9436 23.5281 20.2927 20.0079 19.3266 19.1945 18.63 18.2532 17.6926 17.3165 16.1011
threshold=2.1677489177489182 49.500000000000007 45.500000000000007 1.5000000000000002 3.0459830866807613 2.8086670838548189 1.5000000000000002 53.500000000000007 25.250000000000004 44.500000000000007 1.7637626262626265 37.500000000000007 55.500000000000007 1.3591746794871797 1.5000000000000002 3.5463121783876503 55.500000000000007 1.8835271317829461 2.4083069847657375 3.7052139037433163 21.550000000000004 38.500000000000007 131.16666666666671 137.83333333333334 147.25000000000003 136.83333333333334 131.83333333333334 58.500000000000007 122.25000000000001 159.33333333333334 25.450000000000003
decision_type=10 2 2 2 10 10 2 2 10 2 8 2 2 10 2 10 2 10 10 10 10 2 10 10 10 10 10 2 10 10 8
left_child=1 9 5 4 12 21 8 10 16 -1 -8 -7 23 -11 -15 25 -3 -16 -5 26 -9 -2 -17 -4 -23 -6 -13 -10 -14 -21 -12
right_child=2 6 3 18 15 11 7 20 27 13 30 19 28 14 17 22 -18 -19 -20 29 -22 24 -24 -25 -26 -27 -28 -29 -30 -31 -32
leaf_value=-0.041975004906906303 -0.037495857423975917 -0.02363994149298472 0.0015827026763530448 0.055619969331205048 0.029671303238056081 -0.026145523635793911 -0.01271937703438992 0.036261550165371789 0.021406123280362666 -0.041070296344529363 0.067064839790958217 0.013152547508762231 0.010915610454245821 -0.026268680305894299 -0.0086173211949238868 0.055280608456575321 0.0060878392295040688 0.040089080533455543 0.098201908484938052 0.047558060278908493 0.084057160739033243 -0.0088255841563697115 0.091993549058960733 0.027067923718044548 0.045799720418665174 0.066505379963733541 0.040322641098964468 0.080702197998847494 0.050747608023861669 0.16585453810216447 -0.022496362575854533
leaf_count=18758 1218 4194 5324 738 1765 639 1491 986 1034 3182 462 2626 502 4391 1815 1068 1906 611 1482 1053 693 5339 555 1145 211 479 1082 162 964 21 67
internal_value=0 -0.42988 0.490504 0.759007 0.562777 0.128738 0.154627 0.652217 -0.104588 -0.701662 0.161298 0.483829 0.260086 -0.459149 -0.299876 1.06567 -0.267449 0.102934 1.71375 0.594998 1.15438 -0.229619 1.38776 0.130657 -0.126876 0.775465 0.434035 0.645966 0.754737 1.0351 1.09804
internal_count=65963 39752 26211 14022 11802 12189 10995 3699 7296 28757 2020 5421 7935 9999 6817 3867 6100 2426 2220 4782 1679 6768 1623 6469 5550 2244 3708 1196 1466 1074 529
shrinkage=0.05


Tree=7
num_leaves=32
num_cat=0
split_feature=5 0 0 1 5 0 5 1 5 6 1 6 6 5 0 0 6 0 0 5 5 0 4 6 5 9 4 5 0 4 4
split_gain=852.343 347.366 181.078 172.684 132.614 107.842 94.7726 56.7716 58.8761 54.6387 51.0486 44.9586 33.7971 33.3505 32.0087 29.4018 26.2492 26.1489 24.7975 23.9245 21.0653 19.5279 18.9554 18.7029 18.5736 17.4094 17.1453 16.4035 15.7977 15.3121 15.0718
threshold=2.1381962864721489 47.500000000000007 44.500000000000007 1.5000000000000002 3.3545026881720434 55.500000000000007 2.9379807692307698 1.5000000000000002 1.5024752475247527 5.8500000000000005 1.5000000000000002 6.1500000000000012 6.3500000000000005 2.8263768115942036 48.500000000000007 34.500000000000007 5.9500000000000011 38.500000000000007 55.500000000000007 4.5147186147186167 1.5493731620492186 58.500000000000007 126.25000000000001 5.9500000000000011 4.8393734643734652 1.0000000180025095e-35 147.25000000000003 2.6335680751173713 44.500000000000007 143.16666666666671 131.16666666666671
decision_type=10 2 2 2 10 2 10 2 8 10 2 10 10 10 2 2 10 2 2 10 8 2 10 8 10 2 10 10 2 10 10
left_child=1 12 6 4 9 7 17 22 -9 13 16 15 20 18 27 -8 -7 -2 25 -17 -1 24 -3 -12 30 -4 -19 -5 -22 -11 -6
right_child=2 5 3 14 21 10 11 8 -10 29 23 -13 -14 -15 -16 19 -18 26 -20 -21 28 -23 -24 -25 -26 -27 -28 -29 -30 -31 -32
leaf_value=-0.044980467364542358 -0.037103195933264575 -0.029148083983068736 -0.0067944789730838414 0.020731603328101453 0.03762069905776879 0.0033248560530392706 -0.037878004702260798 -0.015155725247758831 0.031108999061386117 0.033083135542083267 0.047364593885750116 0.084139437416295135 0.031467081806942514 0.024414234528045642 0.083103150668949771 0.018251543942448125 0.051103089339546583 -0.0085394046560305411 0.026854068329564246 0.079258900811322572 -0.037038944613201348 0.10795907814048285 -0.0082161908404615284 0.10593028656089548 0.10642490687068268 0.03666165539465676 0.041193304984583762 0.069540859623833176 -0.019180354625074853 0.07328500702888445 0.06371446745086129
leaf_count=12907 1437 3868 5079 537 1539 1848 325 2161 2042 1690 810 251 255 2766 1718 3157 375 5285 926 149 8397 144 3100 175 107 295 213 315 2994 289 809
internal_value=0 -0.42724 0.446223 0.661802 0.499238 0.0283962 0.0594109 -0.17184 0.184801 0.307437 0.583344 0.469695 -0.758622 0.178971 1.42664 0.354788 0.268155 -0.236999 0.0234657 0.441949 -0.77664 1.10113 -0.394726 1.2168 1.02718 -0.0807183 -0.122204 0.844773 -0.642818 0.794922 0.95567
internal_count=65963 38932 27031 16214 13644 14379 10817 11171 4203 11045 3208 3882 24553 9066 2570 3631 2223 6935 6300 3306 24298 2599 6968 985 2455 5374 5498 852 11391 1979 2348
shrinkage=0.05


Tree=8
num_leaves=32
num_cat=0
split_feature=5 0 0 1 5 5 0 6 0 1 6 5 5 1 5 0 9 1 0 0 6 5 5 1 2 6 0 3 4 2 4
split_gain=770.894 332.682 157.929 141.915 114.85 85.8107 71.5477 53.5751 49.5813 42.8314 37.1119 36.0428 29.9784 32.4512 27.0035 26.6352 26.4359 25.7618 25.3654 24.1879 23.1507 22.2431 20.2672 20.0327 20.0023 19.5973 18.356 18.1725 17.6916 17.2678 16.8879
threshold=2.1279323513366069 49.500000000000007 44.500000000000007 1.5000000000000002 3.0459830866807613 2.9379807692307698 55.500000000000007 5.8500000000000005 44.500000000000007 1.5000000000000002 6.1500000000000012 1.7783625730994153 1.3591746794871797 1.5000000000000002 3.5463121783876503 34.500000000000007 1.0000000180025095e-35 1.5000000000000002 38.500000000000007 48.500000000000007 5.9500000000000011 1.8835271317829461 4.0090909090909106 1.5000000000000002 23.650000000000002 5.8500000000000005 55.500000000000007 76.833333333333357 136.83333333333334 21.350000000000005 147.25000000000003
decision_type=10 2 2 2 10 10 2 10 2 2 10 8 10 2 10 2 2 2 2 2 10 10 10 2 10 10 2 10 10 10 10
left_child=1 8 5 4 7 18 11 16 -1 20 15 23 -10 -14 28 -7 26 24 -2 -5 -8 -15 -17 -3 -13 -25 -4 -27 -6 -11 -20
right_child=2 6 3 19 14 10 9 -9 12 29 -12 17 13 21 -16 22 -18 -19 30 -21 -22 -23 -24 25 -26 27 -28 -29 -30 -31 -32
leaf_value=-0.041401032154334431 -0.0366791266837544 -0.02553362724624025 -0.0030478876652912986 0.039054838386119756 0.022919390965482355 -0.037237904377905535 0.003345715057020407 0.037285871052140811 -0.04001509237735839 0.032396088335377382 0.075278876190831706 -0.016721284119408899 -0.025887967795244628 -0.0078319496788431756 0.055866246898021436 0.014392716035185556 0.042788614830222192 0.04280176544351693 -0.0083846387687423855 0.073711789352808033 0.04774466432026777 0.036165384047360874 0.049666422697796961 -0.0070868337533405148 0.024301667420018033 0.0075775562960255201 0.021630569859238506 0.11702635383422498 0.055072518547278217 0.077801993934403027 0.040088462161051656
leaf_count=18303 1458 3088 6257 865 1989 325 1831 1635 3182 524 251 1029 4183 1815 1846 2843 463 621 5374 1741 371 544 463 1797 710 137 1036 74 538 455 215
internal_value=0 -0.4175 0.413453 0.610013 0.462147 0.0524652 0.130667 0.217959 -0.688403 0.552219 0.438187 -0.0980222 -0.449729 -0.294568 0.860766 0.332293 0.0795452 0.269768 -0.230266 1.2787 0.259677 0.0810131 0.412699 -0.301035 0.0139129 0.00636993 0.0210675 1.04037 0.62013 1.11704 -0.118919
internal_count=65963 38664 27299 16370 13764 10929 10637 9391 28027 3181 3882 7456 9724 6542 4373 3631 7756 2360 7047 2606 2202 2359 3306 5096 1739 2008 7293 211 2527 979 5589
shrinkage=0.05


Tree=9
num_leaves=32
num_cat=0
split_feature=0 2 0 2 1 3 1 1 2 0 3 0 0 4 0 0 2 4 2 2 9 9 7 2 8 2 2 4 3 3 4
split_gain=466.983 176.473 126.352 84.1336 64.6549 50.1598 38.2624 36.559 37.9688 34.1034 32.4371 30.3962 26.7002 25.1911 23.2219 21.5294 19.9224 18.8047 17.9416 17.6348 16.9088 16.7643 16.4644 14.9484 13.7506 13.1813 12.6882 12.9474 12.4811 12.3398 12.3292
threshold=45.500000000000007 25.050000000000004 55.500000000000007 23.350000000000005 1.5000000000000002 79.166666666666671 1.5000000000000002 1.5000000000000002 20.950000000000003 37.500000000000007 98.833333333333357 39.500000000000007 52.500000000000007 135.16666666666671 52.500000000000007 59.500000000000007 29.250000000000004 130.25000000000003 20.950000000000003 21.350000000000005 1.0000000180025095e-35 1.0000000180025095e-35 1.0000000180025095e-35 21.550000000000004 1.0000000180025095e-35 25.350000000000005 20.050000000000004 130.25000000000003 93.833333333333357 71.833333333333357 161.33333333333334
decision_type=2 10 2 10 2 10 2 2 10 2 10 2 2 10 2 2 10 10 10 10 2 2 2 10 2 10 10 10 10 10 10
left_child=1 5 3 4 17 11 13 8 -4 -3 21 -1 20 16 30 -10 24 -2 -13 -9 26 29 -21 -7 -5 -15 -6 -28 -27 -11 -8
right_child=2 9 7 6 12 23 14 19 15 10 -12 18 -14 25 -16 -17 -18 -19 -20 22 -22 -23 -24 -25 -26 28 27 -29 -30 -31 -32
leaf_value=-0.043900657284721069 -0.016589582801999955 -0.030442337483195626 -0.0084687085391914625 0.0040933406067056649 -0.0058588681096933218 -0.025793203484090328 0.026670037907840911 0.035010172638327425 0.025506781216195852 -0.011150901657367637 0.07024215709781087 -0.03590593770903644 0.038847136268568297 0.012714805294461846 0.076180040193609105 0.053939984933653241 0.038718313489143813 0.0026406533310423001 -0.019911496355824537 0.075821200765282482 0.075449191362726598 0.041765050887328264 -0.0076142317969863961 -0.0020002790640577077 0.050607841896192753 0.02672251534786689 0.0082485046941811451 0.045426415807171244 0.058628619275137989 0.009487674297789777 0.10351402106020667
leaf_count=7513 7161 981 794 6298 2187 1775 1392 697 2619 1392 226 5725 1089 1057 386 968 560 2512 7350 761 110 395 56 3309 166 1027 1990 374 500 4547 46
internal_value=0 -0.369792 0.282436 0.163717 -0.0319359 -0.552703 0.38319 0.707859 0.54188 0.123609 0.211217 -0.650291 0.286598 0.290828 0.834673 0.678123 0.174107 -0.227541 -0.529556 1.11794 0.148093 0.15346 1.40292 -0.191412 0.112912 0.572926 0.107511 0.294466 0.760015 0.0989053 0.610358
internal_count=65963 33213 32750 26855 15423 25672 11432 5895 4381 7541 6560 20588 5750 9608 1824 3587 7024 9673 13075 1514 4661 6334 817 5084 6464 2584 4551 2364 1527 5939 1438
shrinkage=0.05


Tree=10
num_leaves=32
num_cat=0
split_feature=0 6 2 0 2 1 3 2 0 0 1 0 0 9 2 1 0 6 6 3 2 3 0 6 3 2 3 6 7 3 6
split_gain=425.554 188.06 140.164 65.2112 54.0137 52.3984 41.3553 33.9267 31.8004 29.107 25.1379 26.1208 23.1914 22.4421 22.1169 22.106 24.7839 21.6488 17.7569 16.3295 15.4903 13.9695 13.4977 13.5335 13.4145 12.8618 12.2862 11.9076 11.8729 11.3462 12.3916
threshold=44.500000000000007 5.7500000000000009 25.250000000000004 52.500000000000007 23.250000000000004 1.5000000000000002 79.166666666666671 19.750000000000004 59.500000000000007 37.500000000000007 1.5000000000000002 47.500000000000007 39.500000000000007 1.0000000180025095e-35 20.350000000000005 1.5000000000000002 52.500000000000007 5.9500000000000011 10.750000000000002 99.833333333333357 21.550000000000004 91.833333333333357 56.500000000000007 5.2500000000000009 97.166666666666671 20.650000000000002 105.50000000000001 7.4500000000000011 1.0000000180025095e-35 64.833333333333357 5.0500000000000007
decision_type=2 10 10 2 10 2 10 8 2 2 2 2 2 2 8 2 2 10 10 10 10 10 2 8 8 10 10 8 2 10 8
left_child=2 3 6 4 10 14 12 -3 15 -4 -2 -12 -1 26 -5 18 24 19 21 -11 -14 -9 25 -24 -17 -16 -6 -23 -10 -7 -31
right_child=1 7 9 5 13 29 -8 8 28 17 11 -13 20 -15 22 16 -18 -19 -20 -21 -22 27 23 -25 -26 -27 -28 -29 -30 30 -32
leaf_value=-0.043134839888846428 -0.01747087871987139 -0.0061187395139689488 -0.030328021108819915 -0.020342252957532156 0.0057127105150646049 0.017834218537564707 -0.010839701798330333 0.02273648027426306 0.076473501843891567 0.0017330090139775793 -0.017469703423664665 0.012602599835998358 -0.035289153568606603 0.043145182728029259 0.063240832075104531 0.026413420936875029 0.073286653026365403 0.036488952192771547 0.12523534658230964 0.05891788322726197 -0.019163815046399676 0.039326506903045934 -0.0093001123406026842 0.028608782522375351 0.12275463618429693 0.0022424640014086779 0.074767796110518633 0.1076637199628914 0.0064898246100866157 -0.019982417145931245 0.049641569955803017
leaf_count=7591 7832 655 925 855 7832 556 4411 4152 510 4402 2083 2660 5896 515 118 948 565 664 33 127 5216 520 331 1718 25 3090 62 60 63 74 1474
internal_value=0 0.235564 -0.403159 0.0849536 -0.0359438 0.343358 -0.572914 0.683764 0.743658 0.0919295 -0.209811 0.0174108 -0.666772 0.18226 0.165299 0.666118 1.00376 0.189242 0.551309 0.0821837 -0.543812 0.529028 0.24615 0.45457 0.62558 0.090612 0.129783 0.975229 1.39054 0.786776 0.929418
internal_count=65963 36731 29232 29200 20984 8216 23114 7531 6876 6118 12575 4743 18703 8409 6112 6303 1538 5193 4765 4529 11112 4732 5257 2049 973 3208 7894 580 573 2104 1548
shrinkage=0.05


Tree=11
num_leaves=32
num_cat=0
split_feature=0 2 0 2 1 0 4 3 0 2 1 1 3 4 2 0 2 2 9 0 9 4 3 4 2 2 0 2 0 3 2
split_gain=387.785 132.684 108.17 85.5431 42.6228 38.342 37.0602 33.642 30.9576 28.7101 25.8299 22.6782 22.3697 20.9922 19.4849 19.2633 19.096 17.5258 17.2719 16.8845 16.3824 14.6759 13.1478 12.2304 12.4224 11.9289 10.9293 10.5414 10.5279 10.4581 10.0853
threshold=44.500000000000007 24.350000000000005 55.500000000000007 23.350000000000005 1.5000000000000002 48.500000000000007 161.33333333333334 79.166666666666671 37.500000000000007 25.250000000000004 1.5000000000000002 1.5000000000000002 108.33333333333336 130.25000000000003 18.450000000000003 39.500000000000007 26.350000000000005 20.950000000000003 1.0000000180025095e-35 52.500000000000007 1.0000000180025095e-35 130.25000000000003 71.833333333333357 142.16666666666671 28.250000000000004 20.250000000000004 60.500000000000007 26.750000000000004 59.500000000000007 89.833333333333357 21.650000000000002
decision_type=2 10 2 10 2 2 10 10 2 10 2 2 10 10 10 2 10 10 2 2 2 10 10 10 10 10 2 10 2 10 8
left_child=1 7 3 4 13 21 11 15 -3 10 17 16 22 -2 -7 -1 18 -4 29 -13 28 -6 -10 -18 -25 -17 -19 -24 -11 -5 -9
right_child=2 8 9 6 5 14 -8 30 12 20 -12 19 -14 -15 -16 25 23 26 -20 -21 -22 -23 27 24 -26 -27 -28 -29 -30 -31 -32
leaf_value=-0.043362466266664484 -0.016044690194005808 -0.031356597942669685 -0.0081847565931066329 0.00054069992964509924 -0.013542400530460944 -0.0098739220019327407 0.079164518848351823 -0.025522616966340034 -0.011848103445299652 0.045671130667617438 0.041693092397377389 0.022740981180752871 0.10046215217800657 0.0032951982902195624 0.027139403155505601 -0.038757635185315657 0.016598245534714451 0.015687868280394156 0.03467762207994806 0.060219260930435392 0.0070356285678572928 0.027993087509317782 -0.00069646898141410396 0.070670565030378343 0.02222297871413715 -0.022684753786627064 0.042260369913264303 0.016122780830980836 0.078495998316531701 0.023540548291083624 -0.0031695805988485623
leaf_count=7134 8278 1239 794 5957 2853 614 209 1561 1641 849 1271 1658 50 2801 2800 3629 3177 1997 524 372 187 367 2632 226 333 6628 487 2538 310 667 2180
internal_value=0 -0.390321 0.221863 0.12246 -0.0652784 0.175264 0.325988 -0.59215 0.0111262 0.609259 0.475162 0.298196 0.0993259 -0.217228 0.423562 -0.678893 0.232095 0.304382 0.116865 0.626377 0.988532 -0.166039 0.0749159 0.421478 0.843089 -0.559266 0.432956 0.162853 1.11952 0.061958 -0.234551
internal_count=65963 29232 36731 30836 17713 6634 13123 21132 8100 5895 4549 12914 6861 11079 3414 17391 10884 3278 7148 2030 1346 3220 6811 3736 559 10257 2484 5170 1159 6624 3741
shrinkage=0.05


Tree=12
num_leaves=32
num_cat=0
split_feature=5 5 6 1 5 1 1 5 6 3 3 9 5 2 6 6 3 3 6 7 2 5 9 6 5 2 3 3 6 2 2
split_gain=641.07 129.674 102.007 72.655 70.6713 49.6911 49.4867 46.5557 36.8246 35.1941 31.3515 21.7617 18.7766 18.1801 17.4702 15.8626 15.5696 15.3139 15.1365 15.8912 15.0929 15.7943 13.1413 12.4662 11.886 11.1358 10.7912 9.96726 12.7402 9.92772 9.68962
threshold=2.1279323513366069 2.8086670838548189 5.9500000000000011 1.5000000000000002 1.5493731620492186 1.5000000000000002 1.5000000000000002 3.7052139037433163 5.8500000000000005 76.833333333333357 92.833333333333357 1.0000000180025095e-35 1.8512075905692931 21.950000000000003 5.5500000000000007 6.8500000000000005 61.833333333333336 83.416666666666671 5.5500000000000007 1.0000000180025095e-35 24.350000000000005 2.673273155416013 1.0000000180025095e-35 5.7500000000000009 4.8393734643734652 20.350000000000005 65.833333333333357 76.833333333333357 5.8500000000000005 24.750000000000004 23.750000000000004
decision_type=10 10 10 2 8 2 2 10 10 10 10 2 10 10 10 10 10 10 8 2 8 10 2 10 10 10 10 10 10 10 10
left_child=2 3 4 8 13 9 7 10 11 22 18 17 27 -1 26 25 -5 -2 19 -3 21 -18 -6 -15 -9 -4 -8 -7 -29 -22 -11
right_child=1 6 15 16 5 12 14 24 -10 30 -12 -13 -14 23 -16 -17 20 -19 -20 -21 29 -23 -24 -25 -26 -27 -28 28 -30 -31 -32
leaf_value=-0.037405623962137785 -0.011541407673655016 0.0027671453381178236 -0.021801583935163557 0.0019945845940016237 -0.035552249605873172 -0.014531782257588008 -0.00096391835106033783 0.04023251066117367 0.021710259259826573 -0.018445864751568081 0.051052471056459194 0.030322013143691668 0.014038440134918171 -0.025389319863390564 0.073985433928324684 0.043550243194235332 0.038211707025543357 0.0049983406342250479 0.021763648704322593 0.068381202579637354 -0.032843716360792211 0.091033556558487813 0.036669175981209327 0.012401783571875422 0.075278523664774458 0.015464368653732822 0.048996616506676388 0.0024789990932597887 0.087023859084324473 0.023319124123453314 -0.001438450835802481
leaf_count=13039 7819 2708 374 552 5846 3028 153 2112 1702 3226 627 464 2289 5421 643 480 1429 2653 4654 85 90 160 86 358 200 1320 409 733 43 839 2421
internal_value=0 0.365794 -0.394201 0.131655 -0.457889 -0.274816 0.608403 0.529519 -0.00483286 -0.441473 0.39447 -0.0982054 0.0156483 -0.65252 1.17478 0.34653 0.58908 -0.139737 0.32372 0.112223 0.695277 0.897072 -0.682669 -0.451374 0.881666 0.16854 0.728472 -0.172647 0.20903 0.354405 -0.216807
internal_count=65963 27299 38664 15708 36490 17672 11591 10386 12638 11579 8074 10936 6093 18818 1205 2174 3070 10472 7447 2793 2518 1589 5932 5779 2312 1694 562 3804 776 929 5647
shrinkage=0.05


Tree=13
num_leaves=32
num_cat=0
split_feature=5 0 5 0 1 0 0 5 1 1 5 0 5 1 0 2 3 0 2 9 2 3 0 5 2 3 3 1 0 3 2
split_gain=580.685 262.968 112.438 73.129 81.2657 65.9374 43.3689 37.0386 37.9871 34.4362 33.5928 25.3249 24.4652 23.6641 23.499 21.6288 20.2266 16.6514 15.3643 15.2508 13.4411 12.564 12.3393 12.4946 12.1184 12.073 12.0499 10.4883 11.7122 10.2934 9.91603
threshold=2.1279323513366069 47.500000000000007 2.8263768115942036 47.500000000000007 1.5000000000000002 55.500000000000007 39.500000000000007 1.603610930383865 1.5000000000000002 1.5000000000000002 3.7052139037433163 38.500000000000007 1.5493731620492186 1.5000000000000002 55.500000000000007 26.350000000000005 92.833333333333357 44.500000000000007 24.750000000000004 1.0000000180025095e-35 22.450000000000003 79.833333333333357 60.500000000000007 1.7706625683060111 21.050000000000004 83.416666666666671 61.833333333333336 1.5000000000000002 53.500000000000007 74.833333333333357 25.250000000000004
decision_type=10 2 10 2 2 2 2 8 2 2 10 2 8 2 2 10 10 2 10 2 8 10 2 8 10 10 10 2 2 10 10
left_child=1 12 3 11 14 7 21 27 15 10 16 -2 -1 22 -5 29 -8 -14 -16 25 -21 -4 30 -24 -11 -13 -6 -3 -29 -9 -7
right_child=2 5 6 4 26 13 9 8 -10 24 -12 19 17 -15 18 -17 -18 -19 -20 20 -22 -23 23 -25 -26 -27 -28 28 -30 -31 -32
leaf_value=-0.042619706599507479 -0.035367291119178884 -0.028460723107332078 -0.018523758642853352 0.00029207922587042094 0.013849938521323461 -0.0040436802690480278 0.018752800051698607 -0.031329310492323556 0.024421471879463252 0.019877294007909958 0.043267132240006015 -0.0091227329772603782 -0.033497965586714466 0.039508638662995671 0.011421589850713024 0.028009772079227637 0.047332732977030376 -0.014651650755754914 0.047139369045260122 0.12238113719338123 0.018901008651042189 0.019378392163576626 0.0099187717579045237 0.068253206605127459 0.062955496460302018 0.0090652394984587371 0.054241075864410439 -0.016925354570593239 0.018718315337291763 -0.0072855988108327004 0.028403592825547209
leaf_count=12997 1335 3268 840 4169 199 1519 6442 1127 1609 174 2052 5771 8364 979 814 436 581 3039 472 33 283 417 232 150 838 1691 1188 2190 382 2071 301
internal_value=0 -0.381467 0.342824 0.128335 0.370077 -0.000835367 0.569432 -0.166153 0.0566197 0.627879 0.559006 -0.125608 -0.70715 0.406099 0.149888 -0.186367 0.436992 -0.556944 0.513497 -0.0506178 0.655426 -0.0891144 0.187141 0.690073 1.12037 -0.0923101 0.976056 -0.404549 -0.213248 -0.310321 0.0516864
internal_count=65963 38664 27299 15955 6842 14264 11344 11083 5243 10087 9075 9113 24400 3181 5455 3634 7023 11403 1286 7778 316 1257 2202 382 1012 7462 1387 5840 2572 3198 1820
shrinkage=0.05


Tree=14
num_leaves=32
num_cat=0
split_feature=5 0 5 0 1 0 5 1 0 1 6 6 6 5 1 5 0 6 4 0 0 4 5 6 4 5 4 5 5 4 4
split_gain=526.484 249.525 99.182 76.6822 74.2365 59.1375 33.4685 34.8516 30.6904 28.8918 27.8461 27.1482 26.1492 20.7805 19.4304 16.996 16.1079 15.7815 15.1175 14.869 13.6916 17.2592 13.3958 13.184 13.1691 12.1079 11.8238 11.5805 11.2302 10.7308 10.3355
threshold=2.1279323513366069 47.500000000000007 3.2288690476190482 44.500000000000007 1.5000000000000002 54.500000000000007 1.4861748216106017 1.5000000000000002 37.500000000000007 1.5000000000000002 6.3500000000000005 5.9500000000000011 5.8500000000000005 1.3591746794871797 1.5000000000000002 4.3363095238095246 40.500000000000007 5.6500000000000012 122.25000000000001 44.500000000000007 60.500000000000007 131.83333333333334 2.7663120567375894 5.5500000000000007 146.25000000000003 2.4083069847657375 119.33333333333336 1.3028309409888359 3.0459830866807613 133.83333333333334 122.25000000000001
decision_type=10 2 10 2 2 2 8 2 2 2 10 10 10 8 2 10 2 10 10 2 2 10 10 8 10 10 10 8 10 10 10
left_child=1 10 3 8 11 6 -3 26 -2 20 13 18 15 -1 -14 16 -4 24 28 -15 21 -7 -19 -11 -10 -6 -8 -22 -5 30 -18
right_child=2 5 12 4 25 9 7 -9 17 23 -12 -13 14 19 -16 -17 29 22 -20 -21 27 -23 -24 -25 -26 -27 -28 -29 -30 -31 -32
leaf_value=-0.045351661152919151 -0.037636340006035662 -0.023746276909861246 0.00036149726258630173 -0.0068756603786717056 0.026418350470991322 -0.01255504885956533 -0.027519572351066425 0.01890861422222348 -0.0084566905001806185 0.015459716180605721 0.028059820962237476 0.028917310291090421 0.042865748830693037 -0.03530237469926778 0.096859199674880742 0.050335071072826004 0.030160201905006019 0.00028614714411504325 0.011685585780449424 -0.019347179738367193 -0.020777876101264171 0.019635299713615429 0.035152158313126548 0.048518648867888314 0.035195773213772444 0.048988286313521354 -0.0040763233942161048 0.045487958308644015 0.023692604490130983 0.040305684647282715 0.0096839797596907883
leaf_count=8812 1346 4339 843 3373 989 1502 1374 1925 5478 562 251 1457 1155 11339 119 470 1438 970 5305 3998 84 842 505 703 192 1300 2635 298 380 879 1100
internal_value=0 -0.369218 0.321631 0.192193 0.340634 -0.000922972 -0.181501 -0.00211866 -0.115023 0.333517 -0.694238 0.199914 0.649081 -0.71398 0.985912 0.529714 0.455329 -0.0271836 0.117444 -0.612644 0.108138 -0.0110823 0.30013 0.707875 -0.126784 0.807107 -0.233175 0.640792 -0.063653 0.539456 0.424058
internal_count=65963 38664 27299 21295 12804 14264 10273 5934 8491 3991 24400 10515 6004 24149 1274 4730 4260 7145 9058 15337 2726 2344 1475 1265 5670 2289 4009 382 3753 3417 2538
shrinkage=0.05


Tree=15
num_leaves=32
num_cat=0
split_feature=5 0 5 0 1 0 5 1 0 6 2 5 1 6 6 4 5 1 4 0 0 2 5 2 0 2 6 4 0 6 9
split_gain=477.696 240.012 81.2293 65.018 59.8499 52.3199 32.9031 38.815 32.8646 29.1236 24.591 23.6585 22.955 22.1442 18.3797 16.8127 16.0359 16.0306 14.7775 14.4883 13.3557 13.2458 13.01 12.9593 12.7799 12.7436 11.0387 10.1912 14.7506 10.0172 9.40298
threshold=2.1677489177489182 47.500000000000007 3.2288690476190482 47.500000000000007 1.5000000000000002 54.500000000000007 1.4861748216106017 1.5000000000000002 37.500000000000007 6.3500000000000005 26.350000000000005 1.5493731620492186 1.5000000000000002 5.8500000000000005 6.5500000000000007 117.25000000000001 2.8086670838548189 1.5000000000000002 132.16666666666671 34.500000000000007 55.500000000000007 25.250000000000004 4.5147186147186167 25.050000000000004 44.500000000000007 27.650000000000002 7.5500000000000007 137.83333333333334 60.500000000000007 5.4500000000000011 1.0000000180025095e-35
decision_type=10 2 10 2 2 2 8 2 2 10 10 8 2 10 10 10 10 2 10 2 2 10 10 10 2 10 10 10 2 10 2
left_child=1 9 3 8 15 6 29 10 -2 11 -8 -1 21 18 16 -5 30 -15 19 -4 -17 26 -21 -14 -13 -20 27 28 -7 -3 -10
right_child=2 5 13 4 -6 12 7 -9 14 -11 -12 24 23 17 -16 20 -18 -19 25 22 -22 -23 -24 -25 -26 -27 -28 -29 -30 -31 -32
leaf_value=-0.042016811618279339 -0.036100538319843549 -0.031463962206477861 -0.039000455300551427 -0.0033398528995931872 0.042677389074683547 -0.016152742817672188 -0.017920229194984216 0.019511516728491853 -0.0062652029519215365 0.027518510600721809 0.025971656948812899 -0.032149959690820899 0.024898978359429363 0.03957158838947572 0.03918489708096333 0.010767336643758979 0.011191263941428452 0.087449022638779447 0.046796174512779065 0.01743783902367518 0.029416326305636231 0.029376115377843012 0.052078306083013129 0.068124704049816187 -0.015544887569485908 0.015105859463588917 0.076707836558276607 0.019766129097238339 0.027476686552553743 -0.010288964842156478 0.029169498114019421
leaf_count=12907 1263 2680 164 1780 1599 1613 3740 2013 6979 268 491 8733 1143 1155 289 4037 2785 119 890 3088 1260 463 202 152 3128 386 32 496 234 1659 215
internal_value=0 -0.345559 0.312544 0.190572 0.3872 0.00575345 -0.162542 0.00549985 -0.013768 -0.667303 -0.233775 -0.688602 0.311435 0.603107 0.0445842 0.231057 0.0107319 0.907827 0.493778 0.376505 0.322107 0.115086 0.411922 0.636222 -0.54276 0.749954 -0.00877562 -0.0481997 -0.177319 -0.461035 -0.0960572
internal_count=65963 39752 26211 20207 8676 14716 10583 6244 11531 25036 4231 24768 4133 6004 10268 7077 9979 1274 4730 3454 5297 2838 3290 1295 11861 1276 2375 2343 1847 4339 7194
shrinkage=0.05


Tree=16
num_leaves=32
num_cat=0
split_feature=5 5 1 6 6 6 4 3 5 5 4 1 4 4 6 5 6 3 3 6 2 7 2 6 5 1 6 2 2 4 1
split_gain=436.429 121.401 75.663 68.7558 44.8951 31.0223 28.8846 28.3032 23.2746 22.4557 22.4026 18.5613 19.0787 16.8329 16.3872 14.9253 14.0902 13.1962 13.2069 12.0065 11.7021 11.0398 9.96977 12.5864 9.92607 9.90751 11.9828 9.51739 9.48936 9.42642 9.23785
threshold=1.8512075905692931 2.8086670838548189 1.5000000000000002 5.7500000000000009 5.9500000000000011 6.1500000000000012 131.83333333333334 83.416666666666671 4.5147186147186167 1.2771680782536088 114.25000000000001 1.5000000000000002 133.83333333333334 130.25000000000003 5.6500000000000012 2.2910241657077104 5.2500000000000009 66.833333333333357 75.833333333333357 9.4500000000000011 22.550000000000004 1.0000000180025095e-35 17.050000000000004 5.5500000000000007 2.4083069847657375 1.5000000000000002 5.2500000000000009 24.350000000000005 22.050000000000004 117.25000000000001 1.5000000000000002
decision_type=10 10 2 10 10 10 10 10 10 8 10 2 10 10 8 10 8 10 10 10 10 2 8 8 10 2 10 8 10 10 2
left_child=3 2 4 6 7 8 9 15 11 -1 -5 12 14 22 -3 21 -8 -7 -19 -6 -16 -2 23 -4 -24 -11 -27 -15 -18 -17 -20
right_child=1 5 13 10 19 17 16 -9 -10 25 -12 -13 -14 27 20 29 28 18 30 -21 -22 -23 24 -25 -26 26 -28 -29 -30 -31 -32
leaf_value=-0.040732948619948944 -0.021876913699482053 0.0022465772304168428 0.008756687818955531 -0.02015731946413479 0.017198991320244082 0.096809464719979435 -0.030457291846482788 0.0047941282679820167 0.051676500024941598 -0.030858504480914508 0.014352102654946436 0.036070313037005329 0.02707356409881416 0.050235055813388919 0.038133177097815843 -0.015737191463155466 -0.017338192552828053 0.01013726464588003 0.041712745294066579 0.088287453704803232 0.013860182150302831 0.02353926064540228 0.0076169687580069333 0.16282639630294407 0.026355203610773287 -0.030920967725694384 -0.010873227932823528 0.020758061829704494 0.0056376683342511747 2.2353081902254477e-05 0.088830987901496405
leaf_count=8116 6375 3425 46 1199 1717 75 1345 4434 359 7485 2099 1051 2285 582 680 2432 1449 229 732 51 2684 174 3311 22 1043 2609 3899 546 1844 3594 71
internal_value=0 0.220679 0.0495245 -0.44479 -0.0779906 0.463446 -0.533931 -0.153141 0.400945 -0.609061 0.0736371 0.365406 0.312511 0.395354 0.216186 -0.25794 -0.229477 0.87891 0.790283 0.397807 0.372114 -0.403685 0.284581 1.61684 0.262189 -0.499735 -0.370261 0.728178 -0.0821265 -0.123258 0.945741
internal_count=65963 35918 24327 30045 18777 11591 26747 17009 10484 22109 3298 10125 9074 5550 6789 12575 4638 1107 1032 1768 3364 6549 4422 68 4354 13993 6508 1128 3293 6026 803
shrinkage=0.05


Tree=17
num_leaves=32
num_cat=0
split_feature=5 0 5 0 6 0 6 0 6 5 0 5 9 0 0 4 5 3 4 0 6 4 3 7 0 9 4 5 4 6 0
split_gain=399.104 153.145 108.995 105.663 32.9122 31.4894 28.3344 27.7933 24.0928 20.3734 19.704 19.4446 19.1688 16.5899 13.7535 13.5093 12.5072 11.275 10.8527 12.6795 13.9876 10.7187 10.5366 10.3378 9.56039 9.51963 9.26528 8.54664 8.29782 8.14699 8.04028
threshold=1.8343137254901962 50.500000000000007 2.8086670838548189 44.500000000000007 5.7500000000000009 36.500000000000007 5.5500000000000007 45.500000000000007 6.1500000000000012 3.7052139037433163 37.500000000000007 1.2687369603594931 1.0000000180025095e-35 60.500000000000007 54.500000000000007 132.16666666666671 2.1962535014005611 66.833333333333357 137.83333333333334 39.500000000000007 5.5500000000000007 159.33333333333334 75.833333333333357 1.0000000180025095e-35 52.500000000000007 1.0000000180025095e-35 136.83333333333334 2.3006024096385547 157.25000000000003 8.8500000000000032 59.500000000000007
decision_type=10 2 10 2 10 2 10 2 10 10 2 10 2 2 2 10 10 10 10 2 10 10 10 2 2 2 10 10 8 10 2
left_child=1 7 3 10 14 -4 15 26 9 12 -2 -9 18 29 -3 27 -12 -10 19 -7 -21 24 -19 -15 -11 -13 -1 -5 -18 -8 -6
right_child=2 4 5 6 30 8 13 11 17 21 16 25 -14 23 -16 -17 28 22 -20 20 -22 -23 -24 -25 -26 -27 -28 -29 -30 -31 -32
leaf_value=-0.041001412407010475 -0.039832169555330151 -0.015729555531338701 -0.027185302163677635 -0.0068300114027590418 0.017417339190526335 -0.017196755234378188 0.01568847604637234 -0.039361221157358343 0.088832715243111982 0.025179141398240103 -0.022799601888448956 -0.015876400078528485 0.04860222018268287 0.058707167710568199 0.0045573762604462732 0.014962946953302782 -0.0071245511646300733 0.010478379219963158 0.026690233740689948 0.0066192924728371216 0.023098751008467498 0.086265880812371479 0.043742549121648988 -0.019388630071706003 0.049907761193388279 0.028599518358024281 -0.017595180418861909 0.0063447643043775068 0.049279838004145579 0.068239214825096747 0.0485768744206313
leaf_count=15038 1757 3039 538 3899 1086 490 5190 2318 74 1712 3735 4410 343 269 2144 2346 4539 224 1150 3856 2031 47 798 35 328 190 1098 2953 58 58 210
internal_value=0 -0.438028 0.205088 0.0444642 0.0447668 0.433396 0.208534 -0.660004 0.459441 0.403049 -0.324122 -0.430356 0.318106 0.383139 -0.11603 0.0741628 -0.245877 0.821501 0.279117 0.219375 0.257539 0.636641 0.739255 0.998806 0.597472 -0.271821 -0.785155 -0.0135028 -0.116826 0.33084 0.497877
internal_count=65963 29533 36430 24839 6479 11591 14750 23054 11053 9957 10089 6918 7870 5552 5183 9198 8332 1096 7527 6377 5887 2087 1022 304 2040 4600 16136 6852 4597 5248 1296
shrinkage=0.05


Tree=18
num_leaves=32
num_cat=0
split_feature=5 0 5 0 2 0 0 0 5 0 5 6 6 0 6 4 5 7 4 7 4 6 0 6 6 7 0 4 6 3 4
split_gain=364.997 145.191 96.1676 95.8321 30.8233 28.1881 27.4421 25.7231 20.782 18.9892 18.8317 15.8305 14.8946 13.0959 12.1533 11.9693 11.8229 11.4131 10.9785 10.0984 9.7311 12.0829 11.5215 9.71488 9.71402 12.6646 12.0162 10.0219 9.6404 9.1989 9.17806
threshold=1.8343137254901962 50.500000000000007 2.8086670838548189 44.500000000000007 25.350000000000005 36.500000000000007 45.500000000000007 51.500000000000007 3.7052139037433163 37.500000000000007 1.2687369603594931 5.3500000000000005 6.1500000000000012 56.500000000000007 8.1500000000000004 126.25000000000001 2.1279323513366069 1.0000000180025095e-35 159.33333333333334 1.0000000180025095e-35 137.83333333333334 5.5500000000000007 39.500000000000007 7.4500000000000011 5.5500000000000007 1.0000000180025095e-35 61.500000000000007 117.25000000000001 5.4500000000000011 80.833333333333357 136.83333333333334
decision_type=10 2 10 2 10 2 2 2 10 2 10 10 10 2 10 10 10 2 10 2 10 10 2 8 10 2 2 10 8 10 10
left_child=1 6 3 9 11 -4 30 14 12 -2 -8 -3 17 -6 19 -15 -11 20 -10 -5 21 -7 -23 -13 27 26 -26 28 -9 -28 -1
right_child=2 4 5 7 13 8 10 24 18 16 -12 23 -14 15 -16 -17 -18 -19 -20 -21 -22 22 -24 -25 25 -27 29 -29 -30 -31 -32
leaf_value=-0.040489304475030227 -0.039284401963737357 -0.015466183070603396 -0.026482386070409755 0.00076057427587595259 0.013573345153021013 0.0050515750310087208 -0.03879045165310821 0.012759923191236509 0.030262444932666711 -0.02400594799140654 -0.013072383398322826 0.0034949059095858645 0.034448306137239121 0.10535179446150025 0.059576717825951767 0.033827722235393182 -0.0064933873545838725 0.040234139267019547 0.079040604620815191 0.025921829932599214 0.025360563606781364 -0.031169344864061491 0.02229708842883972 0.070609114243501622 0.023999206426794789 -0.0066474901878502014 0.033542484085894088 0.016981278519879982 -0.02241643687946003 0.09846216696772836 -0.01700421079203062
leaf_count=15038 1757 2619 538 8505 471 4223 2318 437 2320 3102 4600 3113 801 80 74 151 5230 331 62 442 1153 123 2040 45 2191 267 113 2188 465 68 1098
internal_value=0 -0.42506 0.193529 0.0421337 0.0424931 0.405846 -0.646795 0.196574 0.429844 -0.312645 -0.417135 -0.0626639 0.348932 0.690981 0.0640777 1.19829 -0.236236 0.298662 0.643553 0.0478341 0.268869 0.21232 0.396412 0.101866 0.356058 0.483464 0.554391 0.216613 -0.0891116 1.20939 -0.774075
internal_count=65963 29533 36430 24839 6479 11591 23054 14750 11053 10089 6918 5777 8671 702 9021 231 8332 7870 2382 8947 7539 6386 2163 3158 5729 2639 2372 3090 902 181 16136
shrinkage=0.05


Tree=19
num_leaves=32
num_cat=0
split_feature=5 0 0 5 1 5 0 6 2 9 0 0 5 1 5 2 0 5 4 1 6 9 2 2 6 2 2 5 3 6 9
split_gain=333.661 137.958 86.1962 67.7711 61.8185 58.3043 39.3652 32.8455 21.2134 20.0774 19.5254 17.3033 15.9506 15.3905 15.8691 15.065 14.7633 15.8095 14.21 12.7929 12.1759 12.0402 16.4192 17.9549 11.5079 11.3628 10.9539 10.7483 10.6025 10.4898 10.4762
threshold=1.8343137254901962 47.500000000000007 44.500000000000007 2.5266714082503561 1.5000000000000002 3.0459830866807613 56.500000000000007 5.8500000000000005 25.250000000000004 1.0000000180025095e-35 34.500000000000007 37.500000000000007 4.0090909090909106 1.5000000000000002 1.2511261261261264 23.750000000000004 55.500000000000007 2.3006024096385547 133.83333333333334 1.5000000000000002 7.1500000000000012 1.0000000180025095e-35 25.250000000000004 20.350000000000005 5.6500000000000012 22.650000000000002 22.950000000000003 4.8393734643734652 85.833333333333357 6.1500000000000012 1.0000000180025095e-35
decision_type=10 2 2 10 2 10 2 10 10 2 2 2 10 2 8 10 2 10 10 2 10 2 8 10 10 10 8 10 10 8 2
left_child=1 18 3 11 5 7 13 9 19 16 -5 -2 24 15 25 -3 17 28 -1 -8 -9 -16 23 -23 -12 -15 -26 -7 -4 -21 -10
right_child=2 6 4 10 -6 27 8 20 30 -11 12 -13 -14 14 21 -17 -18 -19 -20 29 -22 22 -24 -25 26 -27 -28 -29 -30 -31 -32
leaf_value=-0.038418862692178667 -0.045041934619063237 -0.026809399550277047 -0.0220956899311727 -0.030550265682700237 0.030825994760964349 0.022012965648099257 -0.0044795047417244783 0.014496431337276419 0.065997719035232619 0.025770289950346754 0.0016406610974870315 -0.015000138299005265 0.032767737126541713 -0.030405876112645787 0.0042443708045516466 -0.0010130503852378372 0.010908245236159924 -0.00029904502183381449 -0.016790982233426007 0.0184044752723517 0.044657364171419994 -0.015406635467662473 -0.037513443788054275 0.1708615325531366 0.052275045045532799 0.024573376557126117 0.012737710397727336 0.058168161181865574 0.0022503490955618917 0.086531102147760108 -0.01659123135371118
leaf_count=17006 1418 3758 3304 640 4016 4259 1021 1843 207 647 4375 6416 507 1054 2237 1352 1502 4810 2083 481 332 24 24 40 240 167 1160 114 847 42 37
internal_value=0 -0.412176 0.182674 -0.0660362 0.297757 0.203358 -0.0804547 0.0659147 0.341509 -0.0280385 0.15411 -0.388689 0.198809 -0.222265 -0.0266522 -0.382275 -0.0729995 -0.139721 -0.715218 0.169015 0.398551 0.14911 1.36409 2.26195 0.133368 -0.430864 0.376737 0.470344 -0.331149 0.532055 1.09083
internal_count=65963 29533 36430 14756 21674 17658 10444 13285 1788 11110 6922 7834 6282 8656 3546 5110 10463 8961 19089 1544 2175 2325 88 64 5775 1221 1400 4373 4151 523 244
shrinkage=0.05


Tree=20
num_leaves=32
num_cat=0
split_feature=5 0 5 0 1 0 1 0 0 5 6 0 2 4 6 1 5 2 4 3 1 4 2 9 2 2 2 5 1 4 6
split_gain=304.954 131.827 78 71.5172 47.3056 35.6197 29.9914 32.1685 26.0395 25.3331 21.9862 19.8521 18.1517 17.0451 16.0222 14.3239 14.5722 14.1995 13.9886 12.259 11.3703 11.0899 10.5585 10.4676 13.9363 14.1064 10.3149 10.2007 13.1871 9.96159 9.64065
threshold=1.8343137254901962 47.500000000000007 2.5855400696864117 47.500000000000007 1.5000000000000002 56.500000000000007 1.5000000000000002 36.500000000000007 38.500000000000007 3.5113695090439276 6.3500000000000005 59.500000000000007 25.250000000000004 137.83333333333334 5.6500000000000012 1.5000000000000002 1.2511261261261264 23.750000000000004 133.83333333333334 67.833333333333357 1.5000000000000002 97.250000000000014 22.650000000000002 1.0000000180025095e-35 25.250000000000004 20.350000000000005 20.850000000000005 2.2243138634764255 1.5000000000000002 126.25000000000001 5.8500000000000005
decision_type=10 2 10 2 2 2 2 2 2 10 10 2 10 10 10 2 8 10 10 10 2 10 10 2 8 10 10 10 2 10 8
left_child=1 18 3 8 11 15 7 -4 -2 13 27 19 20 14 -9 17 22 -3 -1 -5 26 -6 -17 -18 25 -25 -7 28 -10 -14 -21
right_child=2 5 6 4 21 12 -8 9 10 -11 -12 -13 29 -15 -16 16 23 -19 -20 30 -22 -23 -24 24 -26 -27 -28 -29 -30 -31 -32
leaf_value=-0.037851969724919082 -0.040122377764989905 -0.026105373066365564 -0.035979987707791303 -0.025609383791007384 -0.010881469527798487 -0.029726785207272795 0.032584564290614536 0.0010014669138226444 -0.024623261105348637 0.024428000985669485 0.037561150214974762 0.031395110632848028 0.087492830597975177 0.022615285009484551 0.01684087175024538 -0.029704737439614159 0.0040188135375296653 -0.00096387294038892055 -0.016209954705072444 -0.0058962061571081643 0.024899173205993629 0.031067886890744974 0.02300103296547943 -0.015048516182781902 -0.037006081002437699 0.14748142672842968 0.0082930824098337557 -0.0037537538470063386 -0.00057284665576694911 0.027202923863583962 0.0091382840038751276
leaf_count=17006 1898 3758 636 690 154 367 1861 6123 4048 3240 252 437 87 1727 2273 1054 2237 1352 2083 3088 523 1935 167 24 24 40 654 4087 1517 157 2464
internal_value=0 -0.399531 0.172451 -0.000326061 0.204619 -0.0767082 0.321543 0.265331 -0.248768 0.288666 -0.174297 0.0338958 0.321396 0.195071 0.123384 -0.213353 -0.0251328 -0.369679 -0.70289 -0.0299192 0.160289 0.564776 -0.417615 0.141365 1.24723 2.01819 -0.0854832 -0.216335 -0.351073 1.00041 0.0237214
internal_count=65963 29533 36430 20570 8768 10444 15860 13999 11802 13363 9904 6679 1788 10123 8396 8656 3546 5110 19089 6242 1544 2089 1221 2325 88 64 1021 9652 5565 244 5552
shrinkage=0.05


Tree=21
num_leaves=32
num_cat=0
split_feature=5 0 0 5 1 5 0 0 1 6 0 0 5 3 4 2 3 5 6 9 1 9 2 2 6 0 2 4 5 6 4
split_gain=279.044 124.924 73.6163 58.2518 48.3123 48.0065 35.6479 28.7858 21.0751 19.8092 18.0223 16.3101 16.2204 16.1306 14.4542 14.2359 13.3525 13.2935 12.0424 11.443 10.7359 16.4656 11.3339 10.629 10.414 9.65825 13.7943 12.0257 9.41582 9.45194 9.27974
threshold=1.8186653771760157 52.500000000000007 44.500000000000007 2.5266714082503561 1.5000000000000002 2.8263768115942036 45.500000000000007 61.500000000000007 1.5000000000000002 5.8500000000000005 37.500000000000007 34.500000000000007 1.1477766798418976 83.833333333333357 86.250000000000014 21.350000000000005 93.833333333333357 3.5463121783876503 5.8500000000000005 1.0000000180025095e-35 1.5000000000000002 1.0000000180025095e-35 25.250000000000004 27.350000000000005 5.8500000000000005 51.500000000000007 25.250000000000004 118.16666666666667 3.2288690476190482 5.5500000000000007 134.83333333333334
decision_type=8 2 2 10 2 10 2 2 2 10 2 2 10 10 8 10 10 10 8 2 2 2 8 8 8 2 8 10 10 10 10
left_child=1 6 3 10 5 7 30 9 15 13 -2 -5 -8 19 -12 -3 28 -7 -10 25 -14 -22 -23 -9 -18 -4 -27 -28 29 -13 -1
right_child=2 8 4 11 -6 17 12 23 18 -11 14 16 20 -15 -16 -17 24 -19 -20 -21 21 22 -24 -25 -26 26 27 -29 -30 -31 -32
leaf_value=-0.039739431032715128 -0.044173651922622861 -0.023345513118182965 -0.017170489622295147 -0.029270416223429754 0.026880125973075653 0.013265443632919533 -0.037541650782877245 0.036251055213858692 0.012624257179700504 0.014025020747561455 0.11854649865189462 -0.0065186896783242399 -0.02117794202134218 0.0065693682653648862 -0.014644818727603757 0.0053012171165886367 0.011300609091871224 0.027312995032904894 0.046461910617587275 0.024076950462427742 -0.0067558678538705208 0.10395148275696205 -0.03274910457763177 0.12731971401729911 0.061019125265844687 -0.0095157427821061409 -0.021057053872725068 0.043147925114487513 0.013948685190445037 0.01266044339896873 -0.017677960523184166
leaf_count=14347 1583 1070 4501 640 4103 4195 1987 216 1248 1813 24 2675 3871 2930 6603 1823 199 1846 284 259 2761 64 22 20 152 1687 115 292 2089 1167 1377
internal_value=0 -0.394351 0.159951 -0.0694013 0.264237 0.180527 -0.578865 0.0266019 0.130784 -0.0062463 -0.368554 0.132718 -0.358515 -0.0852628 -0.277215 -0.0810104 0.17196 0.372963 0.426597 -0.193729 -0.258541 -0.0638707 1.41094 0.998232 0.705107 -0.230442 -0.0333094 0.514351 0.1258 0.00378713 -0.749784
internal_count=65963 28854 37109 15132 21977 17874 24429 11833 4425 11597 8210 6922 8705 9784 6627 2893 6282 6041 1532 6854 6718 2847 86 236 351 6595 2094 407 5931 3842 15724
shrinkage=0.05


Tree=22
num_leaves=32
num_cat=0
split_feature=5 0 0 5 0 1 0 0 9 1 1 5 5 3 5 2 2 1 2 4 2 2 2 9 2 4 2 4 2 2 2
split_gain=255.252 117.308 66.1554 58.5594 49.241 39.8961 34.9094 22.4295 22.387 18.7286 16.9475 17.2411 15.6308 15.4638 14.3375 13.4183 13.2985 11.3999 10.7281 10.5487 10.4212 10.372 10.228 10.0938 11.1285 9.44364 9.4171 9.17927 9.11714 9.10384 8.59335
threshold=1.8186653771760157 52.500000000000007 37.500000000000007 2.8086670838548189 48.500000000000007 1.5000000000000002 45.500000000000007 61.500000000000007 1.0000000180025095e-35 1.5000000000000002 1.5000000000000002 4.1023024594453172 1.1477766798418976 93.833333333333357 2.2243138634764255 24.850000000000005 25.350000000000005 1.5000000000000002 21.850000000000005 157.25000000000003 22.450000000000003 27.150000000000002 23.450000000000003 1.0000000180025095e-35 23.450000000000003 136.83333333333334 30.550000000000004 134.83333333333334 27.350000000000005 27.150000000000002 19.450000000000003
decision_type=8 2 2 8 2 2 2 2 2 2 2 8 10 10 10 10 10 2 10 10 8 10 10 2 8 10 8 10 8 8 8
left_child=1 6 -2 4 8 7 27 15 14 16 11 13 -8 22 17 30 -3 -4 -12 -16 -10 -11 -5 -14 -25 -19 -23 -1 -9 -7 -6
right_child=2 9 3 10 5 29 12 28 20 21 18 -13 23 -15 19 -17 -18 25 -20 -21 -22 26 -24 24 -26 -27 -28 -29 -30 -31 -32
leaf_value=-0.039214928745871992 -0.031487004791490747 -0.010080127118492106 -0.022283723641070119 0.018574649382221545 -0.037520442736755616 0.030150945694113081 -0.036945989360892509 0.033285851792116419 0.084214215462009218 0.016027311267804881 0.0082229643540374427 0.030081080739987744 -0.014636223146609423 0.031072979459232253 -0.0031822784214679532 0.01184222474450531 0.023272382244973897 -0.0072438055975643269 0.039067481483479494 0.054074635538413213 0.017042259273474438 0.10035608657968459 0.0065331816151771088 0.058728782389804772 -0.01379415311998645 0.041800847682495243 -0.0012672394522860548 -0.017086024942481508 0.11548881369894115 0.0021468858485709143 -0.0022854590345132335
leaf_count=14347 2561 2516 4727 2569 253 1913 1987 212 68 1464 269 1016 6405 672 6898 2260 377 1709 849 73 483 44 5626 151 162 145 24 1377 20 233 4553
internal_value=0 -0.382036 0.151219 0.178573 0.0580563 0.223119 -0.565307 0.078415 -0.115547 0.123689 0.341266 0.29651 -0.346403 0.245102 -0.156936 0.034313 -0.0774076 -0.317548 0.642508 -0.0435238 0.527721 0.399357 0.20152 -0.248563 0.433019 -0.0440864 1.36228 -0.738295 0.922059 0.536491 -0.0807975
internal_count=65963 28854 37109 34548 23547 9444 24429 7298 14103 4425 11001 9883 8705 8867 13552 7066 2893 6581 1118 6971 551 1532 8195 6718 313 1854 68 15724 232 2146 4806
shrinkage=0.05


Tree=23
num_leaves=32
num_cat=0
split_feature=0 2 6 0 4 3 0 4 2 2 6 7 0 1 1 0 2 2 1 0 2 6 4 6 2 3 6 3 0 7 6
split_gain=159.577 71.8043 57.038 33.2845 26.151 21.1044 18.2295 18.1291 15.7749 14.077 13.1391 13.1152 11.5279 10.6381 10.3605 12.8119 10.0886 9.84156 14.2185 9.58536 8.03158 7.97648 7.93875 8.84129 7.93835 7.8574 12.6665 10.4765 7.41505 7.12811 7.11369
threshold=44.500000000000007 21.650000000000002 5.5500000000000007 37.500000000000007 132.16666666666671 93.833333333333357 59.500000000000007 134.83333333333334 25.250000000000004 29.050000000000004 5.3500000000000005 1.0000000180025095e-35 47.500000000000007 1.5000000000000002 1.5000000000000002 48.500000000000007 20.950000000000003 22.450000000000003 1.5000000000000002 52.500000000000007 15.15 4.7500000000000009 130.25000000000003 5.4500000000000011 19.750000000000004 79.166666666666671 6.1500000000000012 69.833333333333357 40.500000000000007 1.0000000180025095e-35 5.7500000000000009
decision_type=2 10 10 2 10 10 2 10 10 10 8 2 2 2 2 2 8 10 2 2 8 10 10 10 8 10 10 10 2 2 10
left_child=1 20 4 -3 9 8 7 14 25 12 -6 -8 -2 24 16 -16 -4 18 22 -11 -1 -20 -14 -24 -9 26 -5 -28 -22 -23 -18
right_child=2 3 6 5 10 -7 11 13 -10 19 -12 -13 17 -15 15 -17 30 -19 21 -21 28 29 23 -25 -26 -27 27 -29 -30 -31 -32
leaf_value=0.069913234117360779 -0.012575762839199284 -0.032857560018596681 -0.016025339873995664 -0.017659475854076602 -0.0010672907761373157 0.025037370675118083 0.036043812957594262 -0.044890897129460594 0.0026650365465401781 0.011649378442673691 0.016404451397103354 -0.017238144074538615 -0.017650562656698489 0.037137994557185014 -0.0019134101573308106 0.022033963684742017 -0.0017396326007907824 0.0041112148356373295 -0.031638584456621113 0.072984989205232817 -0.037385759236983347 0.0048740440028687687 0.0010402127752750948 0.096527250226113817 0.017863865667622922 -0.0015961334830528553 0.095465409267553203 -0.013592809600413959 -0.024083300993891523 0.073580617651736444 0.010867297474060756
leaf_count=32 6043 2807 867 6057 2147 676 891 58 4773 273 3540 94 3674 726 1143 1978 2228 5049 196 73 6915 2195 202 30 2248 2348 44 45 5535 29 3047
internal_value=0 -0.281678 0.128435 -0.12751 0.00434934 -0.0618154 0.284345 0.24318 -0.105675 -0.075396 0.203857 0.626098 -0.0940762 0.4391 0.163627 0.316229 0.0818335 -0.0299101 -0.137822 0.563884 -0.614971 0.0683837 -0.303988 0.388995 0.332618 -0.230818 -0.320007 0.895912 -0.623015 0.129012 0.127816
internal_count=65963 29232 36731 16750 23451 13943 13280 12295 13267 17764 5687 985 17418 3032 9263 3121 6142 11375 6326 346 12482 2420 3906 232 2306 8494 6146 89 12450 2224 5275
shrinkage=0.05


Tree=24
num_leaves=32
num_cat=0
split_feature=5 0 5 0 1 0 1 0 0 5 0 3 4 4 6 2 6 4 4 1 0 5 2 5 2 2 2 2 2 6 5
split_gain=227.636 104.67 58.9817 53.5356 36.7638 26.5587 20.735 23.9208 19.5021 17.9166 16.2884 15.6227 13.8813 13.6484 13.406 13.1699 15.1254 12.9041 12.6451 11.9285 10.885 10.8729 10.8301 10.5573 10.5477 8.96535 10.1247 8.68671 8.10034 7.98879 7.85642
threshold=1.8011627906976748 47.500000000000007 2.5855400696864117 44.500000000000007 1.5000000000000002 56.500000000000007 1.5000000000000002 36.500000000000007 38.500000000000007 4.1023024594453172 60.500000000000007 93.833333333333357 120.33333333333336 133.83333333333334 6.7500000000000009 21.350000000000005 5.2500000000000009 170.83333333333334 86.250000000000014 1.5000000000000002 56.500000000000007 1.2511261261261264 17.050000000000004 2.1279323513366069 23.750000000000004 23.650000000000002 21.950000000000003 26.450000000000003 23.350000000000005 5.8500000000000005 1.3517501017501019
decision_type=8 2 10 2 2 2 2 2 2 10 2 10 10 10 10 10 8 8 8 2 2 10 8 8 10 8 10 10 10 8 10
left_child=1 13 3 8 10 14 7 -4 -2 11 12 20 -5 30 17 -7 -17 19 -10 24 -9 28 -6 27 -3 26 -23 -20 -21 -14 -1
right_child=2 5 6 4 22 15 -8 9 18 -11 -12 -13 29 -15 -16 16 -18 -19 23 21 -22 25 -24 -25 -26 -27 -28 -29 -30 -31 -32
leaf_value=-0.04350289914134476 -0.039003919304711317 -0.027363036149763476 -0.033796518850531178 -0.013067074956456301 0.089171243829313573 -0.0045889251488754421 0.026691057800973046 0.0062792015330532108 0.1100945490436776 0.027623083764457403 0.02924836701133593 0.026597419902349304 -0.0039988794841958912 -0.014034017871428165 0.039403104696554524 -0.025418675694101545 0.031924300642104143 0.081009347099301687 -0.027857901079150732 -0.027836800790622857 0.02241010371753431 0.0018401018940554801 0.017926176361458119 -0.0042324386865102764 -0.0037975801635127824 -0.022328860569468319 0.037260397237897001 0.0078297863643703915 0.026368912634057801 0.0092580724050115425 -0.030681786237053279
leaf_count=7891 2136 3539 636 3446 43 752 1861 10566 24 987 328 907 3409 1986 144 153 799 41 2817 1097 903 1491 2995 3566 1192 343 355 422 106 2610 8418
internal_value=0 -0.372603 0.138608 -0.0081672 0.111251 -0.0831586 0.26679 0.220126 -0.314516 0.238717 -0.01734 0.19762 -0.0550629 -0.672569 -0.207673 0.262952 0.489728 -0.23699 -0.211592 -0.252258 0.159658 -0.0781793 0.382713 -0.226504 -0.409146 0.0709518 0.187646 -0.448575 -0.426329 0.044663 -0.732266
internal_count=65963 28307 37656 21796 12831 10012 15860 13999 8965 13363 9793 12376 9465 18295 8308 1704 952 8164 6829 8123 11469 3392 3038 6805 4731 2189 1846 3239 1203 6019 16309
shrinkage=0.05


end of trees

feature importances:
H25_age=174
H25_lhrate=151
H25_a1c=106
H25_bmi=98
H25_sbp=80
H25_sex=70
H25_dbp=51
H25_is_medicine=32
H25_ht=11
H25_dm=2

parameters:
[boosting: gbdt]
[objective: binary]
[metric: binary]
[tree_learner: serial]
[device_type: cpu]
[data: ]
[valid: ]
[num_iterations: 100]
[learning_rate: 0.05]
[num_leaves: 32]
[num_threads: 0]
[max_depth: -1]
[min_data_in_leaf: 20]
[min_sum_hessian_in_leaf: 1]
[bagging_fraction: 0.4]
[bagging_freq: 0]
[bagging_seed: 3]
[feature_fraction: 0.8]
[feature_fraction_seed: 2]
[early_stopping_round: 0]
[max_delta_step: 0]
[lambda_l1: 0]
[lambda_l2: 1]
[min_gain_to_split: 0]
[drop_rate: 0.1]
[max_drop: 50]
[skip_drop: 0.5]
[xgboost_dart_mode: 0]
[uniform_drop: 0]
[drop_seed: 4]
[top_rate: 0.2]
[other_rate: 0.1]
[min_data_per_group: 100]
[max_cat_threshold: 32]
[cat_l2: 10]
[cat_smooth: 10]
[max_cat_to_onehot: 4]
[top_k: 20]
[monotone_constraints: ]
[feature_contri: ]
[forcedsplits_filename: ]
[refit_decay_rate: 0.9]
[verbosity: 0]
[max_bin: 255]
[min_data_in_bin: 3]
[bin_construct_sample_cnt: 200000]
[histogram_pool_size: -1]
[data_random_seed: 1]
[output_model: LightGBM_model.txt]
[snapshot_freq: -1]
[input_model: ]
[output_result: LightGBM_predict_result.txt]
[initscore_filename: ]
[valid_data_initscores: ]
[pre_partition: 0]
[enable_bundle: 1]
[max_conflict_rate: 0]
[is_enable_sparse: 1]
[sparse_threshold: 0.8]
[use_missing: 1]
[zero_as_missing: 0]
[two_round: 0]
[save_binary: 0]
[enable_load_from_binary_file: 1]
[header: 0]
[label_column: ]
[weight_column: ]
[group_column: ]
[ignore_column: ]
[categorical_feature: ]
[predict_raw_score: 0]
[predict_leaf_index: 0]
[predict_contrib: 0]
[num_iteration_predict: -1]
[pred_early_stop: 0]
[pred_early_stop_freq: 10]
[pred_early_stop_margin: 10]
[convert_model_language: ]
[convert_model: gbdt_prediction.cpp]
[num_class: 1]
[is_unbalance: 0]
[scale_pos_weight: 1]
[sigmoid: 1]
[boost_from_average: 1]
[reg_sqrt: 0]
[alpha: 0.9]
[fair_c: 1]
[poisson_max_delta_step: 0.7]
[tweedie_variance_power: 1.5]
[max_position: 20]
[label_gain: ]
[metric_freq: 1]
[is_provide_training_metric: 0]
[eval_at: ]
[num_machines: 1]
[local_listen_port: 12400]
[time_out: 120]
[machine_list_filename: ]
[machines: ]
[gpu_platform_id: -1]
[gpu_device_id: -1]
[gpu_use_dp: 0]

end of parameters

pandas_categorical:[]
