tree
version=v2
num_class=1
num_tree_per_iteration=1
label_index=0
max_feature_idx=8
objective=binary sigmoid:1
feature_names=H25_age H25_sex H25_bmi H25_dbp H25_sbp H25_lhrate H25_a1c H25_ht H25_dm
feature_infos=[18:74] [1:2] [0:54.899999999999999] [0:169] [0:238] [0.29756097560975608:8.405882352941175] [3:15.5] [0:1] [0:1]
tree_sizes=715 724 728 742 745 732 740 737 743 738 739 737 740 741 739 740 745 740 747 744 739 741 741 744 733

Tree=0
num_leaves=8
num_cat=0
split_feature=5 0 6 0 5 6 5
split_gain=721.408 164.614 145.445 103.472 54.6526 58.4626 51.0111
threshold=3.02404540763674 49.500000000000007 6.1500000000000012 44.500000000000007 2.1822994987468678 6.5500000000000016 2.0011627906976748
decision_type=10 2 10 2 10 10 8
left_child=1 4 3 -2 -1 -6 -3
right_child=2 6 -4 -5 5 -7 -8
leaf_value=-4.0753440646290757 -4.0066730736877156 -4.04219786604048 -3.8440876471437178 -3.9292092615059859 -4.050058258793138 -3.9105983098925212 -3.9966068315928127
leaf_count=25729 4869 6522 1645 5292 13644 396 7867
internal_value=0 -0.373771 1.708 1.35137 -0.627125 -0.242 0.326164
internal_count=65964 54158 11806 10161 39769 14040 14389
shrinkage=1


Tree=1
num_leaves=8
num_cat=0
split_feature=6 0 4 3 3 3 6
split_gain=292.707 171.565 60.3312 42.8531 41.0033 27.4586 28.9789
threshold=6.1500000000000012 44.500000000000007 137.16666666666671 91.833333333333357 95.833333333333357 101.25000000000001 5.5500000000000016
decision_type=10 2 8 10 10 8 8
left_child=1 4 -3 -2 -1 -4 -7
right_child=3 2 5 -5 -6 6 -8
leaf_value=-0.029854903255703526 0.070109167206672998 0.005489487991556647 0.042119740880297574 0.17444419637391095 0.0685435951479198 0.0033853417139171511 0.20347138892087546
leaf_count=30710 4523 25102 4037 584 585 156 267
internal_value=0 -0.154917 0.256169 1.68063 -0.557324 1.06069 2.79149
internal_count=65964 60857 29562 5107 31295 4460 423
shrinkage=0.05


Tree=2
num_leaves=8
num_cat=0
split_feature=5 0 5 0 5 5 4
split_gain=596.404 144.523 88.1018 59.3503 50.9233 43.9934 42.7788
threshold=3.02404540763674 48.500000000000007 3.9625313283208023 44.500000000000007 2.0091736694677871 2.1822994987468678 136.16666666666671
decision_type=10 2 10 2 8 10 10
left_child=1 5 3 -2 -3 -1 -4
right_child=2 4 6 -5 -6 -7 -8
leaf_value=-0.041741451975625975 0.022366983209772456 -0.012122170264798369 0.10521460889446399 0.0813499203745085 0.029663903633177391 -0.013769084588199913 0.22996916387264635
leaf_count=24426 4226 7666 1888 5225 8930 13136 467
internal_value=0 -0.360437 1.46643 1.1385 0.217352 -0.635421 2.71659
internal_count=65964 54158 11806 9451 16596 37562 2355
shrinkage=0.05


Tree=3
num_leaves=8
num_cat=0
split_feature=6 0 2 2 4 2 7
split_gain=229.752 134.229 68.4183 64.0617 40.1211 34.76 34.8565
threshold=6.0500000000000016 45.500000000000007 26.550000000000004 23.150000000000002 130.83333333333334 22.050000000000004 1.0000000180025095e-35
decision_type=10 2 10 8 10 8 2
left_child=1 3 5 -1 -2 -3 -7
right_child=4 2 -4 -5 -6 6 -8
leaf_value=-0.03907839671874707 0.037282485150367514 -0.011504501012529752 0.065178280996579657 -0.0040993408062199475 0.092985941495571767 0.012989926893659954 0.097036995341456975
leaf_count=20777 4220 10473 2746 13175 2695 11213 665
internal_value=0 -0.169544 0.235903 -0.502291 1.20879 0.0928529 0.363446
internal_count=65964 59049 25097 33952 6915 22351 11878
shrinkage=0.05


Tree=4
num_leaves=8
num_cat=0
split_feature=5 7 5 5 6 6 6
split_gain=494.469 90.2171 77.2617 67.1759 41.3949 31.2489 25.2723
threshold=2.8526175687666377 1.0000000180025095e-35 3.7392307692307698 2.0091736694677871 5.7500000000000009 7.6500000000000012 6.0500000000000016
decision_type=10 2 10 10 10 10 10
left_child=3 2 5 6 -5 -2 -1
right_child=1 -3 -4 4 -6 -7 -8
leaf_value=-0.036306346150735247 0.028911761495362256 0.17018328051821716 0.091678911277001562 -0.015574640989014087 0.019729075248447393 0.14746110167684229 0.0094532095853784998
leaf_count=26746 10607 687 3529 15835 6588 198 1774
internal_value=0 1.10186 0.965835 -0.397846 -0.0903985 0.646803 -0.660278
internal_count=65964 15021 14334 50943 22423 10805 28520
shrinkage=0.05


Tree=5
num_leaves=8
num_cat=0
split_feature=5 0 0 5 5 1 7
split_gain=431.854 109.909 74.2023 44.4594 42.8797 30.9829 32.1702
threshold=2.7690981432360755 49.500000000000007 44.500000000000007 3.9625313283208023 3.4386128364389239 1.5000000000000002 1.0000000180025095e-35
decision_type=10 2 2 10 10 2 2
left_child=1 -1 4 5 -2 6 -4
right_child=2 -3 3 -5 -6 -7 -8
leaf_value=-0.032572401373739367 -0.0047971909136682719 0.0084451719451250698 0.039724464875895149 0.11997823259723034 0.051042220034726783 0.11403300671045491 0.12337297043390234
leaf_count=36334 4712 12882 6574 1232 2859 905 466
internal_value=0 -0.411077 0.931202 1.31606 0.36797 1.10325 0.940251
internal_count=65964 49216 16748 9177 7571 7945 7040
shrinkage=0.05


Tree=6
num_leaves=8
num_cat=0
split_feature=5 0 0 5 6 5 5
split_gain=381.625 102.661 64.8441 56.3889 27.5586 27.2006 24.9877
threshold=2.7359730848861292 49.500000000000007 37.500000000000007 3.8436507936507947 7.6500000000000012 2.1822994987468678 3.117237442922375
decision_type=10 2 2 10 10 10 10
left_child=1 5 -2 4 6 -1 -4
right_child=2 -3 3 -5 -6 -7 -8
leaf_value=-0.039964679967233852 -0.020162042742607633 0.0075555346243302724 0.017214924250198198 0.088572975263984693 0.12558762231057882 -0.015184254404096318 0.048684075369022965
leaf_count=25729 2072 12657 6138 2647 273 10088 6360
internal_value=0 -0.409497 0.826097 0.96682 0.752428 -0.650351 0.689825
internal_count=65964 48474 17490 15418 12771 35817 12498
shrinkage=0.05


Tree=7
num_leaves=8
num_cat=0
split_feature=5 0 4 5 0 1 6
split_gain=338.227 90.2593 62.0898 40.2734 40.8457 30.2142 26.025
threshold=2.7034246575342471 48.500000000000007 137.83333333333334 4.3809090909090918 44.500000000000007 1.5000000000000002 5.7500000000000009
decision_type=10 2 10 10 2 2 10
left_child=1 -1 3 4 -2 -6 -3
right_child=2 6 -4 -5 5 -7 -8
leaf_value=-0.033216456445987717 0.00032638991665507699 -0.0090706600285636423 0.077919176036469154 0.090910485746350897 0.029710711447193019 0.093038560276122229 0.023537173797016368
leaf_count=33388 6749 9081 2990 819 6786 879 5272
internal_value=0 -0.40713 0.736416 0.544921 0.445898 0.752083 0.0717998
internal_count=65964 47741 18223 15233 14414 7665 14353
shrinkage=0.05


Tree=8
num_leaves=8
num_cat=0
split_feature=5 7 5 5 6 6 6
split_gain=300.821 51.6289 50.8221 41.4973 28.388 23.9053 22.9525
threshold=2.7359730848861292 1.0000000180025095e-35 2.0091736694677871 3.7392307692307698 7.6500000000000012 6.0500000000000016 5.7500000000000009
decision_type=10 2 10 10 10 10 10
left_child=2 3 5 4 -2 -1 -4
right_child=1 -3 6 -5 -6 -7 -8
leaf_value=-0.034579489101095227 0.017007831975625193 0.1038458648611038 -0.013672258775580213 0.057736128832890123 0.11115855832089246 0.010407775337423642 0.014643900574353233
leaf_count=26746 12932 804 14173 3529 225 1774 5781
internal_value=0 0.692434 -0.385327 0.597217 0.397412 -0.621064 -0.0900975
internal_count=65964 17490 48474 16686 13157 28520 19954
shrinkage=0.05


Tree=9
num_leaves=8
num_cat=0
split_feature=5 0 0 4 5 2 2
split_gain=268.517 85.9894 50.4224 40.1929 30.4702 24.579 22.5147
threshold=2.7034246575342471 48.500000000000007 37.500000000000007 137.83333333333334 3.1639610389610398 24.850000000000005 33.550000000000004
decision_type=10 2 2 10 10 10 10
left_child=1 -1 -2 4 6 -3 -4
right_child=2 5 3 -5 -6 -7 -8
leaf_value=-0.032213619230949862 -0.021805140865171321 -0.0040329451033887798 0.0063531079705889939 0.068706092080314141 0.041485112208380304 0.033569887338539627 0.15213346669014571
leaf_count=33388 2156 11496 6215 2754 7025 2857 73
internal_value=0 -0.382806 0.622068 0.73294 0.567785 0.0835471 0.189812
internal_count=65964 47741 18223 16067 13313 14353 6288
shrinkage=0.05


Tree=10
num_leaves=8
num_cat=0
split_feature=0 2 2 2 4 3 0
split_gain=138.801 63.5479 62.8867 36.2329 30.8188 24.5704 15.4986
threshold=44.500000000000007 31.050000000000004 22.050000000000004 21.650000000000002 135.83333333333334 95.833333333333357 58.500000000000007
decision_type=2 10 8 8 8 10 2
left_child=1 3 6 -1 -4 -5 -2
right_child=2 -3 4 5 -6 -7 -8
leaf_value=-0.042459584085687056 -0.011140223742376196 0.05870582733736484 0.017478993841527145 -0.01636029800814838 0.047294161812438597 0.060974144453606771 0.037139151226221655
leaf_count=13684 12123 1092 15279 17314 5087 477 908
internal_value=0 -0.411279 0.297244 -0.493893 0.516459 -0.269654 -0.14307
internal_count=65964 32567 33397 31475 20366 17791 13031
shrinkage=0.05


Tree=11
num_leaves=8
num_cat=0
split_feature=0 2 2 4 2 3 0
split_gain=126.098 57.7083 54.9388 25.8802 24.187 19.752 14.0066
threshold=44.500000000000007 25.350000000000005 22.050000000000004 137.16666666666671 31.050000000000004 91.833333333333357 57.500000000000007
decision_type=2 10 8 8 10 10 2
left_child=1 5 6 -4 -3 -1 -2
right_child=2 4 3 -5 -6 -7 -8
leaf_value=-0.032308885668862683 -0.011432099268380147 -0.0017701312216569097 0.017171169551043457 0.045687642575483731 0.052906417327191618 0.039982807127264 0.028223371850812518
leaf_count=25310 11776 5630 16245 4121 1092 535 1255
internal_value=0 -0.398947 0.278264 0.478549 0.188652 -0.606918 -0.136852
internal_count=65964 32567 33397 20366 6722 25845 13031
shrinkage=0.05


Tree=12
num_leaves=8
num_cat=0
split_feature=5 0 0 5 5 0 1
split_gain=223.49 73.0624 40.1883 30.258 27.6446 16.4428 19.3168
threshold=2.7034246575342471 49.500000000000007 36.500000000000007 3.8436507936507947 2.1822994987468678 44.500000000000007 1.5000000000000002
decision_type=10 2 2 10 10 2 2
left_child=1 4 -2 5 -1 -4 -7
right_child=2 -3 3 -5 -6 6 -8
leaf_value=-0.037961445824144763 -0.024101428064889522 0.0048256441551635656 0.0074027347736210702 0.057236538445579299 -0.011091269449914978 0.026014179197497374 0.070078868809481401
leaf_count=25729 1920 12426 5209 2687 9586 7404 1003
internal_value=0 -0.363335 0.545846 0.632621 -0.595486 0.486844 0.637943
internal_count=65964 47741 18223 16303 35315 13616 8407
shrinkage=0.05


Tree=13
num_leaves=8
num_cat=0
split_feature=5 0 0 5 6 2 7
split_gain=201.702 65.2373 48.6541 42.13 23.2403 21.7193 16.9519
threshold=2.4323504983388715 48.500000000000007 36.500000000000007 3.1009803921568633 7.5500000000000007 24.850000000000005 1.0000000180025095e-35
decision_type=10 2 2 10 10 10 2
left_child=1 -1 -2 4 -4 -3 -5
right_child=2 5 3 6 -6 -7 -8
leaf_value=-0.034648528571138308 -0.029501336878120038 -0.0076401925846352045 0.0071739194955074128 0.034747057705488506 0.097267297609625866 0.031715952386527614 0.082978864799402099
leaf_count=29071 2660 9902 12511 9049 206 2106 459
internal_value=0 -0.42768 0.417046 0.501731 0.198217 0.00855277 0.7678
internal_count=65964 41079 24885 22225 12717 12008 9508
shrinkage=0.05


Tree=14
num_leaves=8
num_cat=0
split_feature=5 0 0 5 6 2 6
split_gain=182.417 62.2645 43.369 35.4809 24.8253 19.1764 14.368
threshold=2.4323504983388715 48.500000000000007 36.500000000000007 3.117237442922375 7.3500000000000005 24.850000000000005 5.7500000000000009
decision_type=10 2 2 10 10 10 10
left_child=1 -1 -2 4 6 -3 -4
right_child=2 5 3 -5 -6 -7 -8
leaf_value=-0.034079494556767412 -0.028872154753148332 -0.0073152050691278649 -0.0028363336634602636 0.03544033006968255 0.088346682258429204 0.02926132736414427 0.022191604360605133
leaf_count=29071 2660 9902 8489 9296 263 2106 4177
internal_value=0 -0.41522 0.388486 0.465672 0.192302 0.00811443 0.129566
internal_count=65964 41079 24885 22225 12929 12008 12666
shrinkage=0.05


Tree=15
num_leaves=8
num_cat=0
split_feature=5 0 0 5 6 0 5
split_gain=165.053 59.3615 38.7419 30.168 23.1881 17.3879 15.3846
threshold=2.4323504983388715 48.500000000000007 36.500000000000007 3.1639610389610398 7.3500000000000005 62.500000000000007 2.0011627906976748
decision_type=10 2 2 10 10 2 8
left_child=1 -1 -2 4 -4 6 -3
right_child=2 5 3 -5 -6 -7 -8
leaf_value=-0.033501786837517977 -0.028240421314919162 -0.013770001016236204 0.0067980506033304515 0.03331509403333726 0.081341848403238839 0.072124757717201893 0.01386082855859788
leaf_count=29071 2660 7364 13287 8663 275 362 4282
internal_value=0 -0.402882 0.362239 0.432786 0.195837 0.00770264 -0.0486213
internal_count=65964 41079 24885 22225 13562 12008 11646
shrinkage=0.05


Tree=16
num_leaves=8
num_cat=0
split_feature=6 0 2 0 3 6 2
split_gain=91.945 53.2831 42.4211 28.6603 27.6462 24.7951 18.5023
threshold=5.7500000000000009 45.500000000000007 27.150000000000002 57.500000000000007 95.833333333333357 6.5500000000000016 21.250000000000004
decision_type=10 2 8 2 10 10 10
left_child=1 4 -3 5 6 -2 -1
right_child=3 2 -4 -5 -6 -7 -8
leaf_value=-0.042605867115084718 0.0078215741851389332 -0.0031373314458059986 0.051236250929631133 0.054555703982188064 0.052308102367912071 0.04292082951051561 -0.018367669973585667
leaf_count=11169 14575 17372 1559 1848 539 1908 16994
internal_value=0 -0.215267 0.0589547 0.381614 -0.481274 0.279346 -0.529123
internal_count=65964 47633 18931 18331 28702 16483 28163
shrinkage=0.05


Tree=17
num_leaves=8
num_cat=0
split_feature=2 6 3 0 0 2 6
split_gain=82.8287 42.2959 37.1163 35.3295 25.5315 17.5235 15.6624
threshold=22.050000000000004 5.7500000000000009 100.83333333333336 44.500000000000007 45.500000000000007 27.150000000000002 5.5500000000000016
decision_type=8 10 8 2 2 10 8
left_child=3 2 4 -1 -2 -6 -4
right_child=1 -3 6 -5 5 -7 -8
leaf_value=-0.037026503957219868 -0.015520453827898571 0.023531195803182015 0.015489830618021961 -0.0059397727524305487 0.0025493089308395995 0.040107216201660273 0.13499081792733322
leaf_count=15286 14341 12292 225 13031 9236 1337 216
internal_value=0 0.185863 -0.0104881 -0.390221 -0.0579716 0.17262 1.72705
internal_count=65964 37647 25355 28317 24914 10573 441
shrinkage=0.05


Tree=18
num_leaves=8
num_cat=0
split_feature=5 5 6 6 5 1 7
split_gain=139.903 29.7269 27.3018 20.7156 19.9447 13.4416 13.5874
threshold=2.4323504983388715 3.1639610389610398 6.1500000000000012 5.7500000000000009 2.0091736694677871 1.5000000000000002 1.0000000180025095e-35
decision_type=10 10 10 10 10 2 2
left_child=2 3 4 -2 -1 6 -3
right_child=1 5 -4 -5 -6 -7 -8
leaf_value=-0.029969783354418696 -0.0056770538143613401 0.020505270779919264 0.018441001156242313 0.021194018834341292 -0.0084611462599492159 0.060762092058027885 0.062905843840066172
leaf_count=27292 10328 8493 2169 4894 11618 772 398
internal_value=0 0.323546 -0.382502 0.0986167 -0.451467 0.542499 0.474446
internal_count=65964 24885 41079 15222 38910 9663 8891
shrinkage=0.05


Tree=19
num_leaves=8
num_cat=0
split_feature=5 5 6 4 6 5 5
split_gain=126.839 25.8289 25.2471 19.9313 18.9488 13.4871 13.2036
threshold=2.4323504983388715 3.117237442922375 6.1500000000000012 132.83333333333334 5.7500000000000009 2.0186653771760161 4.3809090909090918
decision_type=10 10 10 8 10 10 10
left_child=2 4 3 5 -2 -1 -3
right_child=1 6 -4 -5 -6 -7 -8
leaf_value=-0.033647494714925862 -0.006586508486469262 0.020656586493271623 0.01723210716989004 -0.0011423948136185024 0.019831636447611743 -0.013326477581666295 0.050711454937086356
leaf_count=23397 9875 9349 2169 6425 4651 9088 1010
internal_value=0 0.302851 -0.370499 -0.43876 0.0794066 -0.540842 0.491489
internal_count=65964 24885 41079 38910 14526 32485 10359
shrinkage=0.05


Tree=20
num_leaves=8
num_cat=0
split_feature=5 0 0 5 0 2 6
split_gain=116.892 39.4408 32.6822 32.5281 18.3388 20.1331 12.8188
threshold=2.0091736694677871 36.500000000000007 57.500000000000007 3.1009803921568633 48.500000000000007 26.450000000000003 6.6500000000000012
decision_type=10 2 2 10 2 8 8
left_child=2 -2 -1 4 5 -3 -7
right_child=1 3 -4 -5 -6 6 -8
leaf_value=-0.030054276141888787 -0.030376229452780287 -0.014851789352281618 0.03224471063858491 0.024844629919429095 0.014293002454341189 0.0039745936879553483 0.058294616823048054
leaf_count=27315 4158 11736 1205 9508 9346 1971 725
internal_value=0 0.199138 -0.514325 0.259544 0.0767738 -0.129039 0.424826
internal_count=65964 37444 28520 33286 23778 14432 2696
shrinkage=0.05


Tree=21
num_leaves=8
num_cat=0
split_feature=5 5 6 6 2 3 1
split_gain=107.266 34.6129 23.1503 18.3998 17.5679 17.6871 14.2107
threshold=2.0091736694677871 3.1009803921568633 5.7500000000000009 6.0500000000000016 26.450000000000003 75.833333333333357 1.5000000000000002
decision_type=10 10 10 10 8 10 2
left_child=3 2 4 -1 -2 -6 -7
right_child=1 -3 -4 -5 5 6 -8
leaf_value=-0.029113780799250789 -0.014107609069406861 0.021138582445465785 0.014481682749107503 0.011015721832729815 -0.027296447446490891 0.024586500651578195 0.11983779515056972
leaf_count=26746 16108 10599 8088 1774 873 1581 195
internal_value=0 0.187303 0.00661478 -0.501438 -0.170303 0.378376 0.762788
internal_count=65964 37444 26845 28520 18757 2649 1776
shrinkage=0.05


Tree=22
num_leaves=8
num_cat=0
split_feature=5 0 0 5 0 1 4
split_gain=98.4697 35.124 30.5815 24.4694 17.0173 19.0739 16.0817
threshold=2.0091736694677871 36.500000000000007 57.500000000000007 3.1009803921568633 43.500000000000007 1.5000000000000002 140.83333333333334
decision_type=10 2 2 10 2 2 10
left_child=2 -2 6 4 -3 -6 -1
right_child=1 3 -4 -5 5 -7 -8
leaf_value=-0.032158687295024857 -0.029811642319474002 -0.013846148195909442 0.031124479367771157 0.021574367504422931 0.0031621232163816723 0.033494445643509341 0.013884474877135195
leaf_count=25856 4158 7751 1205 9508 12772 3255 1459
internal_value=0 0.176409 -0.488575 0.231591 0.071708 0.185643 -0.577578
internal_count=65964 37444 28520 33286 23778 16027 27315
shrinkage=0.05


Tree=23
num_leaves=8
num_cat=0
split_feature=5 5 6 6 2 3 4
split_gain=90.3487 26.9384 20.1186 17.3592 16.0905 15.6279 13.1646
threshold=2.0091736694677871 3.1009803921568633 5.7500000000000009 6.0500000000000016 26.450000000000003 75.833333333333357 140.83333333333334
decision_type=10 10 10 10 8 10 8
left_child=3 2 4 6 -2 -6 -1
right_child=1 -3 -4 -5 5 -7 -8
leaf_value=-0.031096907415827785 -0.01355603308500637 0.018423361936619902 0.013259537903319647 0.011223907535940608 -0.026569878290642997 0.035296797898285603 0.010370960437499742
leaf_count=25259 16108 10599 8088 1774 873 1776 1487
internal_value=0 0.166077 0.00517401 -0.475767 -0.161986 0.358121 -0.558237
internal_count=65964 37444 26845 28520 18757 2649 26746
shrinkage=0.05


Tree=24
num_leaves=8
num_cat=0
split_feature=5 0 0 6 5 3 6
split_gain=82.9001 31.3863 28.3968 19.3918 19.0922 24.6764 14.101
threshold=2.0091736694677871 36.500000000000007 50.500000000000007 6.1500000000000012 4.3809090909090918 100.83333333333336 5.1500000000000012
decision_type=10 2 2 10 10 10 10
left_child=2 -2 -1 4 5 -3 -7
right_child=1 3 -4 -5 -6 6 -8
leaf_value=-0.033226274139094902 -0.029235098808639073 0.002907678776589589 0.0010016474969572161 0.027109693713690864 0.043494354968287172 0.15302877424499894 0.036875728061106658
leaf_count=22961 4158 28317 5559 3784 716 72 397
internal_value=0 0.156465 -0.463011 0.207069 0.13271 0.0921085 1.29058
internal_count=65964 37444 28520 33286 29502 28786 469
shrinkage=0.05


end of trees

feature importances:
H25_lhrate=51
H25_age=40
H25_a1c=32
H25_bmi=20
H25_dbp=10
H25_sbp=10
H25_sex=6
H25_ht=6

parameters:
[boosting: gbdt]
[objective: binary]
[metric: binary]
[tree_learner: serial]
[device_type: cpu]
[data: ]
[valid: ]
[num_iterations: 100]
[learning_rate: 0.05]
[num_leaves: 8]
[num_threads: 0]
[max_depth: -1]
[min_data_in_leaf: 20]
[min_sum_hessian_in_leaf: 1]
[bagging_fraction: 0.4]
[bagging_freq: 0]
[bagging_seed: 3]
[feature_fraction: 0.8]
[feature_fraction_seed: 2]
[early_stopping_round: 0]
[max_delta_step: 0]
[lambda_l1: 0]
[lambda_l2: 1]
[min_gain_to_split: 0]
[drop_rate: 0.1]
[max_drop: 50]
[skip_drop: 0.5]
[xgboost_dart_mode: 0]
[uniform_drop: 0]
[drop_seed: 4]
[top_rate: 0.2]
[other_rate: 0.1]
[min_data_per_group: 100]
[max_cat_threshold: 32]
[cat_l2: 10]
[cat_smooth: 10]
[max_cat_to_onehot: 4]
[top_k: 20]
[monotone_constraints: ]
[feature_contri: ]
[forcedsplits_filename: ]
[refit_decay_rate: 0.9]
[verbosity: 0]
[max_bin: 255]
[min_data_in_bin: 3]
[bin_construct_sample_cnt: 200000]
[histogram_pool_size: -1]
[data_random_seed: 1]
[output_model: LightGBM_model.txt]
[snapshot_freq: -1]
[input_model: ]
[output_result: LightGBM_predict_result.txt]
[initscore_filename: ]
[valid_data_initscores: ]
[pre_partition: 0]
[enable_bundle: 1]
[max_conflict_rate: 0]
[is_enable_sparse: 1]
[sparse_threshold: 0.8]
[use_missing: 1]
[zero_as_missing: 0]
[two_round: 0]
[save_binary: 0]
[enable_load_from_binary_file: 1]
[header: 0]
[label_column: ]
[weight_column: ]
[group_column: ]
[ignore_column: ]
[categorical_feature: ]
[predict_raw_score: 0]
[predict_leaf_index: 0]
[predict_contrib: 0]
[num_iteration_predict: -1]
[pred_early_stop: 0]
[pred_early_stop_freq: 10]
[pred_early_stop_margin: 10]
[convert_model_language: ]
[convert_model: gbdt_prediction.cpp]
[num_class: 1]
[is_unbalance: 0]
[scale_pos_weight: 1]
[sigmoid: 1]
[boost_from_average: 1]
[reg_sqrt: 0]
[alpha: 0.9]
[fair_c: 1]
[poisson_max_delta_step: 0.7]
[tweedie_variance_power: 1.5]
[max_position: 20]
[label_gain: ]
[metric_freq: 1]
[is_provide_training_metric: 0]
[eval_at: ]
[num_machines: 1]
[local_listen_port: 12400]
[time_out: 120]
[machine_list_filename: ]
[machines: ]
[gpu_platform_id: -1]
[gpu_device_id: -1]
[gpu_use_dp: 0]

end of parameters

pandas_categorical:[]
