tree
version=v2
num_class=1
num_tree_per_iteration=1
label_index=0
max_feature_idx=8
objective=binary sigmoid:1
feature_names=H25_age H25_sex H25_bmi H25_dbp H25_sbp H25_lhrate H25_a1c H25_ht H25_dm
feature_infos=[18:74] [1:2] [0:65.599999999999994] [0:169] [0:238] [0.29756097560975608:9.046153846153846] [3:15.5] [0:1] [0:1]
tree_sizes=721 744 734 740 740 735 734 739 741 742 749 748 745 745 741 741 745 745 739 743 741 742 740 746 749

Tree=0
num_leaves=8
num_cat=0
split_feature=5 0 3 0 5 5 5
split_gain=698.674 161.143 125.635 81.323 75.7509 73.7319 37.0287
threshold=3.0969938107869148 46.500000000000007 88.833333333333357 40.500000000000007 2.0895663956639576 3.9523584905660383 2.1826073805202668
decision_type=10 2 10 2 8 10 10
left_child=1 6 3 -2 -3 -5 -1
right_child=2 4 -4 5 -6 -7 -8
leaf_value=-4.0777354941834218 -4.024063915390574 -4.0481751238926682 -3.8432224650242932 -3.9644425484977419 -4.0029204422523303 -3.8686964283778051 -4.0511589260411194
leaf_count=21648 2380 10982 1477 5342 10565 1536 12033
internal_value=0 -0.347578 1.78036 1.43241 0.168843 1.8512 -0.677671
internal_count=65963 55228 10735 9258 21547 6878 33681
shrinkage=1


Tree=1
num_leaves=8
num_cat=0
split_feature=6 0 4 4 7 3 6
split_gain=271.571 150.006 63.4716 42.7006 38.6012 35.8393 19.5459
threshold=6.0500000000000016 44.500000000000007 138.83333333333334 130.83333333333334 1.0000000180025095e-35 90.833333333333357 5.7500000000000009
decision_type=10 2 10 10 2 10 10
left_child=1 5 4 -2 6 -1 -3
right_child=3 2 -4 -5 -6 -7 -8
leaf_value=-0.030100897278667112 0.045204850926636737 -0.0050458530898092593 0.057070753472158169 0.10660173737198445 0.077704129773378497 0.036665265532397261 0.020451586328511018
leaf_count=29608 4208 18127 3649 2697 923 1139 5612
internal_value=0 -0.172008 0.223121 1.40425 0.0825123 -0.548519 0.0211727
internal_count=65963 59058 28311 6905 24662 30747 23739
shrinkage=0.05


Tree=2
num_leaves=8
num_cat=0
split_feature=5 0 5 5 4 5 6
split_gain=575.164 141.728 82.4127 64.7664 54.035 36.8852 36.5709
threshold=3.0969938107869148 46.500000000000007 3.9523584905660383 2.0137564052029964 131.83333333333334 2.1826073805202668 5.8500000000000005
decision_type=10 2 10 8 10 10 8
left_child=1 5 4 -3 -2 -1 -4
right_child=2 3 6 -5 -6 -7 -8
leaf_value=-0.042805579145173467 0.036568988439174499 -0.015982895662101336 0.078222113967419821 0.025463496959686839 0.10038758664615477 -0.015751840313015335 0.17156469983915457
leaf_count=21648 5778 9969 1117 11578 2495 12033 1345
internal_value=0 -0.334938 1.52389 0.135308 1.15123 -0.659674 2.65442
internal_count=65963 55228 10735 21547 8273 33681 2462
shrinkage=0.05


Tree=3
num_leaves=8
num_cat=0
split_feature=6 2 0 7 2 2 0
split_gain=214.934 143.621 85.6905 43.7319 43.0607 33.9515 32.9766
threshold=6.0500000000000016 21.650000000000002 44.500000000000007 1.0000000180025095e-35 26.350000000000005 31.050000000000004 48.500000000000007
decision_type=10 8 2 2 10 10 2
left_child=1 6 5 4 -4 -3 -1
right_child=-2 2 3 -5 -6 -7 -8
leaf_value=-0.041240377975605626 0.059156489388706338 -0.017034112956662 0.010108651984049158 0.09110437311536855 0.05792304938848325 0.060885888554502492 -0.0083424831487121653
leaf_count=17485 6905 16631 13889 1133 3056 778 6086
internal_value=0 -0.16238 0.137311 0.486215 0.384872 -0.261778 -0.643143
internal_count=65963 59058 35487 18078 16945 17409 23571
shrinkage=0.05


Tree=4
num_leaves=8
num_cat=0
split_feature=5 5 7 5 1 6 6
split_gain=474.384 95.9929 67.5572 59.5179 40.6221 38.2854 33.3363
threshold=3.0375235700817105 2.1826073805202668 1.0000000180025095e-35 3.7823643410852719 1.5000000000000002 6.0500000000000016 5.7500000000000009
decision_type=10 10 2 10 2 10 10
left_child=1 5 3 4 -2 -1 -3
right_child=2 6 -4 -5 -6 -7 -8
leaf_value=-0.034067922258300735 0.028913291656549718 -0.0073550961122902606 0.17253466174901411 0.093457005257303161 0.11328024603578282 0.015355125648234595 0.025210790230294107
leaf_count=31591 7162 14145 527 3243 774 2263 6258
internal_value=0 -0.337159 1.25023 1.11422 0.757341 -0.603602 0.0662803
internal_count=65963 54257 11706 11179 7936 33854 20403
shrinkage=0.05


Tree=5
num_leaves=8
num_cat=0
split_feature=5 0 0 1 5 5 2
split_gain=413.923 110.175 83.805 49.5734 39.9807 39.6585 31.0721
threshold=2.7690981432360755 49.500000000000007 44.500000000000007 1.5000000000000002 3.7823643410852719 3.4257075471698122 25.150000000000002
decision_type=10 2 2 2 10 10 10
left_child=1 -1 5 4 -4 -2 -3
right_child=2 6 3 -5 -6 -7 -8
leaf_value=-0.032148633462513003 -0.0059386549123546864 -1.6958865549602456e-05 0.043060884547137218 0.13681871219937544 0.098743405167516327 0.046554341851393129 0.046435492903747204
leaf_count=36112 4765 10644 6511 1008 1682 2944 2297
internal_value=0 -0.402955 0.911411 1.33334 1.1446 0.331805 0.179782
internal_count=65963 49053 16910 9201 8193 7709 12941
shrinkage=0.05


Tree=6
num_leaves=8
num_cat=0
split_feature=5 0 0 1 5 3 5
split_gain=365.873 87.2559 77.2178 53.3388 40.1264 37.8265 32.7736
threshold=2.6903810580836116 48.500000000000007 44.500000000000007 1.5000000000000002 3.4257075471698122 92.833333333333357 3.9523584905660383
decision_type=10 2 2 2 10 10 10
left_child=1 -1 4 5 -2 6 -4
right_child=2 -3 3 -5 -6 -7 -8
leaf_value=-0.033146572986425885 -0.0083684648297292358 0.0030270763647307197 0.029946791882775565 0.12160581743596655 0.042318703158398759 0.10946183669324652 0.085991082828695414
leaf_count=32959 5561 14310 7101 1166 2944 849 1073
internal_value=0 -0.415901 0.780231 1.15128 0.245326 0.962504 0.803038
internal_count=65963 47269 18694 10189 8505 9023 8174
shrinkage=0.05


Tree=7
num_leaves=8
num_cat=0
split_feature=5 4 0 5 7 0 6
split_gain=328.374 86.6227 75.578 55.5872 31.3289 29.6813 29.6021
threshold=2.5024785801713594 137.16666666666671 48.500000000000007 3.1611613876319766 1.0000000180025095e-35 45.500000000000007 5.7500000000000009
decision_type=10 10 2 10 2 2 10
left_child=2 3 -1 -2 -5 -3 -4
right_child=1 5 6 4 -6 -7 -8
leaf_value=-0.035563524514784693 0.0027373384062214729 0.036170935367716199 -0.014059611981182255 0.036008424557207784 0.13889116637619783 0.097516355725462356 0.023150787353011237
leaf_count=30118 11326 1517 8126 7840 229 2185 4622
internal_value=0 0.624878 -0.465341 0.419455 0.810007 1.51088 0.0059694
internal_count=65963 23097 42866 19395 8069 3702 12748
shrinkage=0.05


Tree=8
num_leaves=8
num_cat=0
split_feature=5 4 5 6 6 5 3
split_gain=294.463 69.0791 51.3346 45.528 38.924 24.4775 19.7498
threshold=2.5024785801713594 137.16666666666671 4.3567251461988317 5.7500000000000009 7.0500000000000016 3.1611613876319766 92.833333333333357
decision_type=10 10 10 10 10 10 10
left_child=3 2 4 6 5 -2 -1
right_child=1 -3 -4 -5 -6 -7 -8
leaf_value=-0.032751730014712342 -0.00013832812116795017 0.066819947161054133 0.0857461316126093 -0.00028893266407030004 0.10521305921198083 0.025997870383759343 0.018130401297773432
leaf_count=31587 11104 3702 896 10084 432 6963 1195
internal_value=0 0.576127 0.390706 -0.452587 0.292437 0.23396 -0.612418
internal_count=65963 23097 19395 42866 18499 18067 32782
shrinkage=0.05


Tree=9
num_leaves=8
num_cat=0
split_feature=5 0 0 1 4 5 2
split_gain=264.494 72.8623 70.265 46.6066 32.4698 28.2931 26.4661
threshold=2.5024785801713594 48.500000000000007 42.500000000000007 1.5000000000000002 135.83333333333334 3.9010638297872346 24.850000000000005
decision_type=10 2 2 2 10 10 10
left_child=1 -1 5 4 -4 -2 -3
right_child=2 6 3 -5 -6 -7 -8
leaf_value=-0.034600034528081934 -0.011499342900202485 -0.0074825396296057632 0.021534779576478386 0.084850766157790358 0.058391618597317424 0.044218517038712164 0.035670328767846593
leaf_count=30118 7101 10478 10159 1895 2932 1010 2270
internal_value=0 -0.43985 0.532477 0.777871 0.631158 -0.0317979 0.0232762
internal_count=65963 42866 23097 14986 13091 8111 12748
shrinkage=0.05


Tree=10
num_leaves=8
num_cat=0
split_feature=0 2 2 2 7 0 3
split_gain=134.056 58.9508 52.4347 32.6449 32.5577 26.0764 24.2999
threshold=44.500000000000007 26.650000000000002 21.650000000000002 31.050000000000004 1.0000000180025095e-35 57.500000000000007 93.833333333333357
decision_type=2 10 10 10 2 2 10
left_child=2 4 -1 6 5 -2 -4
right_child=1 -3 3 -5 -6 -7 -8
leaf_value=-0.041703372123385152 0.00050383510860560823 0.046961736621643019 -0.015598495078786924 0.048386104842947558 0.058034059647198738 0.036368490284596433 0.051871543888131116
leaf_count=13811 24733 4580 17054 1069 1301 2766 649
internal_value=0 0.292472 -0.403853 -0.150104 0.151774 0.0912093 -0.245451
internal_count=65963 33380 32583 18772 28800 27499 17703
shrinkage=0.05


Tree=11
num_leaves=8
num_cat=0
split_feature=0 2 2 2 0 3 3
split_gain=121.798 52.5811 50.7578 28.7682 26.6507 21.5768 16.6396
threshold=44.500000000000007 23.950000000000003 21.650000000000002 31.050000000000004 57.500000000000007 93.833333333333357 90.833333333333357
decision_type=2 10 10 10 2 10 10
left_child=2 4 -1 5 6 -4 -2
right_child=1 -3 3 -5 -6 -7 -8
leaf_value=-0.041306232689672623 -0.0064044679797936087 0.030060329978472602 -0.015051515618536413 0.044027783234829927 0.037899733673205038 0.047181363069917687 0.036943489528314832
leaf_count=13811 18088 12036 17054 1069 2139 649 1117
internal_value=0 0.273938 -0.391599 -0.143624 0.0298412 -0.236016 -0.066752
internal_count=65963 33380 32583 18772 21344 17703 19205
shrinkage=0.05


Tree=12
num_leaves=8
num_cat=0
split_feature=5 0 0 5 1 2 4
split_gain=223.885 60.1773 59.3294 45.0574 26.6679 21.9803 19.7831
threshold=2.4323504983388715 48.500000000000007 40.500000000000007 3.4450904890257994 1.5000000000000002 24.850000000000005 137.16666666666671
decision_type=10 2 2 10 2 10 10
left_child=1 -1 -2 4 6 -3 -4
right_child=2 5 3 -5 -6 -7 -8
leaf_value=-0.034570367508288867 -0.010908842733107049 -0.0091712282598544591 0.0051583253622469061 0.053314226008158452 0.05233568676879935 0.030410679563558085 0.038580011073026152
leaf_count=28941 6015 10016 10047 4670 2132 2073 2069
internal_value=0 -0.442799 0.447393 0.607033 0.386829 -0.0204012 0.253219
internal_count=65963 41030 24933 18918 14248 12089 12116
shrinkage=0.05


Tree=13
num_leaves=8
num_cat=0
split_feature=5 0 0 5 6 7 6
split_gain=202.23 57.5519 51.4803 36.8328 23.777 22.1474 17.7094
threshold=2.4323504983388715 48.500000000000007 40.500000000000007 3.4450904890257994 5.7500000000000009 1.0000000180025095e-35 6.2500000000000009
decision_type=10 2 2 10 10 2 10
left_child=1 -1 -2 5 -3 6 -4
right_child=2 4 3 -5 -6 -7 -8
leaf_value=-0.033998940747473269 -0.010479519031266987 -0.014601309016694781 0.0095117197594550701 0.048167757939760539 0.019388847532364275 0.064044892911802126 0.047905244098120567
leaf_count=28941 6015 7754 12190 4670 4335 806 1252
internal_value=0 -0.430202 0.415906 0.560235 -0.0194239 0.360837 0.282191
internal_count=65963 41030 24933 18918 12089 14248 13442
shrinkage=0.05


Tree=14
num_leaves=8
num_cat=0
split_feature=5 5 0 0 6 0 5
split_gain=183.898 57.6245 51.1732 35.1463 25.2386 23.8402 17.5046
threshold=2.1826073805202668 3.1140394088669958 50.500000000000007 44.500000000000007 5.9500000000000011 38.500000000000007 4.3567251461988317
decision_type=10 10 2 2 10 2 10
left_child=2 3 -1 -2 -4 -3 -7
right_child=1 5 4 -5 -6 6 -8
leaf_value=-0.035926641674991405 -0.017018380535682682 -0.0084641558536217212 -0.010676986772472925 0.014329117164474357 0.042089080647469163 0.031763616042207558 0.06911984300851555
leaf_count=26888 9713 1491 5554 11900 1412 8064 941
internal_value=0 0.317974 -0.509468 0.0621842 0.0465345 0.644871 0.741121
internal_count=65963 32109 33854 21613 6966 10496 9005
shrinkage=0.05


Tree=15
num_leaves=8
num_cat=0
split_feature=5 5 0 0 2 6 6
split_gain=167.756 49.6755 49.0078 31.2024 22.5466 21.4326 17.7018
threshold=2.1826073805202668 3.0969938107869148 50.500000000000007 44.500000000000007 26.350000000000005 6.1500000000000012 5.9500000000000011
decision_type=10 10 2 2 10 10 10
left_child=2 3 -1 -2 6 -3 -4
right_child=1 5 4 -5 -6 -7 -8
leaf_value=-0.035381936578570333 -0.016650559212677087 0.023181889314490903 -0.016112396106594835 0.013197149338764595 0.06451698095263167 0.056906471844981613 0.031429099684170514
leaf_count=26888 9601 9201 5254 11773 530 1534 1182
internal_value=0 0.297417 -0.496628 0.0544549 0.0441255 0.589716 -0.103993
internal_count=65963 32109 33854 21374 6966 10735 6436
shrinkage=0.05


Tree=16
num_leaves=8
num_cat=0
split_feature=2 0 0 7 2 6 6
split_gain=88.9455 46.3461 36.6884 31.7477 23.9451 17.6923 17.3576
threshold=21.650000000000002 40.500000000000007 48.500000000000007 1.0000000180025095e-35 26.650000000000002 6.9500000000000011 5.8500000000000005
decision_type=8 2 2 2 10 10 10
left_child=2 -2 -1 4 5 -3 -4
right_child=1 3 6 -5 -6 -7 -8
leaf_value=-0.035198520989910255 -0.016307171250581141 0.0034030849733245106 -0.012400070603280501 0.051070918242998378 0.028174296053404591 0.058739850665740702 0.028983462830274954
leaf_count=18103 10328 22590 5195 1856 5796 492 1603
internal_value=0 0.174446 -0.444932 0.28956 0.222663 0.105216 -0.0104304
internal_count=65963 41062 24901 30734 28878 23082 6798
shrinkage=0.05


Tree=17
num_leaves=8
num_cat=0
split_feature=2 0 0 7 2 6 3
split_gain=81.4846 41.6046 35.1001 26.6887 21.0775 19.4316 16.7285
threshold=21.650000000000002 40.500000000000007 48.500000000000007 1.0000000180025095e-35 28.950000000000003 6.9500000000000011 90.833333333333357
decision_type=8 2 2 2 10 10 10
left_child=2 6 -1 4 5 -3 -2
right_child=1 3 -4 -5 -6 -7 -8
leaf_value=-0.034640817736507859 -0.020395714485941532 0.0051739360478563045 -0.00049727285877230435 0.046301237608593976 0.036909694268305593 0.05266645676561002 0.043680389134835157
leaf_count=18103 9847 25871 6798 1856 2309 698 481
internal_value=0 0.164338 -0.432371 0.271395 0.209358 0.143252 -0.314965
internal_count=65963 41062 24901 30734 28878 26569 10328
shrinkage=0.05


Tree=18
num_leaves=8
num_cat=0
split_feature=5 5 6 1 4 3 1
split_gain=142.814 40.195 27.4414 21.1831 17.2447 16.4791 15.7124
threshold=2.1826073805202668 3.0969938107869148 6.0500000000000016 1.5000000000000002 122.25000000000001 89.833333333333357 1.5000000000000002
decision_type=10 10 10 2 10 10 2
left_child=2 4 -1 5 6 -3 -2
right_child=1 3 -4 -5 -6 -7 -8
leaf_value=-0.02811193925935921 -0.017920358105948948 0.016297754083877122 0.013882973327073653 0.064161367686161916 0.011781457903896992 0.047550755692306199 0.017031619145796813
leaf_count=31591 8124 8681 2263 872 10786 1182 2464
internal_value=0 0.265293 -0.473988 0.520782 0.0455694 0.434678 -0.188718
internal_count=65963 32109 33854 10735 21374 9863 10588
shrinkage=0.05


Tree=19
num_leaves=8
num_cat=0
split_feature=5 5 6 6 4 5 3
split_gain=130.402 35.1315 26.1524 19.6697 20.8872 13.2522 12.634
threshold=2.1826073805202668 3.7823643410852719 5.9500000000000011 5.7500000000000009 127.83333333333336 2.2173926194797349 88.833333333333357
decision_type=10 10 10 10 10 10 10
left_child=2 3 -1 4 -2 -6 -3
right_child=1 6 -4 -5 5 -7 -8
leaf_value=-0.028395856603957451 -0.0099011021861137374 0.028072672471358286 0.0073183411902291154 0.018579471478422496 0.096895192740294456 0.011679244912507521 0.06854489502192769
leaf_count=30450 12616 2926 3404 9358 235 6499 475
internal_value=0 0.248909 -0.461169 0.145618 -0.000452944 0.290036 0.719288
internal_count=65963 32109 33854 28708 19350 6734 3401
shrinkage=0.05


Tree=20
num_leaves=8
num_cat=0
split_feature=5 0 0 5 2 6 2
split_gain=119.141 44.7239 36.1129 28.9148 16.9866 12.8132 12.405
threshold=2.1826073805202668 50.500000000000007 36.500000000000007 3.0969938107869148 26.350000000000005 5.9500000000000011 22.850000000000005
decision_type=10 2 2 10 10 10 10
left_child=1 -1 -2 -4 5 -3 -7
right_child=2 4 3 -5 -6 6 -8
leaf_value=-0.033462794945285639 -0.027288649774710794 -0.013693495003977183 0.0050657777878113756 0.025745563147226994 0.054738941454318284 -0.0016536914437879097 0.067048654752103296
leaf_count=26888 3505 5254 18985 9619 530 756 426
internal_value=0 -0.448429 0.233871 0.296738 0.0663089 -0.0719396 0.521337
internal_count=65963 33854 32109 28604 6966 6436 1182
shrinkage=0.05


Tree=21
num_leaves=8
num_cat=0
split_feature=5 5 6 1 6 2 5
split_gain=108.771 28.5358 23.5706 16.7486 15.4162 18.1375 13.912
threshold=2.1826073805202668 3.1140394088669958 5.9500000000000011 1.5000000000000002 5.7500000000000009 24.350000000000005 4.3567251461988317
decision_type=10 10 10 2 10 8 10
left_child=2 4 -1 6 -2 -6 -3
right_child=1 3 -4 -5 5 -7 -8
leaf_value=-0.027135130729233337 -0.0058339639088579084 0.013215209999472177 0.0067875473722986343 0.054332832537766385 0.032850030093389444 -0.0019787335569133161 0.042973954767692252
leaf_count=30450 14951 8613 3404 841 3412 3250 1042
internal_value=0 0.219617 -0.435789 0.429644 0.0362828 0.289593 0.354165
internal_count=65963 32109 33854 10496 21613 6662 9655
shrinkage=0.05


Tree=22
num_leaves=8
num_cat=0
split_feature=5 0 5 0 0 1 0
split_gain=100.787 34.2268 26.2617 25.5794 19.5201 15.9743 24.7583
threshold=2.0137564052029964 36.500000000000007 3.0969938107869148 50.500000000000007 63.500000000000007 1.5000000000000002 48.500000000000007
decision_type=10 2 10 2 2 2 2
left_child=3 -2 4 -1 5 -3 -7
right_child=1 2 -4 -5 -6 6 -8
leaf_value=-0.03365342980408316 -0.027398943314486036 -0.002747270238718263 0.022384495156831937 -0.0022934069348979412 0.090640600213384659 -0.0062014139984402604 0.04730609753064885
leaf_count=22962 4160 18585 9619 5682 209 2886 1860
internal_value=0 0.181279 0.238768 -0.487151 0.0719702 0.0452088 0.42859
internal_count=65963 37319 33159 28644 23540 23331 4746
shrinkage=0.05


Tree=23
num_leaves=8
num_cat=0
split_feature=5 5 6 1 3 6 6
split_gain=92.4933 27.0117 19.7496 18.2513 16.7315 14.828 14.1854
threshold=2.0137564052029964 3.0375235700817105 6.0500000000000016 1.5000000000000002 95.833333333333357 5.8500000000000005 5.7500000000000009
decision_type=10 10 10 2 10 8 10
left_child=2 3 -1 4 6 -3 -2
right_child=1 5 -4 -5 -6 -7 -8
leaf_value=-0.028227646318546212 -0.015784391856264332 0.0070547884297437304 0.01195727043218789 0.019696153207920009 0.037551337085099314 0.026857672485370129 0.0061692836320843469
leaf_count=26848 14143 5739 1796 5254 850 5967 5366
internal_value=0 0.170744 -0.474383 -0.000331671 -0.106455 0.363293 -0.162811
internal_count=65963 37319 28644 25613 20359 11706 19509
shrinkage=0.05


Tree=24
num_leaves=8
num_cat=0
split_feature=5 0 0 5 7 0 6
split_gain=84.8504 30.4944 24.8022 20.9873 17.1539 13.9828 23.7217
threshold=2.0137564052029964 36.500000000000007 50.500000000000007 3.4450904890257994 1.0000000180025095e-35 49.500000000000007 6.6500000000000012
decision_type=10 2 2 10 2 2 10
left_child=2 -2 -1 4 5 6 -3
right_child=1 3 -4 -5 -6 -7 -8
leaf_value=-0.032623517743250605 -0.026829287353201788 -0.0070520829281784632 -0.0012552974100204523 0.023674886879784241 0.036116926854062655 0.012729799495817757 0.062856964358186981
leaf_count=22962 4160 17258 5682 5535 1324 8608 434
internal_value=0 0.160887 -0.461608 0.213592 0.108339 0.0572993 -0.0820949
internal_count=65963 37319 28644 33159 27624 26300 17692
shrinkage=0.05


end of trees

feature importances:
H25_lhrate=49
H25_age=40
H25_a1c=27
H25_bmi=20
H25_dbp=11
H25_sex=10
H25_sbp=9
H25_ht=9

parameters:
[boosting: gbdt]
[objective: binary]
[metric: binary]
[tree_learner: serial]
[device_type: cpu]
[data: ]
[valid: ]
[num_iterations: 100]
[learning_rate: 0.05]
[num_leaves: 8]
[num_threads: 0]
[max_depth: -1]
[min_data_in_leaf: 20]
[min_sum_hessian_in_leaf: 1]
[bagging_fraction: 0.4]
[bagging_freq: 0]
[bagging_seed: 3]
[feature_fraction: 0.8]
[feature_fraction_seed: 2]
[early_stopping_round: 0]
[max_delta_step: 0]
[lambda_l1: 0]
[lambda_l2: 1]
[min_gain_to_split: 0]
[drop_rate: 0.1]
[max_drop: 50]
[skip_drop: 0.5]
[xgboost_dart_mode: 0]
[uniform_drop: 0]
[drop_seed: 4]
[top_rate: 0.2]
[other_rate: 0.1]
[min_data_per_group: 100]
[max_cat_threshold: 32]
[cat_l2: 10]
[cat_smooth: 10]
[max_cat_to_onehot: 4]
[top_k: 20]
[monotone_constraints: ]
[feature_contri: ]
[forcedsplits_filename: ]
[refit_decay_rate: 0.9]
[verbosity: 0]
[max_bin: 255]
[min_data_in_bin: 3]
[bin_construct_sample_cnt: 200000]
[histogram_pool_size: -1]
[data_random_seed: 1]
[output_model: LightGBM_model.txt]
[snapshot_freq: -1]
[input_model: ]
[output_result: LightGBM_predict_result.txt]
[initscore_filename: ]
[valid_data_initscores: ]
[pre_partition: 0]
[enable_bundle: 1]
[max_conflict_rate: 0]
[is_enable_sparse: 1]
[sparse_threshold: 0.8]
[use_missing: 1]
[zero_as_missing: 0]
[two_round: 0]
[save_binary: 0]
[enable_load_from_binary_file: 1]
[header: 0]
[label_column: ]
[weight_column: ]
[group_column: ]
[ignore_column: ]
[categorical_feature: ]
[predict_raw_score: 0]
[predict_leaf_index: 0]
[predict_contrib: 0]
[num_iteration_predict: -1]
[pred_early_stop: 0]
[pred_early_stop_freq: 10]
[pred_early_stop_margin: 10]
[convert_model_language: ]
[convert_model: gbdt_prediction.cpp]
[num_class: 1]
[is_unbalance: 0]
[scale_pos_weight: 1]
[sigmoid: 1]
[boost_from_average: 1]
[reg_sqrt: 0]
[alpha: 0.9]
[fair_c: 1]
[poisson_max_delta_step: 0.7]
[tweedie_variance_power: 1.5]
[max_position: 20]
[label_gain: ]
[metric_freq: 1]
[is_provide_training_metric: 0]
[eval_at: ]
[num_machines: 1]
[local_listen_port: 12400]
[time_out: 120]
[machine_list_filename: ]
[machines: ]
[gpu_platform_id: -1]
[gpu_device_id: -1]
[gpu_use_dp: 0]

end of parameters

pandas_categorical:[]
