tree
version=v2
num_class=1
num_tree_per_iteration=1
label_index=0
max_feature_idx=8
objective=binary sigmoid:1
feature_names=H25_age H25_sex H25_bmi H25_dbp H25_sbp H25_lhrate H25_a1c H25_ht H25_dm
feature_infos=[18:74] [1:2] [0:65.599999999999994] [0:169] [0:238] [0.29756097560975608:9.046153846153846] [3:15] [0:1] [0:1]
tree_sizes=712 731 727 739 732 732 735 738 745 739 746 734 740 741 744 743 735 750 743 743 745 737 736 745 740

Tree=0
num_leaves=8
num_cat=0
split_feature=5 0 5 0 6 5 3
split_gain=646.651 161.021 157.339 117.314 70.7985 59.2473 49.6713
threshold=3.017424242424243 49.500000000000007 3.9444334487877293 45.500000000000007 6.8500000000000005 2.004022639983829 88.833333333333357
decision_type=10 2 10 2 10 8 10
left_child=1 4 3 -2 -1 -3 -4
right_child=2 5 6 -5 -6 -7 -8
leaf_value=-4.066636337659582 -4.01924943982005 -4.0441162095721923 -3.8984638576229211 -3.93443178553661 -3.9214813055973008 -3.9949560875836094 -3.7392481774498569
leaf_count=39169 4861 6624 2119 4675 442 7717 356
internal_value=0 -0.357753 1.60093 1.14182 -0.608995 0.335854 3.30259
internal_count=65963 53952 12011 9536 39611 14341 2475
shrinkage=1


Tree=1
num_leaves=8
num_cat=0
split_feature=6 0 4 7 4 4 3
split_gain=304.374 205.355 82.3476 42.3112 37.9442 33.424 31.0188
threshold=6.1500000000000012 44.500000000000007 138.16666666666671 1.0000000180025095e-35 130.83333333333334 147.25000000000003 95.833333333333357
decision_type=10 2 8 2 10 10 10
left_child=1 6 3 -3 -2 -6 -1
right_child=4 2 -4 -5 5 -7 -8
leaf_value=-0.031444957659695759 0.0586736378129206 0.0036638137484553655 0.065492479961000341 0.08171312511445461 0.15370802057322827 0.039938259754211586 0.053998553779525782
leaf_count=30661 2983 24814 3888 980 1536 521 580
internal_value=0 -0.154281 0.29447 0.136674 1.75401 2.52933 -0.594375
internal_count=65963 60923 29682 25794 5040 2057 31241
shrinkage=0.05


Tree=2
num_leaves=8
num_cat=0
split_feature=5 5 0 0 4 6 5
split_gain=544.96 139.265 119.425 111.054 39.8982 36.6682 35.6166
threshold=2.7690981432360755 3.9444334487877293 49.500000000000007 44.500000000000007 134.83333333333334 7.7500000000000009 2.004022639983829
decision_type=10 10 2 2 10 10 8
left_child=2 3 -1 -2 -3 -5 -4
right_child=1 4 6 5 -6 -7 -8
leaf_value=-0.033092129633162284 0.0032115955615485306 0.10023090415431349 -0.010245830404344122 0.064600824668681917 0.20577953038477625 0.20841256225582355 0.029072349313657205
leaf_count=36232 6499 1852 6624 7694 623 188 6251
internal_value=0 1.13512 -0.425501 0.831003 2.64873 1.39422 0.187963
internal_count=65963 16856 49107 14381 2475 7882 12875
shrinkage=0.05


Tree=3
num_leaves=8
num_cat=0
split_feature=6 0 2 2 2 0 6
split_gain=238.008 158.959 104.948 37.2465 36.4312 33.8055 32.0671
threshold=6.0500000000000016 44.500000000000007 26.350000000000005 21.350000000000005 21.650000000000002 57.500000000000007 7.0500000000000016
decision_type=10 2 10 8 8 2 10
left_child=1 4 3 -3 -1 -5 -2
right_child=6 2 -4 5 -6 -7 -8
leaf_value=-0.044588052335576674 0.049346849805929641 -0.017262079913169449 0.070174304167501103 0.007351456018394778 -0.016946899437341772 0.064763991504826063 0.11110286282363513
leaf_count=13291 5583 9095 3423 14458 17383 1470 1260
internal_value=0 -0.169803 0.223582 0.0478139 -0.574905 0.261807 1.25028
internal_count=65963 59120 28446 25023 30674 15928 6843
shrinkage=0.05


Tree=4
num_leaves=8
num_cat=0
split_feature=5 5 6 5 3 6 6
split_gain=457.855 98.9922 66.4039 52.2086 48.763 34.2981 33.4965
threshold=2.7690981432360755 3.7513722730471506 6.1500000000000012 2.004022639983829 92.833333333333357 5.8500000000000005 5.7500000000000009
decision_type=10 10 10 10 10 8 10
left_child=2 4 3 -1 6 -3 -2
right_child=1 5 -4 -5 -6 -7 -8
leaf_value=-0.03580602092689409 0.012191194745485433 0.058471792125472724 0.03127604303384561 -0.0089812246463023149 0.1087684462894159 0.12703756519507756 0.051736298110205407
leaf_count=27183 8010 1682 2860 19064 941 1947 4276
internal_value=0 0.991283 -0.409645 -0.48928 0.674506 1.95371 0.540913
internal_count=65963 16856 49107 46247 13227 3629 12286
shrinkage=0.05


Tree=5
num_leaves=8
num_cat=0
split_feature=5 0 0 5 5 5 0
split_gain=403.211 102.803 89.4641 48.0927 37.5351 32.9699 28.8223
threshold=2.7371752349364296 49.500000000000007 44.500000000000007 3.9444334487877293 4.4522727272727289 2.1959459459459465 37.500000000000007
decision_type=10 2 2 10 10 10 2
left_child=1 5 4 -4 6 -1 -2
right_child=2 -3 3 -5 -6 -7 -8
leaf_value=-0.039907839546656713 -0.03267902893475249 0.007857629576250455 0.053207590917244543 0.11734735516950207 0.1016225866802538 -0.012616371613994752 0.019636888665715928
leaf_count=25844 1993 12645 8292 1324 411 9892 5562
internal_value=0 -0.408093 0.876403 1.28887 0.266796 -0.642875 0.119643
internal_count=65963 48381 17582 9616 7966 35736 7555
shrinkage=0.05


Tree=6
num_leaves=8
num_cat=0
split_feature=5 0 0 5 5 0 6
split_gain=357.317 93.786 91.567 43.8205 41.1092 30.1386 29.9008
threshold=2.5490217792543377 44.500000000000007 49.500000000000007 3.7513722730471506 3.1390847247990115 37.500000000000007 5.7500000000000009
decision_type=10 2 2 10 10 2 10
left_child=2 4 -1 -3 -2 -6 -4
right_child=1 3 6 -5 5 -7 -8
leaf_value=-0.034691143552210993 -0.018548609870279561 0.042509649201680044 -0.0099762375547294922 0.092709198459886233 -0.02051491965373398 0.046035994535443041 0.029231352719940446
leaf_count=32665 5304 10171 7078 1958 1178 3394 4215
internal_value=0 0.692892 -0.45687 1.06107 0.121759 0.592754 0.107116
internal_count=65963 22005 43958 12129 9876 4572 11293
shrinkage=0.05


Tree=7
num_leaves=8
num_cat=0
split_feature=5 0 0 4 5 6 6
split_gain=318.876 87.0502 77.3625 56.5236 37.4085 26.9643 26.3722
threshold=2.5490217792543377 49.500000000000007 44.500000000000007 135.83333333333334 4.0505319148936172 6.1500000000000012 5.7500000000000009
decision_type=10 2 2 10 10 10 10
left_child=1 -1 4 -4 5 -2 -3
right_child=2 6 3 -5 -6 -7 -8
leaf_value=-0.034116027092320818 -0.010351649832065227 -0.0095747435107039237 0.034660102687191031 0.086107912403379575 0.061521025044869865 0.06214284393154737 0.027007954475644899
leaf_count=32665 8333 7078 9335 2794 949 594 4215
internal_value=0 -0.444158 0.636052 0.957827 0.114506 -0.0741315 0.101137
internal_count=65963 43958 22005 12129 9876 8927 11293
shrinkage=0.05


Tree=8
num_leaves=8
num_cat=0
split_feature=5 5 4 6 6 3 7
split_gain=285.672 69.9253 44.7295 44.1639 40.9599 31.9573 26.8592
threshold=2.4357026143790859 3.1390847247990115 138.83333333333334 5.7500000000000009 6.7500000000000009 100.83333333333336 1.0000000180025095e-35
decision_type=10 10 10 10 10 8 2
left_child=3 2 4 5 -2 -1 -3
right_child=1 6 -4 -5 -6 -7 -8
leaf_value=-0.032904196081260516 -0.0033406679863957848 0.042070231149533982 0.05757245488854839 -0.00074882218434841599 0.096062854108383638 0.084996406771485525 0.11495090265266079
leaf_count=31199 12545 9614 1885 9591 381 303 445
internal_value=0 0.539038 0.192663 -0.468958 0.0241455 -0.628692 0.926637
internal_count=65963 24870 14811 41093 12926 31502 10059
shrinkage=0.05


Tree=9
num_leaves=8
num_cat=0
split_feature=5 0 0 5 4 3 2
split_gain=257.273 75.282 71.0091 58.1963 35.7622 31.9828 20.588
threshold=2.4357026143790859 49.500000000000007 38.500000000000007 3.7513722730471506 137.83333333333334 100.83333333333336 25.150000000000002
decision_type=10 2 2 10 10 10 10
left_child=1 5 -2 4 -4 -1 -3
right_child=2 6 3 -5 -6 -7 -8
leaf_value=-0.036111053223641609 -0.026155366165175043 -0.003770917313011532 0.01488309968276509 0.065966157532466985 0.053769186116275416 0.094295881851755303 0.040486237747693325
leaf_count=30463 3535 8804 15222 3105 3008 235 1591
internal_value=0 -0.456077 0.499146 0.628252 0.449513 -0.693403 0.0762558
internal_count=65963 41093 24870 21335 18230 30698 10395
shrinkage=0.05


Tree=10
num_leaves=8
num_cat=0
split_feature=0 2 0 2 3 2 7
split_gain=151.035 60.6493 50.5454 48.8101 21.1031 19.7484 20.6042
threshold=44.500000000000007 26.350000000000005 57.500000000000007 25.550000000000004 92.833333333333357 22.150000000000002 1.0000000180025095e-35
decision_type=2 10 2 10 10 8 2
left_child=3 2 5 4 -1 -2 -7
right_child=1 -3 -4 -5 -6 6 -8
leaf_value=-0.032599297719021002 -0.0098082544920465847 0.046067776175572922 0.049407470058608891 0.0072168101750656371 0.043423937953495043 0.0072453762422275067 0.063514868147890161
leaf_count=25706 12113 5079 2928 6281 494 12612 750
internal_value=0 0.305401 0.155571 -0.435707 -0.613648 0.041158 0.218605
internal_count=65963 33482 28403 32481 26200 25475 13362
shrinkage=0.05


Tree=11
num_leaves=8
num_cat=0
split_feature=0 2 2 0 3 2 0
split_gain=137.324 51.3186 46.0965 44.6144 19.5529 19.4072 20.8485
threshold=44.500000000000007 26.450000000000003 25.550000000000004 57.500000000000007 92.833333333333357 34.050000000000004 41.500000000000007
decision_type=2 10 10 2 10 10 2
left_child=2 3 4 -2 -1 -4 -7
right_child=1 -3 5 -5 -6 6 -8
leaf_value=-0.031993868786420486 0.0020247368335828846 0.042533143956777458 0.00069652873563142619 0.04541800917537802 0.039917951860360991 0.016411166645575962 0.17829962865934601
leaf_count=25706 25641 4888 5908 2953 494 271 102
internal_value=0 0.285829 -0.423103 0.149542 -0.601091 0.136221 1.54977
internal_count=65963 33482 32481 28594 26200 6281 373
shrinkage=0.05


Tree=12
num_leaves=8
num_cat=0
split_feature=5 0 0 5 4 5 1
split_gain=217.891 65.8314 55.8653 47.4039 26.8803 16.633 18.0842
threshold=2.4357026143790859 47.500000000000007 38.500000000000007 3.1390847247990115 137.83333333333334 4.1101010101010109 1.5000000000000002
decision_type=10 2 2 10 10 10 2
left_child=1 -1 -2 4 -4 6 -5
right_child=2 -3 3 5 -6 -7 -8
leaf_value=-0.035970272110599354 -0.024715901549626291 -0.0015897357582693346 0.0042486080830251398 0.030562993695256408 0.044665221833820885 0.067414658523856308 0.084439535589384163
leaf_count=27235 3535 13858 10657 6496 2028 1523 631
internal_value=0 -0.435611 0.442713 0.549525 0.247634 0.865565 0.715808
internal_count=65963 41093 24870 21335 12685 8650 7127
shrinkage=0.05


Tree=13
num_leaves=8
num_cat=0
split_feature=5 0 0 5 6 4 6
split_gain=196.848 63.0691 49.3559 39.5814 29.7478 22.5281 19.3446
threshold=2.4357026143790859 47.500000000000007 38.500000000000007 3.1390847247990115 7.4500000000000011 138.83333333333334 5.7500000000000009
decision_type=10 2 2 10 10 10 10
left_child=1 -1 -2 4 5 -4 -3
right_child=2 6 3 -5 -6 -7 -8
leaf_value=-0.035425537753892233 -0.024074029340746584 -0.012845301207493885 0.0014910232776026919 0.039495601239638196 0.10213036190010634 0.04070524590778532 0.016351227326238126
leaf_count=27235 3535 9102 10781 8650 237 1667 4756
internal_value=0 -0.423065 0.411796 0.508754 0.232517 0.168497 -0.030259
internal_count=65963 41093 24870 21335 12685 12448 13858
shrinkage=0.05


Tree=14
num_leaves=8
num_cat=0
split_feature=5 0 0 5 4 6 6
split_gain=177.999 60.3383 43.9421 34.7555 20.6945 22.7443 17.4421
threshold=2.4357026143790859 47.500000000000007 37.500000000000007 3.5917306052855928 137.83333333333334 7.6500000000000012 5.7500000000000009
decision_type=10 2 2 10 10 10 10
left_child=1 -1 -2 4 5 -4 -3
right_child=2 6 3 -5 -6 -7 -8
leaf_value=-0.034871258747735057 -0.027903899714151411 -0.012362970800679223 0.0071206483297721725 0.044208209476343623 0.037771945940062612 0.090391183618541135 0.015296947956568186
leaf_count=27235 2992 9102 14599 4212 2857 210 4756
internal_value=0 -0.410665 0.383577 0.463835 0.307535 0.188305 -0.0288709
internal_count=65963 41093 24870 21878 17666 14809 13858
shrinkage=0.05


Tree=15
num_leaves=8
num_cat=0
split_feature=5 0 0 5 6 4 3
split_gain=161.099 57.658 39.2327 30.3506 21.3172 18.3097 17.331
threshold=2.4357026143790859 47.500000000000007 37.500000000000007 3.1390847247990115 7.4500000000000011 138.83333333333334 100.83333333333336
decision_type=10 2 2 10 10 10 10
left_child=1 6 -2 4 5 -4 -1
right_child=2 -3 3 -5 -6 -7 -8
leaf_value=-0.035625106529109482 -0.027268305109280657 -0.0013770814739840244 0.00050561312184839262 0.033253328390900561 0.080581399702034137 0.034642999210787791 0.067758716712641637
leaf_count=27044 2992 13858 11070 8881 241 1686 191
internal_value=0 -0.398392 0.357836 0.431221 0.191949 0.135897 -0.686155
internal_count=65963 41093 24870 21878 12997 12756 27235
shrinkage=0.05


Tree=16
num_leaves=8
num_cat=0
split_feature=0 6 6 2 2 3 6
split_gain=95.8806 42.976 37.4243 33.9063 26.1893 21.463 20.3141
threshold=44.500000000000007 6.5500000000000016 5.7500000000000009 21.650000000000002 20.250000000000004 101.58333333333336 5.5500000000000016
decision_type=2 10 10 8 8 8 8
left_child=1 3 4 -1 -2 -6 -7
right_child=2 -3 -4 -5 5 6 -8
leaf_value=-0.041052183749972458 -0.028448387139979409 0.066123878943629491 0.024679366405008528 -0.011112834194311276 0.0047121809680414316 0.00062473858628724196 0.15706381511867759
leaf_count=13627 4260 497 11958 18357 16984 153 127
internal_value=0 -0.376766 0.223872 -0.434997 0.0255198 0.134169 1.715
internal_count=65963 32481 33482 31984 21524 17264 280
shrinkage=0.05


Tree=17
num_leaves=8
num_cat=0
split_feature=0 2 6 2 3 6 7
split_gain=87.3247 38.2302 32.9412 31.2988 24.3127 20.8323 20.5074
threshold=44.500000000000007 21.650000000000002 6.0500000000000016 26.350000000000005 93.833333333333357 5.7500000000000009 1.0000000180025095e-35
decision_type=2 8 10 10 10 10 2
left_child=1 -1 3 6 5 -3 -2
right_child=2 4 -4 -5 -6 -7 -8
leaf_value=-0.03931879303576697 -0.002912197097956544 -0.020100795903835438 0.031476575541487813 0.030904336219152402 0.047751824577894557 0.011280380981496405 0.043929923759306488
leaf_count=13678 23963 13961 5036 3423 790 4052 1060
internal_value=0 -0.364875 0.210482 0.0990986 -0.148656 -0.226813 -0.00861362
internal_count=65963 32481 33482 28446 18803 18013 25023
shrinkage=0.05


Tree=18
num_leaves=8
num_cat=0
split_feature=5 5 6 6 3 3 5
split_gain=140.373 45.1773 24.5916 23.6067 20.1538 19.8383 17.7031
threshold=2.004022639983829 3.0321596244131461 5.9500000000000011 5.7500000000000009 92.833333333333357 95.833333333333357 4.5950428396572827
decision_type=10 10 10 10 10 10 10
left_child=2 3 -1 5 6 -2 -3
right_child=1 4 -4 -5 -6 -7 -8
leaf_value=-0.032130798253906113 -0.011325536999663008 0.017014179870415324 0.0068006315984952218 0.015900395258911945 0.059453473342244038 0.047486079165131222 0.060967304765357236
leaf_count=25696 17455 10263 2703 7713 917 620 596
internal_value=0 0.229651 -0.536707 0.0154128 0.498842 -0.162592 0.412693
internal_count=65963 37564 28399 25788 11776 18075 10859
shrinkage=0.05


Tree=19
num_leaves=8
num_cat=0
split_feature=5 5 6 6 3 4 3
split_gain=128.836 39.4069 23.3924 21.1332 17.5441 16.8813 14.6857
threshold=2.004022639983829 3.0321596244131461 5.9500000000000011 5.7500000000000009 95.833333333333357 130.83333333333334 97.833333333333357
decision_type=10 10 10 10 10 10 8
left_child=2 3 6 4 -2 -3 -1
right_child=1 5 -4 -5 -6 -7 -8
leaf_value=-0.033230453588823032 -0.010882504490287619 0.014447267944460739 0.0064253937623276929 0.014879082515024001 0.043355423848197551 0.036969667497430088 0.040401564090796968
leaf_count=25322 17455 7940 2703 7713 620 3836 374
internal_value=0 0.215892 -0.523838 0.0146356 -0.155679 0.463241 -0.630479
internal_count=65963 37564 28399 25788 18075 11776 25696
shrinkage=0.05


Tree=20
num_leaves=8
num_cat=0
split_feature=5 0 7 0 5 6 0
split_gain=118.212 41.7974 26.6351 24.2066 21.4697 22.9887 22.5593
threshold=2.004022639983829 40.500000000000007 1.0000000180025095e-35 47.500000000000007 3.1390847247990115 6.5500000000000016 63.500000000000007
decision_type=10 2 2 2 10 10 2
left_child=3 -2 4 -1 5 6 -3
right_child=1 2 -4 -5 -6 -7 -8
leaf_value=-0.037357633515621595 -0.015385341448375323 -0.00043842525309531201 0.050947566324220518 -0.0097665029041439887 0.023694069126157725 0.04830500871649266 0.10542974557090837
leaf_count=19445 9164 18626 1524 8954 7253 839 158
internal_value=0 0.203007 0.305126 -0.510938 0.248643 0.0944099 0.0228414
internal_count=65963 37564 28400 28399 26876 19623 18784
shrinkage=0.05


Tree=21
num_leaves=8
num_cat=0
split_feature=5 5 6 6 3 3 5
split_gain=108.53 31.5585 23.849 22.4218 17.7427 13.8988 13.2854
threshold=2.004022639983829 3.1390847247990115 5.7500000000000009 5.9500000000000011 95.833333333333357 97.833333333333357 4.791372912801485
decision_type=10 10 10 10 10 8 10
left_child=3 2 4 5 -2 -1 -3
right_child=1 6 -4 -5 -6 -7 -8
leaf_value=-0.032154849284580254 -0.010514379370401903 0.018801058038674628 0.015392648656900763 0.0070979375044918306 0.040921988788949822 0.038969417779892726 0.05990799178870912
leaf_count=25322 18532 9621 8318 2703 655 374 438
internal_value=0 0.191124 0.027885 -0.498121 -0.148837 -0.607624 0.430776
internal_count=65963 37564 27505 28399 19187 25696 10059
shrinkage=0.05


Tree=22
num_leaves=8
num_cat=0
split_feature=5 0 4 0 5 6 1
split_gain=99.5892 37.346 24.8851 24.0694 16.2127 16.1702 15.9001
threshold=2.004022639983829 38.500000000000007 130.83333333333334 44.500000000000007 4.0505319148936172 5.8500000000000005 1.5000000000000002
decision_type=10 2 10 2 10 10 2
left_child=3 -2 -3 -1 6 -5 -4
right_child=1 2 4 5 -6 -7 -8
leaf_value=-0.04032513593999313 -0.025547902534464387 0.0052113880066456701 0.014275719634838794 -0.021511098739345234 0.055157851675425799 0.01183655284141277 0.052404270639319399
leaf_count=15503 5519 22200 8021 10166 627 2730 1197
internal_value=0 0.179988 0.246162 -0.48525 0.482431 -0.242396 0.386277
internal_count=65963 37564 32045 28399 9845 12896 9218
shrinkage=0.05


Tree=23
num_leaves=8
num_cat=0
split_feature=5 5 6 6 3 6 4
split_gain=91.4185 27.1305 20.3825 16.3507 15.5311 13.5296 13.4067
threshold=2.004022639983829 3.017424242424243 5.9500000000000011 6.5500000000000016 92.833333333333357 5.7500000000000009 122.25000000000001
decision_type=10 10 10 10 10 8 10
left_child=2 3 -1 6 5 -3 -2
right_child=1 4 -4 -5 -6 -7 -8
leaf_value=-0.029153502980214553 -0.012595214255903549 0.0010011965549873512 0.006612863821212552 0.033603170423837751 0.046013306634995421 0.021838331643338982 0.0056301089165907859
leaf_count=25696 12774 4549 2703 978 935 6527 11801
internal_value=0 0.169549 -0.47256 -0.00116793 0.363175 0.289438 -0.0565929
internal_count=65963 37564 28399 25553 12011 11076 24575
shrinkage=0.05


Tree=24
num_leaves=8
num_cat=0
split_feature=5 0 0 5 0 6 0
split_gain=83.8748 33.1346 23.8305 19.7687 18.8809 14.1188 14.0207
threshold=2.004022639983829 38.500000000000007 44.500000000000007 3.107192075796728 63.500000000000007 5.8500000000000005 44.500000000000007
decision_type=10 2 2 10 2 10 2
left_child=2 -2 -1 4 6 -4 -3
right_child=1 3 5 -5 -6 -7 -8
leaf_value=-0.039614758676935265 -0.024970931921843024 -0.01274383914660367 -0.02001495859941585 0.020240693425143886 0.085887512223513443 0.011262992518040747 0.0079653852805066355
leaf_count=15503 5519 8152 10166 9068 198 2730 14627
internal_value=0 0.15981 -0.459804 0.220382 0.0787729 -0.216658 0.0518622
internal_count=65963 37564 28399 32045 22977 12896 22779
shrinkage=0.05


end of trees

feature importances:
H25_lhrate=47
H25_age=41
H25_a1c=35
H25_dbp=17
H25_bmi=14
H25_sbp=14
H25_ht=5
H25_sex=2

parameters:
[boosting: gbdt]
[objective: binary]
[metric: binary]
[tree_learner: serial]
[device_type: cpu]
[data: ]
[valid: ]
[num_iterations: 100]
[learning_rate: 0.05]
[num_leaves: 8]
[num_threads: 0]
[max_depth: -1]
[min_data_in_leaf: 20]
[min_sum_hessian_in_leaf: 1]
[bagging_fraction: 0.4]
[bagging_freq: 0]
[bagging_seed: 3]
[feature_fraction: 0.8]
[feature_fraction_seed: 2]
[early_stopping_round: 0]
[max_delta_step: 0]
[lambda_l1: 0]
[lambda_l2: 1]
[min_gain_to_split: 0]
[drop_rate: 0.1]
[max_drop: 50]
[skip_drop: 0.5]
[xgboost_dart_mode: 0]
[uniform_drop: 0]
[drop_seed: 4]
[top_rate: 0.2]
[other_rate: 0.1]
[min_data_per_group: 100]
[max_cat_threshold: 32]
[cat_l2: 10]
[cat_smooth: 10]
[max_cat_to_onehot: 4]
[top_k: 20]
[monotone_constraints: ]
[feature_contri: ]
[forcedsplits_filename: ]
[refit_decay_rate: 0.9]
[verbosity: 0]
[max_bin: 255]
[min_data_in_bin: 3]
[bin_construct_sample_cnt: 200000]
[histogram_pool_size: -1]
[data_random_seed: 1]
[output_model: LightGBM_model.txt]
[snapshot_freq: -1]
[input_model: ]
[output_result: LightGBM_predict_result.txt]
[initscore_filename: ]
[valid_data_initscores: ]
[pre_partition: 0]
[enable_bundle: 1]
[max_conflict_rate: 0]
[is_enable_sparse: 1]
[sparse_threshold: 0.8]
[use_missing: 1]
[zero_as_missing: 0]
[two_round: 0]
[save_binary: 0]
[enable_load_from_binary_file: 1]
[header: 0]
[label_column: ]
[weight_column: ]
[group_column: ]
[ignore_column: ]
[categorical_feature: ]
[predict_raw_score: 0]
[predict_leaf_index: 0]
[predict_contrib: 0]
[num_iteration_predict: -1]
[pred_early_stop: 0]
[pred_early_stop_freq: 10]
[pred_early_stop_margin: 10]
[convert_model_language: ]
[convert_model: gbdt_prediction.cpp]
[num_class: 1]
[is_unbalance: 0]
[scale_pos_weight: 1]
[sigmoid: 1]
[boost_from_average: 1]
[reg_sqrt: 0]
[alpha: 0.9]
[fair_c: 1]
[poisson_max_delta_step: 0.7]
[tweedie_variance_power: 1.5]
[max_position: 20]
[label_gain: ]
[metric_freq: 1]
[is_provide_training_metric: 0]
[eval_at: ]
[num_machines: 1]
[local_listen_port: 12400]
[time_out: 120]
[machine_list_filename: ]
[machines: ]
[gpu_platform_id: -1]
[gpu_device_id: -1]
[gpu_use_dp: 0]

end of parameters

pandas_categorical:[]
