tree
version=v2
num_class=1
num_tree_per_iteration=1
label_index=0
max_feature_idx=8
objective=binary sigmoid:1
feature_names=H25_age H25_sex H25_bmi H25_dbp H25_sbp H25_lhrate H25_a1c H25_ht H25_dm
feature_infos=[18:74] [1:2] [0:65.599999999999994] [0:169] [0:238] [0.38181818181818172:9.046153846153846] [3.2000000000000002:15.5] [0:1] [0:1]
tree_sizes=722 742 725 740 737 732 729 739 731 740 752 741 737 745 742 738 746 751 744 738 739 738 742 739 741

Tree=0
num_leaves=8
num_cat=0
split_feature=5 0 7 0 5 5 6
split_gain=625.629 183.541 100.345 77.4969 71.2638 61.6236 53.7836
threshold=3.0969938107869148 49.500000000000007 1.0000000180025095e-35 38.500000000000007 2.0011627906976748 2.4204636091724834 6.1500000000000012
decision_type=10 2 2 2 8 10 10
left_child=1 5 3 -2 -3 -1 -5
right_child=2 4 -4 6 -6 -7 -8
leaf_value=-4.0728334474380361 -4.0388791535043049 -4.0439616054208232 -3.787978786166172 -3.959106954804958 -3.9906710662616249 -4.0384130316476323 -3.8739963443056538
leaf_count=30257 1519 6599 483 7456 8169 10181 1299
internal_value=0 -0.329307 1.68267 1.50303 0.399505 -0.595663 1.7781
internal_count=65963 55206 10757 10274 14768 40438 8755
shrinkage=1


Tree=1
num_leaves=8
num_cat=0
split_feature=6 0 4 4 7 7 0
split_gain=270.075 191.318 58.7431 44.1485 34.1423 28.7133 20.8907
threshold=6.1500000000000012 44.500000000000007 137.25000000000003 130.83333333333334 1.0000000180025095e-35 1.0000000180025095e-35 57.500000000000007
decision_type=10 2 8 10 2 2 2
left_child=1 5 4 -2 6 -1 -3
right_child=3 2 -4 -5 -6 -7 -8
leaf_value=-0.029865960557063601 0.051693312966107623 0.00083621255435792775 0.053682877361639014 0.12396874822467928 0.075809478843047173 0.069247802245380449 0.041001715109086311
leaf_count=30868 2995 22277 4546 2045 910 367 1955
internal_value=0 -0.146044 0.288019 1.6452 0.142119 -0.570177 0.0847158
internal_count=65963 60923 29688 5040 25142 31235 24232
shrinkage=0.05


Tree=2
num_leaves=8
num_cat=0
split_feature=5 0 0 5 5 6 5
split_gain=533.202 130.657 111.248 63.2132 51.9281 43.4587 39.8243
threshold=2.7690981432360755 49.500000000000007 44.500000000000007 3.8695402298850579 3.9065997130559547 5.8500000000000005 2.0011627906976748
decision_type=10 2 2 10 10 8 8
left_child=1 -1 3 -2 -4 -5 -3
right_child=2 6 4 5 -6 -7 -8
leaf_value=-0.033518971933755963 0.0049395027002263085 -0.010123667493451664 0.069588681378438419 0.024698535900887469 0.14489409559035443 0.15649641459133368 0.031274891713048612
leaf_count=36154 6303 6599 7741 736 1429 652 6349
internal_value=0 -0.421439 1.12135 0.433087 1.6497 1.8371 0.21614
internal_count=65963 49102 16861 7691 9170 1388 12948
shrinkage=0.05


Tree=3
num_leaves=8
num_cat=0
split_feature=0 2 2 6 4 6 2
split_gain=213.621 129.169 87.3657 50.6496 39.037 39.0019 32.4762
threshold=44.500000000000007 23.950000000000003 31.050000000000004 6.0500000000000016 135.83333333333334 6.3500000000000005 21.650000000000002
decision_type=2 10 10 10 10 10 8
left_child=2 3 5 -2 -3 6 -1
right_child=1 4 -4 -5 -6 -7 -8
leaf_value=-0.044214204838645382 -0.0043552720654855331 0.035801374611809898 0.081123438542063123 0.05391360727596 0.081192532768758208 0.065437762279666606 -0.018255373206015696
leaf_count=13501 19256 8568 1022 2163 3485 530 17438
internal_value=0 0.403063 -0.468444 0.0422896 0.994585 -0.547187 -0.587824
internal_count=65963 33472 32491 21419 12053 31469 30939
shrinkage=0.05


Tree=4
num_leaves=8
num_cat=0
split_feature=5 5 6 6 7 1 5
split_gain=448.257 74.0778 59.997 48.7478 40.6446 37.053 29.7548
threshold=2.7690981432360755 3.7857863751051313 5.7500000000000009 5.8500000000000005 1.0000000180025095e-35 1.5000000000000002 1.9177978883861238
decision_type=10 10 10 8 2 2 10
left_child=2 4 -1 -3 5 -2 -4
right_child=1 3 6 -5 -6 -7 -8
leaf_value=-0.028364577196001661 0.023734665099270191 0.043936155771263717 -0.018981631727020769 0.12832806478156256 0.11546924345702195 0.085298696639755908 0.019128750780266459
leaf_count=37068 11384 1592 5351 1849 616 1420 6683
internal_value=0 0.979999 -0.405679 1.86608 0.721582 0.618339 0.0572331
internal_count=65963 16861 49102 3441 13420 12804 12034
shrinkage=0.05


Tree=5
num_leaves=8
num_cat=0
split_feature=5 0 0 5 5 5 1
split_gain=393.796 117.446 73.7316 38.7525 32.1533 29.632 28.4073
threshold=2.7690981432360755 49.500000000000007 42.500000000000007 3.2449494949494953 2.0011627906976748 3.8695402298850579 1.5000000000000002
decision_type=10 2 2 10 8 10 2
left_child=1 -1 5 -4 -3 -2 -5
right_child=2 4 3 6 -6 -7 -8
leaf_value=-0.032236288523909612 -0.0033129808173382293 -0.0092776439411636283 0.037640020862978511 0.070299192976005467 0.02771923227247175 0.059515224119542014 0.15304855615317445
leaf_count=36154 4874 6599 5329 5080 6349 1086 492
internal_value=0 -0.393347 0.888185 1.20272 0.200353 0.206479 1.57906
internal_count=65963 49102 16861 10901 12948 5960 5572
shrinkage=0.05


Tree=6
num_leaves=8
num_cat=0
split_feature=5 0 0 5 6 6 5
split_gain=348.373 106.494 61.4828 31.9765 41.861 30.8121 29.5855
threshold=2.7359730848861292 48.500000000000007 42.500000000000007 3.2449494949494953 7.6500000000000012 5.7500000000000009 1.9682043124779072
decision_type=10 2 2 10 10 8 8
left_child=1 -1 5 4 -4 -2 -3
right_child=2 6 3 -5 -6 -7 -8
leaf_value=-0.03321821237117064 -0.017522892976235518 -0.011834974085886874 0.028495466080391246 0.069612192524736924 0.20419011473403012 0.033976941396723102 0.021687696791695382
leaf_count=33625 3208 7348 5699 5572 108 3028 7375
internal_value=0 -0.39166 0.789173 1.05961 0.676296 0.177013 0.12267
internal_count=65963 48348 17615 11379 5807 6236 14723
shrinkage=0.05


Tree=7
num_leaves=8
num_cat=0
split_feature=5 4 0 0 2 5 5
split_gain=311.977 79.4584 77.8873 52.8047 33.1416 31.0966 26.3243
threshold=2.4313266443701234 137.25000000000003 49.500000000000007 42.500000000000007 24.850000000000005 3.3203448275862075 4.4625313283208028
decision_type=10 10 2 2 10 10 8
left_child=2 3 -1 6 -4 -5 -2
right_child=1 -3 4 5 -6 -7 -8
leaf_value=-0.035624231056517949 -0.011573890595033408 0.071269318857902705 -0.0072033758762000306 0.019240932745437433 0.046125595357686837 0.053717053874597159 0.086135508979748934
leaf_count=30449 7508 3933 8604 9424 1806 3961 278
internal_value=0 0.575019 -0.480163 0.39104 0.0605209 0.632086 -0.127458
internal_count=65963 25104 40859 21171 10410 13385 7786
shrinkage=0.05


Tree=8
num_leaves=8
num_cat=0
split_feature=5 4 5 6 6 3 6
split_gain=280.53 63.8009 46.3366 39.8239 31.3568 26.4082 22.528
threshold=2.4313266443701234 137.25000000000003 3.1611613876319766 6.0500000000000016 7.7500000000000009 95.833333333333357 6.5500000000000016
decision_type=10 10 10 10 10 8 10
left_child=3 2 4 5 -2 -1 -3
right_child=1 6 -4 -5 -6 -7 -8
leaf_value=-0.029234222762915565 0.00086076893110362078 0.052912881104919755 0.03632644360411541 0.017407698455637589 0.13831152159367463 0.03611185646809293 0.12617976358960725
leaf_count=36920 12911 3540 8130 3015 130 924 393
internal_value=0 0.53118 0.364551 -0.467329 0.0663527 -0.54759 1.26495
internal_count=65963 25104 21171 40859 13041 37844 3933
shrinkage=0.05


Tree=9
num_leaves=8
num_cat=0
split_feature=5 0 0 4 5 2 5
split_gain=252.815 75.599 60.9412 34.1414 30.9331 29.9374 19.6473
threshold=2.4313266443701234 48.500000000000007 42.500000000000007 135.83333333333334 3.0969938107869148 24.850000000000005 3.1611613876319766
decision_type=10 2 2 10 10 10 10
left_child=1 -1 4 6 -2 -3 -4
right_child=2 5 3 -5 -6 -7 -8
leaf_value=-0.035855818152132242 -0.023422377385015774 -0.0077934386617690941 0.014327521763464676 0.061165899781585646 0.020687124275546014 0.039694813631516293 0.040765973363106986
leaf_count=28799 5023 9992 7900 3554 3804 2068 4823
internal_value=0 -0.454473 0.492245 0.70792 -0.0319935 0.031591 0.531109
internal_count=65963 40859 25104 16277 8827 12060 12723
shrinkage=0.05


Tree=10
num_leaves=8
num_cat=0
split_feature=0 2 2 2 7 2 7
split_gain=136.864 63.8248 60.8667 32.6977 24.9824 22.1166 18.4626
threshold=44.500000000000007 22.050000000000004 30.350000000000005 21.650000000000002 1.0000000180025095e-35 26.550000000000004 1.0000000180025095e-35
decision_type=2 10 10 8 2 10 2
left_child=2 -2 3 -1 5 -3 -5
right_child=1 4 -4 6 -6 -7 -8
leaf_value=-0.041864248823294432 -0.0070701747369524117 0.015036396072929812 0.050336501939993929 -0.016140654645929411 0.064530230968222621 0.042277107499806642 0.067911993150563038
leaf_count=13592 13325 14550 1295 17320 1487 4110 284
internal_value=0 0.293146 -0.411501 -0.500873 0.517327 0.440824 -0.282675
internal_count=65963 33472 32491 31196 20147 18660 17604
shrinkage=0.05


Tree=11
num_leaves=8
num_cat=0
split_feature=0 2 2 2 4 7 0
split_gain=124.371 55.9479 55.0468 33.5042 28.8195 20.4515 16.1476
threshold=44.500000000000007 21.350000000000005 31.050000000000004 21.650000000000002 135.83333333333334 1.0000000180025095e-35 41.500000000000007
decision_type=2 10 10 8 10 2 2
left_child=2 -2 3 -1 -3 -5 -4
right_child=1 4 6 5 -6 -7 -8
leaf_value=-0.041472308680159151 -0.011267315300858616 0.014664105859790534 0.022331043288009673 -0.015330386035095067 0.04169955193709772 0.068334354975690278 0.10999441917384917
leaf_count=13592 10273 17662 733 17575 5537 302 289
internal_value=0 0.274526 -0.399148 -0.478829 0.442898 -0.261954 1.06693
internal_count=65963 33472 32491 31469 23199 17877 1022
shrinkage=0.05


Tree=12
num_leaves=8
num_cat=0
split_feature=5 0 0 5 0 2 3
split_gain=211.632 66.2617 49.0403 39.9605 23.1549 21.2872 19.1057
threshold=2.4313266443701234 49.500000000000007 38.500000000000007 3.1134182908545736 44.500000000000007 24.850000000000005 92.833333333333357
decision_type=10 2 2 10 2 10 10
left_child=1 -1 -2 4 -4 -3 -5
right_child=2 5 3 6 -6 -7 -8
leaf_value=-0.03354668831585645 -0.020697896679890183 -0.0060649029434546864 -0.011891275539014548 0.035880814953587463 0.02198237182688273 0.034737378193864792 0.081744649399630109
leaf_count=30449 3616 8604 4402 8268 8070 1806 748
internal_value=0 -0.432625 0.432901 0.535831 0.248493 0.0548706 0.8155
internal_count=65963 40859 25104 21488 12472 10410 9016
shrinkage=0.05


Tree=13
num_leaves=8
num_cat=0
split_feature=5 0 0 5 7 6 2
split_gain=191.188 63.6312 43.3217 36.9082 24.133 25.7722 19.9007
threshold=2.4313266443701234 48.500000000000007 37.500000000000007 3.952192982456141 1.0000000180025095e-35 5.7500000000000009 24.850000000000005
decision_type=10 2 2 10 2 10 10
left_child=1 -1 -2 4 5 -4 -3
right_child=2 6 3 -5 -6 -7 -8
leaf_value=-0.034185552210612126 -0.024173390758360211 -0.0074450668499086992 0.0055692136512170082 0.057648729998046655 0.060620635837845271 0.030884511360429412 0.029551723260092578
leaf_count=28799 3048 9992 12106 2176 992 6782 2068
internal_value=0 -0.420113 0.402678 0.487746 0.380196 0.314857 0.0122519
internal_count=65963 40859 25104 22056 19880 18888 12060
shrinkage=0.05


Tree=14
num_leaves=8
num_cat=0
split_feature=5 0 0 5 6 6 7
split_gain=172.901 60.6692 38.4347 30.6163 29.4766 19.2773 18.3773
threshold=2.4313266443701234 48.500000000000007 37.500000000000007 3.2449494949494953 7.3500000000000005 5.7500000000000009 1.0000000180025095e-35
decision_type=10 2 2 10 10 10 2
left_child=1 -1 -2 4 6 -3 -4
right_child=2 5 3 -5 -6 -7 -8
leaf_value=-0.03360880289792053 -0.023534528958924369 -0.01140931010734818 0.005693418451906831 0.036295790413237848 0.097889176421136898 0.019406081642312705 0.053923070619462124
leaf_count=28799 3048 7734 13476 7607 276 4326 697
internal_value=0 -0.407727 0.375184 0.452765 0.241667 0.0116266 0.184232
internal_count=65963 40859 25104 22056 14449 12060 14173
shrinkage=0.05


Tree=15
num_leaves=8
num_cat=0
split_feature=5 0 0 5 6 0 2
split_gain=156.539 57.773 34.3618 26.3613 20.273 17.4987 17.2989
threshold=2.4313266443701234 48.500000000000007 38.500000000000007 3.1134182908545736 6.8500000000000005 45.500000000000007 24.850000000000005
decision_type=10 2 2 10 10 2 10
left_child=1 -1 -2 4 5 -4 -3
right_child=2 6 3 -5 -6 -7 -8
leaf_value=-0.033023736502707526 -0.019070731210956773 -0.0071087769257277989 -0.011771239965362097 0.032122841632745876 0.06916106015664461 0.016222302642392598 0.026990202202954935
leaf_count=28799 3616 9992 5112 9016 414 6946 2068
internal_value=0 -0.395482 0.350173 0.429047 0.197247 0.13043 0.0109682
internal_count=65963 40859 25104 21488 12472 12058 12060
shrinkage=0.05


Tree=16
num_leaves=8
num_cat=0
split_feature=6 0 2 2 4 0 3
split_gain=91.9423 56.2319 30.278 25.2836 22.1925 22.7476 18.8931
threshold=5.7500000000000009 45.500000000000007 27.150000000000002 21.550000000000004 134.83333333333334 57.500000000000007 93.833333333333357
decision_type=10 2 10 8 10 2 10
left_child=1 3 -3 -1 5 -2 -5
right_child=4 2 -4 6 -6 -7 -8
leaf_value=-0.042147290171635016 0.0066875469395609472 -0.0017213262118893622 0.044950089664379328 -0.017885321452021881 0.038002379499136214 0.052194650315982617 0.045619464643617685
leaf_count=12136 12972 17645 1423 15829 4114 1229 615
internal_value=0 -0.213209 0.0643546 -0.488892 0.385532 0.233961 -0.293257
internal_count=65963 47648 19068 28580 18315 14201 16444
shrinkage=0.05


Tree=17
num_leaves=8
num_cat=0
split_feature=2 6 7 0 0 2 6
split_gain=83.6224 47.1868 35.1888 33.4348 23.7022 21.8563 13.744
threshold=21.650000000000002 5.7500000000000009 1.0000000180025095e-35 43.500000000000007 42.500000000000007 30.350000000000005 9.3500000000000032
decision_type=8 10 2 2 2 10 10
left_child=3 2 4 -1 -2 -6 -3
right_child=1 6 -4 -5 5 -7 -8
leaf_value=-0.041587521911740026 -0.020598410868638437 0.02166887823108106 0.052167586677250778 -0.0085532417081667766 0.00078784877723330187 0.073077263603728057 0.091507704201580123
leaf_count=12423 11581 12782 1034 12414 15186 357 186
internal_value=0 0.167189 -0.0275713 -0.436841 -0.0943292 0.0666703 0.466864
internal_count=65963 41126 28158 24837 27124 15543 12968
shrinkage=0.05


Tree=18
num_leaves=8
num_cat=0
split_feature=5 5 6 1 3 7 5
split_gain=132.263 28.7068 28.6683 27.5478 21.8807 19.418 17.8206
threshold=2.4313266443701234 3.952192982456141 6.0500000000000016 1.5000000000000002 95.833333333333357 1.0000000180025095e-35 2.0186653771760161
decision_type=10 10 10 2 8 2 10
left_child=2 3 4 5 6 -2 -1
right_child=1 -3 -4 -5 -6 -7 -8
leaf_value=-0.031671726016284055 0.0035236064606631885 0.041900944847718453 0.014872028480909863 0.040184726298481827 0.034072004081610353 0.042363212758174312 -0.010128298960603462
leaf_count=26335 18688 2484 3015 3036 924 896 10585
internal_value=0 0.312249 -0.374861 0.221963 -0.456625 0.130692 -0.497493
internal_count=65963 25104 40859 22620 37844 19584 36920
shrinkage=0.05


Tree=19
num_leaves=8
num_cat=0
split_feature=5 5 6 6 7 3 5
split_gain=121.489 40.4617 26.9552 20.5499 17.5079 15.3353 16.7389
threshold=2.0011627906976748 3.0969938107869148 5.7500000000000009 6.0500000000000016 1.0000000180025095e-35 91.833333333333357 4.0602325581395355
decision_type=10 10 10 10 2 10 10
left_child=3 2 4 -1 -2 -3 -7
right_child=1 5 -4 -5 -6 6 -8
leaf_value=-0.029640900228121582 -0.01117446379434431 0.019692856323169361 0.016621309628001218 0.013306122074659211 0.041615186370796031 0.033131727532071609 0.11046327182684182
leaf_count=26461 18353 9796 8023 1753 616 776 185
internal_value=0 0.207468 0.017974 -0.513696 -0.164895 0.47553 1.06015
internal_count=65963 37749 26992 28214 18969 10757 961
shrinkage=0.05


Tree=20
num_leaves=8
num_cat=0
split_feature=5 0 0 5 0 0 3
split_gain=111.504 36.1486 31.7858 29.3486 20.625 16.7048 16.5343
threshold=2.0011627906976748 37.500000000000007 57.500000000000007 3.0969938107869148 45.500000000000007 63.500000000000007 96.583333333333357
decision_type=10 2 2 10 2 2 10
left_child=2 -2 6 4 -3 -6 -1
right_child=1 3 -4 -5 5 -7 -8
leaf_value=-0.03106903781168905 -0.026412131540234786 -0.011296281741888056 0.033339260906009742 0.024467685735367811 0.010173944267997637 0.093015440660065174 0.042254362992247808
leaf_count=26562 4733 10265 1211 9474 13072 205 441
internal_value=0 0.195296 -0.500799 0.257183 0.0864736 0.240121 -0.584217
internal_count=65963 37749 28214 33016 23542 13277 27003
shrinkage=0.05


Tree=21
num_leaves=8
num_cat=0
split_feature=5 5 6 6 1 7 3
split_gain=102.274 31.321 23.4404 19.5256 17.499 15.2664 14.2147
threshold=2.0011627906976748 3.0969938107869148 5.7500000000000009 5.9500000000000011 1.5000000000000002 1.0000000180025095e-35 91.833333333333357
decision_type=10 10 10 10 2 2 10
left_child=3 2 5 -1 6 -2 -3
right_child=1 4 -4 -5 -6 -7 -8
leaf_value=-0.029292804963943708 -0.010697941851174656 0.012791379683835419 0.01520154574166596 0.0071490117700488175 0.055697015274143336 0.037626623515077388 0.044818291554217932
leaf_count=25518 18353 8965 8023 2696 882 616 910
internal_value=0 0.183796 0.015377 -0.487887 0.413007 -0.157479 0.3388
internal_count=65963 37749 26992 28214 10757 18969 9875
shrinkage=0.05


Tree=22
num_leaves=8
num_cat=0
split_feature=5 0 0 5 4 0 1
split_gain=93.8492 32.0045 29.6294 22.7945 18.4664 15.1153 15.3354
threshold=2.0011627906976748 37.500000000000007 57.500000000000007 2.8813346228239851 141.16666666666671 49.500000000000007 1.5000000000000002
decision_type=10 2 2 10 10 2 2
left_child=2 -2 4 5 -1 -3 -7
right_child=1 3 -4 -5 -6 6 -8
leaf_value=-0.031443827497283069 -0.025832154803552099 -0.007587103219265888 0.032046599651607138 0.019557551222885775 0.01856921637773272 0.0050170192422038804 0.041739451908057057
leaf_count=25652 4733 13190 1211 12830 1351 5462 1534
internal_value=0 0.173166 -0.475056 0.229654 -0.560436 0.0430784 0.262673
internal_count=65963 37749 28214 33016 27003 20186 6996
shrinkage=0.05


Tree=23
num_leaves=8
num_cat=0
split_feature=5 6 5 2 2 4 3
split_gain=86.0681 26.2264 21.1969 19.7389 16.5537 13.4257 12.9238
threshold=2.0011627906976748 5.7500000000000009 3.1134182908545736 25.550000000000004 34.350000000000001 126.25000000000001 92.833333333333357
decision_type=10 10 10 10 10 10 10
left_child=3 2 5 -1 6 -2 -4
right_child=1 -3 4 -5 -6 -7 -8
leaf_value=-0.027415350394495719 -0.01650626145430354 0.018677132550922754 0.0072036041348857984 0.014793139794577196 0.1107252956916287 0.005196164503489243 0.053651177009884379
leaf_count=26057 12359 12274 5869 2157 106 6757 384
internal_value=0 0.163084 0.0119856 -0.46228 0.275471 -0.154866 0.228404
internal_count=65963 37749 25475 28214 6359 19116 6253
shrinkage=0.05


Tree=24
num_leaves=8
num_cat=0
split_feature=5 0 0 5 3 0 6
split_gain=78.9671 28.4529 28.0259 18.7683 17.7953 17.623 16.8097
threshold=2.0011627906976748 37.500000000000007 52.500000000000007 3.952192982456141 96.583333333333357 49.500000000000007 6.6500000000000012
decision_type=10 2 2 10 10 2 10
left_child=2 -2 4 5 -1 6 -3
right_child=1 3 -4 -5 -6 -7 -8
leaf_value=-0.032516336901922162 -0.025248134813428677 -0.0023471502677621502 0.0077448695836029383 0.031185254077822262 0.054281056992280634 0.016503715376516539 0.042470178415662502
leaf_count=23975 4733 19634 3899 2176 340 10578 628
internal_value=0 0.15386 -0.449546 0.205643 -0.607001 0.14714 0.00498965
internal_count=65963 37749 28214 33016 24315 30840 20262
shrinkage=0.05


end of trees

feature importances:
H25_lhrate=49
H25_age=42
H25_a1c=26
H25_bmi=21
H25_ht=13
H25_sbp=10
H25_dbp=9
H25_sex=5

parameters:
[boosting: gbdt]
[objective: binary]
[metric: binary]
[tree_learner: serial]
[device_type: cpu]
[data: ]
[valid: ]
[num_iterations: 100]
[learning_rate: 0.05]
[num_leaves: 8]
[num_threads: 0]
[max_depth: -1]
[min_data_in_leaf: 20]
[min_sum_hessian_in_leaf: 1]
[bagging_fraction: 0.4]
[bagging_freq: 0]
[bagging_seed: 3]
[feature_fraction: 0.8]
[feature_fraction_seed: 2]
[early_stopping_round: 0]
[max_delta_step: 0]
[lambda_l1: 0]
[lambda_l2: 1]
[min_gain_to_split: 0]
[drop_rate: 0.1]
[max_drop: 50]
[skip_drop: 0.5]
[xgboost_dart_mode: 0]
[uniform_drop: 0]
[drop_seed: 4]
[top_rate: 0.2]
[other_rate: 0.1]
[min_data_per_group: 100]
[max_cat_threshold: 32]
[cat_l2: 10]
[cat_smooth: 10]
[max_cat_to_onehot: 4]
[top_k: 20]
[monotone_constraints: ]
[feature_contri: ]
[forcedsplits_filename: ]
[refit_decay_rate: 0.9]
[verbosity: 0]
[max_bin: 255]
[min_data_in_bin: 3]
[bin_construct_sample_cnt: 200000]
[histogram_pool_size: -1]
[data_random_seed: 1]
[output_model: LightGBM_model.txt]
[snapshot_freq: -1]
[input_model: ]
[output_result: LightGBM_predict_result.txt]
[initscore_filename: ]
[valid_data_initscores: ]
[pre_partition: 0]
[enable_bundle: 1]
[max_conflict_rate: 0]
[is_enable_sparse: 1]
[sparse_threshold: 0.8]
[use_missing: 1]
[zero_as_missing: 0]
[two_round: 0]
[save_binary: 0]
[enable_load_from_binary_file: 1]
[header: 0]
[label_column: ]
[weight_column: ]
[group_column: ]
[ignore_column: ]
[categorical_feature: ]
[predict_raw_score: 0]
[predict_leaf_index: 0]
[predict_contrib: 0]
[num_iteration_predict: -1]
[pred_early_stop: 0]
[pred_early_stop_freq: 10]
[pred_early_stop_margin: 10]
[convert_model_language: ]
[convert_model: gbdt_prediction.cpp]
[num_class: 1]
[is_unbalance: 0]
[scale_pos_weight: 1]
[sigmoid: 1]
[boost_from_average: 1]
[reg_sqrt: 0]
[alpha: 0.9]
[fair_c: 1]
[poisson_max_delta_step: 0.7]
[tweedie_variance_power: 1.5]
[max_position: 20]
[label_gain: ]
[metric_freq: 1]
[is_provide_training_metric: 0]
[eval_at: ]
[num_machines: 1]
[local_listen_port: 12400]
[time_out: 120]
[machine_list_filename: ]
[machines: ]
[gpu_platform_id: -1]
[gpu_device_id: -1]
[gpu_use_dp: 0]

end of parameters

pandas_categorical:[]
