tree
version=v2
num_class=1
num_tree_per_iteration=1
label_index=0
max_feature_idx=8
objective=binary sigmoid:1
feature_names=H25_age H25_sex H25_bmi H25_dbp H25_sbp H25_lhrate H25_a1c H25_dm H25_dl
feature_infos=[18:74] [1:2] [0:52.899999999999999] [5:140] [10:238] [0.097560975609756101:8.8461538461538485] [3:15.5] [0:1] [0:1]
tree_sizes=715 734 727 735 732 732 732 730 728 730 744 735 740 739 732 739 742 744 735 744 742 738 744 738 740 739 741 741 737 739 738 739 738 740 735 731 738 741 739 746 737 736 737 739 741 746 736 744 743 737 743 744 748 741 735 743 737 723 749 732 744 742 723 739 738 735 735 744 738 731 741 738 732 748 731 739 733 739 740 749 738 739 729 735 731 735 737 740 746 734 725 733 729 729 735 723 745 721 738 735

Tree=0
num_leaves=8
num_cat=0
split_feature=3 3 4 4 0 4 0
split_gain=1586.9 313.109 221.58 83.6723 66.5583 85.2658 55.2928
threshold=94.583333333333357 105.83333333333336 140.83333333333334 152.83333333333334 44.500000000000007 142.83333333333334 49.500000000000007
decision_type=8 10 10 10 2 8 2
left_child=2 4 6 -4 -2 -6 -1
right_child=1 -3 3 -5 5 -7 -8
leaf_value=-4.4368559768019518 -4.3013698540470129 -3.8783685922178073 -4.3751068079455475 -4.2655957919695036 -4.3530671238888887 -4.1281272363774519 -4.4013439430431003
leaf_count=38524 1177 729 10216 1617 451 2332 11964
internal_value=0 5.0676 -0.387527 0.731874 3.9021 4.67303 -0.650655
internal_count=67010 4689 62321 11833 3960 2783 50488
shrinkage=1


Tree=1
num_leaves=8
num_cat=0
split_feature=3 4 4 7 0 0 3
split_gain=1137.61 203.259 131.78 74.1054 56.3883 54.0076 47.4823
threshold=94.583333333333357 140.83333333333334 153.83333333333334 1.0000000180025095e-35 51.500000000000007 49.500000000000007 104.83333333333336
decision_type=8 10 10 2 2 2 10
left_child=1 5 -2 4 -3 -1 -4
right_child=2 3 6 -5 -6 -7 -8
leaf_value=-0.040506473481527638 0.10809429790800154 0.0075904259844097755 0.19203801278038832 0.21965625549828036 0.078156190767586869 -0.0051721707333694938 0.32732987037826788
leaf_count=38524 2243 8482 1673 333 3018 11964 773
internal_value=0 -0.375652 3.76163 0.670856 0.532552 -0.638665 4.98146
internal_count=67010 62321 4689 11833 11500 50488 2446
shrinkage=0.05


Tree=2
num_leaves=8
num_cat=0
split_feature=3 4 4 0 7 0 0
split_gain=919.319 130.956 129.816 57.8005 48.3687 40.2923 36.3986
threshold=92.833333333333357 165.16666666666671 142.83333333333334 53.500000000000007 1.0000000180025095e-35 49.500000000000007 42.500000000000007
decision_type=8 10 10 2 2 2 2
left_child=2 6 3 -1 5 -4 -2
right_child=1 -3 4 -5 -6 -7 -8
leaf_value=-0.036740600394515203 0.03873526156123358 0.24122760824271403 -0.0024437890515044344 0.011223684214927844 0.18818920982112436 0.062680177516574495 0.1186961854669677
leaf_count=46083 1316 972 5047 5919 231 2774 4668
internal_value=0 2.60811 -0.437964 -0.619306 0.588813 0.438585 2.058
internal_count=67010 6956 60054 52002 8052 7821 5984
shrinkage=0.05


Tree=3
num_leaves=8
num_cat=0
split_feature=3 4 0 2 2 8 4
split_gain=768.783 127.094 91.0967 65.3125 44.4821 38.8898 38.6038
threshold=90.833333333333357 152.16666666666671 49.500000000000007 27.750000000000004 34.050000000000004 1.0000000180025095e-35 146.83333333333334
decision_type=8 10 2 10 10 2 10
left_child=2 5 4 6 -1 -2 -4
right_child=1 -3 3 -5 -6 -7 -8
leaf_value=-0.037751028264902793 0.044894250658593989 0.14512772861798431 -0.010761966759462213 0.11552259096727964 0.11610509049077522 0.15809214397079663 0.068388477631704123
leaf_count=42750 5885 3327 12190 911 320 514 1113
internal_value=0 1.91858 -0.497569 0.121087 -0.725329 1.11781 -0.0494158
internal_count=67010 9726 57284 14214 43070 6399 13303
shrinkage=0.05


Tree=4
num_leaves=8
num_cat=0
split_feature=3 3 0 2 6 8 2
split_gain=647.95 96.4945 86.9448 53.9202 43.6616 41.9307 39.5695
threshold=90.833333333333357 98.250000000000014 49.500000000000007 29.950000000000003 7.1500000000000012 1.0000000180025095e-35 34.050000000000004
decision_type=8 10 2 10 10 2 10
left_child=2 5 6 4 -4 -2 -1
right_child=1 -3 3 -5 -6 -7 -8
leaf_value=-0.037249458570898425 0.042343510314045492 0.12839830359563206 -0.0043720764227774987 0.15527296759214304 0.12853095683750876 0.14857229292206239 0.10160719273683952
leaf_count=42750 6406 2773 13474 335 405 547 320
internal_value=0 1.66129 -0.484679 0.114675 0.0119515 1.05718 -0.714588
internal_count=67010 9726 57284 14214 13879 6953 43070
shrinkage=0.05


Tree=5
num_leaves=8
num_cat=0
split_feature=3 4 0 3 8 6 4
split_gain=558.238 97.6853 68.7233 38.3109 39.7408 37.1753 30.3821
threshold=88.833333333333357 152.16666666666671 57.500000000000007 83.833333333333357 1.0000000180025095e-35 6.4500000000000011 126.16666666666667
decision_type=8 8 2 10 2 8 10
left_child=2 -2 3 -1 -5 -3 -4
right_child=1 5 6 4 -6 -7 -8
leaf_value=-0.037459061398096065 0.03720204867043677 0.083933189481579837 -0.021768682159782352 -0.012530471330079677 0.10212567179275599 0.1601119960701729 0.078129058993574363
leaf_count=42136 9391 2768 931 8759 598 866 1561
internal_value=0 1.29319 -0.535655 -0.619704 -0.0754638 2.06225 0.871832
internal_count=67010 13025 53985 51493 9357 3634 2492
shrinkage=0.05


Tree=6
num_leaves=8
num_cat=0
split_feature=3 3 0 8 2 0 5
split_gain=486.367 77.1018 66.2745 38.2473 36.7947 35.2148 30.906
threshold=88.833333333333357 98.250000000000014 49.500000000000007 1.0000000180025095e-35 27.650000000000002 45.500000000000007 2.6526175687666376
decision_type=8 10 2 2 8 2 8
left_child=2 3 -1 5 -4 -2 -3
right_child=1 6 4 -5 -6 -7 -8
leaf_value=-0.036880977817989595 -0.0027087612576797977 0.070974164419711036 -0.0062419091525145335 0.11160324236913684 0.07746780734401526 0.047630350001263019 0.13588752549988589
leaf_count=40930 3845 1765 12140 776 915 5631 1008
internal_value=0 1.15476 -0.522851 0.74072 0.0265272 0.57828 1.91441
internal_count=67010 13025 53985 10252 13055 9476 2773
shrinkage=0.05


Tree=7
num_leaves=8
num_cat=0
split_feature=4 4 0 4 2 4 3
split_gain=428.071 74.1906 57.6649 30.3805 30.3227 29.313 26.8656
threshold=142.83333333333334 152.16666666666671 49.500000000000007 127.25000000000001 23.250000000000004 178.33333333333334 83.833333333333357
decision_type=8 8 2 10 8 10 10
left_child=2 6 -1 -4 -3 -6 -2
right_child=1 4 3 -5 5 -7 -8
leaf_value=-0.03579468981069904 -0.018787983026101712 0.042238462210938646 -0.025354264985131221 0.018904165105113363 0.085521280606749503 0.18686972774644961 0.037194400995634341
leaf_count=40522 2129 1406 5872 7129 2671 173 7108
internal_value=0 1.04143 -0.510491 0.00207905 1.60596 1.94525 0.536172
internal_count=67010 13487 53523 13001 4250 2844 9237
shrinkage=0.05


Tree=8
num_leaves=8
num_cat=0
split_feature=3 0 3 8 2 5 2
split_gain=384.067 61.439 47.4069 33.243 32.1562 28.2245 24.4676
threshold=88.833333333333357 49.500000000000007 97.833333333333357 1.0000000180025095e-35 24.150000000000002 3.6505813953488375 34.050000000000004
decision_type=8 2 8 2 8 8 10
left_child=1 6 3 -2 -3 -4 -1
right_child=2 4 5 -5 -6 -7 -8
leaf_value=-0.037248226342972278 0.022741098446890162 -0.014253427955590803 0.063964113382791316 0.096406288722613115 0.033699717496124167 0.15127897260486706 0.080083358235974914
leaf_count=40666 9180 9197 2817 757 3858 271 264
internal_value=0 -0.499431 0.95557 0.61127 0.02365 1.46725 -0.718425
internal_count=67010 53985 13025 9937 13055 3088 40930
shrinkage=0.05


Tree=9
num_leaves=8
num_cat=0
split_feature=4 4 0 2 0 2 2
split_gain=344.619 54.905 49.5213 26.1324 26.0902 29.241 24.962
threshold=141.16666666666671 152.16666666666671 49.500000000000007 27.750000000000004 45.500000000000007 24.250000000000004 25.450000000000003
decision_type=8 10 2 10 2 8 8
left_child=2 6 -1 -4 -3 -6 -2
right_child=1 4 3 -5 5 -7 -8
leaf_value=-0.035730229648397262 0.0070130319944013073 0.032691896078498948 -0.0075906048368475148 0.06895511647039991 0.048311349347765369 0.10623070483765054 0.047418109517149726
leaf_count=39633 6901 1518 11856 696 1345 1367 3694
internal_value=0 0.837041 -0.51131 -0.0306171 1.29941 1.60135 0.440719
internal_count=67010 14825 52185 12552 4230 2712 10595
shrinkage=0.05


Tree=10
num_leaves=8
num_cat=0
split_feature=3 0 2 8 4 8 4
split_gain=310.567 57.3156 36.6216 37.4057 30.5875 25.6388 22.0503
threshold=88.833333333333357 57.500000000000007 26.450000000000003 1.0000000180025095e-35 149.25000000000003 1.0000000180025095e-35 146.83333333333334
decision_type=8 2 10 2 10 2 10
left_child=1 2 6 -4 5 -2 -1
right_child=4 -3 3 -5 -6 -7 -8
leaf_value=-0.036248938688277686 0.015083135004202167 0.038235053156978567 -0.0068718447561129589 0.11021727906485544 0.055412013570937314 0.084350210500437284 0.015960857741294042
leaf_count=43998 7753 2492 5308 549 4632 640 1638
internal_value=0 -0.476949 -0.566106 0.150003 0.809983 0.456917 -0.672357
internal_count=67010 53985 51493 5857 13025 8393 45636
shrinkage=0.05


Tree=11
num_leaves=8
num_cat=0
split_feature=3 4 8 0 2 4 4
split_gain=279.363 59.4624 49.4628 45.1071 24.4713 21.3338 20.5205
threshold=84.833333333333357 147.83333333333334 1.0000000180025095e-35 57.500000000000007 24.950000000000003 178.83333333333334 126.16666666666667
decision_type=8 8 2 2 8 10 10
left_child=3 2 -2 -1 -3 -6 -5
right_child=1 4 -4 6 5 -7 -8
leaf_value=-0.033417224916089928 0.00061271870995340948 0.030563190528032358 0.084662187950896278 -0.020081305575477246 0.057423201371268086 0.1386147534908552 0.067400681991486092
leaf_count=43929 13263 3675 1005 892 3062 130 1054
internal_value=0 0.59434 0.186036 -0.581665 0.964324 1.31032 0.664053
internal_count=67010 21135 14268 45875 6867 3192 1946
shrinkage=0.05


Tree=12
num_leaves=8
num_cat=0
split_feature=3 4 0 8 2 2 0
split_gain=254.332 54.6658 41.5993 38.4342 20.2067 17.4135 17.4423
threshold=83.833333333333357 147.83333333333334 57.500000000000007 1.0000000180025095e-35 24.950000000000003 27.850000000000005 44.500000000000007
decision_type=8 8 2 2 8 8 2
left_child=2 3 -1 5 -3 6 -2
right_child=1 4 -4 -5 -6 -7 -8
leaf_value=-0.034348255691615683 -0.029207761181378314 0.027845005916252309 0.031128426828938755 0.06972418269239132 0.058753084453430131 0.037230687203525702 0.0057008847073767464
leaf_count=42136 4988 3758 1821 1106 3279 1854 8068
internal_value=0 0.525063 -0.598849 0.155386 0.87381 0.00591264 -0.120025
internal_count=67010 23053 43957 16016 7037 14910 13056
shrinkage=0.05


Tree=13
num_leaves=8
num_cat=0
split_feature=4 0 0 4 6 6 8
split_gain=231.709 43.7244 29.1508 23.3659 28.6626 21.4906 21.0565
threshold=140.83333333333334 49.500000000000007 44.500000000000007 152.16666666666671 8.2500000000000018 6.3500000000000005 1.0000000180025095e-35
decision_type=8 2 2 8 8 10 2
left_child=1 -1 6 -4 -5 -3 -2
right_child=2 5 3 4 -6 -7 -8
leaf_value=-0.034745664507391381 0.0015408859564500343 -0.0076042302760180522 0.023678334203265983 0.043616019066525666 0.11134809483583991 0.056782911994258778 0.091313893378381084
leaf_count=38810 5647 11153 7212 2521 430 1004 233
internal_value=0 -0.484952 0.593899 0.778317 1.08906 -0.0217282 0.149598
internal_count=67010 50967 16043 10163 2951 12157 5880
shrinkage=0.05


Tree=14
num_leaves=8
num_cat=0
split_feature=3 2 0 3 4 6 4
split_gain=215.609 43.0665 37.879 32.498 22.5793 18.6002 16.4673
threshold=83.833333333333357 25.250000000000004 57.500000000000007 92.833333333333357 178.83333333333334 7.0500000000000016 126.16666666666667
decision_type=8 8 2 10 10 10 10
left_child=2 3 -1 -2 5 -3 -4
right_child=1 4 6 -5 -6 -7 -8
leaf_value=-0.033388249151308384 -0.0075163649126615455 0.031328952942397285 -0.019767353923921687 0.028075719417851981 0.11114217553793607 0.088638972435205327 0.058816550742062546
leaf_count=42136 10915 7528 872 3947 126 537 949
internal_value=0 0.461881 -0.577428 0.193795 0.826497 0.733813 0.563596
internal_count=67010 23053 43957 14862 8191 8065 1821
shrinkage=0.05


Tree=15
num_leaves=8
num_cat=0
split_feature=3 0 2 3 4 6 0
split_gain=196.234 37.4101 36.4268 28.5306 17.9449 17.7765 17.2927
threshold=83.833333333333357 49.500000000000007 25.250000000000004 92.833333333333357 178.83333333333334 6.3500000000000005 39.500000000000007
decision_type=8 2 8 10 10 10 2
left_child=1 -1 3 -2 6 -3 -4
right_child=2 5 4 -5 -6 -7 -8
leaf_value=-0.038869487568545871 -0.0071967131297624304 -0.010672344370622701 -0.010194123421776904 0.025992740113810944 0.097571375385330936 0.052574046050319914 0.039035694181177437
leaf_count=34262 10915 8872 1095 3947 126 823 6970
internal_value=0 -0.564877 0.429857 0.182395 0.757152 -0.0664679 0.674047
internal_count=67010 43957 23053 14862 8191 9695 8065
shrinkage=0.05


Tree=16
num_leaves=8
num_cat=0
split_feature=3 0 4 8 2 6 6
split_gain=178.691 36.2795 33.1793 24.7842 20.9343 15.5869 11.562
threshold=83.833333333333357 49.500000000000007 141.16666666666671 1.0000000180025095e-35 22.350000000000005 6.3500000000000005 9.0500000000000025
decision_type=8 2 8 2 8 10 10
left_child=1 -1 3 -2 -4 -3 -6
right_child=2 5 4 -5 6 -7 -8
leaf_value=-0.038408254896767531 -0.0096104220690487324 -0.010252332426409234 0.0044523493598861074 0.061387064386626736 0.033160130024404592 0.047797548651157346 0.10977618216692152
leaf_count=34262 10273 8872 3092 707 8880 823 101
internal_value=0 -0.552269 0.400433 -0.0385639 0.564537 -0.0631697 0.696317
internal_count=67010 43957 23053 10980 12073 9695 8981
shrinkage=0.05


Tree=17
num_leaves=8
num_cat=0
split_feature=3 4 8 0 0 3 2
split_gain=164.677 35.5004 26.0845 29.3622 23.3418 15.554 14.4216
threshold=81.833333333333357 149.25000000000003 1.0000000180025095e-35 58.500000000000007 49.500000000000007 90.833333333333357 29.050000000000004
decision_type=8 10 2 2 2 10 10
left_child=4 2 3 5 -1 -2 -6
right_child=1 -3 -4 -5 6 -7 -8
leaf_value=-0.039053444059178211 -0.014338063316931502 0.032146184713481879 0.047272518104659531 0.06596883949120616 -0.012894778543332836 0.011713080493005686 0.07728367419436466
leaf_count=31209 14795 5446 1511 853 8138 4861 197
internal_value=0 0.33994 0.108035 -0.000136317 -0.597811 -0.0867156 -0.166861
internal_count=67010 27466 22020 20509 39544 19656 8335
shrinkage=0.05


Tree=18
num_leaves=8
num_cat=0
split_feature=3 2 0 0 0 6 3
split_gain=150.83 30.9344 26.8443 22.8168 14.837 13.1196 12.7518
threshold=81.833333333333357 25.250000000000004 44.500000000000007 49.500000000000007 39.500000000000007 6.4500000000000011 98.833333333333357
decision_type=8 8 2 2 2 10 10
left_child=3 2 6 -1 -3 -5 -2
right_child=1 4 -4 5 -6 -7 -8
leaf_value=-0.038599334117511153 -0.029555464599167077 -0.0071129907754221375 0.014373032516120592 -0.014508580898781138 0.034546530460390114 0.047112809201374083 0.020007889118941483
leaf_count=31209 6089 1344 11638 7783 8023 552 372
internal_value=0 0.317993 0.104907 -0.585392 0.601021 -0.15939 -0.392434
internal_count=67010 27466 18099 39544 9367 8335 6461
shrinkage=0.05


Tree=19
num_leaves=8
num_cat=0
split_feature=3 4 6 0 8 0 5
split_gain=138.162 28.8385 22.5514 22.2551 16.8102 17.7978 13.6074
threshold=81.833333333333357 149.25000000000003 6.6500000000000012 49.500000000000007 1.0000000180025095e-35 54.500000000000007 3.6505813953488375
decision_type=8 8 10 2 2 2 8
left_child=3 2 4 -1 5 -2 -3
right_child=1 6 -4 -5 -6 -7 -8
leaf_value=-0.038133902160034441 -0.0096135254236477605 0.023924649738369268 0.055436994590918179 -0.0076238825682769977 0.036635698405679824 0.026616280872517883 0.065141412829523543
leaf_count=31209 17350 5012 975 8335 1288 2387 454
internal_value=0 0.297488 0.0879514 -0.572932 0.0122747 -0.0729374 0.56185
internal_count=67010 27466 22000 39544 21025 19737 5466
shrinkage=0.05


Tree=20
num_leaves=8
num_cat=0
split_feature=3 4 2 0 8 0 2
split_gain=126.736 25.3416 23.5238 21.6657 17.1789 17.0774 14.0682
threshold=81.833333333333357 147.83333333333334 32.550000000000004 49.500000000000007 1.0000000180025095e-35 58.500000000000007 36.550000000000004
decision_type=8 10 8 2 2 2 8
left_child=3 2 4 -1 5 -2 -4
right_child=1 -3 6 -5 -6 -7 -8
leaf_value=-0.037657214569911182 -0.0090490415496234412 0.024507250260210431 0.12749683634658723 -0.0073019535894673533 0.035021816446005646 0.046449518393079842 0.0023258062563763144
leaf_count=31209 17618 7302 273 8335 1309 749 215
internal_value=0 0.279022 0.0516108 -0.560422 -0.0082272 -0.105983 1.58953
internal_count=67010 27466 20164 39544 19676 18367 488
shrinkage=0.05


Tree=21
num_leaves=8
num_cat=0
split_feature=3 2 0 0 4 2 3
split_gain=116.305 23.9998 21.0625 16.808 15.6897 12.5764 11.4243
threshold=81.833333333333357 22.350000000000005 49.500000000000007 50.500000000000007 165.16666666666671 29.050000000000004 92.833333333333357
decision_type=8 8 2 2 10 10 10
left_child=2 6 -1 4 -3 -4 -2
right_child=1 3 5 -5 -6 -7 -8
leaf_value=-0.037169378135791742 -0.018235169317587601 0.0060514203848328028 -0.011512024352373184 0.032270427673641987 0.041611302467898431 0.070720059046712483 0.011523023353356275
leaf_count=31209 6882 12842 8138 5604 503 197 1635
internal_value=0 0.261995 -0.547852 0.382024 0.223068 -0.139828 -0.111196
internal_count=67010 27466 39544 18949 13345 8335 8517
shrinkage=0.05


Tree=22
num_leaves=8
num_cat=0
split_feature=3 4 8 0 2 0 8
split_gain=106.947 24.6322 17.6888 17.6012 13.2485 12.2968 13.5495
threshold=80.833333333333357 140.83333333333334 1.0000000180025095e-35 49.500000000000007 29.050000000000004 44.500000000000007 1.0000000180025095e-35
decision_type=8 8 2 2 10 2 2
left_child=3 2 -2 -1 -5 6 -3
right_child=1 5 -4 4 -6 -7 -8
leaf_value=-0.037428486468264535 -0.01104853009186501 -0.0011575692952930908 0.041061256190291273 -0.013565933346929486 0.07130926398803171 0.023671395143143991 0.064351920428058734
leaf_count=29597 14551 4781 971 7530 183 9194 203
internal_value=0 0.234696 -0.100656 -0.561372 -0.170149 0.366317 0.0787074
internal_count=67010 29700 15522 37310 7713 14178 4984
shrinkage=0.05


Tree=23
num_leaves=8
num_cat=0
split_feature=3 2 0 3 4 6 2
split_gain=98.2883 22.4002 17.1553 16.6917 14.9399 13.755 11.7113
threshold=80.833333333333357 23.850000000000005 49.500000000000007 92.833333333333357 178.33333333333334 7.0500000000000016 29.050000000000004
decision_type=8 8 2 10 10 10 10
left_child=2 3 -1 -2 5 -3 -4
right_child=1 4 6 -5 -6 -7 -8
leaf_value=-0.036936717336242146 -0.012667752152083104 0.013644270109224831 -0.013071118386194826 0.014306123150170273 0.06491617325652814 0.051872013132910469 0.064757788164787694
leaf_count=29597 12257 13734 7530 2811 151 747 183
internal_value=0 0.220678 -0.548742 -0.0181782 0.387196 0.33633 -0.162575
internal_count=67010 29700 37310 15068 14632 14481 7713
shrinkage=0.05


Tree=24
num_leaves=8
num_cat=0
split_feature=3 4 0 8 2 5 2
split_gain=90.3532 20.3761 16.694 15.2815 10.6145 20.7262 10.5813
threshold=80.833333333333357 140.83333333333334 49.500000000000007 1.0000000180025095e-35 21.050000000000004 1.4049125979505728 30.350000000000005
decision_type=8 8 2 2 10 8 8
left_child=2 3 -1 -2 -4 -6 -3
right_child=1 6 4 -5 5 -7 -8
leaf_value=-0.036434005981069266 -0.01069824557650088 0.013180502961090286 -0.033502358821983977 0.036774690619179609 0.08210324316855469 -0.0073255522768559556 0.037726197181452481
leaf_count=29597 14551 12932 2777 971 648 4288 1246
internal_value=0 0.20773 -0.536071 -0.0988755 -0.155302 0.106442 0.324474
internal_count=67010 29700 37310 15522 7713 4936 14178
shrinkage=0.05


Tree=25
num_leaves=8
num_cat=0
split_feature=3 0 2 0 3 4 6
split_gain=83.0597 19.4539 19.6349 16.2067 13.7236 13.4273 16.0431
threshold=80.833333333333357 44.500000000000007 26.250000000000004 49.500000000000007 101.83333333333336 152.16666666666671 8.2500000000000018
decision_type=8 2 8 2 10 8 8
left_child=3 2 4 -1 -2 -3 -7
right_child=1 5 -4 -5 -6 6 -8
leaf_value=-0.035920555158409792 -0.026878694026506673 0.0081786538326468362 0.016289575743535865 -0.0074312804218280328 0.024899717188961636 0.019602351023526095 0.062381241025182471
leaf_count=29597 7951 15496 3107 7713 262 2459 425
internal_value=0 0.195545 -0.0980411 -0.523418 -0.381248 0.310891 0.533541
internal_count=67010 29700 11320 37310 8213 18380 2884
shrinkage=0.05


Tree=26
num_leaves=8
num_cat=0
split_feature=4 0 2 2 4 0 3
split_gain=76.9225 27.4927 18.7528 14.5898 12.6969 11.3025 10.5415
threshold=127.25000000000001 44.500000000000007 25.350000000000005 29.950000000000003 152.83333333333334 58.500000000000007 98.833333333333357
decision_type=8 2 8 8 10 2 10
left_child=-1 2 6 4 5 -3 -2
right_child=1 3 -4 -5 -6 -7 -8
leaf_value=-0.030811658199091947 -0.030364871692399376 0.0009330778668546841 0.0087939722000078355 0.041854175312000627 0.023085991211889784 0.034221216566043218 0.011696294304915407
leaf_count=28222 11087 16833 5259 1242 2629 1358 380
internal_value=0 0.152542 -0.170659 0.286889 0.226771 0.092617 -0.460018
internal_count=67010 38788 16726 22062 20820 18191 11467
shrinkage=0.05


Tree=27
num_leaves=8
num_cat=0
split_feature=3 2 0 0 4 2 5
split_gain=71.2848 17.5632 15.6245 12.1623 10.6458 10.0214 17.8718
threshold=80.833333333333357 22.350000000000005 49.500000000000007 50.500000000000007 141.83333333333334 21.050000000000004 1.4049125979505728
decision_type=8 8 2 2 10 10 8
left_child=2 -2 -1 4 -3 -4 -7
right_child=1 3 5 -5 -6 6 -8
leaf_value=-0.035016183492510192 -0.0067852767466240159 -0.0092547656497815201 -0.032494241579208785 0.024101819227850926 0.012967351593805071 0.074977947195223077 -0.0062899316685902738
leaf_count=29597 9442 7693 2777 5901 6664 648 4288
internal_value=0 0.175548 -0.500414 0.272304 0.141051 -0.131575 0.120342
internal_count=67010 29700 37310 20258 14357 7713 4936
shrinkage=0.05


Tree=28
num_leaves=8
num_cat=0
split_feature=4 0 2 2 3 2 6
split_gain=67.0808 23.1545 16.8001 12.4988 9.68137 9.20629 9.28104
threshold=127.25000000000001 44.500000000000007 25.350000000000005 21.150000000000002 98.833333333333357 33.750000000000007 11.750000000000002
decision_type=8 2 8 8 10 8 10
left_child=-1 2 4 -3 -2 6 -5
right_child=1 3 -4 5 -6 -7 -8
leaf_value=-0.029736289087430052 -0.02952186602917295 -0.0076687380486418046 0.0080579068421754163 0.014069098496078888 0.010702271366948117 0.055141083438921025 0.12237125308348273
leaf_count=28222 11087 4278 5259 17364 380 396 24
internal_value=0 0.137735 -0.161892 0.258448 -0.443129 0.324756 0.293588
internal_count=67010 38788 16726 22062 11467 17784 17388
shrinkage=0.05


Tree=29
num_leaves=8
num_cat=0
split_feature=4 0 8 2 5 3 2
split_gain=62.0773 20.8249 21.0581 14.5264 12.2866 11.5812 11.7991
threshold=127.25000000000001 43.500000000000007 1.0000000180025095e-35 29.950000000000003 2.0053763440860224 98.833333333333357 26.450000000000003
decision_type=8 2 2 8 8 10 10
left_child=-1 2 5 -3 -4 6 -2
right_child=1 3 4 -5 -6 -7 -8
leaf_value=-0.029117560826617185 -0.032652234676359762 0.0087136600089589913 0.15128132026636923 0.037332557975054068 0.024167298230923451 0.010747068050341008 0.0019325990044330975
leaf_count=28222 10891 22547 90 1363 356 655 2886
internal_value=0 0.130207 -0.183726 0.233202 1.16286 -0.280351 -0.435517
internal_count=67010 38788 14878 23910 446 14432 13777
shrinkage=0.05


Tree=30
num_leaves=8
num_cat=0
split_feature=4 6 0 4 6 2 8
split_gain=57.438 20.4416 19.8964 20.0857 12.8473 11.0532 10.222
threshold=127.25000000000001 12.250000000000002 50.500000000000007 142.83333333333334 7.0500000000000016 20.250000000000004 1.0000000180025095e-35
decision_type=8 10 2 10 10 8 2
left_child=-1 2 3 4 6 -5 -2
right_child=1 -3 -4 5 -6 -7 -8
leaf_value=-0.028494389302545053 -0.023704662382276864 0.16191093401522647 0.016315527790675691 -0.034886534120828511 0.059121612593206752 0.009725389190228001 0.023746190510115627
leaf_count=28222 18198 27 10480 739 314 8233 797
internal_value=0 0.123175 0.112839 -0.0315605 -0.331757 0.141492 -0.38963
internal_count=67010 38788 38761 28281 19309 8972 18995
shrinkage=0.05


Tree=31
num_leaves=8
num_cat=0
split_feature=3 0 6 2 0 2 4
split_gain=53.4698 14.7218 13.4209 12.5741 9.16554 9.10133 8.82989
threshold=80.833333333333357 53.500000000000007 12.250000000000002 22.350000000000005 50.500000000000007 27.550000000000004 165.16666666666671
decision_type=8 2 10 8 2 10 10
left_child=1 5 3 -2 6 -1 -5
right_child=2 -3 -4 4 -6 -7 -8
leaf_value=-0.032903264324517165 -0.0065706898907250694 0.0046219258424718031 0.13140636265587088 0.0012618496424876154 0.019500261681116911 0.013841782267623193 0.026142491188767034
leaf_count=31892 9438 3658 21 13841 5898 1760 502
internal_value=0 -0.457204 0.144397 0.135086 0.214266 -0.593032 0.100095
internal_count=67010 37310 29700 29679 20241 33652 14343
shrinkage=0.05


Tree=32
num_leaves=8
num_cat=0
split_feature=4 0 8 2 5 4 3
split_gain=50.0741 16.5036 18.2132 11.7535 10.0773 9.89318 9.89043
threshold=127.25000000000001 43.500000000000007 1.0000000180025095e-35 29.950000000000003 2.0053763440860224 152.83333333333334 98.833333333333357
decision_type=8 2 2 8 8 10 10
left_child=-1 2 6 5 -4 -3 -2
right_child=1 3 4 -5 -6 -7 -8
leaf_value=-0.027388821075664833 -0.020725498695755552 0.0017252097513507155 0.13188577279803879 0.032526094730053183 0.021525358745492926 0.017210065954031132 0.0092254156745077542
leaf_count=28222 13777 19783 90 1363 356 2764 655
internal_value=0 0.111942 -0.171233 0.201187 1.04503 0.148015 -0.265338
internal_count=67010 38788 14878 23910 446 22547 14432
shrinkage=0.05


Tree=33
num_leaves=8
num_cat=0
split_feature=4 6 0 4 6 2 8
split_gain=46.2978 15.9075 15.3813 16.6241 11.2654 9.82522 8.93158
threshold=127.25000000000001 12.250000000000002 50.500000000000007 142.83333333333334 7.0500000000000016 20.250000000000004 1.0000000180025095e-35
decision_type=8 10 2 10 10 8 2
left_child=-1 2 3 4 6 -5 -2
right_child=1 -3 -4 5 -6 -7 -8
leaf_value=-0.026756995137795222 -0.02260648362167211 0.13370166295746419 0.013990975498497133 -0.034222219051336898 0.053371250973886487 0.0085295900956032459 0.021154979712203901
leaf_count=28222 18198 27 10480 739 314 8233 797
internal_value=0 0.106053 0.0964348 -0.0319202 -0.311327 0.122235 -0.3688
internal_count=67010 38788 38761 28281 19309 8972 18995
shrinkage=0.05


Tree=34
num_leaves=8
num_cat=0
split_feature=3 0 2 3 5 0 4
split_gain=43.0601 13.343 13.335 12.287 22.1256 11.1609 9.45528
threshold=78.166666666666671 53.500000000000007 23.850000000000005 87.833333333333357 0.93166251556662527 44.500000000000007 178.33333333333334
decision_type=8 2 8 10 8 2 10
left_child=1 -1 3 4 5 -2 -4
right_child=2 -3 6 -5 -6 -7 -8
leaf_value=-0.030647773746432329 -0.027024034973294305 0.0058092209895840331 0.0096441747524993911 0.0047375028334336496 -0.02421111865538347 0.13252504785077507 0.044923056493145562
leaf_count=29708 227 3048 16202 6644 10768 261 152
internal_value=0 -0.470105 0.112937 -0.0661914 -0.369225 1.74922 0.23072
internal_count=67010 32756 34254 17900 11256 488 16354
shrinkage=0.05


Tree=35
num_leaves=8
num_cat=0
split_feature=4 6 0 8 2 2 5
split_gain=40.1465 13.9272 13.6889 16.1115 9.97999 8.47442 9.00486
threshold=127.25000000000001 12.250000000000002 43.500000000000007 1.0000000180025095e-35 33.750000000000007 37.45000000000001 2.2733499377334998
decision_type=8 10 2 2 10 8 10
left_child=-1 2 3 -2 -4 6 -6
right_child=1 -3 4 -5 5 -7 -8
leaf_value=-0.02561445385880089 -0.013294361111288218 0.12101334991846568 0.0071321311665699244 0.046976905462591617 -0.0093434793075322722 -0.017015030792666214 0.096348562677783314
leaf_count=28222 14426 27 23621 445 51 72 146
internal_value=0 0.0962048 0.0869774 -0.173657 0.166667 1.0024 1.4297
internal_count=67010 38788 38761 14871 23890 269 197
shrinkage=0.05


Tree=36
num_leaves=8
num_cat=0
split_feature=3 0 2 3 5 0 1
split_gain=37.3988 12.6406 11.5956 10.9653 19.7103 9.02216 8.88023
threshold=78.166666666666671 53.500000000000007 23.850000000000005 87.833333333333357 0.93166251556662527 44.500000000000007 1.5000000000000002
decision_type=8 2 8 10 8 2 2
left_child=1 -1 3 4 5 -2 -3
right_child=2 6 -4 -5 -6 -7 -8
leaf_value=-0.029675318251396507 -0.026502144357631124 0.027849852364582973 0.010580355101981539 0.0042667731637030873 -0.023511815706905911 0.11565161029958473 -0.024999454886253679
leaf_count=29708 227 1798 16354 6644 10768 261 1250
internal_value=0 -0.448556 0.103037 -0.0646886 -0.355439 1.57673 0.120556
internal_count=67010 32756 34254 17900 11256 488 3048
shrinkage=0.05


Tree=37
num_leaves=8
num_cat=0
split_feature=4 6 0 3 2 2 2
split_gain=34.8026 12.2107 12.5546 13.4619 16.1471 8.2195 7.78853
threshold=127.25000000000001 12.250000000000002 50.500000000000007 92.833333333333357 30.650000000000002 24.750000000000004 19.550000000000004
decision_type=8 10 2 10 8 10 8
left_child=5 2 3 4 -2 -1 -5
right_child=1 -3 -4 6 -6 -7 -8
leaf_value=-0.030098791003563042 -0.015907745210332482 0.10986909996061725 0.012058386572823092 -0.04477576267314147 0.030878746281567254 0.0047760856902804372 0.0094730744457108673
leaf_count=24421 22643 27 10480 190 1201 3801 4247
internal_value=0 0.0873958 0.0785541 -0.0379784 -0.221497 -0.489562 0.151328
internal_count=67010 38788 38761 28281 23844 28222 4437
shrinkage=0.05


Tree=38
num_leaves=8
num_cat=0
split_feature=3 2 0 2 0 6 0
split_gain=32.187 11.8589 13.9101 9.81857 9.5899 7.95115 8.27396
threshold=78.166666666666671 27.550000000000004 63.500000000000007 22.350000000000005 46.500000000000007 6.5500000000000016 34.500000000000007
decision_type=8 10 2 8 2 10 2
left_child=1 2 -1 -2 -3 6 -5
right_child=3 4 -4 5 -6 -7 -8
leaf_value=-0.027733305893439888 -0.0067801126220048196 -0.024555313622137295 0.081691013809503735 -0.029727488459343948 0.061904984908349649 0.025070360089300095 0.006966770403792984
leaf_count=31041 11382 1101 166 1230 448 1601 20041
internal_value=0 -0.426214 -0.509775 0.0933329 0.520769 0.160122 0.112862
internal_count=67010 32756 31207 34254 1549 22872 21271
shrinkage=0.05


Tree=39
num_leaves=8
num_cat=0
split_feature=4 2 0 3 2 0 0
split_gain=30.1109 10.7139 13.5749 8.95014 7.66979 7.7646 7.20259
threshold=127.25000000000001 25.850000000000005 44.500000000000007 101.83333333333336 24.750000000000004 53.500000000000007 57.500000000000007
decision_type=8 8 2 10 10 2 2
left_child=4 2 3 -2 5 -1 -4
right_child=1 -3 6 -5 -6 -7 -8
leaf_value=-0.035498285383158981 -0.023886189820771203 0.011920480020373991 0.00047525143984776584 0.018083477228146072 0.0047982291060985746 0.0012112552975129028 0.020397024531259002
leaf_count=22108 11911 10013 14687 242 3801 2313 1935
internal_value=0 0.0793347 -0.0214711 -0.34972 -0.46687 -0.580649 0.0792663
internal_count=67010 38788 28775 12153 28222 24421 16622
shrinkage=0.05


Tree=40
num_leaves=8
num_cat=0
split_feature=4 6 0 8 2 5 0
split_gain=27.7691 10.5729 10.3512 11.2258 10.5091 9.45316 9.33021
threshold=127.25000000000001 12.250000000000002 41.500000000000007 1.0000000180025095e-35 33.750000000000007 3.025320512820513 39.500000000000007
decision_type=8 10 2 2 8 10 2
left_child=-1 2 3 -2 -4 -6 -5
right_child=1 -3 4 6 5 -7 -8
leaf_value=-0.022721075331115941 -0.015729197653289978 0.09882704768415651 0.0046136767005901047 -0.024564980915444047 0.062123036163674365 -0.0065268680817400313 0.082690584046722471
leaf_count=28222 10692 27 27276 101 374 137 181
internal_value=0 0.0750843 0.0666818 -0.222215 0.120173 0.792237 0.908685
internal_count=67010 38788 38761 10974 27787 511 282
shrinkage=0.05


Tree=41
num_leaves=8
num_cat=0
split_feature=3 0 1 0 4 2 3
split_gain=26.042 11.0115 8.3153 8.18145 9.31247 7.91331 8.55409
threshold=78.166666666666671 53.500000000000007 1.5000000000000002 38.500000000000007 169.25000000000003 23.850000000000005 92.833333333333357
decision_type=8 2 2 2 10 8 10
left_child=1 -1 -3 4 -2 6 -5
right_child=3 2 -4 5 -6 -7 -8
leaf_value=-0.027218069096431076 -0.027447494075676062 0.027438917219183612 -0.024163321944336454 -0.010404348297420259 0.046530996889853266 0.0099887909222590478 0.0086458711717880866
leaf_count=29708 3583 1798 1250 13329 53 14618 2671
internal_value=0 -0.39543 0.1326 0.081525 -0.37006 0.109406 -0.0340775
internal_count=67010 32756 3048 34254 3636 30618 16000
shrinkage=0.05


Tree=42
num_leaves=8
num_cat=0
split_feature=3 2 3 5 0 0 4
split_gain=24.4553 10.0762 10.6281 20.4297 10.2496 9.26665 7.91253
threshold=73.833333333333357 23.850000000000005 87.833333333333357 0.93166251556662527 43.500000000000007 63.500000000000007 178.33333333333334
decision_type=8 8 10 8 2 2 10
left_child=5 2 3 4 -2 -1 -3
right_child=1 6 -4 -5 -6 -7 -8
leaf_value=-0.02832323473384343 -0.029998448948897794 0.0061884400678043263 0.0036213463355024237 -0.021179855076227563 0.10304701017694154 0.07163428760533723 0.037365721594764222
leaf_count=21365 394 19695 6644 18191 455 114 152
internal_value=0 0.0579951 -0.0884252 -0.322321 1.38095 -0.514465 0.155936
internal_count=67010 45531 25684 19040 849 21479 19847
shrinkage=0.05


Tree=43
num_leaves=8
num_cat=0
split_feature=3 6 2 3 5 0 0
split_gain=22.5865 9.5637 8.79357 9.95818 15.3228 8.78499 8.24268
threshold=73.833333333333357 12.250000000000002 23.850000000000005 87.833333333333357 0.93166251556662527 57.500000000000007 50.500000000000007
decision_type=8 10 8 10 8 2 2
left_child=5 2 3 4 6 -1 -2
right_child=1 -3 -4 -5 -6 -7 -8
leaf_value=-0.030501013267592844 -0.0026615365923025234 0.091129604953630233 0.0069211796733973834 0.0032301721385001032 -0.020543321899121822 0.023066993738603225 0.10511773564358132
leaf_count=20778 655 28 19825 6641 18189 701 193
internal_value=0 0.0550313 0.0472668 -0.0901348 -0.319318 -0.501479 1.11614
internal_count=67010 45531 45503 25678 19037 21479 848
shrinkage=0.05


Tree=44
num_leaves=8
num_cat=0
split_feature=3 2 3 0 5 3 6
split_gain=20.8979 8.72157 12.9036 12.6044 17.5686 8.86695 8.31804
threshold=73.833333333333357 29.950000000000003 90.833333333333357 49.500000000000007 1.2108187134502926 89.250000000000014 7.1500000000000012
decision_type=8 8 10 2 8 8 10
left_child=-1 2 3 -2 -5 -3 -6
right_child=1 5 -4 4 6 -7 -8
leaf_value=-0.024442608525647821 -0.018132876350974981 0.040401453636001977 0.006990660931233442 0.057726581349457656 -0.006128633360886095 0.0063707987208078357 0.044093516315994584
leaf_count=21479 24091 1596 8735 942 8794 1073 300
internal_value=0 0.0523606 0.0100173 -0.150987 0.0646513 0.344833 -0.0522795
internal_count=67010 45531 42862 34127 10036 2669 9094
shrinkage=0.05


Tree=45
num_leaves=8
num_cat=0
split_feature=4 0 4 6 2 2 0
split_gain=19.4397 8.47944 9.08097 12.3047 7.72846 7.14736 7.4117
threshold=127.25000000000001 50.500000000000007 142.83333333333334 7.0500000000000016 20.250000000000004 24.750000000000004 53.500000000000007
decision_type=8 2 10 10 8 10 2
left_child=5 2 3 -2 -4 6 -1
right_child=1 -3 4 -5 -6 -7 -8
leaf_value=-0.033158287745424481 -0.016145260243565215 0.0094943877541970052 -0.033283872510004468 0.053810736382733093 0.0055258744974447209 0.0075044235512474987 0.0038242608973862845
leaf_count=22108 18995 10487 740 323 8243 3801 2313
internal_value=0 0.059969 -0.0362935 -0.253249 0.0708254 -0.400688 -0.521847
internal_count=67010 38788 28301 19318 8983 28222 24421
shrinkage=0.05


Tree=46
num_leaves=8
num_cat=0
split_feature=3 6 0 0 8 5 4
split_gain=18.1837 8.34246 8.24884 7.40516 11.6208 8.19722 7.53726
threshold=73.833333333333357 12.250000000000002 63.500000000000007 44.500000000000007 1.0000000180025095e-35 2.0053763440860224 178.33333333333334
decision_type=8 10 2 2 2 8 8
left_child=2 3 -1 4 -2 -6 -5
right_child=1 -3 -4 6 5 -7 -8
leaf_value=-0.026104684768731637 -0.010470645940477861 0.082772587055398916 0.066219126857202243 0.0037032779428967746 0.095959902330740171 0.01226591044174561 0.032043536131862373
leaf_count=21365 18914 28 114 25773 122 482 212
internal_value=0 0.047696 -0.466669 0.0402966 -0.132599 0.681823 0.100969
internal_count=67010 45531 21479 45503 19518 604 25985
shrinkage=0.05


Tree=47
num_leaves=8
num_cat=0
split_feature=4 0 3 7 0 2 2
split_gain=16.8643 7.28637 10.9128 14.6579 9.89821 7.70655 7.48288
threshold=127.25000000000001 57.500000000000007 92.833333333333357 1.0000000180025095e-35 59.500000000000007 24.250000000000004 29.050000000000004
decision_type=8 2 10 2 2 8 10
left_child=-1 2 3 6 -3 -5 -2
right_child=1 4 -4 5 -6 -7 -8
leaf_value=-0.019008116345663642 -0.011979222342719482 0.03418658788548154 0.0074392072603213068 -0.026667185105746956 -0.00057722499622517808 0.053740110481155526 0.012521303529021231
leaf_count=28222 27351 1238 6332 174 1237 422 2034
internal_value=0 0.0550396 0.0167127 -0.121001 0.334894 0.763237 -0.176906
internal_count=67010 38788 36313 29981 2475 596 29385
shrinkage=0.05


Tree=48
num_leaves=8
num_cat=0
split_feature=3 0 6 2 4 4 0
split_gain=15.8812 8.01383 7.32507 6.66361 7.59808 6.30281 9.04629
threshold=73.833333333333357 57.500000000000007 12.250000000000002 23.850000000000005 140.83333333333334 178.33333333333334 31.500000000000004
decision_type=8 2 10 8 10 10 2
left_child=1 -1 3 4 -2 6 -5
right_child=2 -3 -4 5 -6 -7 -8
leaf_value=-0.028045344370360062 -0.014525661034933286 0.023492239633255176 0.075838598410127453 -0.041746633440598646 0.0024098296824964973 0.031422433837860995 0.0054958158403679014
leaf_count=20778 18613 701 28 965 7065 152 18708
internal_value=0 -0.445252 0.0439137 0.0368409 -0.0838702 0.114899 0.0860639
internal_count=67010 21479 45531 45503 25678 19825 19673
shrinkage=0.05


Tree=49
num_leaves=8
num_cat=0
split_feature=3 2 0 4 2 0 6
split_gain=14.6857 7.10661 8.74936 8.63525 14.8663 7.96734 6.3446
threshold=72.833333333333357 21.150000000000002 46.500000000000007 143.83333333333334 32.45000000000001 38.500000000000007 6.6500000000000012
decision_type=8 8 2 10 8 2 10
left_child=6 -2 3 4 -3 -6 -1
right_child=1 2 -4 -5 5 -7 -8
leaf_value=-0.02643375810614907 -0.010801508863421376 -0.021464898119546882 0.008479775960517754 0.0035743534038922102 -0.02873057780488901 0.094972619240090664 0.04925799220837563
leaf_count=18984 11343 14432 16631 5027 118 254 221
internal_value=0 0.0387741 0.0775161 -0.0745013 -0.324315 1.24003 -0.464891
internal_count=67010 47805 36462 19831 14804 372 19205
shrinkage=0.05


Tree=50
num_leaves=8
num_cat=0
split_feature=3 6 2 0 8 3 2
split_gain=13.5424 6.58857 6.43012 7.78513 8.99093 11.3648 7.1634
threshold=72.833333333333357 12.250000000000002 21.450000000000003 46.500000000000007 1.0000000180025095e-35 99.833333333333357 31.850000000000005
decision_type=8 10 8 2 2 10 8
left_child=-1 2 -2 4 5 -4 -6
right_child=1 -3 3 -5 6 -7 -8
leaf_value=-0.022604377033246484 -0.0096688755175651023 0.070455942896232304 -0.014591083833808067 0.0078876312296439714 0.0084938984708167343 0.011806624669606547 0.069652538043509127
leaf_count=19205 12912 28 17239 15918 833 785 90
internal_value=0 0.0367739 0.030056 0.0701226 -0.0756523 -0.146884 0.470973
internal_count=67010 47805 47777 34865 18947 18024 923
shrinkage=0.05


Tree=51
num_leaves=8
num_cat=0
split_feature=4 2 0 5 0 0 3
split_gain=12.5467 6.65502 7.14512 6.17287 6.0428 8.48168 8.42333
threshold=127.25000000000001 24.750000000000004 53.500000000000007 1.5187529301453353 57.500000000000007 59.500000000000007 92.833333333333357
decision_type=8 10 2 10 2 2 10
left_child=1 2 -1 -3 6 -6 -2
right_child=4 3 -4 -5 5 -7 -8
leaf_value=-0.030928878340078694 -0.0055837613569462699 0.080177078709362803 0.0064121819242773884 -0.0015254250757862587 0.030566088465256658 -0.0011908533218326087 0.0062529249721840737
leaf_count=22108 29981 395 2313 3406 1238 1237 6332
internal_value=0 -0.339645 -0.466568 0.197628 0.0459909 0.29725 0.0108063
internal_count=67010 28222 24421 3801 38788 2475 36313
shrinkage=0.05


Tree=52
num_leaves=8
num_cat=0
split_feature=3 6 6 2 0 8 4
split_gain=11.7964 5.91156 5.8863 5.66324 6.75424 8.11336 10.6677
threshold=72.833333333333357 12.250000000000002 6.6500000000000012 21.450000000000003 46.500000000000007 1.0000000180025095e-35 143.83333333333334
decision_type=8 10 10 8 2 2 10
left_child=2 3 -1 -2 5 6 -5
right_child=1 -3 -4 4 -6 -7 -8
leaf_value=-0.024839214029339789 -0.0091903261227922247 0.065648738027117973 0.047483796599554588 -0.022523147476544287 0.00727484166222291 0.022112509357111024 0.0014880370685913845
leaf_count=18984 12912 28 221 13438 15918 923 4586
internal_value=0 0.0337881 -0.430532 0.0273348 0.0646196 -0.0718784 -0.140576
internal_count=67010 47805 19205 47777 34865 18947 18024
shrinkage=0.05


Tree=53
num_leaves=8
num_cat=0
split_feature=4 2 0 2 4 6 3
split_gain=10.9063 6.70381 5.84522 5.74294 5.48836 5.4385 4.96837
threshold=122.33333333333336 26.050000000000004 34.500000000000007 21.150000000000002 145.83333333333334 12.250000000000002 82.833333333333357
decision_type=8 10 2 8 10 10 10
left_child=1 -1 -2 4 -4 -5 -6
right_child=2 -3 3 5 6 -7 -8
leaf_value=-0.025405533027799444 -0.021310694706677388 0.0298850699096498 -0.020961724902837098 0.003879359602183777 0.066422438767927763 0.065814789453248479 -0.00066019047544043751
leaf_count=18960 4668 1125 7817 33046 192 26 1176
internal_value=0 -0.404686 0.0333387 0.0510012 -0.192537 0.0849911 0.0902143
internal_count=67010 20085 46925 42257 9185 33072 1368
shrinkage=0.05


Tree=54
num_leaves=8
num_cat=0
split_feature=3 2 3 5 2 0 3
split_gain=10.209 5.56455 7.53194 10.9329 13.0519 7.6507 7.30579
threshold=72.833333333333357 29.950000000000003 100.83333333333336 3.6505813953488375 26.650000000000002 45.500000000000007 89.250000000000014
decision_type=8 8 10 8 8 2 8
left_child=-1 2 5 -4 -5 -2 -3
right_child=1 6 3 4 -6 -7 -8
leaf_value=-0.020427148514189409 -0.01275266571861873 0.032908945561190943 0.0055659236029211891 0.09458543882340377 -0.0048945486412031074 0.00095666541516041331 0.0031535697218064793
leaf_count=19205 21424 1657 1592 70 51 21938 1073
internal_value=0 0.0309498 -0.00309185 0.20811 1.06567 -0.0597452 0.257387
internal_count=67010 47805 45075 1713 121 43362 2730
shrinkage=0.05


Tree=55
num_leaves=8
num_cat=0
split_feature=4 2 6 7 3 5 2
split_gain=9.48657 6.19461 5.28231 9.22716 7.02626 11.7171 10.7841
threshold=122.33333333333336 26.050000000000004 6.3500000000000005 1.0000000180025095e-35 100.83333333333336 3.6505813953488375 27.050000000000004
decision_type=8 10 10 2 10 8 10
left_child=1 -1 3 4 -2 -6 -7
right_child=2 -3 -4 -5 5 6 -8
leaf_value=-0.024416370831604497 -0.0035580618763505763 0.028374112379152688 0.012306773762886011 0.071630679032742783 0.004320562191470971 0.095218601284145873 0.0063175415173834376
leaf_count=18960 42092 1125 2932 126 1647 64 64
internal_value=0 -0.384167 0.0306952 -0.00341726 -0.0137355 0.183894 1.05276
internal_count=67010 20085 46925 43993 43867 1775 128
shrinkage=0.05


Tree=56
num_leaves=8
num_cat=0
split_feature=3 6 2 3 0 0 6
split_gain=8.88633 5.3408 4.80946 6.52812 10.4769 9.18389 11.8311
threshold=72.833333333333357 6.6500000000000012 29.950000000000003 90.833333333333357 58.500000000000007 59.500000000000007 5.6500000000000012
decision_type=8 10 8 10 2 2 8
left_child=1 -1 3 4 -2 6 -6
right_child=2 -3 -4 -5 5 -7 -8
leaf_value=-0.022842243000388215 -0.009429168066332547 0.045397610757517366 0.011871413915639123 0.0043065754922078465 -0.024172315746103994 0.0012454791615580487 0.088685944065742886
leaf_count=18984 34851 221 2730 8735 142 1007 340
internal_value=0 -0.387891 0.028627 -0.00324271 -0.119383 0.429914 1.16598
internal_count=67010 19205 47805 45075 36340 1489 482
shrinkage=0.05


Tree=57
num_leaves=8
num_cat=0
split_feature=0 8 0 5 2 5 4
split_gain=8.21242 9.35557 8.86705 9.0269 7.51168 11.218 11.0927
threshold=41.500000000000007 1.0000000180025095e-35 39.500000000000007 2.8811541565778858 34.550000000000004 3.1203448275862073 148.25000000000003
decision_type=2 2 2 8 10 8 8
left_child=1 -1 -3 -4 -2 6 -6
right_child=4 2 3 -5 5 -7 -8
leaf_value=-0.015554208292868486 0.0013654247086722199 -0.027590292163997849 0.11282513047739273 -0.0073404097060176575 0.12554890360906951 -0.022169209653964198 0.019142017536237548
leaf_count=22293 44031 165 157 89 109 86 80
internal_value=0 -0.235111 0.722876 1.39043 0.0442809 0.725013 1.30077
internal_count=67010 22704 411 246 44306 275 189
shrinkage=0.05


Tree=58
num_leaves=8
num_cat=0
split_feature=3 0 6 0 2 5 5
split_gain=8.02308 5.06661 4.62406 4.24219 6.21355 6.45552 8.0909
threshold=72.833333333333357 46.500000000000007 12.250000000000002 50.500000000000007 24.050000000000004 1.1556998556998559 2.3021061869240902
decision_type=8 2 10 2 8 8 10
left_child=1 -1 3 4 5 -2 -7
right_child=2 -3 -4 -5 -6 6 -8
leaf_value=-0.032071172327169738 -0.037841493948274796 -0.0010701205250816816 0.056154636310603204 0.0054320423179368693 0.0024920352353732058 0.0026446262588604636 -0.022799035217508846
leaf_count=13939 2574 5266 28 12609 14410 12571 5613
internal_value=0 -0.373051 0.0271119 0.0212483 -0.0460513 -0.204722 -0.127549
internal_count=67010 19205 47805 47777 35168 20758 18184
shrinkage=0.05


Tree=59
num_leaves=8
num_cat=0
split_feature=4 6 5 2 5 4 4
split_gain=7.60436 5.80784 5.97084 5.26668 5.42643 4.88372 5.64457
threshold=117.33333333333336 6.1500000000000012 1.9337719298245613 20.350000000000005 1.9673022095509627 150.83333333333334 156.25000000000003
decision_type=8 10 10 8 8 10 10
left_child=1 -1 -3 4 -2 -6 -7
right_child=3 2 -4 -5 5 6 -8
leaf_value=-0.028677503194442122 -0.021369699633915967 0.097210098703555375 -0.027307341115662798 0.0023124698360550279 -0.0058726128786048002 0.10562053752107343 0.0012992228273579097
leaf_count=12482 6977 259 256 44730 2201 51 54
internal_value=0 -0.457529 0.858868 0.020752 -0.256962 0.242294 1.04161
internal_count=67010 12997 515 54013 9283 2306 105
shrinkage=0.05


Tree=60
num_leaves=8
num_cat=0
split_feature=2 4 0 3 6 5 4
split_gain=7.06999 6.96757 5.47463 7.29067 4.06339 6.41806 8.3466
threshold=22.350000000000005 145.83333333333334 46.500000000000007 80.833333333333357 6.5500000000000016 3.025320512820513 144.83333333333334
decision_type=8 10 2 10 10 10 10
left_child=1 -1 3 -2 -4 6 -6
right_child=2 -3 4 -5 5 -7 -8
leaf_value=-0.015764357093940209 -0.026580620496180277 0.0037552585659831532 0.0042512558070894116 7.3619345033414953e-05 0.057442175824191727 -0.0092672454870951545 0.010259890267576751
leaf_count=28455 10303 2606 14024 10284 619 362 357
internal_value=0 -0.166385 0.0543566 -0.0704967 0.129373 0.382495 0.587825
internal_count=67010 31061 35949 20587 15362 1338 976
shrinkage=0.05


Tree=61
num_leaves=8
num_cat=0
split_feature=4 0 0 2 0 3 0
split_gain=6.6874 5.45339 4.81148 4.37806 6.08692 5.17312 5.33706
threshold=117.33333333333336 58.500000000000007 26.500000000000004 25.850000000000005 44.500000000000007 101.83333333333336 28.500000000000004
decision_type=8 2 2 8 2 10 2
left_child=1 -1 -2 4 5 6 -4
right_child=2 -3 3 -5 -6 -7 -8
leaf_value=-0.027769025098501449 -0.037917351827771228 0.041137221208809582 0.048078985209024053 0.0061716475830782208 0.0013457406169394464 0.013309255365909687 -0.020059754281790118
leaf_count=12695 1851 302 692 11508 22690 242 17030
internal_value=0 -0.437203 0.0191859 0.02748 -0.0344542 -0.255568 -0.355464
internal_count=67010 12997 54013 52162 40654 17964 17722
shrinkage=0.05


Tree=62
num_leaves=8
num_cat=0
split_feature=0 8 0 5 2 5 4
split_gain=6.16819 8.25744 7.81917 7.5078 6.3929 9.55304 8.71918
threshold=41.500000000000007 1.0000000180025095e-35 39.500000000000007 2.8811541565778858 34.550000000000004 3.1401754385964917 145.16666666666671
decision_type=2 2 2 8 10 10 8
left_child=1 -1 -3 -4 -2 6 -6
right_child=4 2 3 -5 5 -7 -8
leaf_value=-0.014141296078850091 0.0010960897069685466 -0.027059840222039902 0.10109356906847566 -0.0071624493308129356 0.11672294941444782 -0.021869065564197307 0.021938232111119275
leaf_count=22293 44031 165 157 89 93 86 96
internal_value=0 -0.207799 0.679386 1.27877 0.0378083 0.653576 1.15802
internal_count=67010 22704 411 246 44306 275 189
shrinkage=0.05


Tree=63
num_leaves=8
num_cat=0
split_feature=4 6 5 0 6 4 4
split_gain=6.08109 5.41607 5.72807 4.44764 4.00939 3.70641 4.5002
threshold=117.33333333333336 6.1500000000000012 1.9247641509433964 26.500000000000004 12.250000000000002 178.33333333333334 172.83333333333334
decision_type=8 10 10 2 10 10 10
left_child=1 -1 -3 -2 5 6 -5
right_child=3 2 -4 4 -6 -7 -8
leaf_value=-0.027158134616746977 -0.037310895017819042 0.093943012581627641 -0.027293097017113722 0.00095278088619463576 0.051473823834065971 0.017310295347517116 -0.02259360268594322
leaf_count=12482 1851 257 258 51633 28 266 235
internal_value=0 -0.422391 0.83421 0.0182172 0.0260114 0.0205591 0.00503952
internal_count=67010 12997 515 54013 52162 52134 51868
shrinkage=0.05


Tree=64
num_leaves=8
num_cat=0
split_feature=2 4 0 2 0 2 6
split_gain=5.81431 6.02766 4.63823 4.0545 3.76139 4.51285 3.63855
threshold=22.350000000000005 145.83333333333334 31.500000000000004 37.650000000000013 58.500000000000007 20.950000000000003 6.5500000000000016
decision_type=8 10 2 10 2 8 10
left_child=1 4 3 -2 -1 -6 -4
right_child=2 -3 6 -5 5 -7 -8
leaf_value=-0.017486263541929517 -0.035462060162571016 0.0035190955544294293 0.0015720501763713327 0.041628327942146125 -0.017699312570980182 0.044547637311870364 0.013315827231406289
leaf_count=27681 2355 2606 31546 34 449 325 2014
internal_value=0 -0.152376 0.0489832 -0.524194 -0.294388 0.275802 0.0626995
internal_count=67010 31061 35949 2389 28455 774 33560
shrinkage=0.05


Tree=65
num_leaves=8
num_cat=0
split_feature=3 0 5 5 6 4 6
split_gain=5.43328 4.51958 4.00633 4.04933 7.61701 9.77372 3.94788
threshold=72.833333333333357 46.500000000000007 1.3038595184909409 2.060303030303031 5.7500000000000009 123.83333333333336 7.2500000000000009
decision_type=8 2 10 10 10 10 8
left_child=1 -1 -3 4 -4 -6 -5
right_child=-2 2 3 6 5 -7 -8
leaf_value=-0.029786798907001134 0.0010801161853572511 -0.040047674599011214 -0.0092340784630822754 -0.02745482251245401 0.12444877809835649 -0.014034864973156883 0.042185903145456484
leaf_count=13939 47805 1027 1465 1624 609 205 336
internal_value=0 -0.320265 0.00962759 0.210363 0.648225 1.50622 -0.241033
internal_count=67010 19205 5266 4239 2279 814 1960
shrinkage=0.05


Tree=66
num_leaves=8
num_cat=0
split_feature=4 0 4 0 2 5 4
split_gain=5.1598 4.88842 4.20853 3.99284 3.60119 5.49336 4.64762
threshold=117.33333333333336 58.500000000000007 111.25000000000001 26.500000000000004 20.350000000000005 1.9673022095509627 177.50000000000003
decision_type=8 2 10 2 8 8 10
left_child=1 -1 -3 -2 5 6 -5
right_child=3 2 -4 4 -6 -7 -8
leaf_value=-0.025997486960154886 -0.036474388926381794 -0.025635791859872682 0.077921508148809715 -0.023043883234529855 0.0022099005552756747 0.014902412154719397 0.048474380702684498
leaf_count=12695 1851 141 161 6607 43447 2084 24
internal_value=0 -0.397586 0.771627 0.016479 0.0236427 -0.213178 -0.391139
internal_count=67010 12997 302 54013 52162 8715 6631
shrinkage=0.05


Tree=67
num_leaves=8
num_cat=0
split_feature=0 4 2 6 6 4 5
split_gain=4.97664 9.76919 4.74811 4.50366 5.85665 4.50222 4.7754
threshold=50.500000000000007 119.25000000000001 19.550000000000004 7.1500000000000012 7.7500000000000009 165.16666666666671 1.8592649647887327
decision_type=2 10 8 10 10 10 8
left_child=1 -1 -3 -2 -5 -4 -7
right_child=3 2 5 4 -6 6 -8
leaf_value=-0.033071091878293428 0.0029145699832146183 -0.026445007817271604 -0.0026109457566352292 0.051256688896832707 0.0025673586700463262 0.039093893198288425 0.0044465791892515762
leaf_count=13147 14822 4052 33826 274 286 160 443
internal_value=0 -0.0702991 -0.0326052 0.0914039 0.499105 -0.00947844 0.255273
internal_count=67010 51628 38481 15382 560 34429 603
shrinkage=0.05


Tree=68
num_leaves=8
num_cat=0
split_feature=2 0 3 5 5 5 1
split_gain=4.70547 7.47723 5.44354 4.897 4.37852 5.06642 6.96486
threshold=25.850000000000005 44.500000000000007 101.83333333333336 3.4486277269528505 3.18016393442623 3.4486277269528505 1.5000000000000002
decision_type=8 2 10 8 8 10 2
left_child=1 2 -1 -4 -3 -6 -7
right_child=-2 4 3 -5 5 6 -8
leaf_value=-0.018984696055353564 0.0049256490576427159 0.0022889597331904005 -0.0011238980786894368 0.067107296886563916 -0.036870479513089797 -0.010290916965928208 0.066912349809488889
leaf_count=26717 12462 25124 215 27 984 1350 131
internal_value=0 -0.0617332 -0.289785 0.248605 0.00689993 -0.298104 -0.0210158
internal_count=67010 54548 26959 242 27589 2465 1481
shrinkage=0.05


Tree=69
num_leaves=8
num_cat=0
split_feature=2 0 4 0 6 2 0
split_gain=4.35496 5.14616 4.65567 4.23556 6.47131 4.17296 3.98815
threshold=22.350000000000005 61.500000000000007 145.83333333333334 65.500000000000014 6.1500000000000012 19.950000000000003 31.500000000000004
decision_type=8 2 10 2 8 10 2
left_child=1 2 -1 4 5 -3 -2
right_child=6 3 -4 -5 -6 -7 -8
leaf_value=-0.014938577452021401 -0.025092908709966652 -0.0028675956047150269 0.0015875065477443349 -0.020206873150919274 -0.029131025484158093 0.10522441973173807 0.0027144437144593914
leaf_count=28203 2389 82 2500 101 51 124 33560
internal_value=0 -0.133689 -0.169051 0.633406 1.06994 1.61129 0.0419197
internal_count=67010 31061 30703 358 257 206 35949
shrinkage=0.05


Tree=70
num_leaves=8
num_cat=0
split_feature=0 4 5 2 2 4 2
split_gain=4.18907 8.86766 4.40528 5.79942 5.25698 4.78068 10.1883
threshold=50.500000000000007 119.25000000000001 0.8609353023909988 22.950000000000003 21.050000000000004 149.25000000000003 19.450000000000003
decision_type=2 10 10 10 10 10 10
left_child=1 -1 3 -2 5 -4 -7
right_child=2 -3 4 -5 -6 6 -8
leaf_value=-0.032171150514554332 0.062064228995131733 -0.0014859254204958798 -0.024143468299622904 -0.031593630145872707 0.005748132187244074 0.060642476547768644 -0.020202805982402438
leaf_count=13147 276 38481 3458 55 11269 110 214
internal_value=0 -0.0649024 0.0833954 0.812458 0.0652978 -0.252911 0.200018
internal_count=67010 51628 15382 331 15051 3782 324
shrinkage=0.05


Tree=71
num_leaves=8
num_cat=0
split_feature=2 0 3 5 5 5 1
split_gain=3.97707 6.44739 4.95017 4.36023 4.04538 4.82122 6.21786
threshold=25.850000000000005 44.500000000000007 101.83333333333336 3.4486277269528505 3.18016393442623 3.4486277269528505 1.5000000000000002
decision_type=8 2 10 8 8 10 2
left_child=1 2 -1 -4 -3 -6 -7
right_child=-2 4 3 -5 5 6 -8
leaf_value=-0.018025620411504607 0.0045030772689354185 0.0021555195919435713 -0.0010762364509225685 0.062396493133775356 -0.036329286844233019 -0.010004509412171059 0.061628791521074866
leaf_count=26717 12462 25124 215 27 984 1350 131
internal_value=0 -0.057111 -0.272104 0.238163 0.00599893 -0.289112 -0.021185
internal_count=67010 54548 26959 242 27589 2465 1481
shrinkage=0.05


Tree=72
num_leaves=8
num_cat=0
split_feature=0 8 5 4 5 2 5
split_gain=3.70988 6.90323 7.44179 6.46831 5.85274 5.31226 8.24781
threshold=41.500000000000007 1.0000000180025095e-35 2.0053763440860224 155.16666666666671 1.487010796221323 34.550000000000004 3.1401754385964917
decision_type=2 2 8 10 8 10 10
left_child=1 4 -3 -4 -1 -2 -7
right_child=5 2 3 -5 -6 6 -8
leaf_value=-0.03737316649233112 0.00070291902814319533 0.10600086615587408 -0.021996027445926221 0.068204082257543916 -0.0064510217890433354 0.051291743343493117 -0.021959526796800324
leaf_count=6284 44031 85 306 20 16009 189 86
internal_value=0 -0.165882 0.631965 0.114794 -0.23945 0.0287442 0.578419
internal_count=67010 22704 411 326 22293 44306 275
shrinkage=0.05


Tree=73
num_leaves=8
num_cat=0
split_feature=6 0 3 0 2 5 6
split_gain=3.64071 3.80605 7.42423 6.31343 5.87713 8.36405 13.6954
threshold=12.250000000000002 57.500000000000007 83.833333333333357 59.500000000000007 23.950000000000003 2.060303030303031 6.2500000000000009
decision_type=10 2 10 2 10 10 10
left_child=1 2 4 -3 5 6 -1
right_child=-2 3 -4 -5 -6 -7 -8
leaf_value=-0.013711578444975132 0.047052706958859963 0.021301481931271942 0.0011654896122489712 -0.003972039242196611 0.00086406329179496079 -0.040594568990785292 0.094083912900557509
leaf_count=21425 29 1768 21354 1717 10792 9529 396
internal_value=0 -0.00503804 -0.0319066 0.178705 -0.231719 -0.393552 -0.163623
internal_count=67010 66981 63496 3485 42142 31350 21821
shrinkage=0.05


Tree=74
num_leaves=8
num_cat=0
split_feature=6 0 8 0 5 5 2
split_gain=3.30517 3.65394 6.64508 6.90357 7.21683 5.24164 4.7273
threshold=12.250000000000002 41.500000000000007 1.0000000180025095e-35 39.500000000000007 2.0053763440860224 1.487010796221323 34.550000000000004
decision_type=10 2 2 2 8 8 10
left_child=1 2 5 -4 -5 -1 -3
right_child=-2 6 3 4 -6 -7 -8
leaf_value=-0.036810053564160929 0.044417192334444577 0.00048854242123357332 -0.027248240302325168 0.1358951307892694 0.020529002538802927 -0.007004856073489738 0.026806705130774735
leaf_count=6284 29 44007 165 52 194 16004 275
internal_value=0 -0.00477582 -0.17061 0.6065 1.14575 -0.244389 0.0238292
internal_count=67010 66981 22699 411 246 22288 44282
shrinkage=0.05


Tree=75
num_leaves=8
num_cat=0
split_feature=4 6 5 2 0 6 4
split_gain=3.19983 4.59186 4.89099 3.31509 3.30353 2.91376 2.75845
threshold=117.33333333333336 6.1500000000000012 1.9247641509433964 26.750000000000004 26.500000000000004 12.250000000000002 178.33333333333334
decision_type=8 10 10 10 2 10 10
left_child=1 3 -3 -1 -2 6 -6
right_child=4 2 -4 -5 5 -7 -8
leaf_value=-0.027786307857986071 -0.035001868061056041 0.085177707785805037 -0.026482608453090667 0.037002619589505341 2.9881852307759641e-05 0.042371734131284249 0.014539296571714875
leaf_count=12168 1851 257 258 314 51868 28 266
internal_value=0 -0.330289 0.80072 -0.462519 0.0127176 0.0189136 0.0141391
internal_count=67010 12997 515 12482 54013 52162 52134
shrinkage=0.05


Tree=76
num_leaves=8
num_cat=0
split_feature=0 0 2 6 3 3 7
split_gain=3.17852 10.3545 9.35975 7.25326 6.88714 5.8507 9.65455
threshold=58.500000000000007 59.500000000000007 24.550000000000004 5.5500000000000016 84.166666666666671 90.833333333333357 1.0000000180025095e-35
decision_type=2 2 10 8 8 10 2
left_child=5 2 3 -2 -4 6 -1
right_child=1 -3 4 -5 -6 -7 -8
leaf_value=-0.0083597593377086835 -0.003854409149595733 -0.0038518201502851079 0.054524774850392865 0.080907950443310672 -0.022319428663284548 0.003013339310944569 0.029790957648704916
leaf_count=54565 124 1717 110 434 146 9164 750
internal_value=0 0.197555 0.705384 1.24368 0.034141 -0.0205687 -0.123966
internal_count=67010 2531 814 558 256 64479 55315
shrinkage=0.05


Tree=77
num_leaves=8
num_cat=0
split_feature=2 0 3 5 5 5 1
split_gain=3.05538 4.86744 4.31887 3.83932 3.72064 4.54944 5.57026
threshold=25.850000000000005 44.500000000000007 101.83333333333336 3.4486277269528505 3.18016393442623 3.4486277269528505 1.5000000000000002
decision_type=8 2 10 8 8 10 2
left_child=1 2 -1 -4 -3 -6 -7
right_child=-2 4 3 -5 5 6 -8
leaf_value=-0.016404735244909704 0.003947369200482667 0.0019635862067670577 -0.00081407951069872311 0.058002257571367705 -0.03576623070636134 -0.0098127059449941312 0.05688286026616516
leaf_count=26717 12462 25124 215 27 984 1350 131
internal_value=0 -0.0499566 -0.241538 0.232125 0.00396336 -0.281058 -0.0230622
internal_count=67010 54548 26959 242 27589 2465 1481
shrinkage=0.05


Tree=78
num_leaves=8
num_cat=0
split_feature=2 4 3 5 0 3 2
split_gain=2.93016 4.05749 6.35447 3.23723 2.71635 6.35544 7.38487
threshold=20.450000000000003 169.25000000000003 99.833333333333357 0.6986039395677951 53.500000000000007 90.833333333333357 29.950000000000003
decision_type=8 10 10 8 2 10 10
left_child=1 -1 -3 -2 5 6 -5
right_child=3 2 -4 4 -6 -7 -8
leaf_value=-0.012714206971026626 0.049111749538941596 0.093129491090863242 -0.013694214102164995 -0.011536494787006635 0.0057868148639534942 0.0034896470835143324 0.016543708282336395
leaf_count=15769 226 32 39 35176 7204 7001 1563
internal_value=0 -0.191496 0.666647 0.0201451 0.0153183 -0.0234053 -0.158347
internal_count=67010 15840 71 51170 50944 43740 36739
shrinkage=0.05


Tree=79
num_leaves=8
num_cat=0
split_feature=0 4 2 5 3 2 4
split_gain=2.71606 7.05222 3.77929 3.7437 5.58675 4.38944 4.20766
threshold=50.500000000000007 119.25000000000001 19.550000000000004 0.8609353023909988 87.833333333333357 21.050000000000004 149.25000000000003
decision_type=2 10 8 10 10 10 10
left_child=1 -1 -3 4 -2 6 -5
right_child=3 2 -4 5 -6 -7 -8
leaf_value=-0.029998834586609676 0.076014108055945717 -0.024270492683314195 -0.00012163281593874917 -0.023295407561719841 -0.0041676092345005033 0.0047312095044988014 0.0087261214624962703
leaf_count=13147 220 4052 34429 3458 111 11269 324
internal_value=0 -0.0524156 -0.0224093 0.0669796 0.722836 0.0501326 -0.243169
internal_count=67010 51628 38481 15382 331 15051 3782
shrinkage=0.05


Tree=80
num_leaves=8
num_cat=0
split_feature=6 0 3 5 5 2 2
split_gain=2.6591 2.71281 5.23417 5.12139 8.72339 7.37759 14.5604
threshold=12.250000000000002 57.500000000000007 83.833333333333357 2.2642593797440909 1.5187529301453353 29.550000000000004 26.350000000000005
decision_type=10 2 10 8 10 8 10
left_child=1 2 -1 4 -3 6 -5
right_child=-2 3 -4 5 -6 -7 -8
leaf_value=-0.0099557772594713722 0.039106120910840182 0.024416941396946112 0.00092328373149349371 0.029703816486170653 -0.01687625235483961 0.072279530513132365 -0.036424776525196809
leaf_count=42142 29 719 21354 1135 1317 72 242
internal_value=0 -0.00398127 -0.0270285 0.149116 -0.0559984 0.396233 0.235477
internal_count=67010 66981 63496 3485 2036 1449 1377
shrinkage=0.05


Tree=81
num_leaves=8
num_cat=0
split_feature=2 0 3 5 5 1 6
split_gain=2.48996 3.95393 3.80821 3.53055 4.31042 4.94624 5.02158
threshold=25.850000000000005 44.500000000000007 101.83333333333336 3.18016393442623 3.4486277269528505 1.5000000000000002 5.5500000000000016
decision_type=8 2 10 8 10 2 10
left_child=1 2 -1 -3 -5 6 -6
right_child=-2 3 -4 4 5 -7 -8
leaf_value=-0.015244143169060163 0.0035531391263791835 0.0018540397555273154 0.011045191069045305 -0.03530926013029697 0.021195317489416551 0.052079034731411802 -0.025943162211968015
leaf_count=26717 12462 25124 242 984 538 131 812
internal_value=0 -0.0452295 -0.220785 0.00284278 -0.276007 -0.027134 -0.193661
internal_count=67010 54548 26959 27589 2465 1481 1350
shrinkage=0.05


Tree=82
num_leaves=8
num_cat=0
split_feature=4 6 0 0 2 3 6
split_gain=2.44409 3.28303 2.48274 9.00768 8.03542 6.32431 6.11405
threshold=110.33333333333336 5.3500000000000005 58.500000000000007 59.500000000000007 24.550000000000004 84.166666666666671 5.4500000000000011
decision_type=8 8 2 2 10 8 8
left_child=1 -1 -2 4 6 -6 -4
right_child=2 -3 3 -5 5 -7 -8
leaf_value=0.03219050040735439 -0.00058005225715633915 -0.034701053837579258 -0.018061123793749048 -0.0039305772212635225 0.050426020782763127 -0.022287500748821146 0.068653816316329871
leaf_count=980 58961 4660 76 1636 105 146 446
internal_value=0 -0.464429 0.00724748 0.180305 0.643079 0.0205512 1.12379
internal_count=67010 5640 61370 2409 773 251 522
shrinkage=0.05


Tree=83
num_leaves=8
num_cat=0
split_feature=6 0 8 0 5 5 5
split_gain=2.43636 2.41413 5.81954 6.30074 6.40945 4.83508 5.1863
threshold=12.250000000000002 41.500000000000007 1.0000000180025095e-35 39.500000000000007 2.0053763440860224 1.487010796221323 1.9171568627450981
decision_type=10 2 2 2 8 8 10
left_child=1 2 5 -4 -5 -1 -7
right_child=-2 -3 3 4 -6 6 -8
leaf_value=-0.035509164872559035 0.037178156480521002 0.00095248474621622116 -0.026848995526904534 0.12573535671427852 0.019274943257454949 0.015431665771740658 -0.012862065374805973
leaf_count=6284 29 44282 165 52 194 6087 9917
internal_value=0 -0.00379387 -0.141382 0.578619 1.07877 -0.213718 -0.114795
internal_count=67010 66981 22699 411 246 22288 16004
shrinkage=0.05


Tree=84
num_leaves=8
num_cat=0
split_feature=4 4 0 0 4 5 3
split_gain=2.29632 3.89745 4.0968 5.1818 4.86641 3.73936 3.65057
threshold=178.33333333333334 172.83333333333334 63.500000000000007 68.500000000000014 165.16666666666671 1.8012345679012347 105.83333333333336
decision_type=10 10 2 2 10 8 10
left_child=1 2 4 -4 -1 -3 -6
right_child=-2 5 3 -5 6 -7 -8
leaf_value=-0.0015951868382055848 0.012513574476954382 0.014738508128622749 0.043376703434450964 -0.03426327052168511 0.0037271365511542978 -0.032990382430938568 0.031413906754773117
leaf_count=65463 268 70 362 73 447 168 159
internal_value=0 -0.0113638 0.00122307 0.572166 -0.00878799 -0.431858 0.289461
internal_count=67010 66742 66504 435 66069 238 606
shrinkage=0.05


Tree=85
num_leaves=8
num_cat=0
split_feature=2 5 3 5 0 4 5
split_gain=2.30299 3.42436 6.67894 3.99023 7.2981 5.26041 6.58971
threshold=25.850000000000005 3.1401754385964917 98.833333333333357 2.7047317436661706 57.500000000000007 152.83333333333334 2.7670542635658921
decision_type=8 10 10 8 2 10 8
left_child=1 3 -3 -1 5 -5 -7
right_child=-2 2 -4 4 -6 6 -8
leaf_value=-0.0025356482265663448 0.0034157931210561498 -0.025781738432270669 0.012003056880627732 -0.0078101733482758579 0.05154353813280417 -0.03805186961312803 0.043828163538648678
leaf_count=44094 12462 4291 195 5397 329 40 202
internal_value=0 -0.0435166 -0.281232 -0.0126632 0.239424 0.068787 0.568922
internal_count=67010 54548 4486 50062 5968 5639 242
shrinkage=0.05


Tree=86
num_leaves=8
num_cat=0
split_feature=0 2 5 0 5 4 0
split_gain=2.24545 2.33249 4.24814 4.28724 5.9926 3.91933 3.65414
threshold=26.500000000000004 22.350000000000005 4.3176274944567643 61.500000000000007 2.6039701257861636 142.83333333333334 65.500000000000014
decision_type=2 8 8 2 10 10 2
left_child=-1 2 3 4 -2 -4 -5
right_child=1 -3 5 6 -6 -7 -8
leaf_value=-0.028507171789332028 -0.0038178920641921965 0.0017862638338751778 -0.0084723153183342784 0.047759698972937019 -0.031647584848817772 0.094774455209370154 -0.02005919962978555
leaf_count=2527 25468 34974 627 255 3017 42 100
internal_value=0 0.00562037 -0.0956118 -0.116978 -0.152414 1.00623 0.568201
internal_count=67010 64483 29509 28840 28485 669 355
shrinkage=0.05


Tree=87
num_leaves=8
num_cat=0
split_feature=6 0 4 5 2 4 2
split_gain=2.23748 2.21935 5.94818 3.47603 5.25481 10.017 9.713
threshold=12.250000000000002 50.500000000000007 119.25000000000001 3.1203448275862073 34.050000000000004 146.83333333333334 36.550000000000004
decision_type=10 2 10 10 8 10 8
left_child=1 2 -1 4 -4 6 -6
right_child=-2 -3 3 -5 5 -7 -8
leaf_value=-0.028620235440428896 0.035416911175273479 0.0028092306969571637 -0.00043700212865903604 -0.010233206600309297 0.11436274792356951 -0.0058507263553195174 0.0038394970365690398
leaf_count=13147 29 15375 32678 5271 114 157 239
internal_value=0 -0.00357318 -0.0519601 -0.0249456 0.022841 0.542018 1.35603
internal_count=67010 66981 51606 38459 33188 510 353
shrinkage=0.05


Tree=88
num_leaves=8
num_cat=0
split_feature=3 6 0 5 3 3 2
split_gain=2.15123 2.06952 2.00339 2.21343 5.28279 3.10517 2.47285
threshold=124.50000000000001 12.250000000000002 26.500000000000004 0.61919570588736483 94.833333333333357 74.833333333333357 22.350000000000005
decision_type=10 10 2 10 10 10 8
left_child=1 2 -1 4 5 -4 -5
right_child=-2 -3 3 6 -6 -7 -8
leaf_value=-0.027794636627838688 0.028259459100569595 0.033600224648051194 0.038210919632037245 -0.0057523247337270891 0.077709181025295226 -0.028772400848672559 0.0010987313867186737
leaf_count=2526 37 29 645 28741 42 594 34396
internal_value=0 -0.00434448 -0.00833804 -0.00352308 0.5061 -0.0782168 -0.00926357
internal_count=67010 66973 66944 64418 1281 1239 63137
shrinkage=0.05


Tree=89
num_leaves=8
num_cat=0
split_feature=4 6 0 0 4 0 0
split_gain=2.0386 3.21594 1.92072 4.54441 6.56333 2.5595 9.56711
threshold=110.33333333333336 5.3500000000000005 68.500000000000014 63.500000000000007 162.33333333333334 59.500000000000007 58.500000000000007
decision_type=8 8 2 2 8 2 2
left_child=1 -1 3 5 -5 6 -2
right_child=2 -3 -4 4 -6 -7 -8
leaf_value=0.032838337113039094 -0.00049165853446940728 -0.033767243992134141 -0.037463214631768965 0.048887750477238923 -0.038204592537952983 -0.012955845725594113 0.029437919914631329
leaf_count=980 58961 4660 79 332 21 1204 773
internal_value=0 -0.435312 0.00676808 0.0100978 0.62439 0.000333007 0.0135251
internal_count=67010 5640 61370 61291 353 60938 59734
shrinkage=0.05


Tree=90
num_leaves=8
num_cat=0
split_feature=4 4 5 5 0 4 0
split_gain=1.9595 3.67408 3.5728 3.5179 3.81946 3.4359 4.44388
threshold=178.33333333333334 172.83333333333334 1.8012345679012347 2.7802439024390249 45.500000000000007 166.25000000000003 59.500000000000007
decision_type=10 10 8 10 2 10 2
left_child=1 5 -3 4 -2 -1 -7
right_child=3 2 -4 -5 -6 6 -8
leaf_value=-0.00077721276676945717 -0.03428598565473525 0.014224248429118808 -0.032426108126946261 0.030685039856075687 0.011172069422299036 0.018586055905877689 -0.040288060777714768
leaf_count=66023 50 70 168 85 133 448 33
internal_value=0 -0.0104734 -0.421389 0.230028 -0.0269383 0.00168777 0.280221
internal_count=67010 66742 238 268 183 66504 481
shrinkage=0.05


Tree=91
num_leaves=8
num_cat=0
split_feature=0 2 2 0 5 1 5
split_gain=1.95326 1.9439 3.28514 7.8746 8.80217 4.59548 3.42521
threshold=26.500000000000004 25.850000000000005 26.350000000000005 54.500000000000007 2.3217312348668289 1.5000000000000002 2.9954166666666668
decision_type=2 8 8 2 10 2 8
left_child=-1 -2 3 5 -5 6 -3
right_child=1 2 -4 4 -6 -7 -8
leaf_value=-0.027300767820216849 -0.0017877369681258588 -0.017409589894668218 0.0014515858358726897 -0.0054484790299661823 0.096166172826778085 0.051452613866692233 0.021115288428402778
leaf_count=2527 52349 967 10199 97 116 267 488
internal_value=0 0.00515021 0.0672752 0.351027 1.16713 0.0796594 -0.0893189
internal_count=67010 64483 12134 1935 213 1722 1455
shrinkage=0.05


Tree=92
num_leaves=8
num_cat=0
split_feature=6 0 8 0 5 5 5
split_gain=1.87558 1.9043 5.21724 5.7002 5.51984 4.54636 4.74776
threshold=12.250000000000002 41.500000000000007 1.0000000180025095e-35 39.500000000000007 2.0053763440860224 1.487010796221323 1.9171568627450981
decision_type=10 2 2 2 8 8 10
left_child=1 2 5 -4 -5 -1 -7
right_child=-2 -3 3 4 -6 6 -8
leaf_value=-0.034652367037434864 0.0320466797562967 0.00084616648831691238 -0.02638422015983586 0.1147911201953245 0.018129774094881781 0.015031776164325656 -0.012059421842206208
leaf_count=6284 29 44282 165 52 194 6087 9917
internal_value=0 -0.00319979 -0.126637 0.548566 1.00967 -0.197053 -0.10211
internal_count=67010 66981 22699 411 246 22288 16004
shrinkage=0.05


Tree=93
num_leaves=8
num_cat=0
split_feature=3 2 6 3 6 3 5
split_gain=1.85894 1.96043 4.82199 4.65138 5.39315 5.3484 6.20418
threshold=124.50000000000001 29.950000000000003 5.2500000000000009 89.250000000000014 6.6500000000000012 104.83333333333336 2.7670542635658921
decision_type=10 8 8 8 8 10 8
left_child=1 -1 -3 -4 -5 6 -6
right_child=-2 2 3 4 5 -7 -8
leaf_value=-0.0012006647958200702 0.02603865186710809 0.060430176934732453 0.018658597887189068 -0.014614481759642434 -0.0015981957962521911 -0.027721071025812602 0.053965319883315759
leaf_count=63935 37 125 1876 692 138 38 169
internal_value=0 -0.00396024 0.123917 0.0801608 -0.0765256 0.293712 0.532407
internal_count=67010 66973 3038 2913 1037 345 307
shrinkage=0.05


Tree=94
num_leaves=8
num_cat=0
split_feature=4 6 0 0 4 0 0
split_gain=1.8386 3.07276 1.82489 4.0132 5.81194 2.31432 8.39093
threshold=110.33333333333336 5.3500000000000005 68.500000000000014 63.500000000000007 162.33333333333334 59.500000000000007 58.500000000000007
decision_type=8 8 2 2 8 2 2
left_child=1 -1 3 5 -5 6 -2
right_child=2 -3 -4 4 -6 -7 -8
leaf_value=0.031812435242763691 -0.00046787625150029595 -0.033168642299847034 -0.036983812262291603 0.04481333805072734 -0.037509272451220099 -0.012401043058360916 0.027217675206549302
leaf_count=980 58961 4660 79 332 21 1204 773
internal_value=0 -0.419203 0.00644384 0.00965021 0.578912 0.000343769 0.0128113
internal_count=67010 5640 61370 61291 353 60938 59734
shrinkage=0.05


Tree=95
num_leaves=8
num_cat=0
split_feature=2 6 4 0 2 2 2
split_gain=1.80368 5.13127 3.17871 4.30373 4.0791 5.1662 3.57023
threshold=19.950000000000003 5.5500000000000016 146.83333333333334 48.500000000000007 19.450000000000003 18.450000000000003 17.250000000000004
decision_type=8 10 10 2 10 10 8
left_child=1 -1 6 -4 5 -5 -3
right_child=-2 2 3 4 -6 -7 -8
leaf_value=-0.023785390494400399 0.00067763094267630792 0.050568844810503548 -0.030823257250538028 -0.0001501224206766961 -0.014088629341522989 0.10097040538084695 -0.0142157103651571
leaf_count=7230 54575 558 99 51 44 79 4374
internal_value=0 -0.181043 0.155422 0.634563 0.968314 1.36776 -0.108735
internal_count=67010 12435 5205 273 174 130 4932
shrinkage=0.05


Tree=96
num_leaves=8
num_cat=0
split_feature=0 5 2 2 2 4 3
split_gain=1.78756 1.79173 2.70871 3.09584 2.20904 2.96365 4.33566
threshold=26.500000000000004 0.6986039395677951 20.150000000000002 22.250000000000004 22.350000000000005 145.83333333333334 82.833333333333357
decision_type=2 10 10 10 8 10 10
left_child=-1 2 -2 -4 5 -3 -7
right_child=1 4 3 -5 -6 6 -8
leaf_value=-0.026531350083948413 -0.015289627971379761 -0.010856656878179513 0.074475877100247848 0.0085574117724835155 0.0014068855927659701 0.050425348916512791 -0.00055604359842687391
leaf_count=2527 550 26052 417 564 34410 341 2149
internal_value=0 0.0050571 0.405193 0.722449 -0.000804405 -0.101933 0.0506858
internal_count=67010 64483 1531 981 62952 28542 2490
shrinkage=0.05


Tree=97
num_leaves=8
num_cat=0
split_feature=4 4 5 1 6 1 2
split_gain=1.74179 3.38038 3.36644 4.28443 3.1985 4.96674 5.41905
threshold=178.33333333333334 172.83333333333334 1.8012345679012347 1.5000000000000002 7.0500000000000016 1.5000000000000002 25.550000000000004
decision_type=10 10 8 2 10 2 10
left_child=1 -1 3 -3 5 6 -2
right_child=4 2 -4 -5 -6 -7 -8
leaf_value=9.1250265087175974e-05 -0.00051645550547275521 0.045176443600956927 -0.031656705905684937 -0.035450539885643041 -0.029299045330834075 -0.014419631230922833 0.04839031210141749
leaf_count=66504 94 40 168 30 22 75 77
internal_value=0 -0.0097559 -0.407225 0.272736 0.216349 0.32136 0.565721
internal_count=67010 66742 238 70 268 246 171
shrinkage=0.05


Tree=98
num_leaves=8
num_cat=0
split_feature=0 0 4 3 3 5 5
split_gain=1.71109 3.35793 5.02641 2.58335 5.58938 5.7812 4.44279
threshold=68.500000000000014 63.500000000000007 162.33333333333334 73.833333333333357 74.250000000000014 2.4223787167449138 1.2677313883299803
decision_type=2 2 10 8 8 10 8
left_child=1 3 -3 6 5 -5 -1
right_child=-2 2 -4 4 -6 -7 -8
leaf_value=-0.044305874099116849 -0.03650380849137827 0.039669667856476944 -0.036896515272608836 0.068077336387228085 2.6920093827385294e-05 -0.019408528703457422 -0.0042271768796390023
leaf_count=4339 79 351 21 1515 43113 566 17026
internal_value=0 0.00369385 0.513823 -0.00488517 0.0101052 0.833748 -0.23293
internal_count=67010 66931 372 66559 45194 2081 21365
shrinkage=0.05


Tree=99
num_leaves=8
num_cat=0
split_feature=6 5 5 3 0 4 4
split_gain=1.70083 1.77888 4.17871 12.323 3.87446 4.49213 5.4252
threshold=12.250000000000002 3.9518002322880381 3.6505813953488375 97.833333333333357 56.500000000000007 130.25000000000003 157.25000000000003
decision_type=10 10 8 10 2 8 10
left_child=1 2 -1 4 5 -4 -7
right_child=-2 -3 3 -5 -6 6 -8
leaf_value=-0.00045732110144783441 0.030303935655305821 -0.011243923063862316 0.032128034831109459 0.056706525921510188 0.041016731434434607 -0.037278358604756964 0.042789986049218832
leaf_count=62261 29 1810 1348 127 98 1299 38
internal_value=0 -0.00310908 0.00736166 0.352988 -0.11456 -0.292929 -0.526169
internal_count=67010 66981 65171 2910 2783 2685 1337
shrinkage=0.05


end of trees

feature importances:
H25_age=162
H25_bmi=126
H25_sbp=117
H25_dbp=102
H25_lhrate=80
H25_a1c=67
H25_dl=32
H25_sex=9
H25_dm=5

parameters:
[boosting: gbdt]
[objective: binary]
[metric: binary]
[tree_learner: serial]
[device_type: cpu]
[data: ]
[valid: ]
[num_iterations: 100]
[learning_rate: 0.05]
[num_leaves: 8]
[num_threads: 0]
[max_depth: -1]
[min_data_in_leaf: 20]
[min_sum_hessian_in_leaf: 1]
[bagging_fraction: 0.4]
[bagging_freq: 0]
[bagging_seed: 3]
[feature_fraction: 1]
[feature_fraction_seed: 2]
[early_stopping_round: 0]
[max_delta_step: 0]
[lambda_l1: 0]
[lambda_l2: 1]
[min_gain_to_split: 0]
[drop_rate: 0.1]
[max_drop: 50]
[skip_drop: 0.5]
[xgboost_dart_mode: 0]
[uniform_drop: 0]
[drop_seed: 4]
[top_rate: 0.2]
[other_rate: 0.1]
[min_data_per_group: 100]
[max_cat_threshold: 32]
[cat_l2: 10]
[cat_smooth: 10]
[max_cat_to_onehot: 4]
[top_k: 20]
[monotone_constraints: ]
[feature_contri: ]
[forcedsplits_filename: ]
[refit_decay_rate: 0.9]
[verbosity: 0]
[max_bin: 255]
[min_data_in_bin: 3]
[bin_construct_sample_cnt: 200000]
[histogram_pool_size: -1]
[data_random_seed: 1]
[output_model: LightGBM_model.txt]
[snapshot_freq: -1]
[input_model: ]
[output_result: LightGBM_predict_result.txt]
[initscore_filename: ]
[valid_data_initscores: ]
[pre_partition: 0]
[enable_bundle: 1]
[max_conflict_rate: 0]
[is_enable_sparse: 1]
[sparse_threshold: 0.8]
[use_missing: 1]
[zero_as_missing: 0]
[two_round: 0]
[save_binary: 0]
[enable_load_from_binary_file: 1]
[header: 0]
[label_column: ]
[weight_column: ]
[group_column: ]
[ignore_column: ]
[categorical_feature: ]
[predict_raw_score: 0]
[predict_leaf_index: 0]
[predict_contrib: 0]
[num_iteration_predict: -1]
[pred_early_stop: 0]
[pred_early_stop_freq: 10]
[pred_early_stop_margin: 10]
[convert_model_language: ]
[convert_model: gbdt_prediction.cpp]
[num_class: 1]
[is_unbalance: 0]
[scale_pos_weight: 1]
[sigmoid: 1]
[boost_from_average: 1]
[reg_sqrt: 0]
[alpha: 0.9]
[fair_c: 1]
[poisson_max_delta_step: 0.7]
[tweedie_variance_power: 1.5]
[max_position: 20]
[label_gain: ]
[metric_freq: 1]
[is_provide_training_metric: 0]
[eval_at: ]
[num_machines: 1]
[local_listen_port: 12400]
[time_out: 120]
[machine_list_filename: ]
[machines: ]
[gpu_platform_id: -1]
[gpu_device_id: -1]
[gpu_use_dp: 0]

end of parameters

pandas_categorical:[]
