tree
version=v2
num_class=1
num_tree_per_iteration=1
label_index=0
max_feature_idx=8
objective=binary sigmoid:1
feature_names=H25_age H25_sex H25_bmi H25_dbp H25_sbp H25_lhrate H25_a1c H25_ht H25_dm
feature_infos=[20:76] [1:2] [0:54.899999999999999] [0:169] [0:238] [0.097560975609756101:8.8461538461538485] [2.7999999999999998:15.300000000000001] [0:1] [0:1]
tree_sizes=718 739 730 734 739 732 740 743 742 738 744 744 742 746 739 735 745 744 736 745 736 745 741 746 742

Tree=0
num_leaves=8
num_cat=0
split_feature=5 3 0 6 0 5 6
split_gain=681.27 169.893 165.209 80.1282 74.631 62.6636 54.2024
threshold=2.8961925287356327 89.833333333333357 51.500000000000007 6.6500000000000012 44.500000000000007 3.7444334487877295 5.5500000000000007
decision_type=10 10 2 10 2 10 10
left_child=2 4 3 -1 -2 -6 -4
right_child=1 -3 6 -5 5 -7 -8
leaf_value=-4.0660668594230502 -4.0100351820763862 -3.8145285844530066 -4.0358454450164771 -3.913225865708847 -3.9615639707241099 -3.8671036453420267 -3.9887115960137329
leaf_count=39986 3442 1217 8939 452 4696 1350 5881
internal_value=0 1.76097 -0.342651 -0.595663 1.39791 1.90665 0.347348
internal_count=65963 10705 55258 40438 9488 6046 14820
shrinkage=1


Tree=1
num_leaves=8
num_cat=0
split_feature=6 0 4 4 7 3 6
split_gain=284.502 190.92 83.9494 47.6369 40.9604 28.5576 19.5774
threshold=5.9500000000000011 46.500000000000007 138.16666666666671 121.16666666666667 1.0000000180025095e-35 95.833333333333357 5.5500000000000007
decision_type=10 2 8 10 2 10 10
left_child=1 5 4 -2 6 -1 -3
right_child=3 2 -4 -5 -6 -7 -8
leaf_value=-0.030402980639338936 0.030757027094868095 -0.0035202522016611008 0.065641940061164389 0.10842742989398819 0.081426192824701038 0.050088573633523627 0.020322943884876026
leaf_count=30705 1704 18052 3838 3419 941 585 6719
internal_value=0 -0.151373 0.283691 1.67179 0.12396 -0.574344 0.0624957
internal_count=65963 60840 29550 5123 25712 31290 24771
shrinkage=0.05


Tree=2
num_leaves=8
num_cat=0
split_feature=5 0 4 6 5 2 5
split_gain=579.273 130.309 119.73 62.4255 56.3316 45.5786 38.3779
threshold=2.6526175687666376 51.500000000000007 130.83333333333334 6.2500000000000009 3.5463121783876503 24.850000000000005 3.579473684210527
decision_type=10 2 10 10 10 10 10
left_child=1 -1 4 6 -2 -3 -4
right_child=2 5 3 -5 -6 -7 -8
leaf_value=-0.032673800489580601 0.022678835504654909 -0.00072178342562864305 0.070212279537988351 0.21640073368496238 0.08660388374359819 0.051966513720112975 0.15241744439575478
leaf_count=37384 7843 10636 3340 531 2422 2832 975
internal_value=0 -0.409146 1.2552 2.17581 0.779058 0.215214 1.82767
internal_count=65963 50852 15111 4846 10265 13468 4315
shrinkage=0.05


Tree=3
num_leaves=8
num_cat=0
split_feature=6 0 2 2 4 4 2
split_gain=223.104 153.631 92.7248 44.3679 39.264 31.67 30.5356
threshold=5.8500000000000005 46.500000000000007 24.350000000000005 21.650000000000002 130.83333333333334 132.83333333333334 31.050000000000004
decision_type=10 2 10 8 10 10 10
left_child=1 3 -3 -1 -2 -4 -5
right_child=4 2 5 6 -6 -7 -8
leaf_value=-0.045566059200585374 0.036001232433130553 -0.0027556069192299 0.026165178740549508 -0.018912124475290275 0.090788440137810428 0.07447381914670527 0.055486375174691675
leaf_count=13307 4247 20372 5128 16619 2703 2820 767
internal_value=0 -0.167378 0.224438 -0.562026 1.18974 0.888982 -0.303743
internal_count=65963 59013 28320 30693 6950 7948 17386
shrinkage=0.05


Tree=4
num_leaves=8
num_cat=0
split_feature=5 5 7 6 6 5 1
split_gain=484.466 93.9625 76.6917 58.0894 41.6215 31.435 28.0055
threshold=2.5687964841108863 3.579473684210527 1.0000000180025095e-35 5.5500000000000007 6.4500000000000011 1.9778998778998782 1.5000000000000002
decision_type=10 10 2 10 10 10 2
left_child=3 2 4 5 6 -1 -2
right_child=1 -3 -4 -5 -6 -7 -8
leaf_value=-0.036594142489309714 0.017408307609633217 0.10016915962222235 0.14788353153215453 0.0012854201850942331 0.11070834414426618 -0.011209916737564118 0.07294679069621339
leaf_count=26216 10862 3398 627 12115 582 10809 1354
internal_value=0 1.02351 0.725964 -0.419803 0.586843 -0.581999 0.477123
internal_count=65963 16823 13425 49140 12798 37025 12216
shrinkage=0.05


Tree=5
num_leaves=8
num_cat=0
split_feature=5 0 3 0 5 5 5
split_gain=425.032 114.9 81.0131 61.3409 38.9842 30.0048 27.331
threshold=2.5687964841108863 51.500000000000007 89.833333333333357 44.500000000000007 3.387425938117183 1.760716472749541 1.9950000000000003
decision_type=10 2 10 2 10 8 10
left_child=1 6 3 -2 -5 -3 -1
right_child=2 5 -4 4 -6 -7 -8
leaf_value=-0.039926687394225197 0.0040062978794559844 -0.010045021180336178 0.10695769417930079 0.0366332091775411 0.084550365978517575 0.025761383600286486 -0.015415694514608266
leaf_count=25859 5411 6173 1860 6869 2683 6781 10327
internal_value=0 -0.407335 0.925725 0.727615 1.04726 0.180823 -0.655099
internal_count=65963 49140 16823 14963 9552 12954 36186
shrinkage=0.05


Tree=6
num_leaves=8
num_cat=0
split_feature=5 0 0 5 3 5 6
split_gain=374.625 109.294 64.3915 58.9953 42.3215 35.0156 31.533
threshold=2.6526175687666376 51.500000000000007 39.500000000000007 3.7444334487877295 92.833333333333357 1.9950000000000003 6.5500000000000007
decision_type=10 2 2 10 10 10 10
left_child=1 5 -2 4 -4 -1 -7
right_child=2 -3 3 -5 -6 6 -8
leaf_value=-0.039468704822512884 -0.019645421456298204 0.0092086787927226476 0.033325157811109757 0.097719565844737802 0.10078192110619744 -0.016344072596496062 0.10108875675558703
leaf_count=25859 1815 13468 10230 2146 920 11298 227
internal_value=0 -0.370655 0.897727 1.04891 0.821101 -0.615561 -0.252262
internal_count=65963 50852 15111 13296 11150 37384 11525
shrinkage=0.05


Tree=7
num_leaves=8
num_cat=0
split_feature=5 0 7 5 0 1 5
split_gain=331.991 102.068 59.9279 49.0035 39.0585 29.4161 26.3984
threshold=2.5687964841108863 51.500000000000007 1.0000000180025095e-35 3.579473684210527 46.500000000000007 1.5000000000000002 1.9950000000000003
decision_type=10 2 2 10 2 2 10
left_child=1 6 3 4 -2 -6 -1
right_child=2 -3 -4 -5 5 -7 -8
leaf_value=-0.039000128662669858 -0.00067145751965808672 0.0079766061496115374 0.11726378104132384 0.065084893019287798 0.029744472795498827 0.095773309971797588 -0.014402132436635207
leaf_count=25859 5892 12954 763 3262 6076 830 10327
internal_value=0 -0.383327 0.768977 0.664403 0.442879 0.769346 -0.631002
internal_count=65963 49140 16823 16060 12798 6906 36186
shrinkage=0.05


Tree=8
num_leaves=8
num_cat=0
split_feature=5 4 5 6 6 5 5
split_gain=297.518 65.4476 50.2595 47.2336 35.4119 27.1894 18.8412
threshold=2.3486610288935874 137.83333333333334 2.9619013062409292 5.5500000000000007 7.6500000000000012 4.5633012820512819 1.760716472749541
decision_type=10 10 10 10 10 10 10
left_child=3 2 4 -1 -2 -4 -5
right_child=1 -3 5 6 -6 -7 -8
leaf_value=-0.030045522515896785 -0.00093030297372985883 0.067334088004395914 0.033730045152231207 -0.015359365416092972 0.14975965659445914 0.11391284394789084 0.016983986336684374
leaf_count=33440 10265 3559 7721 5707 111 361 4799
internal_value=0 0.602186 0.414425 -0.437767 0.0451831 0.774266 0.00150814
internal_count=65963 22017 18458 43946 10376 8082 10506
shrinkage=0.05


Tree=9
num_leaves=8
num_cat=0
split_feature=5 0 0 4 5 2 0
split_gain=266.841 84.9957 64.8376 41.1448 35.7724 19.8659 18.5794
threshold=2.3486610288935874 51.500000000000007 46.500000000000007 135.83333333333334 3.2395652173913052 24.850000000000005 40.500000000000007
decision_type=10 2 2 10 10 10 2
left_child=1 -1 4 -4 -2 -3 -6
right_child=2 5 3 -5 6 -7 -8
leaf_value=-0.033653224834272778 -0.010832151343757051 -0.0027098042689923112 0.030664687047809492 0.072619162362320952 -0.0073470686997167307 0.035341118732817964 0.049639595416744439
leaf_count=32562 7058 9286 9287 2802 898 2098 1972
internal_value=0 -0.425147 0.556173 0.853167 0.105992 0.10568 0.674682
internal_count=65963 43946 22017 12089 9928 11384 2870
shrinkage=0.05


Tree=10
num_leaves=8
num_cat=0
split_feature=0 2 2 2 2 4 0
split_gain=144.539 63.9515 63.182 30.0667 24.4841 19.9947 16.6466
threshold=46.500000000000007 25.150000000000002 28.850000000000005 21.650000000000002 20.350000000000005 142.83333333333334 36.500000000000007
decision_type=2 10 10 8 10 10 2
left_child=2 4 3 -1 -2 -3 -5
right_child=1 5 -4 6 -6 -7 -8
leaf_value=-0.042734240807056817 -0.015898727435387155 0.031093935256167729 0.035060199631512579 -0.041792685815200951 0.011393462841981989 0.072049995671899209 -0.0096934198896020569
leaf_count=13686 6597 6674 2149 3461 18880 1277 13239
internal_value=0 0.304018 -0.418988 -0.535368 0.100703 0.789295 -0.317947
internal_count=65963 33428 32535 30386 25477 7951 16700
shrinkage=0.05


Tree=11
num_leaves=8
num_cat=0
split_feature=0 2 2 2 2 3 3
split_gain=131.394 57.852 54.5477 29.5567 22.1091 16.5307 16.0947
threshold=46.500000000000007 28.850000000000005 25.150000000000002 21.650000000000002 20.350000000000005 96.583333333333357 76.833333333333357
decision_type=2 10 10 8 10 10 10
left_child=1 3 4 -1 -2 -4 -5
right_child=2 -3 5 6 -6 -7 -8
leaf_value=-0.042370826650095277 -0.01534893553931504 0.032248070851268615 0.03130023281900899 -0.025780531042178291 0.010705106951694604 0.081931524590642235 -0.00037269878586835631
leaf_count=13686 6597 2149 7415 10294 18880 536 6406
internal_value=0 -0.406711 0.284541 -0.522527 0.0951178 0.722478 -0.307047
internal_count=65963 32535 33428 30386 25477 7951 16700
shrinkage=0.05


Tree=12
num_leaves=8
num_cat=0
split_feature=5 0 0 5 4 5 5
split_gain=220.917 73.9593 48.9048 39.0321 25.2232 17.5807 15.9992
threshold=2.3486610288935874 51.500000000000007 39.500000000000007 3.7444334487877295 137.83333333333334 1.760716472749541 2.9619013062409292
decision_type=10 2 2 10 10 8 10
left_child=1 -1 -2 4 6 -3 -4
right_child=2 5 3 -5 -6 -7 -8
leaf_value=-0.032474663803669701 -0.024413289825826738 -0.0099619631565264141 0.0055476196902332717 0.061919545598576542 0.046244912683785055 0.018844933703831807 0.028929847020275123
leaf_count=32562 2674 6173 8992 2146 2897 5211 5308
internal_value=0 -0.403441 0.485349 0.583711 0.452685 0.0789771 0.312778
internal_count=65963 43946 22017 19343 17197 11384 14300
shrinkage=0.05


Tree=13
num_leaves=8
num_cat=0
split_feature=5 0 0 7 5 6 7
split_gain=198.799 70.0867 43.0337 34.0505 30.1335 24.9856 22.4071
threshold=2.3486610288935874 51.500000000000007 39.500000000000007 1.0000000180025095e-35 3.7444334487877295 6.4500000000000011 1.0000000180025095e-35
decision_type=10 2 2 2 10 10 2
left_child=1 6 -2 4 5 -4 -1
right_child=2 -3 3 -5 -6 -7 -8
leaf_value=-0.033638134462606405 -0.023773103198597295 0.003733891275732894 0.013468885384073988 0.075177710161435693 0.051863727162444029 0.064182436556105379 0.045272201217579328
leaf_count=31986 2674 11384 15572 965 2044 762 576
internal_value=0 -0.391223 0.450421 0.539386 0.463398 0.342943 -0.637409
internal_count=65963 43946 22017 19343 18378 16334 32562
shrinkage=0.05


Tree=14
num_leaves=8
num_cat=0
split_feature=5 0 0 3 5 6 6
split_gain=179.146 66.3822 38.0039 28.7189 25.5122 22.4784 17.2699
threshold=2.3486610288935874 50.500000000000007 39.500000000000007 89.833333333333357 2.9619013062409292 5.5500000000000007 7.6500000000000012
decision_type=10 2 2 10 10 10 10
left_child=1 -1 -2 4 6 -3 -4
right_child=2 5 3 -5 -6 -7 -8
leaf_value=-0.032338288088615108 -0.023136190258857173 -0.011138505439102032 0.0035732738489477837 0.052369955764545832 0.031298469859252741 0.020136140155480684 0.093365155567476127
leaf_count=30806 2674 8335 9469 2205 7542 4805 127
internal_value=0 -0.379117 0.418901 0.4997 0.390322 0.0346776 0.123433
internal_count=65963 43946 22017 19343 17138 13140 9596
shrinkage=0.05


Tree=15
num_leaves=8
num_cat=0
split_feature=5 0 5 0 6 4 6
split_gain=163.898 50.0756 46.9028 34.647 22.8752 21.0711 19.8069
threshold=1.9778998778998782 52.500000000000007 2.8961925287356327 44.500000000000007 5.7500000000000009 130.83333333333334 7.7500000000000009
decision_type=10 2 10 2 10 10 10
left_child=1 -1 3 -2 -3 -4 -5
right_child=2 4 5 6 -6 -7 -8
leaf_value=-0.035193875437356539 -0.021412140729153571 -0.009916816045496369 0.018340788069047109 0.010181805478140994 0.039207069030102987 0.044861116962770814 0.10034323950325684
leaf_count=26819 7493 5458 7236 13894 1435 3469 159
internal_value=0 -0.487557 0.29605 0.059 0.0467095 0.580578 0.245197
internal_count=65963 33712 32251 21546 6893 10705 14053
shrinkage=0.05


Tree=16
num_leaves=8
num_cat=0
split_feature=0 2 6 6 2 2 0
split_gain=94.801 46.6823 41.5884 35.6088 25.4179 18.1451 16.9562
threshold=44.500000000000007 26.450000000000003 6.3500000000000005 5.5500000000000007 21.650000000000002 20.250000000000004 59.500000000000007
decision_type=2 10 10 10 8 10 2
left_child=2 3 4 5 -1 -2 -5
right_child=1 -3 -4 6 -6 -7 -8
leaf_value=-0.043828907376993055 -0.028451213610071698 0.032923868996370335 0.072742962951188234 0.012540071242887857 -0.014888767890854955 -0.00094944018231008344 0.04932295481273935
leaf_count=11251 5472 5883 341 9208 14497 17834 1477
internal_value=0 0.187213 -0.442713 0.0609004 -0.505398 -0.123416 0.372054
internal_count=65963 39874 26089 33991 25748 23306 10685
shrinkage=0.05


Tree=17
num_leaves=8
num_cat=0
split_feature=0 2 6 6 2 2 7
split_gain=86.7452 41.0076 37.0175 27.4921 24.9808 14.8713 12.586
threshold=44.500000000000007 25.150000000000002 6.3500000000000005 5.5500000000000007 21.650000000000002 20.250000000000004 1.0000000180025095e-35
decision_type=2 10 10 10 8 8 2
left_child=2 3 4 5 -1 -2 -3
right_child=1 6 -4 -5 -6 -7 -8
leaf_value=-0.043513142300311607 -0.02834985550111753 0.020852272937129615 0.065196967944389506 0.015886925072877776 -0.014356892717161491 -0.0023926756997782262 0.054524065604995044
leaf_count=11251 5299 8548 341 9227 14497 15875 925
internal_value=0 0.17617 -0.430137 0.0175772 -0.492539 -0.153624 0.502802
internal_count=65963 39874 26089 30401 25748 21174 9473
shrinkage=0.05


Tree=18
num_leaves=8
num_cat=0
split_feature=5 5 6 6 1 7 3
split_gain=139.225 38.1045 31.7392 21.2439 18.621 17.5257 16.1857
threshold=1.9778998778998782 2.9619013062409292 5.8500000000000005 5.5500000000000007 1.5000000000000002 1.0000000180025095e-35 64.833333333333357
decision_type=10 10 10 10 2 2 10
left_child=2 3 -1 5 -3 -2 -6
right_child=1 4 -4 -5 6 -7 -8
leaf_value=-0.027949174604399427 -0.0089313930172072037 0.022633558397658834 0.017097901062452535 0.017568853699851041 -0.015513016521373197 0.050033772993613591 0.08471581224059499
leaf_count=31420 14961 8962 2292 7035 170 507 616
internal_value=0 0.26377 -0.46479 0.0633873 0.53095 -0.116976 1.3358
internal_count=65963 32251 33712 22503 9748 15468 786
shrinkage=0.05


Tree=19
num_leaves=8
num_cat=0
split_feature=5 5 6 6 7 5 4
split_gain=127.081 33.1977 29.662 18.2809 16.3161 15.4556 14.5218
threshold=1.9778998778998782 2.8961925287356327 5.8500000000000005 7.7500000000000009 1.0000000180025095e-35 4.1397674418604664 140.83333333333334
decision_type=10 10 10 10 2 10 8
left_child=2 3 6 4 -2 -3 -1
right_child=1 5 -4 -5 -6 -7 -8
leaf_value=-0.030095332678371681 -0.0021689042246429294 0.019422332124113303 0.0159973938950972 0.073781619478012803 0.038905647770435162 0.050519224775154484 0.0083818501632123305
leaf_count=29644 20438 9596 2292 206 902 1109 1776
internal_value=0 0.247513 -0.452011 0.0463114 0.0130483 0.476495 -0.546118
internal_count=65963 32251 33712 21546 21340 10705 31420
shrinkage=0.05


Tree=20
num_leaves=8
num_cat=0
split_feature=5 0 0 5 2 6 0
split_gain=116.061 45.6951 37.8898 24.4755 16.3073 13.5907 13.2523
threshold=1.9778998778998782 52.500000000000007 39.500000000000007 2.8961925287356327 24.850000000000005 9.4500000000000011 65.500000000000014
decision_type=10 2 2 10 8 10 2
left_child=1 -1 -2 5 -3 6 -4
right_child=2 4 3 -5 -6 -7 -8
leaf_value=-0.0332713525048745 -0.027359577499796242 -0.0057819506203869199 0.0036444169572876668 0.024962508702183653 0.03909804536229021 0.10323870023035814 0.084345215707070376
leaf_count=26819 3925 5815 18657 9441 1078 63 165
internal_value=0 -0.439337 0.232559 0.298909 0.0691342 0.116856 0.0968415
internal_count=65963 33712 32251 28326 6893 18885 18822
shrinkage=0.05


Tree=21
num_leaves=8
num_cat=0
split_feature=5 6 7 5 6 3 3
split_gain=106.518 33.4178 25.9808 22.1328 21.0198 20.4778 15.5951
threshold=1.8011627906976748 5.5500000000000007 1.0000000180025095e-35 2.9134182908545738 5.8500000000000005 87.250000000000014 96.583333333333357
decision_type=10 10 2 10 10 10 8
left_child=4 2 3 -2 6 -5 -1
right_child=1 -3 -4 5 -6 -7 -8
leaf_value=-0.030890471165092494 -0.010962176911864144 0.02148257750015144 0.049272976021695128 0.0038588983407314157 0.012393825504973392 0.048552932700647831 0.043165925777544974
leaf_count=26042 18427 12373 805 5320 1800 754 442
internal_value=0 0.18936 0.0168468 -0.0400874 -0.493066 0.236725 -0.581306
internal_count=65963 37679 25306 24501 28284 6074 26484
shrinkage=0.05


Tree=22
num_leaves=8
num_cat=0
split_feature=5 0 0 5 0 1 3
split_gain=97.7074 38.3307 28.0343 23.3161 16.1929 17.8092 14.5811
threshold=1.8011627906976748 39.500000000000007 46.500000000000007 2.8961925287356327 46.500000000000007 1.5000000000000002 96.583333333333357
decision_type=10 2 2 10 2 2 8
left_child=2 -2 -1 4 -3 -6 -4
right_child=1 3 6 -5 5 -7 -8
leaf_value=-0.041182381185853559 -0.02856109889229623 -0.011594813129820677 -0.013727589789974119 0.021932166457091607 0.0042444655898524978 0.034682917209508231 0.058458801301688804
leaf_count=15501 4707 8718 12429 9441 11803 3010 354
internal_value=0 0.178303 -0.48018 0.240957 0.0837139 0.205608 -0.216657
internal_count=65963 37679 28284 32972 23531 14813 12783
shrinkage=0.05


Tree=23
num_leaves=8
num_cat=0
split_feature=5 6 3 6 2 3 5
split_gain=89.6056 27.9117 21.6647 19.8858 15.5286 13.4491 10.5938
threshold=1.8011627906976748 5.5500000000000007 86.833333333333357 5.8500000000000005 30.850000000000005 96.583333333333357 3.5463121783876503
decision_type=10 10 10 10 10 8 10
left_child=3 2 4 5 -2 -1 -3
right_child=1 6 -4 -5 -6 -7 -8
leaf_value=-0.029726938226701256 -0.0066716763940779149 0.014447405250696422 0.022307535878065832 0.01262286375843329 0.047711460242864046 0.036902765403615159 0.035676692131510195
leaf_count=26042 21288 10775 3488 1800 530 442 1598
internal_value=0 0.167856 0.00955085 -0.467396 -0.0950768 -0.557475 0.382903
internal_count=65963 37679 25306 28284 21818 26484 12373
shrinkage=0.05


Tree=24
num_leaves=8
num_cat=0
split_feature=5 0 0 5 6 7 6
split_gain=82.5039 42.6571 29.6441 17.1747 14.4695 13.3126 12.5299
threshold=1.9778998778998782 52.500000000000007 39.500000000000007 3.7444334487877295 10.050000000000002 1.0000000180025095e-35 5.7500000000000009
decision_type=10 2 2 10 10 2 10
left_child=1 -1 -2 4 5 -4 -3
right_child=2 6 3 -5 -6 -7 -8
leaf_value=-0.031407233395994015 -0.026188538272900491 -0.0053577193069588077 0.0058131299359409647 0.030762227103762814 0.1007656307295149 0.033172204058380735 0.030151788918339553
leaf_count=26819 3925 5458 24841 2146 67 1272 1435
internal_value=0 -0.392705 0.184834 0.239913 0.174365 0.160959 0.099508
internal_count=65963 33712 32251 28326 26180 26113 6893
shrinkage=0.05


end of trees

feature importances:
H25_lhrate=49
H25_age=36
H25_a1c=31
H25_bmi=21
H25_dbp=13
H25_sbp=11
H25_ht=10
H25_sex=4

parameters:
[boosting: gbdt]
[objective: binary]
[metric: binary]
[tree_learner: serial]
[device_type: cpu]
[data: ]
[valid: ]
[num_iterations: 100]
[learning_rate: 0.05]
[num_leaves: 8]
[num_threads: 0]
[max_depth: -1]
[min_data_in_leaf: 20]
[min_sum_hessian_in_leaf: 1]
[bagging_fraction: 0.4]
[bagging_freq: 0]
[bagging_seed: 3]
[feature_fraction: 0.8]
[feature_fraction_seed: 2]
[early_stopping_round: 0]
[max_delta_step: 0]
[lambda_l1: 0]
[lambda_l2: 1]
[min_gain_to_split: 0]
[drop_rate: 0.1]
[max_drop: 50]
[skip_drop: 0.5]
[xgboost_dart_mode: 0]
[uniform_drop: 0]
[drop_seed: 4]
[top_rate: 0.2]
[other_rate: 0.1]
[min_data_per_group: 100]
[max_cat_threshold: 32]
[cat_l2: 10]
[cat_smooth: 10]
[max_cat_to_onehot: 4]
[top_k: 20]
[monotone_constraints: ]
[feature_contri: ]
[forcedsplits_filename: ]
[refit_decay_rate: 0.9]
[verbosity: 0]
[max_bin: 255]
[min_data_in_bin: 3]
[bin_construct_sample_cnt: 200000]
[histogram_pool_size: -1]
[data_random_seed: 1]
[output_model: LightGBM_model.txt]
[snapshot_freq: -1]
[input_model: ]
[output_result: LightGBM_predict_result.txt]
[initscore_filename: ]
[valid_data_initscores: ]
[pre_partition: 0]
[enable_bundle: 1]
[max_conflict_rate: 0]
[is_enable_sparse: 1]
[sparse_threshold: 0.8]
[use_missing: 1]
[zero_as_missing: 0]
[two_round: 0]
[save_binary: 0]
[enable_load_from_binary_file: 1]
[header: 0]
[label_column: ]
[weight_column: ]
[group_column: ]
[ignore_column: ]
[categorical_feature: ]
[predict_raw_score: 0]
[predict_leaf_index: 0]
[predict_contrib: 0]
[num_iteration_predict: -1]
[pred_early_stop: 0]
[pred_early_stop_freq: 10]
[pred_early_stop_margin: 10]
[convert_model_language: ]
[convert_model: gbdt_prediction.cpp]
[num_class: 1]
[is_unbalance: 0]
[scale_pos_weight: 1]
[sigmoid: 1]
[boost_from_average: 1]
[reg_sqrt: 0]
[alpha: 0.9]
[fair_c: 1]
[poisson_max_delta_step: 0.7]
[tweedie_variance_power: 1.5]
[max_position: 20]
[label_gain: ]
[metric_freq: 1]
[is_provide_training_metric: 0]
[eval_at: ]
[num_machines: 1]
[local_listen_port: 12400]
[time_out: 120]
[machine_list_filename: ]
[machines: ]
[gpu_platform_id: -1]
[gpu_device_id: -1]
[gpu_use_dp: 0]

end of parameters

pandas_categorical:[]
