tree
version=v2
num_class=1
num_tree_per_iteration=1
label_index=0
max_feature_idx=8
objective=binary sigmoid:1
feature_names=H25_age H25_sex H25_bmi H25_dbp H25_sbp H25_lhrate H25_a1c H25_ht H25_dm
feature_infos=[20:76] [1:2] [0:65.599999999999994] [0:169] [0:238] [0.097560975609756101:7.9500000000000002] [2.7999999999999998:15.300000000000001] [0:1] [0:1]
tree_sizes=719 735 734 738 741 738 739 740 741 737 739 741 735 743 738 740 750 748 743 741 744 743 740 742 741

Tree=0
num_leaves=8
num_cat=0
split_feature=5 0 5 0 5 6 5
split_gain=630.247 163.406 124.064 93.8814 57.6801 55.9161 55.6063
threshold=2.8224014336917569 51.500000000000007 3.7553287981859422 47.500000000000007 1.813756405202996 6.1500000000000012 1.982299498746867
decision_type=10 2 10 2 8 10 10
left_child=1 6 3 5 -3 -2 -1
right_child=2 4 -4 -5 -6 -7 -8
leaf_value=-4.0752502587656325 -4.0241865504782073 -4.0429412254212176 -3.8791147655380223 -3.9370134102819687 -3.9945034725247139 -3.8596964169272079 -4.0452580616595153
leaf_count=25603 4588 6715 2454 4639 7646 266 14052
internal_value=0 -0.35204 1.58564 1.17605 0.346153 0.424084 -0.605027
internal_count=65963 54016 11947 9493 14361 4854 39655
shrinkage=1


Tree=1
num_leaves=8
num_cat=0
split_feature=6 0 4 4 0 7 3
split_gain=277.608 153.602 66.3536 50.1365 35.5771 34.8393 26.4972
threshold=5.8500000000000005 47.500000000000007 137.16666666666671 130.83333333333334 53.500000000000007 1.0000000180025095e-35 95.833333333333357
decision_type=10 2 8 10 2 2 10
left_child=1 6 5 4 -2 -3 -1
right_child=3 2 -4 -5 -6 -7 -8
leaf_value=-0.027293383233415798 0.017253288205849926 0.0019497036409181084 0.05820239678830879 0.11095414095049971 0.08914909300318663 0.079999268612957419 0.047570811393584544
leaf_count=33326 2683 20389 3945 2666 1502 794 658
internal_value=0 -0.173366 0.272496 1.42355 0.886875 0.102197 -0.514846
internal_count=65963 59112 25128 6851 4185 21183 33984
shrinkage=0.05


Tree=2
num_leaves=8
num_cat=0
split_feature=5 0 5 6 0 5 5
split_gain=525.256 140.672 83.1092 77.5924 64.4484 54.5334 47.4834
threshold=2.8224014336917569 51.500000000000007 4.1530100334448177 5.9500000000000011 46.500000000000007 1.982299498746867 1.813756405202996
decision_type=10 2 10 10 2 10 8
left_child=1 5 3 4 -2 -1 -3
right_child=2 6 -4 -5 -6 -7 -8
leaf_value=-0.040237047637038101 0.010896478072264812 -0.0091896746009476598 0.15924474426146329 0.13200840620917403 0.072544560857420337 -0.010062351073889071 0.033894891270624256
leaf_count=25603 4550 6715 1100 1434 4863 14052 7646
internal_value=0 -0.339371 1.37303 1.1584 0.890175 -0.586627 0.287114
internal_count=65963 54016 11947 10847 9413 39655 14361
shrinkage=0.05


Tree=3
num_leaves=8
num_cat=0
split_feature=6 2 0 2 7 4 0
split_gain=213.47 135.446 86.4526 46.4095 39.5725 33.154 31.8563
threshold=5.8500000000000005 21.650000000000002 47.500000000000007 26.650000000000002 1.0000000180025095e-35 130.83333333333334 51.500000000000007
decision_type=10 8 2 10 2 10 2
left_child=1 6 -3 4 -4 -2 -1
right_child=5 2 3 -5 -6 -7 -8
leaf_value=-0.039501708900025335 0.037272222429563878 -0.011498257402973382 0.01162472684039521 0.069724387808043631 0.094315811853378034 0.088317384601661067 -0.0056627774937657591
leaf_count=18401 4185 19496 12669 2614 756 2666 5176
internal_value=0 -0.162366 0.129594 0.521556 0.338502 1.17443 -0.6283
internal_count=65963 59112 35535 16039 13425 6851 23577
shrinkage=0.05


Tree=4
num_leaves=8
num_cat=0
split_feature=5 5 6 7 5 6 3
split_gain=440.808 91.7247 60.7082 52.7707 47.3998 32.13 23.8238
threshold=2.5359730848861286 3.7553287981859422 5.8500000000000005 1.0000000180025095e-35 1.813756405202996 6.0500000000000007 95.833333333333357
decision_type=10 10 10 2 10 10 10
left_child=2 3 4 5 -1 -2 -6
right_child=1 -3 -4 -5 6 -7 -8
leaf_value=-0.035912389391793163 0.024108383787999763 0.10586303179681739 0.021930881523285248 0.12437012069979161 -0.012558219267604712 0.079017130872069241 0.060321554206007467
leaf_count=26872 13174 2454 3930 696 16984 1272 581
internal_value=0 0.948485 -0.412159 0.714392 -0.502128 0.607129 -0.194538
internal_count=65963 17596 48367 15142 44437 14446 17565
shrinkage=0.05


Tree=5
num_leaves=8
num_cat=0
split_feature=5 0 0 5 7 1 5
split_gain=388.143 94.0354 72.7209 56.4986 30.6322 28.1958 26.6439
threshold=2.4907375643224703 51.500000000000007 43.500000000000007 3.7553287981859422 1.0000000180025095e-35 1.5000000000000002 1.982299498746867
decision_type=10 2 2 10 2 2 10
left_child=1 6 -2 4 5 -4 -1
right_child=2 -3 3 -5 -6 -7 -8
leaf_value=-0.039200412879810298 0.0051348638751277298 0.0065769345693357491 0.032336995126030096 0.10703077645599922 0.10973025314163475 0.088685071213512282 -0.014426546111948064
leaf_count=25603 5542 12331 9480 1688 660 1246 9413
internal_value=0 -0.414357 0.830691 1.0981 0.89326 0.785312 -0.641697
internal_count=65963 47347 18616 13074 11386 10726 35016
shrinkage=0.05


Tree=6
num_leaves=8
num_cat=0
split_feature=5 0 5 0 5 6 5
split_gain=343.919 98.3628 55.9498 52.5245 26.4141 25.9563 28.385
threshold=2.5359730848861286 51.500000000000007 3.7553287981859422 44.500000000000007 1.982299498746867 5.8500000000000005 1.813756405202996
decision_type=10 2 10 2 10 10 8
left_child=1 4 3 -2 -1 6 -3
right_child=2 5 -4 -5 -6 -7 -8
leaf_value=-0.038723814766142041 -0.0011259263399332582 -0.018795738329370388 0.080865600365108592 0.043883080096406221 -0.014447740441863921 0.043199191149897863 0.0197909317630931
leaf_count=25603 5293 5830 2454 9849 10118 1979 4837
internal_value=0 -0.38792 0.786702 0.601885 -0.624949 0.15724 -0.00157573
internal_count=65963 48367 17596 15142 35721 12646 10667
shrinkage=0.05


Tree=7
num_leaves=8
num_cat=0
split_feature=5 0 4 5 0 5 6
split_gain=305.455 83.7017 74.6015 41.7292 27.2761 25.7455 23.8095
threshold=2.4907375643224703 51.500000000000007 137.83333333333334 2.9595918367346945 38.500000000000007 1.982299498746867 5.5500000000000007
decision_type=10 2 10 10 2 10 10
left_child=1 5 3 -2 -5 -1 -3
right_child=2 6 -4 4 -6 -7 -8
leaf_value=-0.038236661852999849 0.0040847972686043899 -0.0075086820359549257 0.079931246862144575 -0.018532944282908855 0.046182404616513351 -0.013377965320012498 0.025492971452206949
leaf_count=25603 7445 7663 3076 905 7190 9413 4668
internal_value=0 -0.389979 0.694934 0.48806 0.800155 -0.617028 0.115872
internal_count=65963 47347 18616 15540 8095 35016 12331
shrinkage=0.05


Tree=8
num_leaves=8
num_cat=0
split_feature=5 5 6 4 4 3 7
split_gain=272.214 59.9977 42.9009 32.7005 28.9743 28.3996 21.4611
threshold=2.3017370470200662 3.2450904890257992 5.5500000000000007 136.16666666666671 137.16666666666671 95.833333333333357 1.0000000180025095e-35
decision_type=10 10 10 10 10 8 2
left_child=2 4 5 6 -2 -1 -3
right_child=1 3 -4 -5 -6 -7 -8
leaf_value=-0.031674401883154922 0.0086876530994223749 0.03561726490829966 -5.8788681914921584e-05 0.095519018933603095 0.046911454030163252 0.040471994054568479 0.1409040574639602
leaf_count=31900 14417 4814 10092 1201 2614 788 137
internal_value=0 0.552671 -0.436134 1.05904 0.311891 -0.591069 0.806151
internal_count=65963 23183 42780 6152 17031 32688 4951
shrinkage=0.05


Tree=9
num_leaves=8
num_cat=0
split_feature=5 0 0 5 4 0 2
split_gain=244.698 74.8203 59.0545 48.0932 33.7838 22.4929 22.1947
threshold=2.3017370470200662 51.500000000000007 46.500000000000007 3.2254032258064522 135.83333333333334 64.500000000000014 31.050000000000004
decision_type=10 2 2 10 10 2 10
left_child=1 -1 3 -2 -4 -3 -5
right_child=2 5 4 6 -6 -7 -8
leaf_value=-0.032908653645779634 -0.01309074642304674 0.00089673524857458199 0.029261975642215377 0.025982632909140692 0.067207140285578046 0.086442841987232732 0.10695436036606515
leaf_count=31814 7546 10594 9768 2606 2920 372 343
internal_value=0 -0.423502 0.511636 0.091705 0.788943 0.0875847 0.758849
internal_count=65963 42780 23183 10495 12688 10966 2949
shrinkage=0.05


Tree=10
num_leaves=8
num_cat=0
split_feature=0 2 2 2 4 0 0
split_gain=128.202 62.7711 52.3064 36.1295 24.3243 17.8648 16.8091
threshold=46.500000000000007 31.050000000000004 22.750000000000004 21.650000000000002 135.83333333333334 60.500000000000007 40.500000000000007
decision_type=2 10 8 8 8 2 2
left_child=1 3 5 -1 -4 -2 -3
right_child=2 6 4 -5 -6 -7 -8
leaf_value=-0.041381473397205486 -0.0061882161294830873 0.0044861671626878702 0.018093054694610779 -0.012572044930423132 0.046063758930626079 0.039104832431679594 0.091726965039691299
leaf_count=13663 14954 430 12700 17856 4583 1145 632
internal_value=0 -0.39221 0.288087 -0.473254 0.53112 -0.0451418 1.18975
internal_count=65963 32581 33382 31519 17283 16099 1062
shrinkage=0.05


Tree=11
num_leaves=8
num_cat=0
split_feature=0 2 2 4 2 2 0
split_gain=116.427 57.1834 46.3052 30.9101 23.8296 18.0693 13.2239
threshold=46.500000000000007 25.350000000000005 21.650000000000002 135.83333333333334 31.050000000000004 21.650000000000002 40.500000000000007
decision_type=2 10 8 8 10 8 2
left_child=1 5 -2 -4 -3 -1 -6
right_child=2 4 3 -5 6 -7 -8
leaf_value=-0.040974030855627182 -0.0079230045116292502 -0.00078133511985035401 0.013640579108811016 0.042071189261518004 0.0042676712506928604 -0.01816235306283474 0.080453757698483341
leaf_count=13663 11240 5668 16731 5411 430 12188 632
internal_value=0 -0.380101 0.269851 0.434797 0.206153 -0.584537 1.07317
internal_count=65963 32581 33382 22142 6730 25851 1062
shrinkage=0.05


Tree=12
num_leaves=8
num_cat=0
split_feature=5 0 0 5 1 5 3
split_gain=205.222 62.2128 51.9417 43.4332 19.956 19.0412 18.4085
threshold=2.2302494802494808 51.500000000000007 38.500000000000007 2.9112517580872015 1.5000000000000002 4.1530100334448177 100.25000000000001
decision_type=10 2 2 10 2 10 10
left_child=1 6 -2 -4 5 -5 -1
right_child=2 -3 3 4 -6 -7 -8
leaf_value=-0.034012601082931221 -0.028244828788915235 0.0021871089237161332 0.011315147709310278 0.029866829911394051 0.086042067359412611 0.070502825423809576 0.066987989262199565
leaf_count=30304 2742 10382 12919 7691 769 932 224
internal_value=0 -0.425346 0.426893 0.520061 0.81036 0.719733 -0.65734
internal_count=65963 40910 25053 22311 9392 8623 30528
shrinkage=0.05


Tree=13
num_leaves=8
num_cat=0
split_feature=5 0 0 5 6 7 0
split_gain=185.406 59.1497 46.1594 36.4509 19.0279 17.59 16.9546
threshold=2.2302494802494808 51.500000000000007 38.500000000000007 2.9112517580872015 5.5500000000000007 1.0000000180025095e-35 45.500000000000007
decision_type=10 2 2 10 10 2 2
left_child=1 5 -2 6 -3 -1 -4
right_child=2 4 3 -5 -6 -7 -8
leaf_value=-0.033923821176439599 -0.027605879639548466 -0.011069430608969592 -0.010567118781721842 0.037069179269797185 0.020988060714320519 0.037327756668197883 0.018335851591393195
leaf_count=29971 2742 6544 4175 9392 3838 557 8744
internal_value=0 -0.412835 0.397339 0.482105 0.0414774 -0.645333 0.212664
internal_count=65963 40910 25053 22311 10382 30528 12919
shrinkage=0.05


Tree=14
num_leaves=8
num_cat=0
split_feature=5 0 0 5 6 3 4
split_gain=167.574 56.1716 41.104 30.71 16.9936 16.9909 15.6645
threshold=2.2302494802494808 51.500000000000007 38.500000000000007 2.9112517580872015 5.5500000000000007 100.25000000000001 137.16666666666671
decision_type=10 2 2 10 10 10 10
left_child=1 5 -2 6 -3 -1 -4
right_child=2 4 3 -5 -6 -7 -8
leaf_value=-0.032859424158437643 -0.026965835778397534 -0.010635768279447264 0.0038854388300796324 0.03399474305790201 0.019549811240511208 0.062318121206154126 0.034638312804484976
leaf_count=30304 2742 6544 10916 9392 3838 224 2003
internal_value=0 -0.400507 0.370101 0.447434 0.039256 -0.633212 0.19989
internal_count=65963 40910 25053 22311 10382 30528 12919
shrinkage=0.05


Tree=15
num_leaves=8
num_cat=0
split_feature=5 0 0 5 0 6 5
split_gain=151.589 53.2808 36.9145 22.2715 22.4092 19.2724 17.3744
threshold=2.2302494802494808 51.500000000000007 42.500000000000007 3.7553287981859422 60.500000000000007 5.5500000000000007 3.270551801801802
decision_type=10 2 2 10 2 8 10
left_child=1 -1 5 4 -4 -2 -7
right_child=2 -3 3 -5 -6 6 -8
leaf_value=-0.031046495484740533 -0.029086613491844333 0.0018581112484074215 0.015264116153760658 0.048517659219905716 0.060699838670492556 -0.0095144974993510694 0.049002735195439698
leaf_count=30528 3333 10382 16163 1832 1014 1963 748
internal_value=0 -0.388285 0.345286 0.463813 0.371252 -0.180314 0.254732
internal_count=65963 40910 25053 19009 17177 6044 2711
shrinkage=0.05


Tree=16
num_leaves=8
num_cat=0
split_feature=6 0 2 4 2 0 7
split_gain=87.8809 54.5178 30.3927 26.1289 23.0861 21.4076 21.3508
threshold=5.5500000000000007 47.500000000000007 27.150000000000002 134.83333333333334 21.650000000000002 59.500000000000007 1.0000000180025095e-35
decision_type=10 2 10 10 8 2 2
left_child=1 4 6 5 -1 -2 -3
right_child=3 2 -4 -5 -6 -7 -8
leaf_value=-0.040272098108932224 0.0055210174555645631 -0.0047528246047260428 0.046140760111201218 0.03892939376279092 -0.014347550882048669 0.048731407854928521 0.048574515260985593
leaf_count=12596 12901 16810 1408 4167 16049 1240 792
internal_value=0 -0.208831 0.0689734 0.376314 -0.475958 0.210683 -0.0295987
internal_count=65963 47655 19010 18308 28645 14141 17602
shrinkage=0.05


Tree=17
num_leaves=8
num_cat=0
split_feature=2 6 0 0 2 7 6
split_gain=80.4703 44.1493 32.4943 29.0407 18.3001 17.4336 13.2645
threshold=21.650000000000002 5.5500000000000007 45.500000000000007 47.500000000000007 27.150000000000002 1.0000000180025095e-35 5.8500000000000005
decision_type=8 10 2 2 10 2 10
left_child=2 3 -1 -2 5 -5 -4
right_child=1 -3 6 4 -6 -7 -8
leaf_value=-0.040595571229030854 -0.013827520684016707 0.022754955592291265 -0.012933445065219155 0.00064826937706606363 0.042036604449567291 0.053118163012169796 0.02772221178730333
leaf_count=12502 16049 13029 11407 9981 1408 593 994
internal_value=0 0.164317 -0.42733 -0.0237818 0.209763 0.0958599 -0.163415
internal_count=65963 41060 24903 28031 11982 10574 12401
shrinkage=0.05


Tree=18
num_leaves=8
num_cat=0
split_feature=5 5 6 1 7 4 4
split_gain=129.478 37.8281 29.8026 18.8712 19.0475 16.9711 14.954
threshold=1.982299498746867 2.8224014336917569 5.8500000000000005 1.5000000000000002 1.0000000180025095e-35 131.83333333333334 136.16666666666671
decision_type=10 10 10 2 2 8 10
left_child=2 -2 5 4 6 -1 -3
right_child=1 3 -4 -5 -6 -7 -8
leaf_value=-0.03247304231903108 0.0013853789405178251 0.011124389042512752 0.016427160161878122 0.060953406056690744 0.065057530112161824 -0.0058632418255224689 0.038127570993882559
leaf_count=26137 20142 8618 2264 1002 502 5473 1825
internal_value=0 0.253882 -0.448948 0.488263 0.412626 -0.540938 0.343876
internal_count=65963 32089 33874 11947 10945 31610 10443
shrinkage=0.05


Tree=19
num_leaves=8
num_cat=0
split_feature=5 5 6 6 4 3 6
split_gain=118.195 33.0138 27.8275 18.2066 16.6803 16.6097 12.6621
threshold=1.982299498746867 3.025320512820513 5.8500000000000005 6.8500000000000005 122.25000000000001 92.833333333333357 5.6500000000000012
decision_type=10 10 10 10 10 8 8
left_child=2 3 5 4 -2 -1 -3
right_child=1 6 -4 -5 -6 -7 -8
leaf_value=-0.028814156317390684 -0.0093099521966692293 0.012953920587342353 0.015379779628114452 0.057310226955829525 0.010438271348186819 0.020613173364768762 0.034687769757338373
leaf_count=30525 11327 4241 2264 501 11449 1085 4571
internal_value=0 0.238427 -0.43632 0.0691159 0.0310731 -0.528076 0.508707
internal_count=65963 32089 33874 23277 22776 31610 8812
shrinkage=0.05


Tree=20
num_leaves=8
num_cat=0
split_feature=5 0 5 0 0 6 7
split_gain=108.366 38.8698 30.7647 25.0103 18.4734 15.0265 12.029
threshold=1.7971993732863301 38.500000000000007 2.8073549257759782 54.500000000000007 51.500000000000007 6.3500000000000005 1.0000000180025095e-35
decision_type=10 2 10 2 2 10 2
left_child=3 -2 4 -1 5 -3 -4
right_child=1 2 6 -5 -6 -7 -8
leaf_value=-0.031999988220302249 -0.02914710578383678 -0.009068156571808747 0.020848270552261371 0.0021776256324930929 0.015253735849235887 0.053568407175885846 0.056456645222640683
leaf_count=24215 4259 14545 10347 3919 7724 417 537
internal_value=0 0.191564 0.253584 -0.495581 0.0647431 -0.126209 0.471876
internal_count=65963 37829 33570 28134 22686 14962 10884
shrinkage=0.05


Tree=21
num_leaves=8
num_cat=0
split_feature=5 5 6 4 1 5 3
split_gain=99.4257 32.181 23.2227 16.9894 15.1899 13.374 11.8452
threshold=1.7971993732863301 2.8224014336917569 5.8500000000000005 122.25000000000001 1.5000000000000002 4.1530100334448177 90.833333333333357
decision_type=10 10 10 10 2 10 8
left_child=2 3 6 -2 5 -3 -1
right_child=1 4 -4 -5 -6 -7 -8
leaf_value=-0.031408340445356807 -0.01085436147261072 0.012434509868837569 0.01517658953822495 0.0088096651407829473 0.051124177246601843 0.041171109722750454 0.011459271638184115
leaf_count=25274 13184 9901 1731 12698 1002 1044 1129
internal_value=0 0.180326 -0.482757 -0.00237186 0.396921 0.330213 -0.576336
internal_count=65963 37829 28134 25882 11947 10945 26403
shrinkage=0.05


Tree=22
num_leaves=8
num_cat=0
split_feature=5 0 0 5 0 1 6
split_gain=91.222 34.8306 23.9595 23.3071 16.3087 18.1049 13.0811
threshold=1.7971993732863301 38.500000000000007 54.500000000000007 2.8073549257759782 51.500000000000007 1.5000000000000002 6.3500000000000005
decision_type=10 2 2 10 2 2 10
left_child=2 -2 -1 4 6 -6 -3
right_child=1 3 -4 -5 5 -7 -8
leaf_value=-0.030890077117710826 -0.028637560801039581 -0.0086599312176760378 0.0029464208194676694 0.02057935992152729 0.0060093631560537118 0.044909821582844636 0.048427748606126204
leaf_count=24215 4259 14545 3919 10884 6096 1628 417
internal_value=0 0.169883 -0.469964 0.226871 0.0611531 0.2841 -0.120005
internal_count=65963 37829 28134 33570 22686 7724 14962
shrinkage=0.05


Tree=23
num_leaves=8
num_cat=0
split_feature=5 5 6 6 1 4 2
split_gain=83.6738 25.4023 21.8805 17.9913 15.3416 12.9642 14.2599
threshold=1.7971993732863301 3.2450904890257992 5.8500000000000005 5.5500000000000007 1.5000000000000002 124.16666666666667 31.150000000000002
decision_type=10 10 10 10 2 10 10
left_child=2 3 -1 5 -3 6 -2
right_child=1 4 -4 -5 -6 -7 -8
leaf_value=-0.027632058069623502 -0.014560543295147978 0.018507544126759003 0.015189470741972008 0.013577979856261467 0.067599345504265371 0.0057227189061943642 0.093418324419861476
leaf_count=26403 12628 5761 1731 9834 391 9105 110
internal_value=0 0.160056 -0.457238 0.0535926 0.44907 -0.082662 -0.258552
internal_count=65963 37829 28134 31677 6152 21843 12738
shrinkage=0.05


Tree=24
num_leaves=8
num_cat=0
split_feature=5 0 0 7 6 5 6
split_gain=76.7706 40.126 29.906 16.6174 14.9292 17.57 11.7892
threshold=1.982299498746867 52.500000000000007 38.500000000000007 1.0000000180025095e-35 6.3500000000000005 4.1530100334448177 5.7500000000000009
decision_type=10 2 2 2 10 10 10
left_child=1 -1 -2 4 5 -4 -3
right_child=2 6 3 -5 -6 -7 -8
leaf_value=-0.030282068186145955 -0.028160833263984643 -0.0049677424930338141 0.0048406271301066478 0.038599329856755717 0.035276172345212443 0.038516033266295061 0.029588795882170185
leaf_count=26937 3525 5523 24985 1416 1323 840 1414
internal_value=0 -0.378059 0.178556 0.231636 0.187725 0.143386 0.0996224
internal_count=65963 33874 32089 28564 27148 25825 6937
shrinkage=0.05


end of trees

feature importances:
H25_lhrate=50
H25_age=44
H25_a1c=26
H25_sbp=16
H25_bmi=15
H25_ht=11
H25_dbp=7
H25_sex=6

parameters:
[boosting: gbdt]
[objective: binary]
[metric: binary]
[tree_learner: serial]
[device_type: cpu]
[data: ]
[valid: ]
[num_iterations: 100]
[learning_rate: 0.05]
[num_leaves: 8]
[num_threads: 0]
[max_depth: -1]
[min_data_in_leaf: 20]
[min_sum_hessian_in_leaf: 1]
[bagging_fraction: 0.4]
[bagging_freq: 0]
[bagging_seed: 3]
[feature_fraction: 0.8]
[feature_fraction_seed: 2]
[early_stopping_round: 0]
[max_delta_step: 0]
[lambda_l1: 0]
[lambda_l2: 1]
[min_gain_to_split: 0]
[drop_rate: 0.1]
[max_drop: 50]
[skip_drop: 0.5]
[xgboost_dart_mode: 0]
[uniform_drop: 0]
[drop_seed: 4]
[top_rate: 0.2]
[other_rate: 0.1]
[min_data_per_group: 100]
[max_cat_threshold: 32]
[cat_l2: 10]
[cat_smooth: 10]
[max_cat_to_onehot: 4]
[top_k: 20]
[monotone_constraints: ]
[feature_contri: ]
[forcedsplits_filename: ]
[refit_decay_rate: 0.9]
[verbosity: 0]
[max_bin: 255]
[min_data_in_bin: 3]
[bin_construct_sample_cnt: 200000]
[histogram_pool_size: -1]
[data_random_seed: 1]
[output_model: LightGBM_model.txt]
[snapshot_freq: -1]
[input_model: ]
[output_result: LightGBM_predict_result.txt]
[initscore_filename: ]
[valid_data_initscores: ]
[pre_partition: 0]
[enable_bundle: 1]
[max_conflict_rate: 0]
[is_enable_sparse: 1]
[sparse_threshold: 0.8]
[use_missing: 1]
[zero_as_missing: 0]
[two_round: 0]
[save_binary: 0]
[enable_load_from_binary_file: 1]
[header: 0]
[label_column: ]
[weight_column: ]
[group_column: ]
[ignore_column: ]
[categorical_feature: ]
[predict_raw_score: 0]
[predict_leaf_index: 0]
[predict_contrib: 0]
[num_iteration_predict: -1]
[pred_early_stop: 0]
[pred_early_stop_freq: 10]
[pred_early_stop_margin: 10]
[convert_model_language: ]
[convert_model: gbdt_prediction.cpp]
[num_class: 1]
[is_unbalance: 0]
[scale_pos_weight: 1]
[sigmoid: 1]
[boost_from_average: 1]
[reg_sqrt: 0]
[alpha: 0.9]
[fair_c: 1]
[poisson_max_delta_step: 0.7]
[tweedie_variance_power: 1.5]
[max_position: 20]
[label_gain: ]
[metric_freq: 1]
[is_provide_training_metric: 0]
[eval_at: ]
[num_machines: 1]
[local_listen_port: 12400]
[time_out: 120]
[machine_list_filename: ]
[machines: ]
[gpu_platform_id: -1]
[gpu_device_id: -1]
[gpu_use_dp: 0]

end of parameters

pandas_categorical:[]
