tree
version=v2
num_class=1
num_tree_per_iteration=1
label_index=0
max_feature_idx=8
objective=binary sigmoid:1
feature_names=H25_age H25_sex H25_bmi H25_dbp H25_sbp H25_lhrate H25_a1c H25_ht H25_dm
feature_infos=[18:74] [1:2] [0:65.599999999999994] [0:169] [0:238] [0.097560975609756101:8.8461538461538485] [2.7999999999999998:14.199999999999999] [0:1] [0:1]
tree_sizes=717 741 733 736 734 725 730 734 737 739 743 736 735 741 746 733 749 746 743 740 737 738 738 737 740

Tree=0
num_leaves=8
num_cat=0
split_feature=5 0 0 5 6 5 5
split_gain=749.917 166.082 153.255 64.667 59.9682 52.3926 46.7793
threshold=2.9071920757967273 49.500000000000007 44.500000000000007 1.803154495777447 6.4500000000000011 3.7444334487877295 4.2441734417344188
decision_type=10 2 2 8 10 10 10
left_child=1 4 6 -3 -1 -4 -2
right_child=2 3 5 -5 -6 -7 -8
leaf_value=-4.0667310419165856 -4.0056076082777849 -4.0455488711915768 -3.9224331474689302 -3.9948331155039649 -3.9485740079998646 -3.8318005637745864 -3.8794096803349127
leaf_count=40000 4386 6644 4470 8127 584 1327 425
internal_value=0 -0.357563 1.85757 0.336072 -0.61014 2.69068 0.833443
internal_count=65963 55355 10608 14771 40584 5797 4811
shrinkage=1


Tree=1
num_leaves=8
num_cat=0
split_feature=6 0 4 4 7 3 6
split_gain=288.113 209.801 75.6016 31.1953 25.4502 22.482 17.3952
threshold=5.9500000000000011 44.500000000000007 140.25000000000003 130.83333333333334 1.0000000180025095e-35 76.833333333333357 5.5500000000000007
decision_type=10 2 8 10 2 10 10
left_child=1 5 4 -2 6 -1 -3
right_child=3 2 -4 -5 -6 -7 -8
leaf_value=-0.036720272487183306 0.058489633934528842 -3.8589990487686803e-05 0.07099167214549576 0.11988858753717252 0.064394393087129506 -0.014075099351213375 0.022188128264655722
leaf_count=21764 3030 18674 3030 2075 1060 9475 6855
internal_value=0 -0.15138 0.301827 1.69326 0.170156 -0.597081 0.120578
internal_count=65963 60858 29619 5105 26589 31239 25529
shrinkage=0.05


Tree=2
num_leaves=8
num_cat=0
split_feature=5 0 0 5 4 5 6
split_gain=615.664 143.629 90.5396 85.7152 62.3991 38.5275 31.0427
threshold=2.8897569444444451 44.500000000000007 44.500000000000007 1.803154495777447 135.83333333333334 3.7444334487877295 5.5500000000000007
decision_type=10 2 2 8 10 10 10
left_child=1 -1 5 -3 -4 -2 -5
right_child=2 3 4 6 -6 -7 -8
leaf_value=-0.037847713201640654 0.018836119635116583 -0.021370956238908341 0.083853157275455101 0.0073567604262310127 0.16945555016811334 0.095581901270619579 0.042957865762019425
leaf_count=27584 3764 12862 4494 9257 1433 1164 5405
internal_value=0 -0.349171 1.5644 0.0316065 2.13033 0.771719 0.42045
internal_count=65963 55108 10855 27524 5927 4928 14662
shrinkage=0.05


Tree=3
num_leaves=8
num_cat=0
split_feature=0 2 6 6 2 4 2
split_gain=234.278 137.125 77.1571 75.2212 52.0063 43.8111 41.7109
threshold=44.500000000000007 26.550000000000004 6.3500000000000005 5.8500000000000005 25.850000000000005 134.83333333333334 21.350000000000005
decision_type=2 10 10 10 10 10 8
left_child=2 3 4 6 -1 -3 -2
right_child=1 5 -4 -5 -6 -7 -8
leaf_value=-0.034973615910406958 -0.017520063522175385 0.04691287666165897 0.10529522809414141 0.059198888694003249 0.0068464590797592531 0.11784060354193876 0.014395934508632503
leaf_count=26587 9136 2885 516 3478 5409 1798 16154
internal_value=0 0.417831 -0.495396 0.215168 -0.551578 1.5279 0.0650732
internal_count=65963 33451 32512 28768 31996 4683 25290
shrinkage=0.05


Tree=4
num_leaves=8
num_cat=0
split_feature=5 5 5 6 1 3 7
split_gain=506.907 87.375 63.3314 51.3476 50.6402 44.9754 31.6501
threshold=2.8263768115942036 1.803154495777447 3.7444334487877295 6.3500000000000005 1.5000000000000002 92.833333333333357 1.0000000180025095e-35
decision_type=10 10 10 10 2 10 2
left_child=1 -1 4 6 5 -2 -3
right_child=2 3 -4 -5 -6 -7 -8
leaf_value=-0.033065550288024749 0.031599072916619356 -0.0086171338648028031 0.11044494295197488 0.072223402780069543 0.1270770110454896 0.11927280340910687 0.05764851762407739
leaf_count=28338 7780 23836 2491 985 906 687 940
internal_value=0 -0.352097 1.27901 -0.0340355 0.988511 0.806699 -0.112875
internal_count=65963 54099 11864 25761 9373 8467 24776
shrinkage=0.05


Tree=5
num_leaves=8
num_cat=0
split_feature=5 0 0 5 5 1 5
split_gain=449.068 107.034 88.2092 39.7513 38.091 29.3987 27.6591
threshold=2.5389676113360324 48.500000000000007 44.500000000000007 3.7444334487877295 3.550510204081633 1.5000000000000002 1.803154495777447
decision_type=10 2 2 10 10 2 8
left_child=1 -1 3 -2 5 -4 -3
right_child=2 6 4 -5 -6 -7 -8
leaf_value=-0.03455989517708076 0.0028918668848226009 -0.011824878672191841 0.045549163147120424 0.070637351235840695 0.10440043383238176 0.11004443943500275 0.020720792405737366
leaf_count=33749 6786 7706 6680 1164 1958 921 6999
internal_value=0 -0.428394 0.9298 0.313079 1.33511 1.08423 0.0956293
internal_count=65963 48454 17509 7950 9559 7601 14705
shrinkage=0.05


Tree=6
num_leaves=8
num_cat=0
split_feature=5 0 0 6 5 5 5
split_gain=395.92 101.648 70.2496 36.7831 34.8431 28.7627 24.6512
threshold=2.5389676113360324 48.500000000000007 44.500000000000007 7.4500000000000011 3.225707547169812 3.3662601626016264 1.803154495777447
decision_type=10 2 2 10 10 10 8
left_child=1 -1 4 5 -2 -4 -3
right_child=2 6 3 -5 -6 -7 -8
leaf_value=-0.033980996285035724 -0.0063081857005576718 -0.011369786942504507 0.042124328194102882 0.16627866121842327 0.043414374754522603 0.081197295202395534 0.019297130740740128
leaf_count=33749 5014 7706 6688 251 2936 2620 6999
internal_value=0 -0.415893 0.844658 1.19018 0.29314 1.10687 0.0903227
internal_count=65963 48454 17509 9559 7950 9308 14705
shrinkage=0.05


Tree=7
num_leaves=8
num_cat=0
split_feature=5 0 0 5 6 6 4
split_gain=350.428 96.5963 60.2878 46.3008 29.82 26.9771 26.5928
threshold=2.5389676113360324 49.500000000000007 37.500000000000007 3.550510204081633 5.9500000000000011 6.7500000000000009 131.83333333333334
decision_type=10 2 2 10 10 10 10
left_child=1 5 -2 6 -5 -1 -4
right_child=2 -3 3 4 -6 -7 -8
leaf_value=-0.033441300555829459 -0.021144209145388983 0.0069132518397340501 0.022506923182280369 0.059305779410819964 0.13050590249700617 0.063124044347280139 0.056873152996193048
leaf_count=35439 2087 12712 8519 2621 592 303 3690
internal_value=0 -0.403519 0.770762 0.900967 1.51662 -0.642334 0.679959
internal_count=65963 48454 17509 15422 3213 35742 12209
shrinkage=0.05


Tree=8
num_leaves=8
num_cat=0
split_feature=5 6 6 5 5 3 3
split_gain=310.96 55.561 41.1294 36.8121 29.9675 23.8249 20.8491
threshold=2.5389676113360324 5.8500000000000005 5.5500000000000007 1.8198360655737706 3.550510204081633 88.833333333333357 95.833333333333357
decision_type=10 10 8 10 10 10 10
left_child=1 3 5 -1 -4 -2 -5
right_child=2 -3 4 6 -6 -7 -8
leaf_value=-0.034249961744435606 0.0071610083603379912 0.021123626449980896 0.036500207878025631 -0.012979536291211416 0.075513835658420403 0.064274925601964392 0.056935240985204132
leaf_count=27033 6530 3961 7833 16886 2319 827 574
internal_value=0 -0.391231 0.70564 -0.484231 0.960861 0.299612 -0.204064
internal_count=65963 48454 17509 44493 10152 7357 17460
shrinkage=0.05


Tree=9
num_leaves=8
num_cat=0
split_feature=5 0 0 5 2 2 5
split_gain=276.846 92.6542 47.8109 26.4627 26.3536 24.7316 19.2444
threshold=2.5851357570179481 49.500000000000007 44.500000000000007 1.9783777466105659 31.050000000000004 25.150000000000002 4.37638888888889
decision_type=10 2 2 10 10 8 10
left_child=1 3 4 -1 6 -3 -2
right_child=2 5 -4 -5 -6 -7 -8
leaf_value=-0.038255348723360699 -0.0015944619943495644 -0.000578900105239083 0.046992940187297633 -0.013586135823674829 0.071701747217535639 0.039478131308560559 0.075446013462523151
leaf_count=25481 6562 10616 9019 10955 664 2402 264
internal_value=0 -0.365732 0.672584 -0.607188 0.216829 0.154562 0.0690004
internal_count=65963 49454 16509 36436 7490 13018 6826
shrinkage=0.05


Tree=10
num_leaves=8
num_cat=0
split_feature=0 2 2 0 2 4 2
split_gain=149.279 59.5182 58.1609 30.0489 25.1511 21.5698 19.3914
threshold=44.500000000000007 26.550000000000004 25.550000000000004 57.500000000000007 22.150000000000002 134.83333333333334 31.050000000000004
decision_type=2 10 10 2 8 10 10
left_child=2 3 -1 4 -2 -3 -4
right_child=1 5 6 -5 -6 -7 -8
leaf_value=-0.03173846947895901 -0.0097674837083406591 0.027642708677973662 -0.00082532779023161045 0.040249578022152101 0.013402613731264995 0.070703516936222663 0.051003963445626549
leaf_count=26165 12171 2885 5305 3009 13588 1798 1042
internal_value=0 0.301208 -0.436559 0.158325 0.0723508 0.931164 0.189386
internal_count=65963 33451 32512 28768 25759 4683 6347
shrinkage=0.05


Tree=11
num_leaves=8
num_cat=0
split_feature=0 2 2 0 2 4 0
split_gain=135.776 54.8886 50.467 25.0095 22.1968 21.9686 17.8958
threshold=44.500000000000007 25.550000000000004 26.550000000000004 57.500000000000007 22.150000000000002 142.83333333333334 36.500000000000007
decision_type=2 10 8 2 10 8 2
left_child=1 -1 3 4 -2 -4 -3
right_child=2 6 5 -5 -6 -7 -8
leaf_value=-0.031122819729614074 -0.0093711790457339413 -0.02594207979235931 0.030328494437237136 0.036174333399825689 0.012480493846710194 0.079631401414964886 0.020024439758328703
leaf_count=26165 12171 1597 4043 3005 13322 910 4750
internal_value=0 -0.423971 0.28198 0.145679 0.0654365 0.833996 0.178546
internal_count=65963 32512 33451 28498 25493 4953 6347
shrinkage=0.05


Tree=12
num_leaves=8
num_cat=0
split_feature=5 0 0 5 1 5 3
split_gain=230.48 79.0672 39.9394 28.9234 23.4938 21.5578 19.3374
threshold=2.5389676113360324 47.500000000000007 36.500000000000007 2.9071920757967273 1.5000000000000002 4.1414285714285723 95.833333333333357
decision_type=10 2 2 10 2 10 8
left_child=1 -1 -2 -4 5 -5 -3
right_child=2 6 3 4 -6 -7 -8
leaf_value=-0.032524408780183027 -0.024172209821755771 -0.0015103676564967616 0.013015022901859309 0.030722397548535004 0.087522398580590188 0.073106038895386541 0.054914989717942869
leaf_count=31577 1852 16134 6151 7738 810 958 743
internal_value=0 -0.360054 0.568864 0.655816 0.839833 0.74005 0.0303923
internal_count=65963 48454 17509 15657 9506 8696 16877
shrinkage=0.05


Tree=13
num_leaves=8
num_cat=0
split_feature=5 0 0 6 5 7 5
split_gain=206.724 73.2896 38.0369 30.2905 30.5076 18.2237 17.2677
threshold=2.4741302408563786 48.500000000000007 37.500000000000007 7.4500000000000011 2.9071920757967273 1.0000000180025095e-35 1.803154495777447
decision_type=10 2 2 10 10 2 8
left_child=1 5 -2 4 -4 -1 -3
right_child=2 6 3 -5 -6 -7 -8
leaf_value=-0.033017133138729469 -0.021900585433686486 -0.010621659885905931 0.0083964196922100397 0.10012632405269127 0.036826089154015827 0.037239093999634008 0.015320799417462842
leaf_count=32220 2272 7706 7259 364 9118 560 6464
internal_value=0 -0.364581 0.503585 0.589145 0.53757 -0.628527 0.0554728
internal_count=65963 46950 19013 16741 16377 32780 14170
shrinkage=0.05


Tree=14
num_leaves=8
num_cat=0
split_feature=5 0 0 4 5 6 6
split_gain=185.535 69.3257 33.5721 27.0086 17.1753 18.1693 15.4874
threshold=2.4741302408563786 48.500000000000007 36.500000000000007 130.83333333333334 1.9783777466105659 6.4500000000000011 5.8500000000000005
decision_type=10 2 2 10 10 10 10
left_child=1 4 -2 -4 -1 -6 -3
right_child=2 6 3 -5 5 -7 -8
leaf_value=-0.037434704188147809 -0.024578640882047711 -0.0031817336827715571 0.017433110778012635 0.042989557512163996 -0.018270655751220891 0.079610716494072115 0.028554411995777636
leaf_count=24184 2018 12075 11475 5520 8420 176 2095
internal_value=0 -0.352865 0.467079 0.539456 -0.616193 -0.282808 0.0524933
internal_count=65963 46950 19013 16995 32780 8596 14170
shrinkage=0.05


Tree=15
num_leaves=8
num_cat=0
split_feature=5 0 0 4 5 6 5
split_gain=166.654 65.7079 29.6466 23.2847 19.8212 18.079 16.0311
threshold=2.4741302408563786 47.500000000000007 36.500000000000007 136.16666666666671 4.1414285714285723 7.2500000000000009 1.7150375939849625
decision_type=10 2 2 10 10 10 8
left_child=1 -1 -2 4 5 -4 -3
right_child=2 6 3 -5 -6 -7 -8
leaf_value=-0.031481971950097824 -0.02394445537274615 -0.01289429416910466 0.012607531052990418 0.045431028670718368 0.055701024001229719 0.08041565578286658 0.010991322651190244
leaf_count=30682 2018 7903 12756 3184 807 248 8365
internal_value=0 -0.34131 0.43382 0.49949 0.373468 0.296162 0.0157553
internal_count=65963 46950 19013 16995 13811 13004 16268
shrinkage=0.05


Tree=16
num_leaves=8
num_cat=0
split_feature=0 2 6 2 7 6 2
split_gain=95.3216 45.0519 33.7097 27.9429 21.1519 17.9468 13.4075
threshold=44.500000000000007 25.250000000000004 5.8500000000000005 26.350000000000005 1.0000000180025095e-35 6.3500000000000005 21.650000000000002
decision_type=2 8 10 10 2 10 10
left_child=1 6 3 4 -2 -3 -1
right_child=2 5 -4 -5 -6 -7 -8
leaf_value=-0.040155801730270564 -0.0020726550785551186 6.1473774196514567e-05 0.032350331897645426 0.030310730111729169 0.046595556469818847 0.064107526526792191 -0.018761424330591043
leaf_count=13678 23987 6694 5066 3348 1050 367 11773
internal_value=0 -0.378239 0.221605 0.108669 0.00778963 0.123622 -0.58908
internal_count=65963 32512 33451 28385 25037 7061 25451
shrinkage=0.05


Tree=17
num_leaves=8
num_cat=0
split_feature=0 2 2 3 2 7 2
split_gain=86.826 42.4832 29.3185 16.3659 14.9209 16.3168 14.1426
threshold=44.500000000000007 25.550000000000004 22.050000000000004 91.583333333333357 31.050000000000004 1.0000000180025095e-35 21.650000000000002
decision_type=2 8 8 8 10 2 10
left_child=1 6 -2 -4 5 -3 -1
right_child=2 4 3 -5 -6 -7 -8
leaf_value=-0.039719032444240285 -0.0049671125938275098 -0.0066007645845295049 0.013528288716029655 0.040459486511061737 0.041681373866678861 0.089704634032900077 -0.017769593676610251
leaf_count=13678 13057 5231 18254 2140 1042 178 12383
internal_value=0 -0.366354 0.20833 0.342315 0.142341 -0.0394591 -0.566076
internal_count=65963 32512 33451 20394 6451 5409 26061
shrinkage=0.05


Tree=18
num_leaves=8
num_cat=0
split_feature=5 5 6 6 1 3 5
split_gain=139.995 32.0481 29.3314 21.4589 20.6862 18.4628 15.4979
threshold=2.2342087765957452 2.9071920757967273 5.5500000000000007 7.3500000000000005 1.5000000000000002 95.833333333333357 4.1414285714285723
decision_type=10 10 10 10 2 8 10
left_child=2 3 5 -2 6 -1 -3
right_child=1 4 -4 -5 -6 -7 -8
leaf_value=-0.028370379776115642 0.00084912737283598559 0.017554179226696481 -6.9872674540273245e-05 0.083261215831722024 0.064716366359710661 0.032156204629040154 0.049210814817086841
leaf_count=30782 14077 8659 9544 206 882 746 1067
internal_value=0 0.326377 -0.379865 0.0673225 0.532957 -0.526719 0.449174
internal_count=65963 24891 41072 14283 10608 31528 9726
shrinkage=0.05


Tree=19
num_leaves=8
num_cat=0
split_feature=5 5 6 6 3 6 2
split_gain=129.622 38.8319 25.4086 21.5275 15.6978 14.5562 14.2897
threshold=1.9674775251189847 2.9071920757967273 5.8500000000000005 5.5500000000000007 95.833333333333357 9.4500000000000011 26.250000000000004
decision_type=10 10 10 10 10 8 10
left_child=2 3 6 4 -2 -5 -1
right_child=1 -3 -4 5 -6 -7 -8
leaf_value=-0.029787742532311152 -0.010641508478247911 0.024706802289191622 0.01449432757506839 0.014341522758902565 0.046237945182026834 0.12351224130671959 0.0091704013265802575
leaf_count=29516 14638 10608 2227 6629 540 64 1741
internal_value=0 0.249213 -0.45827 0.0298888 -0.153007 0.336806 -0.541929
internal_count=65963 32479 33484 21871 15178 6693 31257
shrinkage=0.05


Tree=20
num_leaves=8
num_cat=0
split_feature=5 0 0 5 6 2 6
split_gain=118.408 49.1272 36.9922 28.6733 16.0649 14.9681 14.4865
threshold=1.9674775251189847 50.500000000000007 37.500000000000007 2.9071920757967273 9.4500000000000011 26.350000000000005 5.8500000000000005
decision_type=10 2 2 10 10 8 10
left_child=1 -1 -2 4 -4 6 -3
right_child=2 5 3 -5 -6 -7 -8
leaf_value=-0.033582977296920287 -0.0274802883815452 -0.0097370164451173399 0.0039428508121756812 0.025612460141127481 0.11467763311403839 0.055480024519078242 0.039273093825482469
leaf_count=26609 3943 5514 19120 9356 60 545 816
internal_value=0 -0.445548 0.234151 0.298396 0.0998871 0.104326 -0.0239857
internal_count=65963 33484 32479 28536 19180 6875 6330
shrinkage=0.05


Tree=21
num_leaves=8
num_cat=0
split_feature=5 5 6 3 6 1 4
split_gain=109.281 35.9167 24.318 18.1609 17.8073 16.2623 12.5456
threshold=1.803154495777447 2.9071920757967273 5.5500000000000007 95.833333333333357 5.8500000000000005 1.5000000000000002 130.83333333333334
decision_type=10 10 10 10 10 2 10
left_child=4 2 3 -2 -1 6 -3
right_child=1 5 -4 -5 -6 -7 -8
leaf_value=-0.02911037097256455 -0.011662833273162717 0.0097930798051904071 0.015150592588899683 0.04469355807629774 0.010720484006848979 0.053421108676975831 0.030123317682486817
leaf_count=26568 18333 6552 8051 633 1770 882 3174
internal_value=0 0.190233 0.0036845 -0.174476 -0.504018 0.427779 0.354921
internal_count=65963 37625 27017 18966 28338 10608 9726
shrinkage=0.05


Tree=22
num_leaves=8
num_cat=0
split_feature=5 0 0 5 5 6 1
split_gain=100.319 36.2104 25.7591 21.8478 14.7588 14.6694 13.0843
threshold=1.803154495777447 40.500000000000007 47.500000000000007 2.9071920757967273 3.550510204081633 5.5500000000000007 1.5000000000000002
decision_type=10 2 2 10 10 10 2
left_child=2 4 -1 5 -2 -3 -5
right_child=1 3 -4 6 -6 -7 -8
leaf_value=-0.036945073751953238 -0.02262740627493285 -0.0026984179089018685 -0.0075594436705365576 0.019874448630716121 0.019318248799884696 0.017276467901027968 0.053499290894250463
leaf_count=19370 8277 13477 8968 7384 902 6884 701
internal_value=0 0.179159 -0.491149 0.272551 -0.294052 0.111269 0.471276
internal_count=65963 37625 28338 28446 9179 20361 8085
shrinkage=0.05


Tree=23
num_leaves=8
num_cat=0
split_feature=5 5 6 6 3 1 5
split_gain=92.0943 27.9495 19.758 16.8716 16.1171 11.5267 11.9539
threshold=1.803154495777447 2.9071920757967273 5.5500000000000007 5.8500000000000005 95.833333333333357 1.5000000000000002 4.1414285714285723
decision_type=10 10 10 10 10 2 10
left_child=3 2 4 -1 -2 6 -3
right_child=1 5 -4 -5 -6 -7 -8
leaf_value=-0.027912744865022321 -0.010933998408099953 0.011406853920363476 0.01333329299772556 0.011039502928207386 0.04129814939554069 0.044408544897114349 0.037623221382517981
leaf_count=26568 18333 8659 8051 1770 633 882 1067
internal_value=0 0.168755 0.00261378 -0.478388 -0.161349 0.372878 0.31094
internal_count=65963 37625 27017 28338 18966 10608 9726
shrinkage=0.05


Tree=24
num_leaves=8
num_cat=0
split_feature=5 0 0 5 0 3 7
split_gain=84.5311 33.065 25.3132 20.0525 17.9629 11.1315 10.4828
threshold=1.803154495777447 37.500000000000007 47.500000000000007 2.9071920757967273 44.500000000000007 96.583333333333357 1.0000000180025095e-35
decision_type=10 2 2 10 2 8 2
left_child=2 -2 -1 4 -3 -4 -5
right_child=1 3 5 6 -6 -7 -8
leaf_value=-0.036061691003289979 -0.027639205210015602 -0.013997833116595164 -0.0094799164681466114 0.017205486708542255 0.0094917737032361085 0.06154169969630733 0.05252474524196981
leaf_count=19370 4674 8831 8696 8898 14764 272 458
internal_value=0 0.159128 -0.465592 0.214857 0.0668191 -0.126453 0.390809
internal_count=65963 37625 28338 32951 23595 8968 9356
shrinkage=0.05


end of trees

feature importances:
H25_lhrate=54
H25_age=36
H25_a1c=30
H25_bmi=21
H25_dbp=11
H25_sbp=10
H25_sex=7
H25_ht=6

parameters:
[boosting: gbdt]
[objective: binary]
[metric: binary]
[tree_learner: serial]
[device_type: cpu]
[data: ]
[valid: ]
[num_iterations: 100]
[learning_rate: 0.05]
[num_leaves: 8]
[num_threads: 0]
[max_depth: -1]
[min_data_in_leaf: 20]
[min_sum_hessian_in_leaf: 1]
[bagging_fraction: 0.4]
[bagging_freq: 0]
[bagging_seed: 3]
[feature_fraction: 0.8]
[feature_fraction_seed: 2]
[early_stopping_round: 0]
[max_delta_step: 0]
[lambda_l1: 0]
[lambda_l2: 1]
[min_gain_to_split: 0]
[drop_rate: 0.1]
[max_drop: 50]
[skip_drop: 0.5]
[xgboost_dart_mode: 0]
[uniform_drop: 0]
[drop_seed: 4]
[top_rate: 0.2]
[other_rate: 0.1]
[min_data_per_group: 100]
[max_cat_threshold: 32]
[cat_l2: 10]
[cat_smooth: 10]
[max_cat_to_onehot: 4]
[top_k: 20]
[monotone_constraints: ]
[feature_contri: ]
[forcedsplits_filename: ]
[refit_decay_rate: 0.9]
[verbosity: 0]
[max_bin: 255]
[min_data_in_bin: 3]
[bin_construct_sample_cnt: 200000]
[histogram_pool_size: -1]
[data_random_seed: 1]
[output_model: LightGBM_model.txt]
[snapshot_freq: -1]
[input_model: ]
[output_result: LightGBM_predict_result.txt]
[initscore_filename: ]
[valid_data_initscores: ]
[pre_partition: 0]
[enable_bundle: 1]
[max_conflict_rate: 0]
[is_enable_sparse: 1]
[sparse_threshold: 0.8]
[use_missing: 1]
[zero_as_missing: 0]
[two_round: 0]
[save_binary: 0]
[enable_load_from_binary_file: 1]
[header: 0]
[label_column: ]
[weight_column: ]
[group_column: ]
[ignore_column: ]
[categorical_feature: ]
[predict_raw_score: 0]
[predict_leaf_index: 0]
[predict_contrib: 0]
[num_iteration_predict: -1]
[pred_early_stop: 0]
[pred_early_stop_freq: 10]
[pred_early_stop_margin: 10]
[convert_model_language: ]
[convert_model: gbdt_prediction.cpp]
[num_class: 1]
[is_unbalance: 0]
[scale_pos_weight: 1]
[sigmoid: 1]
[boost_from_average: 1]
[reg_sqrt: 0]
[alpha: 0.9]
[fair_c: 1]
[poisson_max_delta_step: 0.7]
[tweedie_variance_power: 1.5]
[max_position: 20]
[label_gain: ]
[metric_freq: 1]
[is_provide_training_metric: 0]
[eval_at: ]
[num_machines: 1]
[local_listen_port: 12400]
[time_out: 120]
[machine_list_filename: ]
[machines: ]
[gpu_platform_id: -1]
[gpu_device_id: -1]
[gpu_use_dp: 0]

end of parameters

pandas_categorical:[]
