tree
version=v2
num_class=1
num_tree_per_iteration=1
label_index=0
max_feature_idx=8
objective=binary sigmoid:1
feature_names=H25_age H25_sex H25_bmi H25_dbp H25_sbp H25_lhrate H25_a1c H25_ht H25_dl
feature_infos=[19:75] [1:2] [0:56.200000000000003] [0:169] [0:238] [0.24468085106382975:8.2058823529411757] [2.7999999999999998:14.800000000000001] [0:1] [0:1]
tree_sizes=722 717 718 721 720 724 732 723 729 731 733 733 733 724 730 736 734 728 736 741 736 732 732 736 730

Tree=0
num_leaves=8
num_cat=0
split_feature=6 6 6 2 2 5 3
split_gain=5637.81 425.646 49.8515 24.1339 14.8433 13.2877 9.07363
threshold=6.5500000000000007 6.1500000000000012 5.7500000000000009 27.450000000000003 35.550000000000004 1.9668498168498167 91.583333333333357
decision_type=10 10 10 8 10 10 8
left_child=1 2 4 6 -1 -3 -4
right_child=-2 5 3 -5 -6 -7 -8
leaf_value=-5.2778953930697252 -3.8507205929382398 -5.1066823255556377 -5.2459950982009129 -5.141452461123686 -5.1411476259219686 -4.8737029980538793 -5.1562722348344305
leaf_count=58867 1179 451 5253 1403 208 1057 403
internal_value=0 -0.558195 -0.730944 0.354653 -0.861384 6.25343 -0.0647652
internal_count=68821 67642 66134 7059 59075 1508 5656
shrinkage=1


Tree=1
num_leaves=8
num_cat=0
split_feature=6 6 6 0 0 5 3
split_gain=1718.4 104.128 48.1206 24.2527 36.4122 47.4135 20.3586
threshold=6.1500000000000012 7.0500000000000007 5.7500000000000009 41.500000000000007 48.500000000000007 2.0268468468468472 91.833333333333357
decision_type=10 10 10 2 2 10 8
left_child=2 3 -1 -2 5 -5 -4
right_child=1 -3 6 4 -6 -7 -8
leaf_value=-0.042743637645114067 0.040231099595486777 0.45400064227892944 0.003552368883026763 0.041753759584695072 0.19347825165310012 0.43009132298063496 0.11692574183571669
leaf_count=59075 163 592 6450 142 1354 436 609
internal_value=0 6.57567 -0.720565 4.91189 5.20499 7.43728 0.335139
internal_count=68821 2687 66134 2095 1932 578 7059
shrinkage=0.05


Tree=2
num_leaves=8
num_cat=0
split_feature=6 6 6 0 2 2 0
split_gain=1193.06 46.425 37.5703 37.8561 22.4882 19.4052 14.6139
threshold=6.1500000000000012 5.7500000000000009 6.7500000000000009 39.500000000000007 29.650000000000002 27.450000000000003 60.500000000000007
decision_type=10 10 10 2 8 8 2
left_child=1 -1 4 -4 -2 -3 -5
right_child=2 5 3 6 -6 -7 -8
leaf_value=-0.042409414673913175 0.12755080998775048 -0.0035770444873103749 -0.0036777846284421442 0.30426426050184729 0.26818747103451579 0.079024202169243649 0.10174830802964785
leaf_count=59075 1479 5656 38 743 348 1403 79
internal_value=0 -0.710055 4.63647 5.55053 3.35267 0.316384 5.80225
internal_count=68821 66134 2687 860 1827 7059 822
shrinkage=0.05


Tree=3
num_leaves=8
num_cat=0
split_feature=6 6 8 3 0 0 6
split_gain=905.204 44.7186 30.6203 16.3574 16.0889 25.4523 18.2993
threshold=6.1500000000000012 5.7500000000000009 1.0000000180025095e-35 91.833333333333357 39.500000000000007 46.500000000000007 6.3500000000000005
decision_type=10 10 2 8 2 2 10
left_child=1 -1 4 -3 -2 6 -6
right_child=2 3 -4 -5 5 -7 -8
leaf_value=-0.042064389853804937 0.004967405776739672 0.0026657652730950688 0.28931494202969049 0.099338166731003152 0.067504914308192179 0.13628977175845688 0.25796157487680604
leaf_count=59075 86 6450 341 609 219 1693 348
internal_value=0 -0.69938 3.57436 0.297531 3.19694 3.29789 4.60542
internal_count=68821 66134 2687 7059 2346 2260 567
shrinkage=0.05


Tree=4
num_leaves=8
num_cat=0
split_feature=6 6 1 6 3 2 2
split_gain=728.62 29.7311 26.6559 17.301 17.7447 16.6721 14.8992
threshold=6.0500000000000007 5.7500000000000009 1.5000000000000002 6.4500000000000011 75.833333333333357 25.050000000000004 35.550000000000004
decision_type=10 10 2 10 10 8 10
left_child=1 6 -2 -4 -5 -3 -1
right_child=2 5 3 4 -6 -7 -8
leaf_value=-0.042623888953395049 0.1525564335585628 -0.020491002363598198 -0.014125541304763099 0.010161167868953836 0.16988516060456574 0.048452525357217918 0.095451524061127627
leaf_count=58867 2827 3904 527 97 99 2292 208
internal_value=0 -0.720095 2.79079 1.2091 2.13642 0.148705 -0.834167
internal_count=68821 65271 3550 723 196 6196 59075
shrinkage=0.05


Tree=5
num_leaves=8
num_cat=0
split_feature=6 6 6 2 2 2 0
split_gain=599.733 28.8275 20.0434 32.2761 14.6851 13.9822 10.8236
threshold=6.0500000000000007 5.7500000000000009 7.5500000000000007 29.650000000000002 25.750000000000004 35.550000000000004 59.500000000000007
decision_type=10 10 10 8 8 10 2
left_child=1 5 3 6 -3 -1 -2
right_child=2 4 -4 -5 -6 -7 -8
leaf_value=-0.042287832947364566 0.066632679042759588 -0.016576373669480997 0.16679598954072822 0.16514474862848338 0.049536204874579645 0.088370892705930237 0.1378410888869803
leaf_count=58867 2304 4315 326 584 1881 208 336
internal_value=0 -0.709596 2.33309 2.01373 0.140483 -0.826767 1.57267
internal_count=68821 65271 3550 3224 6196 59075 2640
shrinkage=0.05


Tree=6
num_leaves=8
num_cat=0
split_feature=6 6 2 1 6 8 8
split_gain=506.694 24.1753 20.0994 18.9114 18.4662 12.8486 11.9344
threshold=5.9500000000000011 6.7500000000000009 25.050000000000004 1.5000000000000002 5.6500000000000012 1.0000000180025095e-35 1.0000000180025095e-35
decision_type=10 10 8 2 8 2 2
left_child=2 3 -1 -2 -4 -6 -3
right_child=1 6 4 -5 5 -7 -8
leaf_value=-0.044387627965498971 0.082940373456792338 0.10848330343515021 -0.037275491509836292 0.0049632889038267085 0.0024843611318357325 0.093547256972400461 0.20741112408248585
leaf_count=49296 2955 798 8197 1021 5777 715 62
internal_value=0 1.90082 -0.734815 1.36095 -0.244429 0.308838 2.4103
internal_count=68821 4836 63985 3976 14689 6492 860
shrinkage=0.05


Tree=7
num_leaves=8
num_cat=0
split_feature=6 2 6 6 1 0 0
split_gain=436.634 19.9672 18.5867 17.369 17.0032 17.4448 10.928
threshold=5.9500000000000011 25.050000000000004 6.3500000000000005 5.6500000000000012 1.5000000000000002 59.500000000000007 48.500000000000007
decision_type=10 8 10 8 2 2 2
left_child=1 -1 4 -3 5 -2 -4
right_child=2 3 6 -5 -6 -7 -8
leaf_value=-0.044117774988894846 0.046678693795997796 -0.036795484530063476 0.1212368337859111 0.014608410104123738 -0.023012645234632471 0.17535920187534809 0.077546830816344114
leaf_count=49296 2057 8197 606 6492 865 224 1084
internal_value=0 -0.724716 1.66285 -0.234826 0.941094 1.32192 1.92362
internal_count=68821 63985 4836 14689 3146 2281 1690
shrinkage=0.05


Tree=8
num_leaves=8
num_cat=0
split_feature=6 2 6 8 6 0 3
split_gain=380.42 19.7766 16.2661 15.3762 13.115 18.8013 11.5626
threshold=5.9500000000000011 25.050000000000004 5.6500000000000012 1.0000000180025095e-35 6.3500000000000005 59.500000000000007 88.833333333333357
decision_type=10 8 8 2 10 2 8
left_child=1 -1 -3 4 5 6 -2
right_child=3 2 -4 -5 -6 -7 -8
leaf_value=-0.043838355958512619 -0.0027431671990980552 -0.036305390070515413 0.013702044586628931 0.12266477260641762 0.076094915951898781 0.13753648949896574 0.080445068685445917
leaf_count=49296 2082 8197 6492 618 1506 252 378
internal_value=0 -0.714479 -0.226287 1.47156 1.30882 0.65888 0.310027
internal_count=68821 63985 14689 4836 4218 2712 2460
shrinkage=0.05


Tree=9
num_leaves=8
num_cat=0
split_feature=6 2 6 8 2 6 2
split_gain=334.369 19.5642 15.4544 15.2226 13.6294 12.3288 13.1795
threshold=5.9500000000000011 25.050000000000004 5.5500000000000007 1.0000000180025095e-35 35.45000000000001 6.7500000000000009 29.650000000000002
decision_type=10 8 8 2 10 10 8
left_child=1 -1 -3 4 -4 6 -2
right_child=5 2 3 -5 -6 -7 -8
leaf_value=-0.043549109657836843 0.033817182891011627 -0.040565566257898936 -0.010921290746374331 0.086562891483478427 0.1227630860127106 0.081554348710076996 0.0897214751076362
leaf_count=49296 3355 6767 6909 854 159 860 621
internal_value=0 -0.704039 -0.217984 0.187701 -0.0660784 1.31453 0.959949
internal_count=68821 63985 14689 7922 7068 4836 3976
shrinkage=0.05


Tree=10
num_leaves=8
num_cat=0
split_feature=6 2 6 8 2 1 3
split_gain=295.223 19.4135 14.7216 12.8757 12.6763 11.2374 10.2909
threshold=5.9500000000000011 25.050000000000004 5.5500000000000007 1.0000000180025095e-35 35.550000000000004 1.5000000000000002 73.833333333333357
decision_type=10 8 8 2 10 2 10
left_child=1 -1 -3 4 -4 -2 -7
right_child=5 2 3 -5 -6 6 -8
leaf_value=-0.043249795529268581 0.064954188888993 -0.040178894522384302 -0.010564780851523424 0.077230069227130882 0.11600841820011805 -0.022191708125216342 0.050842129024218967
leaf_count=49296 3719 6767 6917 854 151 606 511
internal_value=0 -0.693196 -0.207958 0.18188 -0.0601573 1.18079 0.419699
internal_count=68821 63985 14689 7922 7068 4836 1117
shrinkage=0.05


Tree=11
num_leaves=8
num_cat=0
split_feature=6 2 6 8 2 8 2
split_gain=261.7 19.2331 14.0086 10.9519 11.3126 10.8481 9.86763
threshold=5.9500000000000011 25.050000000000004 5.5500000000000007 1.0000000180025095e-35 35.550000000000004 1.0000000180025095e-35 30.450000000000003
decision_type=10 8 8 2 10 2 8
left_child=1 -1 -3 4 -4 -2 -7
right_child=5 2 3 -5 -6 6 -8
leaf_value=-0.042940186126590868 0.047050741083328393 -0.039781972489312895 -0.01015782064484492 0.069340707909608099 0.10604688513320193 0.060803732353498986 0.15173304271716878
leaf_count=49296 4218 6767 6917 854 151 501 117
internal_value=0 -0.682163 -0.198345 0.176015 -0.0546304 1.06512 1.79892
internal_count=68821 63985 14689 7922 7068 4836 618
shrinkage=0.05


Tree=12
num_leaves=8
num_cat=0
split_feature=6 6 2 1 8 3 0
split_gain=236.458 23.9902 12.4534 10.4442 9.30863 8.65169 7.32123
threshold=5.7500000000000009 6.1500000000000012 32.550000000000004 1.5000000000000002 1.0000000180025095e-35 91.833333333333357 59.500000000000007
decision_type=10 10 10 2 2 10 2
left_child=2 3 -1 5 -3 6 -2
right_child=1 4 -4 -5 -6 -7 -8
leaf_value=-0.040260376050088774 0.0018050269478958908 0.047062265146400384 0.051926818177075965 -0.029949107279249938 0.08864015217353019 0.080079439880806388 0.079681305400037233
leaf_count=58467 3930 2346 608 2251 341 521 357
internal_value=0 0.845063 -0.772264 0.189771 1.06388 0.486013 0.234251
internal_count=68821 9746 59075 7059 2687 4808 4287
shrinkage=0.05


Tree=13
num_leaves=8
num_cat=0
split_feature=6 6 2 1 0 0 6
split_gain=214.116 19.6762 11.7302 9.54324 7.87815 8.87514 8.53537
threshold=5.7500000000000009 6.1500000000000012 32.550000000000004 1.5000000000000002 39.500000000000007 48.500000000000007 7.9500000000000011
decision_type=10 10 10 2 2 2 10
left_child=2 3 -1 -2 -3 -6 -7
right_child=1 4 -4 -5 5 6 -8
leaf_value=-0.039851805670635676 0.02285297011274989 -0.019920708764542761 0.048058034077076095 -0.029381422211579133 0.067497217423633557 0.0314363959768535 0.078170266803212873
leaf_count=58467 4808 90 608 2251 886 1588 123
internal_value=0 0.77575 -0.763107 0.181412 0.96694 1.00844 0.781864
internal_count=68821 9746 59075 7059 2687 2597 1711
shrinkage=0.05


Tree=14
num_leaves=8
num_cat=0
split_feature=6 6 2 3 8 4 0
split_gain=194.247 16.4828 11.2287 8.31288 7.37723 6.7604 5.77464
threshold=5.7500000000000009 6.1500000000000012 31.650000000000002 91.833333333333357 1.0000000180025095e-35 154.33333333333334 37.500000000000007
decision_type=10 10 10 8 2 10 2
left_child=2 3 -1 -2 6 -6 -3
right_child=1 4 -4 -5 5 -7 -8
leaf_value=-0.039658138510925492 -0.00075051709951270062 -0.034744783770697202 0.037066769190607377 0.059196340020742727 0.081311047670448264 -0.027866554894832779 0.040433271670604093
leaf_count=58191 6450 46 884 609 318 23 2300
internal_value=0 0.713741 -0.75372 0.17031 0.883437 1.47799 0.778895
internal_count=68821 9746 59075 7059 2687 341 2346
shrinkage=0.05


Tree=15
num_leaves=8
num_cat=0
split_feature=6 6 2 1 8 2 3
split_gain=176.6 13.761 10.6845 8.4892 8.15677 8.55285 6.86789
threshold=5.7500000000000009 6.1500000000000012 25.150000000000002 1.5000000000000002 1.0000000180025095e-35 35.550000000000004 102.83333333333336
decision_type=10 10 10 2 2 10 10
left_child=2 3 -1 -2 5 -4 -3
right_child=1 6 4 -5 -6 -7 -8
leaf_value=-0.044118157183771184 0.020636702991144996 0.042273413014387362 -0.028030942026809127 -0.02886349445968564 0.044316441968874527 0.06802490308837178 -0.021948091327192942
leaf_count=46958 4808 2618 10899 2251 1023 195 69
internal_value=0 0.658268 -0.744115 0.161715 -0.288889 -0.44621 0.808875
internal_count=68821 9746 59075 7059 12117 11094 2687
shrinkage=0.05


Tree=16
num_leaves=8
num_cat=0
split_feature=6 1 2 2 5 6 2
split_gain=160.714 12.1788 10.6724 10.4576 11.7404 8.56506 8.7922
threshold=5.7500000000000009 1.5000000000000002 25.150000000000002 27.650000000000002 2.7549095109742017 7.5500000000000007 29.550000000000004
decision_type=10 2 10 10 10 10 8
left_child=2 5 -1 -3 -5 6 -2
right_child=1 3 -4 4 -6 -7 -8
leaf_value=-0.043844084970877939 0.021825463766196474 -0.021420560669590659 -0.013867525709421744 -0.0043192953331035793 0.10105517423301094 0.058776590208493434 0.052609912069348258
leaf_count=46958 5765 2333 12117 280 124 295 949
internal_value=0 0.607841 -0.734248 0.00351589 0.800061 0.713407 0.590145
internal_count=68821 9746 59075 2737 404 7009 6714
shrinkage=0.05


Tree=17
num_leaves=8
num_cat=0
split_feature=6 6 2 1 0 2 2
split_gain=146.878 10.9317 10.61 9.91167 12.2466 14.6794 8.50474
threshold=5.7500000000000009 6.7500000000000009 25.150000000000002 1.5000000000000002 59.500000000000007 22.950000000000003 27.650000000000002
decision_type=10 10 10 2 2 10 10
left_child=2 3 -1 4 -2 -6 -5
right_child=1 -3 -4 6 5 -7 -8
leaf_value=-0.04356019422015029 0.017225072369322199 0.041258908603880547 -0.013374014997186346 -0.034242813924098392 -0.022664639375438039 0.10780995965219756 0.035025572971490553
leaf_count=46958 5677 860 12117 2284 191 377 357
internal_value=0 0.56412 -0.724282 0.344484 0.487343 1.49736 -0.289087
internal_count=68821 9746 59075 8886 6245 568 2641
shrinkage=0.05


Tree=18
num_leaves=8
num_cat=0
split_feature=6 2 6 6 2 3 0
split_gain=134.353 10.5345 9.48448 7.92997 6.86656 6.49939 7.45329
threshold=5.7500000000000009 25.150000000000002 6.1500000000000012 5.5500000000000007 22.850000000000005 91.833333333333357 59.500000000000007
decision_type=10 10 10 8 8 8 2
left_child=1 -1 4 -3 -2 6 -6
right_child=2 3 -4 -5 5 -7 -8
leaf_value=-0.043266255294788641 -0.024356244758279109 -0.036760618306514815 0.032094722843695182 0.0074650798012860066 -0.0031089079293429795 0.062226888733136879 0.073577075404224243
leaf_count=46958 2670 6261 2687 5856 3584 491 314
internal_value=0 -0.714103 0.524192 -0.257839 0.118141 0.357576 0.13432
internal_count=68821 59075 9746 12117 7059 4389 3898
shrinkage=0.05


Tree=19
num_leaves=8
num_cat=0
split_feature=6 2 6 1 2 8 2
split_gain=123.098 10.4333 8.4976 8.33657 7.61796 7.53078 7.99748
threshold=5.7500000000000009 25.150000000000002 6.7500000000000009 1.5000000000000002 27.650000000000002 1.0000000180025095e-35 35.550000000000004
decision_type=10 10 10 2 10 2 8
left_child=1 -1 3 -2 -5 6 -3
right_child=2 5 -4 4 -6 -7 -8
leaf_value=-0.042962039590716997 0.021135354553300401 -0.026503380835314356 0.035543675823688205 -0.033819249039673212 0.030969415330201824 0.043426740755538915 0.065607428826549116
leaf_count=46958 6245 10899 860 2284 357 1023 195
internal_value=0 -0.703771 0.487989 0.296688 -0.287317 -0.248918 -0.410389
internal_count=68821 59075 9746 8886 2641 12117 11094
shrinkage=0.05


Tree=20
num_leaves=8
num_cat=0
split_feature=6 2 6 8 2 6 2
split_gain=112.753 10.3701 7.52434 7.51564 8.51419 7.50011 11.9327
threshold=5.7500000000000009 25.150000000000002 5.5500000000000007 1.0000000180025095e-35 35.550000000000004 7.5500000000000007 27.350000000000005
decision_type=10 10 8 2 8 10 8
left_child=1 -1 -3 4 -4 6 -2
right_child=5 2 3 -5 -6 -7 -8
leaf_value=-0.042647338282493522 0.0069862795502959769 -0.036040502048531341 -0.016919678628781503 0.067692565609486818 0.088008750605123642 0.04211913929413956 0.034259873529865072
leaf_count=46958 7137 6261 5150 599 107 326 2283
internal_value=0 -0.693026 -0.23821 0.15363 -0.119174 0.454646 0.358012
internal_count=68821 59075 12117 5856 5257 9746 9420
shrinkage=0.05


Tree=21
num_leaves=8
num_cat=0
split_feature=6 2 1 5 3 6 5
split_gain=103.395 10.2999 7.21137 7.69013 8.28791 7.1861 6.89337
threshold=5.7500000000000009 25.150000000000002 1.5000000000000002 2.9071920757967273 75.833333333333357 5.5500000000000007 1.3907147988505748
decision_type=10 10 2 8 10 8 8
left_child=1 -1 6 -4 -5 -3 -2
right_child=2 5 3 4 -6 -7 -8
leaf_value=-0.0423219603798103 0.062789634533960567 -0.035551389710741677 -0.014420086866453741 -0.021996833095438935 0.088964232285227068 0.0075590198513777159 0.022215074306325511
leaf_count=46958 508 6261 2437 151 149 5856 6501
internal_value=0 -0.682047 0.424359 -0.0357667 0.936244 -0.22748 0.498111
internal_count=68821 59075 9746 2737 300 12117 7009
shrinkage=0.05


Tree=22
num_leaves=8
num_cat=0
split_feature=6 2 6 6 7 3 3
split_gain=95.0103 10.1588 6.77692 6.63355 6.14084 9.88068 6.53118
threshold=5.7500000000000009 25.150000000000002 5.5500000000000007 6.1500000000000012 1.0000000180025095e-35 91.166666666666671 83.833333333333357
decision_type=10 10 8 10 2 8 10
left_child=1 -1 -3 -2 -5 6 -6
right_child=3 2 -4 4 5 -7 -8
leaf_value=-0.041985724233583578 0.0032465245857280708 -0.035053723797038014 0.007145141156898533 0.021217844738920588 0.033764806035984245 -0.0079071847446502471 0.11777623238121092
leaf_count=46958 7059 6261 5856 2434 111 69 73
internal_value=0 -0.671138 -0.219372 0.396676 0.48986 1.08925 1.57396
internal_count=68821 59075 12117 9746 2687 253 184
shrinkage=0.05


Tree=23
num_leaves=8
num_cat=0
split_feature=6 2 6 8 2 6 0
split_gain=87.4209 10.0066 6.38876 6.48566 7.6974 6.20724 6.55292
threshold=5.7500000000000009 25.150000000000002 5.5500000000000007 1.0000000180025095e-35 35.550000000000004 6.7500000000000009 59.500000000000007
decision_type=10 10 8 2 8 10 2
left_child=1 -1 -3 4 -4 6 -2
right_child=5 2 3 -5 -6 -7 -8
leaf_value=-0.041638475053060425 0.0061364849667110517 -0.034547851138920775 -0.016850144478126421 0.060490048722957802 0.080518000871657197 0.027697575010496835 0.041656087237575162
leaf_count=46958 8064 6261 5150 599 107 860 822
internal_value=0 -0.660055 -0.211497 0.13513 -0.123232 0.371674 0.213156
internal_count=68821 59075 12117 5856 5257 9746 8886
shrinkage=0.05


Tree=24
num_leaves=8
num_cat=0
split_feature=6 2 8 4 4 5 3
split_gain=80.3412 9.89647 6.23269 6.91862 13.7773 13.2847 14.0965
threshold=5.7500000000000009 25.150000000000002 1.0000000180025095e-35 149.16666666666671 160.25000000000003 2.6068501170960192 98.333333333333357
decision_type=10 10 2 10 10 10 10
left_child=1 -1 3 -2 5 -5 -7
right_child=2 -3 -4 4 -6 6 -8
leaf_value=-0.04128005630019202 0.010593821148765011 -0.010081644023737089 0.038170239721448403 0.011704347610916375 -0.015162964959478834 0.14818452298535009 -0.013677239825378093
leaf_count=46958 8107 12117 1088 197 199 113 42
internal_value=0 -0.648531 0.348272 0.27835 0.835449 1.41901 2.28575
internal_count=68821 59075 9746 8658 551 352 155
shrinkage=0.05


end of trees

feature importances:
H25_a1c=64
H25_bmi=44
H25_age=17
H25_dl=15
H25_dbp=14
H25_sex=11
H25_lhrate=6
H25_sbp=3
H25_ht=1

parameters:
[boosting: gbdt]
[objective: binary]
[metric: binary]
[tree_learner: serial]
[device_type: cpu]
[data: ]
[valid: ]
[num_iterations: 100]
[learning_rate: 0.05]
[num_leaves: 8]
[num_threads: 0]
[max_depth: -1]
[min_data_in_leaf: 20]
[min_sum_hessian_in_leaf: 1]
[bagging_fraction: 0.4]
[bagging_freq: 0]
[bagging_seed: 3]
[feature_fraction: 0.9]
[feature_fraction_seed: 2]
[early_stopping_round: 0]
[max_delta_step: 0]
[lambda_l1: 0]
[lambda_l2: 1]
[min_gain_to_split: 0]
[drop_rate: 0.1]
[max_drop: 50]
[skip_drop: 0.5]
[xgboost_dart_mode: 0]
[uniform_drop: 0]
[drop_seed: 4]
[top_rate: 0.2]
[other_rate: 0.1]
[min_data_per_group: 100]
[max_cat_threshold: 32]
[cat_l2: 10]
[cat_smooth: 10]
[max_cat_to_onehot: 4]
[top_k: 20]
[monotone_constraints: ]
[feature_contri: ]
[forcedsplits_filename: ]
[refit_decay_rate: 0.9]
[verbosity: 0]
[max_bin: 255]
[min_data_in_bin: 3]
[bin_construct_sample_cnt: 200000]
[histogram_pool_size: -1]
[data_random_seed: 1]
[output_model: LightGBM_model.txt]
[snapshot_freq: -1]
[input_model: ]
[output_result: LightGBM_predict_result.txt]
[initscore_filename: ]
[valid_data_initscores: ]
[pre_partition: 0]
[enable_bundle: 1]
[max_conflict_rate: 0]
[is_enable_sparse: 1]
[sparse_threshold: 0.8]
[use_missing: 1]
[zero_as_missing: 0]
[two_round: 0]
[save_binary: 0]
[enable_load_from_binary_file: 1]
[header: 0]
[label_column: ]
[weight_column: ]
[group_column: ]
[ignore_column: ]
[categorical_feature: ]
[predict_raw_score: 0]
[predict_leaf_index: 0]
[predict_contrib: 0]
[num_iteration_predict: -1]
[pred_early_stop: 0]
[pred_early_stop_freq: 10]
[pred_early_stop_margin: 10]
[convert_model_language: ]
[convert_model: gbdt_prediction.cpp]
[num_class: 1]
[is_unbalance: 0]
[scale_pos_weight: 1]
[sigmoid: 1]
[boost_from_average: 1]
[reg_sqrt: 0]
[alpha: 0.9]
[fair_c: 1]
[poisson_max_delta_step: 0.7]
[tweedie_variance_power: 1.5]
[max_position: 20]
[label_gain: ]
[metric_freq: 1]
[is_provide_training_metric: 0]
[eval_at: ]
[num_machines: 1]
[local_listen_port: 12400]
[time_out: 120]
[machine_list_filename: ]
[machines: ]
[gpu_platform_id: -1]
[gpu_device_id: -1]
[gpu_use_dp: 0]

end of parameters

pandas_categorical:[]
