tree
version=v2
num_class=1
num_tree_per_iteration=1
label_index=0
max_feature_idx=8
objective=binary sigmoid:1
feature_names=H25_age H25_sex H25_bmi H25_dbp H25_sbp H25_lhrate H25_a1c H25_dm H25_dl
feature_infos=[18:74] [1:2] [0:65.599999999999994] [0:145] [0:228] [0.097560975609756101:8.8461538461538485] [2.7999999999999998:15.300000000000001] [0:1] [0:1]
tree_sizes=716 731 733 733 729 729 730 733 732 730 735 733 735 744 737 739 741 732 745 741 737 735 745 744 739 739 744 737 733 737 738 742 728 739 720 745 729 735 742 731 744 739 731 736 738 727 737 742 729 726 748 736 728 747 732 742 717 742 741 741 741 733 722 728 736 734 744 737 739 719 733 738 733 737 723 726 742 729 735 736 736 724 735 726 721 735 736 740 738 740 722 740 739 716 739 738 719 740 745 720

Tree=0
num_leaves=8
num_cat=0
split_feature=3 4 4 6 3 0 4
split_gain=1454.98 247.56 211.769 118.703 87.9765 63.8742 60.0803
threshold=89.583333333333357 130.83333333333334 145.16666666666671 6.6500000000000012 100.83333333333336 45.500000000000007 146.25000000000003
decision_type=8 10 10 10 10 2 10
left_child=1 -1 -2 6 5 -4 -3
right_child=2 3 4 -5 -6 -7 -8
leaf_value=-4.4282527547465289 -4.2495183823168414 -4.3761321474624335 -4.2874248910318258 -4.1690063979990786 -3.8927596032683174 -4.0672784322283482 -4.2492873669290816
leaf_count=50587 2512 10425 518 591 615 1002 760
internal_value=0 -0.369309 4.87554 0.817367 6.97107 5.26292 0.588715
internal_count=67010 62363 4647 11776 2135 1520 11185
shrinkage=1


Tree=1
num_leaves=8
num_cat=0
split_feature=3 3 4 0 4 8 0
split_gain=1101.96 171.23 162.536 66.0589 55.9141 54.5705 51.6289
threshold=87.833333333333357 93.333333333333357 134.83333333333334 57.500000000000007 137.83333333333334 1.0000000180025095e-35 49.500000000000007
decision_type=8 10 10 2 10 2 2
left_child=2 -2 3 5 -3 -1 -4
right_child=1 4 6 -5 -6 -7 -8
leaf_value=-0.036895386945488967 0.094807240118577205 0.080424799197752528 0.013788196886340327 0.0445786744467358 0.25418647369140523 0.035902945465246916 0.09813129836562183
leaf_count=49477 4183 478 3774 2329 2266 2222 2281
internal_value=0 3.11438 -0.438632 -0.604849 4.59843 -0.673876 0.934348
internal_count=67010 6927 60083 54028 2744 51699 6055
shrinkage=0.05


Tree=2
num_leaves=8
num_cat=0
split_feature=3 4 0 2 4 3 3
split_gain=887.618 157.792 107.881 71.3083 58.0563 34.316 31.6025
threshold=85.833333333333357 145.16666666666671 49.500000000000007 28.850000000000005 134.83333333333334 78.833333333333357 93.833333333333357
decision_type=8 8 2 10 10 10 10
left_child=2 6 5 4 -4 -1 -2
right_child=1 -3 3 -5 -6 -7 -8
leaf_value=-0.043639341269087785 0.055982754890742698 0.18067192578251545 -0.010155777746995711 0.15466776817986472 0.073832706483619504 -0.010994451227643746 0.12894083029953093
leaf_count=34262 5861 2629 12136 563 1663 8766 1130
internal_value=0 2.20412 -0.499521 0.185904 0.0423062 -0.737067 1.42669
internal_count=67010 9620 57390 14362 13799 43028 6991
shrinkage=0.05


Tree=3
num_leaves=8
num_cat=0
split_feature=3 0 4 4 2 3 0
split_gain=737.181 102.741 99.7819 58.5126 42.9931 33.9466 32.2378
threshold=85.833333333333357 49.500000000000007 142.83333333333334 136.83333333333334 28.850000000000005 78.833333333333357 44.500000000000007
decision_type=8 2 8 10 10 10 2
left_child=1 5 -2 4 -3 -1 -4
right_child=2 3 6 -5 -6 -7 -8
leaf_value=-0.043312954555684735 0.058746067115979808 -0.0078949314148535586 0.078007226608045654 0.08682553679037873 0.11792761829569982 -0.010564661164654619 0.15950648304630841
leaf_count=34262 6358 12598 972 1323 441 8766 2290
internal_value=0 -0.486721 1.88052 0.17546 -0.0414549 -0.726635 2.76444
internal_count=67010 57390 9620 14362 13039 43028 3262
shrinkage=0.05


Tree=4
num_leaves=8
num_cat=0
split_feature=3 0 3 4 0 7 7
split_gain=622.073 97.8011 78.1991 52.818 39.8566 38.4803 35.9805
threshold=85.833333333333357 49.500000000000007 93.333333333333357 117.25000000000001 57.500000000000007 1.0000000180025095e-35 1.0000000180025095e-35
decision_type=8 2 8 10 2 2 2
left_child=1 -1 5 -3 6 -2 -5
right_child=2 3 -4 4 -6 -7 -8
leaf_value=-0.035800207671920214 0.04744129519393471 -0.02666787382303375 0.12244300938928117 0.0052182037029427225 0.08524784772144961 0.19659847860108101 0.15127044132909229
leaf_count=43028 6650 5831 2761 6503 1781 209 247
internal_value=0 -0.473954 1.63099 0.165787 0.597413 1.08358 0.260605
internal_count=67010 57390 9620 14362 8531 6859 6750
shrinkage=0.05


Tree=5
num_leaves=8
num_cat=0
split_feature=4 3 0 3 2 8 7
split_gain=534.828 122.841 70.377 49.5014 46.3338 45.9019 45.8638
threshold=137.83333333333334 83.833333333333357 57.500000000000007 91.833333333333357 24.950000000000003 1.0000000180025095e-35 1.0000000180025095e-35
decision_type=8 10 2 10 8 2 2
left_child=1 2 -1 6 -5 -3 -2
right_child=3 5 -4 4 -6 -7 -8
leaf_value=-0.03415849879845443 0.042376554974162053 0.019024539690204387 0.045096936514180577 0.068136868241637116 0.14690861217215631 0.13736955188429645 0.20543352396852896
leaf_count=49789 4823 6661 2237 1382 1406 529 183
internal_value=0 -0.410149 -0.59829 1.62488 2.18066 0.591179 1.04672
internal_count=67010 59216 52026 7794 2788 7190 5006
shrinkage=0.05


Tree=6
num_leaves=8
num_cat=0
split_feature=4 4 0 4 8 6 4
split_gain=464.86 76.5718 69.3426 38.9712 33.0195 30.709 30.7436
threshold=132.83333333333334 142.83333333333334 50.500000000000007 117.25000000000001 1.0000000180025095e-35 8.4500000000000011 168.33333333333334
decision_type=8 8 2 10 2 10 10
left_child=2 -2 4 -4 -1 6 -3
right_child=1 5 3 -5 -6 -7 -8
leaf_value=-0.038001740431188216 0.031040857377757344 0.072009687082446094 -0.025766037672692713 0.029667232754105294 0.032882649131138843 0.25262446487714307 0.16424113969643811
leaf_count=41197 9278 3810 4902 6070 1425 63 265
internal_value=0 1.12516 -0.512832 0.131342 -0.704748 1.73894 1.63449
internal_count=67010 13416 53594 10972 42622 4138 4075
shrinkage=0.05


Tree=7
num_leaves=8
num_cat=0
split_feature=3 0 3 2 6 0 4
split_gain=420.619 77.5772 46.8896 39.2884 37.272 25.1919 23.1989
threshold=83.833333333333357 49.500000000000007 93.333333333333357 27.750000000000004 6.1500000000000012 57.500000000000007 145.16666666666671
decision_type=8 2 8 8 10 2 10
left_child=1 6 4 5 -2 -3 -1
right_child=2 3 -4 -5 -6 -7 -8
leaf_value=-0.037869925901910934 0.027296349091564004 -0.014460970000458019 0.080634610130842832 0.084541266245254876 0.10310486429673416 0.034707021028614352 0.093430213660270933
leaf_count=40754 9261 9939 2761 885 891 2348 171
internal_value=0 -0.499625 1.0456 0.0941214 0.718189 -0.0611031 -0.736209
internal_count=67010 54097 12913 13172 10152 12287 40925
shrinkage=0.05


Tree=8
num_leaves=8
num_cat=0
split_feature=3 4 0 8 5 0 0
split_gain=375.732 64.0608 61.6471 55.0736 27.4086 23.7359 21.5819
threshold=81.583333333333357 137.83333333333334 57.500000000000007 1.0000000180025095e-35 3.6526175687666376 49.500000000000007 42.500000000000007
decision_type=8 8 2 2 10 2 2
left_child=2 3 5 -2 6 -1 -3
right_child=1 4 -4 -5 -6 -7 -8
leaf_value=-0.03850023771262482 0.0077398571295170596 0.018166623981989063 0.037745889957564061 0.11303401071863105 0.13193215537565717 -0.011425182278722282 0.065668245915848661
leaf_count=38470 9693 1301 2256 758 450 9544 4538
internal_value=0 0.845279 -0.551013 0.353743 1.26069 -0.645778 1.13157
internal_count=67010 16740 50270 10451 6289 48014 5839
shrinkage=0.05


Tree=9
num_leaves=8
num_cat=0
split_feature=4 0 3 2 2 0 3
split_gain=341.124 52.9718 48.9331 40.2394 35.9866 32.785 19.9885
threshold=130.83333333333334 48.500000000000007 87.833333333333357 29.450000000000003 23.350000000000005 46.500000000000007 113.25000000000001
decision_type=8 2 8 10 10 2 10
left_child=1 -1 3 5 -3 -2 -4
right_child=2 4 6 -5 -6 -7 -8
leaf_value=-0.037695772211322698 -0.019607856646412646 -0.021914788548841418 0.054548447031154773 0.095854252015388719 0.026052292280724788 0.031044441715502261 0.15399704991091848
leaf_count=36765 4625 8883 5728 898 5405 4621 85
internal_value=0 -0.526085 0.8045 0.366392 -0.0546775 0.183658 1.16098
internal_count=67010 51053 15957 10144 14288 9246 5813
shrinkage=0.05


Tree=10
num_leaves=8
num_cat=0
split_feature=3 0 2 2 4 4 5
split_gain=306.326 56.1171 43.7093 31.8173 23.9423 23.503 20.545
threshold=81.583333333333357 49.500000000000007 25.150000000000002 28.850000000000005 135.83333333333334 168.33333333333334 1.0353461738677776
decision_type=8 2 10 8 8 10 8
left_child=1 -1 4 6 -2 -4 -3
right_child=2 3 5 -5 -6 -7 -8
leaf_value=-0.037612212770630718 -0.00066220500698701331 0.070287236289672414 0.051318043881271959 0.08991307527746828 0.034937767748323703 0.13883155625076254 -0.011085125174365357
leaf_count=38470 5998 632 6284 462 4324 134 10706
internal_value=0 -0.528115 0.719452 0.00341294 0.407444 1.13823 -0.121708
internal_count=67010 50270 16740 11800 10322 6418 11338
shrinkage=0.05


Tree=11
num_leaves=8
num_cat=0
split_feature=4 0 4 2 2 0 3
split_gain=278.616 49.5728 35.799 31.5871 29.14 21.1159 19.2778
threshold=130.83333333333334 48.500000000000007 139.83333333333334 23.350000000000005 30.750000000000004 44.500000000000007 87.833333333333357
decision_type=8 2 8 10 10 2 10
left_child=1 -1 4 -3 6 -4 -2
right_child=2 3 5 -5 -6 -7 -8
leaf_value=-0.036787632202152434 -0.0012551440591609573 -0.021086772729896577 0.020625939743262985 0.02369905998884329 0.095622836719920959 0.059920278144778731 0.037871034052445636
leaf_count=36765 7754 8883 1761 5405 556 3858 2028
internal_value=0 -0.503083 0.687639 -0.050858 0.33489 0.991631 0.215928
internal_count=67010 51053 15957 14288 10338 5619 9782
shrinkage=0.05


Tree=12
num_leaves=8
num_cat=0
split_feature=3 0 2 3 0 6 0
split_gain=254.4 47.0063 41.4613 37.1497 20.8714 19.3229 16.9403
threshold=79.833333333333357 57.500000000000007 26.950000000000003 87.833333333333357 45.500000000000007 7.1500000000000012 49.500000000000007
decision_type=8 2 8 10 2 10 2
left_child=1 6 3 4 -2 -6 -1
right_child=2 -3 -4 -5 5 -7 -8
leaf_value=-0.039275645822719543 -0.0247430702155719 0.03176971840687931 0.054347634795858704 0.035296331036553295 0.0095615800097563017 0.1270972635623791 -0.014291657593168833
leaf_count=35514 4875 1965 4577 4986 6525 136 8432
internal_value=0 -0.568517 0.553834 0.359617 -0.000633972 0.284812 -0.664384
internal_count=67010 45911 21099 16522 11536 6661 43946
shrinkage=0.05


Tree=13
num_leaves=8
num_cat=0
split_feature=3 4 8 0 0 3 5
split_gain=231.354 44.2122 42.5688 38.2452 21.5095 20.0553 17.5298
threshold=77.833333333333357 139.83333333333334 1.0000000180025095e-35 57.500000000000007 58.500000000000007 87.833333333333357 3.6526175687666376
decision_type=8 8 2 2 2 10 10
left_child=3 2 4 -1 5 -2 -3
right_child=1 6 -4 -5 -6 -7 -8
leaf_value=-0.035417794524590034 -0.0095850106979001818 0.036588592801463496 0.071706302907919184 0.027813456391481764 0.059886552385502473 0.023581715758743807 0.091290619388226801
leaf_count=40064 14858 4950 1386 1670 823 2880 379
internal_value=0 0.463204 0.198864 -0.616544 0.0693162 -0.00928858 0.831617
internal_count=67010 25276 19947 41734 18561 17738 5329
shrinkage=0.05


Tree=14
num_leaves=8
num_cat=0
split_feature=3 2 0 0 7 3 4
split_gain=210.913 40.7966 35.9405 30.2179 18.9193 27.724 17.1758
threshold=77.833333333333357 25.150000000000002 57.500000000000007 44.500000000000007 1.0000000180025095e-35 91.833333333333357 130.83333333333334
decision_type=8 8 2 2 2 8 10
left_child=2 3 -1 -2 5 -3 -5
right_child=1 4 -4 6 -6 -7 -8
leaf_value=-0.034872605513780859 -0.018729750177070646 0.018100596847627097 0.025781850240277515 -0.003464678142773338 0.094904307340999708 0.057961721542130411 0.028634058529000847
leaf_count=40064 5588 7009 1670 5222 445 1604 5408
internal_value=0 0.430887 -0.604302 0.176419 0.776554 0.685052 0.379078
internal_count=67010 25276 41734 16218 9058 8613 10630
shrinkage=0.05


Tree=15
num_leaves=8
num_cat=0
split_feature=3 0 2 0 8 3 2
split_gain=192.395 35.5873 34.6143 27.0757 16.8301 27.1183 15.1113
threshold=77.833333333333357 49.500000000000007 25.150000000000002 44.500000000000007 1.0000000180025095e-35 90.833333333333357 29.050000000000004
decision_type=8 2 8 2 2 8 10
left_child=1 -1 3 -2 5 -4 -3
right_child=2 6 4 -5 -6 -7 -8
leaf_value=-0.04026015672304286 -0.018133997070191001 -0.0089764088517566148 0.012425611901866286 0.017686149897976872 0.073300634229785319 0.051831716969996326 0.076259748091957777
leaf_count=32729 5588 8778 6434 10630 934 1690 227
internal_value=0 -0.591954 0.401257 0.166019 0.712386 0.597229 -0.0869681
internal_count=67010 41734 25276 16218 9058 8124 9005
shrinkage=0.05


Tree=16
num_leaves=8
num_cat=0
split_feature=4 0 2 0 7 8 2
split_gain=177.112 43.1096 27.6078 21.3317 21.11 18.5222 17.9005
threshold=130.83333333333334 48.500000000000007 21.150000000000002 44.500000000000007 1.0000000180025095e-35 1.0000000180025095e-35 29.150000000000002
decision_type=8 2 8 2 2 2 10
left_child=1 -1 -3 5 6 -2 -4
right_child=3 2 4 -5 -6 -7 -8
leaf_value=-0.034602677812636866 0.00033272105059255289 -0.034898527188521239 0.00084735325303587699 0.032047457530795513 0.10436703419397725 0.084564877390414642 0.08029539311372294
leaf_count=36765 5606 4469 9141 10117 320 234 358
internal_value=0 -0.448992 -0.0327057 0.490806 0.228114 0.114307 0.127606
internal_count=67010 51053 14288 15957 9819 5840 9499
shrinkage=0.05


Tree=17
num_leaves=8
num_cat=0
split_feature=3 0 2 0 0 2 4
split_gain=164.699 33.7351 28.3002 21.9888 14.1691 13.4851 16.041
threshold=77.833333333333357 49.500000000000007 25.150000000000002 44.500000000000007 40.500000000000007 21.050000000000004 136.16666666666671
decision_type=8 2 8 2 2 10 8
left_child=1 -1 3 -2 -4 6 -3
right_child=2 5 4 -5 -6 -7 -8
leaf_value=-0.039514917318191844 -0.017161055469401384 -0.04044540211957897 0.0016803806810697511 0.015325252924839258 0.037052258606302367 0.0083139662443883072 0.095729966680492648
leaf_count=32729 5588 3024 1771 10630 7287 5911 70
internal_value=0 -0.57056 0.3565 0.14397 0.629626 -0.0823863 -0.626359
internal_count=67010 41734 25276 16218 9058 9005 3094
shrinkage=0.05


Tree=18
num_leaves=8
num_cat=0
split_feature=3 0 4 6 8 0 3
split_gain=150.469 32.7847 26.2732 23.7537 16.3624 21.3555 17.6429
threshold=77.833333333333357 49.500000000000007 156.25000000000003 6.3500000000000005 1.0000000180025095e-35 41.500000000000007 87.833333333333357
decision_type=8 2 10 10 2 2 8
left_child=1 -1 3 4 5 -2 -7
right_child=2 -3 -4 -5 -6 6 -8
leaf_value=-0.039073601833417293 -0.019853685811382152 -0.0039144093707528345 0.048198968256905221 0.049473597700022909 0.041139192574583851 -0.00032796534430936378 0.023927174333276804
leaf_count=32729 5094 9005 974 1399 1453 12077 4279
internal_value=0 -0.557993 0.332919 0.248424 0.175018 0.11174 0.225666
internal_count=67010 41734 25276 24302 22903 21450 16356
shrinkage=0.05


Tree=19
num_leaves=8
num_cat=0
split_feature=3 0 4 8 0 4 0
split_gain=137.636 31.8008 23.0516 19.9172 15.5411 12.9019 14.1112
threshold=77.833333333333357 49.500000000000007 132.83333333333334 1.0000000180025095e-35 58.500000000000007 156.25000000000003 59.500000000000007
decision_type=8 2 8 2 2 10 2
left_child=1 -1 3 4 -2 -4 -7
right_child=2 -3 5 -5 -6 6 -8
leaf_value=-0.038620905544124465 -0.010371944133775384 -0.0037351335268202192 0.018353705935610445 0.050101955875620954 0.052329792962873413 0.051532410755853554 -0.029395571903769343
leaf_count=32729 12389 9005 10478 899 536 882 92
internal_value=0 -0.545408 0.311553 0.00241265 -0.118201 0.459324 0.879205
internal_count=67010 41734 25276 13824 12925 11452 974
shrinkage=0.05


Tree=20
num_leaves=8
num_cat=0
split_feature=3 0 2 0 0 4 0
split_gain=125.958 31.2435 21.9867 17.6918 11.5599 11.264 11.8399
threshold=77.833333333333357 57.500000000000007 25.150000000000002 44.500000000000007 49.500000000000007 168.33333333333334 40.500000000000007
decision_type=8 2 8 2 2 10 2
left_child=1 4 3 -2 -1 6 -4
right_child=2 -3 5 -5 -6 -7 -8
leaf_value=-0.038156852779573654 -0.016816127357480528 0.024818817133661953 -0.0046012241042440857 0.012278983054947571 -0.014243498448687329 0.071859354270982487 0.028203403076010165
leaf_count=32729 5588 1670 1745 10630 7335 134 7179
internal_value=0 -0.532782 0.291866 0.105903 -0.636298 0.523512 0.466124
internal_count=67010 41734 25276 16218 40064 9058 8924
shrinkage=0.05


Tree=21
num_leaves=8
num_cat=0
split_feature=4 0 2 4 8 2 6
split_gain=116.915 34.8301 23.3266 16.3728 15.099 16.0747 12.4456
threshold=130.83333333333334 48.500000000000007 21.150000000000002 117.25000000000001 1.0000000180025095e-35 26.950000000000003 6.5500000000000007
decision_type=8 2 8 10 2 8 10
left_child=1 4 -3 -4 -1 -6 -2
right_child=6 2 3 -5 5 -7 -8
leaf_value=-0.03489642440053585 0.015542462507026039 -0.033764123435776471 -0.015669274863589565 0.02331841464461893 -0.018970751764380088 0.1025379916895116 0.046368198759348583
leaf_count=35718 15053 4469 4123 5696 775 272 904
internal_value=0 -0.398081 -0.0341685 0.19436 -0.643163 0.509967 0.36612
internal_count=67010 51053 14288 9819 36765 1047 15957
shrinkage=0.05


Tree=22
num_leaves=8
num_cat=0
split_feature=3 4 2 0 0 8 2
split_gain=108.348 22.8005 24.3487 19.4031 16.7665 22.2233 14.4128
threshold=75.833333333333357 137.83333333333334 32.95000000000001 49.500000000000007 58.500000000000007 1.0000000180025095e-35 29.050000000000004
decision_type=8 8 10 2 2 2 10
left_child=3 2 4 -1 5 -2 -5
right_child=1 -3 -4 6 -6 -7 -8
leaf_value=-0.038021852591494279 -0.0094664262137719793 0.021940942613000836 0.091371993193794215 -0.013310534237444131 0.043132093173688373 0.037707566161966459 0.072174128368216073
leaf_count=29636 19618 7352 353 7578 929 1358 186
internal_value=0 0.237297 0.0337872 -0.561624 -0.0150103 -0.0850644 -0.159632
internal_count=67010 29610 22258 37400 21905 20976 7764
shrinkage=0.05


Tree=23
num_leaves=8
num_cat=0
split_feature=3 4 0 8 0 2 6
split_gain=99.5908 20.3065 18.9106 18.0355 13.6055 12.701 12.1373
threshold=75.833333333333357 131.16666666666671 49.500000000000007 1.0000000180025095e-35 50.500000000000007 29.050000000000004 6.2500000000000009
decision_type=8 8 2 2 2 10 10
left_child=2 3 -1 4 -2 6 -4
right_child=1 -3 5 -5 -6 -7 -8
leaf_value=-0.037544744002826834 -0.020239951439431116 0.017480996177735957 -0.018828356990065746 0.041677222719708758 0.010375529049626311 0.065399065643502008 0.050844164186952784
leaf_count=29636 11293 13166 7119 1038 4113 186 459
internal_value=0 0.223193 -0.549002 -0.0622327 -0.177389 -0.152428 -0.256428
internal_count=67010 29610 37400 16444 15406 7764 7578
shrinkage=0.05


Tree=24
num_leaves=8
num_cat=0
split_feature=3 2 0 0 2 4 5
split_gain=91.476 19.1288 18.9896 18.4173 11.3213 9.73409 9.6979
threshold=75.833333333333357 24.950000000000003 44.500000000000007 49.500000000000007 21.050000000000004 168.33333333333334 1.0353461738677776
decision_type=8 8 2 2 10 10 8
left_child=3 2 -2 -1 -5 -3 -6
right_child=1 5 -4 4 6 -7 -8
leaf_value=-0.037056488830078851 -0.020248152881125716 0.017927001953515764 0.0089264100722975023 -0.034808056996491414 0.097892009939870947 0.060274544595948221 0.00070619460747896497
leaf_count=29636 6826 10697 11949 2807 148 138 4809
internal_value=0 0.209842 0.0386118 -0.536285 -0.145193 0.406754 0.107657
internal_count=67010 29610 18775 37400 7764 10835 4957
shrinkage=0.05


Tree=25
num_leaves=8
num_cat=0
split_feature=3 0 3 2 0 6 7
split_gain=84.0524 18.0907 17.9428 19.8143 15.6074 12.5607 11.7612
threshold=75.833333333333357 57.500000000000007 85.833333333333357 29.950000000000003 47.500000000000007 8.4500000000000011 1.0000000180025095e-35
decision_type=8 2 8 8 2 10 2
left_child=1 -1 3 4 -2 -4 -6
right_child=2 -3 5 -5 6 -7 -8
leaf_value=-0.030870122393413475 -0.021019194016414423 0.016152103461296891 0.015611786260622325 0.045921121155422615 0.0022828404189359441 0.079880227804322829 0.066439060736336097
leaf_count=35963 10687 1437 9505 1149 7900 115 254
internal_value=0 -0.52356 0.197482 -0.018173 -0.109102 0.342608 0.126714
internal_count=67010 37400 29610 19990 18841 9620 8154
shrinkage=0.05


Tree=26
num_leaves=8
num_cat=0
split_feature=4 0 8 2 3 2 4
split_gain=77.4659 22.6379 17.5628 13.9998 13.9099 12.8775 10.2586
threshold=118.83333333333336 44.500000000000007 1.0000000180025095e-35 21.250000000000004 93.833333333333357 28.150000000000002 168.33333333333334
decision_type=8 2 2 8 10 10 8
left_child=-1 2 4 -3 5 -2 -5
right_child=1 3 -4 6 -6 -7 -8
leaf_value=-0.029587521065972205 -0.027183807780807614 -0.0067403577298233708 0.051107760583603716 0.015993225244286095 0.014734088716613991 0.011852001466969225 0.056634813426817227
leaf_count=30045 12596 4261 535 16790 776 1836 171
internal_value=0 0.160073 -0.141404 0.280649 -0.224966 -0.383812 0.356215
internal_count=67010 36965 15743 21222 15208 14432 16961
shrinkage=0.05


Tree=27
num_leaves=8
num_cat=0
split_feature=3 0 2 4 5 2 6
split_gain=72.2886 17.8773 15.0881 11.9275 11.1906 10.9632 10.8036
threshold=75.833333333333357 49.500000000000007 23.350000000000005 130.83333333333334 1.6334983498349838 29.050000000000004 6.2500000000000009
decision_type=8 2 8 10 8 10 10
left_child=1 -1 3 -2 -5 6 -3
right_child=2 5 -4 4 -6 -7 -8
leaf_value=-0.035779666893245771 -0.01890665369600782 -0.016887702189119277 0.01480576565051823 -0.011766671720925943 0.017645841356701133 0.060592546078414904 0.048222637016578355
leaf_count=29636 7725 7119 16492 2041 3352 186 459
internal_value=0 -0.500778 0.177677 -0.041186 0.130695 -0.112215 -0.216124
internal_count=67010 37400 29610 13118 5393 7764 7578
shrinkage=0.05


Tree=28
num_leaves=8
num_cat=0
split_feature=4 0 3 8 5 3 2
split_gain=67.5072 22.3284 17.2014 17.3219 13.6871 12.8317 13.0423
threshold=117.25000000000001 44.500000000000007 81.833333333333357 1.0000000180025095e-35 2.2713075060532693 114.50000000000001 21.250000000000004
decision_type=8 2 10 2 8 8 8
left_child=-1 2 -2 -4 -5 6 -3
right_child=1 5 3 4 -6 -7 -8
leaf_value=-0.029939606243251343 -0.028683210828660807 -0.0083474678538945912 -0.002420921212635381 0.15252392880318519 0.022937638516365603 0.080222025135514574 0.015230022321194912
leaf_count=28210 11193 4515 5223 68 185 59 17557
internal_value=0 0.137497 -0.15953 0.068328 1.3188 0.254445 0.233214
internal_count=67010 38800 16669 5476 253 22131 22072
shrinkage=0.05


Tree=29
num_leaves=8
num_cat=0
split_feature=4 0 3 8 4 6 5
split_gain=62.4982 19.9009 16.1382 15.2755 11.0435 12.5768 15.2587
threshold=117.25000000000001 44.500000000000007 81.833333333333357 1.0000000180025095e-35 139.83333333333334 8.0500000000000025 2.140735035211268
decision_type=8 2 10 2 8 8 8
left_child=-1 2 -2 -4 -3 -6 -7
right_child=1 4 3 -5 5 6 -8
leaf_value=-0.029322502644693511 -0.028061957112020142 0.0052814808534272679 -0.0023062419701530275 0.060589170506531169 0.015087728180466303 0.0077551783171862501 0.076836996703351895
leaf_count=28210 11193 18273 5223 253 3206 289 363
internal_value=0 0.130063 -0.152344 0.066029 0.239064 0.41738 0.976458
internal_count=67010 38800 16669 5476 22131 3858 652
shrinkage=0.05


Tree=30
num_leaves=8
num_cat=0
split_feature=4 0 2 5 2 3 2
split_gain=57.8217 17.8061 15.6197 12.0739 10.7233 10.5177 9.90877
threshold=117.25000000000001 44.500000000000007 25.150000000000002 2.3660254208175888 21.250000000000004 88.833333333333357 35.850000000000001
decision_type=8 2 10 8 8 10 10
left_child=-1 2 5 6 -3 -2 -4
right_child=1 4 3 -5 -6 -7 -8
leaf_value=-0.028700737087524776 -0.032275377119086637 -0.0068265790021575668 0.023528429318834476 -0.0055887810989983678 0.014380882228140011 0.0067950812431114786 0.12994638576917328
leaf_count=28210 10347 4524 1922 3570 17607 780 50
internal_value=0 0.122934 -0.145906 0.146593 0.224829 -0.44311 0.65739
internal_count=67010 38800 16669 5542 22131 11127 1972
shrinkage=0.05


Tree=31
num_leaves=8
num_cat=0
split_feature=3 0 0 6 5 2 5
split_gain=53.7472 16.9664 12.5672 11.6722 10.9815 10.2695 9.01775
threshold=75.833333333333357 49.500000000000007 34.500000000000007 8.4500000000000011 1.7117014341590615 21.050000000000004 1.4031054405392396
decision_type=8 2 2 10 8 10 8
left_child=1 -1 -2 4 -4 -3 -7
right_child=2 5 3 -5 -6 6 -8
leaf_value=-0.034101887621651589 -0.031575747425514382 -0.032360123457258555 -0.0047485083321446714 0.057126926314681248 0.011483512757405022 0.057626345332023869 -0.00036350565440777067
leaf_count=29636 1603 2807 7709 261 20037 650 4307
internal_value=0 -0.456383 0.145129 0.172038 0.150885 -0.0752088 0.162688
internal_count=67010 37400 29610 28007 27746 7764 4957
shrinkage=0.05


Tree=32
num_leaves=8
num_cat=0
split_feature=4 6 0 4 2 8 2
split_gain=50.4734 16.0134 15.7165 24.0507 12.2585 12.2313 9.80797
threshold=117.25000000000001 12.15 50.500000000000007 132.83333333333334 20.150000000000002 1.0000000180025095e-35 27.650000000000002
decision_type=8 10 2 10 8 2 10
left_child=6 2 3 5 -5 -2 -1
right_child=1 -3 -4 4 -6 -7 -8
leaf_value=-0.030631506982982695 -0.022525265773729316 0.14635437813249039 0.014449870190898419 -0.037377995264277077 0.010875246512706696 0.025434428641394558 0.028786358256338018
leaf_count=27227 18431 26 10568 683 8204 888 983
internal_value=0 0.111485 0.102634 -0.0263257 0.163439 -0.352842 -0.552267
internal_count=67010 38800 38774 28206 8887 19319 28210
shrinkage=0.05


Tree=33
num_leaves=8
num_cat=0
split_feature=4 4 0 8 3 5 5
split_gain=46.6525 14.2717 17.1834 20.0605 11.2459 10.2164 10.7634
threshold=117.25000000000001 137.83333333333334 57.500000000000007 1.0000000180025095e-35 83.833333333333357 3.6526175687666376 3.9518002322880381
decision_type=8 8 2 2 10 8 8
left_child=-1 2 3 4 -2 -3 -7
right_child=1 5 -4 -5 -6 6 -8
leaf_value=-0.026980676148365253 -0.019538800707590877 0.0098239447938521865 0.029563711364581753 0.028633977678880887 0.0014307378359189311 0.074367323948020064 0.014013996776579911
leaf_count=28210 21524 7160 1697 1741 6044 239 395
internal_value=0 0.105489 -0.0389837 -0.119794 -0.2162 0.255583 0.799463
internal_count=67010 38800 31006 29309 27568 7794 634
shrinkage=0.05


Tree=34
num_leaves=8
num_cat=0
split_feature=4 6 0 8 2 3 0
split_gain=43.1143 14.0046 14.0138 14.1547 10.42 10.0476 9.61016
threshold=117.25000000000001 12.15 41.500000000000007 1.0000000180025095e-35 30.050000000000004 114.50000000000001 39.500000000000007
decision_type=8 10 2 2 8 10 2
left_child=-1 2 3 -2 5 -4 -5
right_child=1 -3 4 6 -6 -7 -8
leaf_value=-0.026347637470803084 -0.017183319369289241 0.13196185334173721 0.0045593920906176564 -0.021969821409274899 0.02836614565429767 0.063030092951675429 0.092499950253279617
leaf_count=28210 10672 26 26208 101 1558 55 180
internal_value=0 0.0998443 0.091351 -0.244444 0.154476 0.108781 1.08202
internal_count=67010 38800 38774 10953 27821 26263 281
shrinkage=0.05


Tree=35
num_leaves=8
num_cat=0
split_feature=3 0 0 2 0 2 4
split_gain=40.1494 15.9244 10.6864 10.0774 9.56439 9.45926 8.65758
threshold=75.833333333333357 49.500000000000007 31.500000000000004 24.950000000000003 50.500000000000007 21.050000000000004 132.83333333333334
decision_type=8 2 2 8 2 10 10
left_child=1 -1 -2 4 6 -3 -4
right_child=2 5 3 -5 -6 -7 -8
leaf_value=-0.032402693334769056 -0.039457241250003751 -0.030916976037001422 -0.022085511564352407 0.01370801401556032 0.0099791191422635532 0.0091017431976203548 0.0014622622105646625
leaf_count=29636 1042 2807 8068 10418 6069 4957 4013
internal_value=0 -0.413694 0.119897 0.139041 0.0138706 -0.0429931 -0.151482
internal_count=67010 37400 29610 28568 18150 7764 12081
shrinkage=0.05


Tree=36
num_leaves=8
num_cat=0
split_feature=4 6 0 8 2 4 2
split_gain=37.4213 12.3781 11.8178 12.4831 9.52724 9.51616 9.12896
threshold=117.25000000000001 12.15 41.500000000000007 1.0000000180025095e-35 27.650000000000002 158.33333333333334 23.350000000000005
decision_type=8 10 2 2 10 10 8
left_child=4 2 3 5 -1 -2 -4
right_child=1 -3 6 -5 -6 -7 -8
leaf_value=-0.028472097784573228 -0.021297831135939319 0.12021224614657688 -0.001585375851826205 0.04926127863635741 0.030845270779088808 0.032376275832333372 0.01170875695085225
leaf_count=27227 10549 26 13026 281 983 123 14795
internal_value=0 0.0905698 0.0823989 -0.229646 -0.504344 -0.327065 0.139287
internal_count=67010 38800 38774 10953 28210 10672 27821
shrinkage=0.05


Tree=37
num_leaves=8
num_cat=0
split_feature=4 6 4 2 0 5 2
split_gain=34.5526 11.4636 11.2804 17.2323 18.6645 12.9174 9.97169
threshold=117.25000000000001 8.4500000000000011 135.83333333333334 32.45000000000001 50.500000000000007 2.5839743589743596 20.950000000000003
decision_type=8 10 8 10 2 8 10
left_child=-1 2 3 4 -2 -5 -6
right_child=1 -3 -4 5 6 -7 -8
leaf_value=-0.024580036965643336 -0.017025701396713385 0.048089026838579775 0.0091128411339398314 0.12911208969834001 -0.02545012473778805 0.0048083787114224022 0.01524910426185604
leaf_count=28210 21192 313 9904 173 1390 283 5545
internal_value=0 0.0859239 0.0662116 -0.0822168 -0.124557 1.31912 0.182922
internal_count=67010 38800 38487 28583 28127 456 6935
shrinkage=0.05


Tree=38
num_leaves=8
num_cat=0
split_feature=3 0 0 5 2 5 6
split_gain=32.2704 14.8718 9.57102 8.92352 8.40373 7.95522 7.84915
threshold=75.833333333333357 49.500000000000007 31.500000000000004 1.7117014341590615 21.050000000000004 1.0353461738677776 5.4500000000000011
decision_type=8 2 2 8 10 8 10
left_child=1 -1 -2 -4 -3 -6 -7
right_child=2 4 3 -5 5 6 -8
leaf_value=-0.031073092742241178 -0.038862094400473668 -0.029560809987454424 -0.0048887630536379378 0.0094434482768593429 0.090593044823293126 -0.019437272200528044 0.020251717551248067
leaf_count=29636 1042 2807 7877 20691 148 2151 2658
internal_value=0 -0.382966 0.104206 0.121686 -0.0253588 0.181491 0.0870168
internal_count=67010 37400 29610 28568 7764 4957 4809
shrinkage=0.05


Tree=39
num_leaves=8
num_cat=0
split_feature=4 6 0 4 2 6 2
split_gain=29.9695 10.4428 9.93622 16.2944 10.3873 10.2419 9.45589
threshold=117.25000000000001 12.15 50.500000000000007 132.83333333333334 20.150000000000002 5.5500000000000007 24.650000000000002
decision_type=8 10 2 10 8 10 10
left_child=6 2 3 5 -5 -2 -1
right_child=1 -3 -4 4 -6 -7 -8
leaf_value=-0.030061242644161656 -0.024876517661814909 0.10594227192929073 0.010644550270430393 -0.036908170274600492 0.0081250601897136805 0.0049510502230415213 0.0067569686456296647
leaf_count=24174 14604 26 10568 683 8204 4715 4036
internal_value=0 0.078065 0.0703384 -0.0335857 0.115273 -0.314721 -0.469272
internal_count=67010 38800 38774 28206 8887 19319 28210
shrinkage=0.05


Tree=40
num_leaves=8
num_cat=0
split_feature=3 0 2 4 0 2 3
split_gain=27.8899 12.4061 12.0224 10.2696 6.70467 7.11015 7.87621
threshold=68.833333333333357 57.500000000000007 23.350000000000005 130.83333333333334 31.500000000000004 29.950000000000003 90.833333333333357
decision_type=8 2 8 10 2 10 8
left_child=1 -1 3 -2 -4 6 -6
right_child=2 -3 4 -5 5 -7 -8
leaf_value=-0.033442877395753488 -0.017813796743774993 0.027584957145987122 -0.031898675881028654 0.0027198598317710416 0.00043512058213524994 0.023088012374670189 0.015534220839564487
leaf_count=20730 16778 695 1067 6128 17225 2204 2183
internal_value=0 -0.540786 0.0624356 -0.112785 0.159928 0.178207 0.121104
internal_count=67010 21425 45585 22906 22679 21612 19408
shrinkage=0.05


Tree=41
num_leaves=8
num_cat=0
split_feature=3 0 2 4 5 0 2
split_gain=25.8235 11.7404 10.8069 9.47329 6.27192 9.37805 7.57745
threshold=68.833333333333357 54.500000000000007 23.350000000000005 130.83333333333334 1.6095655487804881 57.500000000000007 21.950000000000003
decision_type=8 2 8 10 8 2 10
left_child=1 -1 3 -2 5 -5 -7
right_child=2 -3 -4 4 -6 6 -8
leaf_value=-0.034588954884546851 -0.017235461206854621 0.015642886376059553 0.0075421410049881597 -0.019217169695947361 0.010107805867389248 0.070533004946314357 -0.033840362563007285
leaf_count=20053 16778 1372 22679 2120 3824 136 48
internal_value=0 -0.528218 0.0590874 -0.107866 0.0515643 -0.223116 0.822004
internal_count=67010 21425 45585 22906 6128 2304 184
shrinkage=0.05


Tree=42
num_leaves=8
num_cat=0
split_feature=4 6 0 2 5 2 3
split_gain=23.9589 9.23835 8.96789 10.2202 11.2041 8.71943 8.55673
threshold=117.25000000000001 12.15 44.500000000000007 25.150000000000002 2.3660254208175888 24.650000000000002 114.50000000000001
decision_type=8 10 2 10 8 10 10
left_child=5 2 3 -2 -5 -1 -4
right_child=1 -3 6 4 -6 -7 -8
leaf_value=-0.028505038972251609 -0.019857791008762268 0.096730050611835733 0.0055458900095206633 0.028325728652742743 -0.0079189671031561111 0.0071786217071400458 0.058905068164005141
leaf_count=24174 11123 26 22063 1972 3566 4036 50
internal_value=0 0.0671571 0.0597614 -0.136214 0.0884141 -0.435013 0.127359
internal_count=67010 38800 38774 16661 5538 28210 22113
shrinkage=0.05


Tree=43
num_leaves=8
num_cat=0
split_feature=3 0 2 3 5 0 2
split_gain=22.6467 11.1608 9.30265 11.8493 13.4968 16.7108 11.7474
threshold=68.833333333333357 54.500000000000007 29.950000000000003 85.833333333333357 1.0353461738677776 50.500000000000007 22.950000000000003
decision_type=8 2 10 8 8 2 8
left_child=1 -1 3 4 5 -2 -7
right_child=2 -3 -4 -5 -6 6 -8
leaf_value=-0.033725854216436507 -0.012731068308026283 0.015382404883346554 0.018815644622241161 0.0069941037630096119 -0.0091904749808739972 0.12946934912172767 -0.013618684745153882
leaf_count=20053 1391 1372 2404 8706 32630 362 92
internal_value=0 -0.506755 0.0540589 0.0132087 -0.135379 0.815717 1.88189
internal_count=67010 21425 45585 43181 34475 1845 454
shrinkage=0.05


Tree=44
num_leaves=8
num_cat=0
split_feature=3 0 2 4 0 6 4
split_gain=20.9624 10.6123 8.95285 8.05533 6.02154 7.0413 10.0422
threshold=68.833333333333357 57.500000000000007 23.350000000000005 130.83333333333334 31.500000000000004 5.0500000000000007 131.83333333333334
decision_type=8 2 8 10 2 8 10
left_child=1 -1 3 -2 -4 6 -6
right_child=2 -3 4 -5 5 -7 -8
leaf_value=-0.031427829761780435 -0.016247659368420649 0.024341941121924379 -0.03149926462501515 0.0021602570995625566 -0.019497813285601517 0.0061382549924224247 0.056607694826636412
leaf_count=20730 16778 695 1067 6128 700 20498 414
internal_value=0 -0.49423 0.0513229 -0.101754 0.133749 0.150585 0.717806
internal_count=67010 21425 45585 22906 22679 21612 1114
shrinkage=0.05


Tree=45
num_leaves=8
num_cat=0
split_feature=3 0 6 8 4 0 2
split_gain=19.3757 10.1541 8.69482 8.14212 12.7782 14.0301 10.4159
threshold=68.833333333333357 54.500000000000007 12.15 1.0000000180025095e-35 135.83333333333334 58.500000000000007 33.750000000000007
decision_type=8 2 10 2 8 2 10
left_child=1 -1 3 4 5 -2 -5
right_child=2 -3 -4 6 -6 -7 -8
leaf_value=-0.03263091501434065 -0.011310659641390181 0.014117087771517801 0.091731989248986512 0.01226567864968719 0.0065247755233324494 0.02775602026749166 0.087578121995677896
leaf_count=20053 32480 1372 25 2762 9060 1185 73
internal_value=0 -0.481644 0.0485854 0.0416684 0.00318151 -0.156272 0.340405
internal_count=67010 21425 45585 45560 42725 33665 2835
shrinkage=0.05


Tree=46
num_leaves=8
num_cat=0
split_feature=3 0 2 4 5 0 0
split_gain=17.9294 9.59085 7.80655 7.04186 5.73208 8.04005 6.62771
threshold=68.833333333333357 54.500000000000007 23.350000000000005 130.83333333333334 1.6095655487804881 57.500000000000007 59.500000000000007
decision_type=8 2 8 10 8 2 2
left_child=1 -1 3 -2 5 -5 -7
right_child=2 -3 -4 4 -6 6 -8
leaf_value=-0.032056611795211486 -0.015475148999778823 0.013284165427629391 0.0061307167055951496 -0.019007110472478356 0.0089396715957963755 0.078836204123111125 -0.010145201397555453
leaf_count=20053 16778 1372 22679 2120 3824 86 98
internal_value=0 -0.46917 0.0463102 -0.097347 0.0366917 -0.226122 0.709427
internal_count=67010 21425 45585 22906 6128 2304 184
shrinkage=0.05


Tree=47
num_leaves=8
num_cat=0
split_feature=4 2 6 0 2 3 4
split_gain=16.6825 8.0127 7.86594 7.27134 8.82466 8.61438 7.02571
threshold=117.25000000000001 27.650000000000002 8.4500000000000011 44.500000000000007 29.050000000000004 88.833333333333357 168.33333333333334
decision_type=8 10 10 2 10 10 8
left_child=1 -1 3 4 5 -2 -5
right_child=2 -3 -4 6 -6 -7 -8
leaf_value=-0.022808343568213825 -0.023243666410272413 0.032205519039250376 0.03708460311605382 0.0035882731183965928 0.012983353688537142 0.0035038523887977895 0.032395208741612412
leaf_count=27227 13584 983 313 21704 1719 1279 201
internal_value=0 -0.381728 0.0534975 0.036734 -0.141881 -0.270003 0.0974725
internal_count=67010 28210 38800 38487 16582 14863 21905
shrinkage=0.05


Tree=48
num_leaves=8
num_cat=0
split_feature=3 0 6 8 4 0 2
split_gain=15.6469 9.06468 7.4242 7.00006 10.3682 12.6119 8.64381
threshold=68.833333333333357 54.500000000000007 12.15 1.0000000180025095e-35 135.83333333333334 57.500000000000007 33.750000000000007
decision_type=8 2 10 2 8 2 10
left_child=1 -1 3 4 5 -2 -5
right_child=2 -3 -4 6 -6 -7 -8
leaf_value=-0.031137785598177644 -0.011282194103272991 0.013091727034681814 0.082183761754700838 0.011088994469209223 0.0056491322837663761 0.02102088414609829 0.077440627196068285
leaf_count=20053 31983 1372 25 2762 9060 1682 73
internal_value=0 -0.44775 0.0423784 0.0358242 -0.000118927 -0.145488 0.309694
internal_count=67010 21425 45585 45560 42725 33665 2835
shrinkage=0.05


Tree=49
num_leaves=8
num_cat=0
split_feature=3 0 6 2 4 5 0
split_gain=14.4589 8.57278 6.67784 6.46778 6.7298 6.4852 6.2313
threshold=68.833333333333357 57.500000000000007 12.15 23.350000000000005 130.83333333333334 3.9518002322880381 30.500000000000004
decision_type=8 2 10 8 10 10 2
left_child=1 -1 3 4 -2 6 -5
right_child=2 -3 -4 5 -6 -7 -8
leaf_value=-0.028756376148057046 -0.015476987682763569 0.020763653854005387 0.076574187133624586 -0.038056577570033188 0.0015907633434513763 -0.01810928181016162 0.0074033187767861483
leaf_count=20730 16774 695 25 856 6125 1212 20593
internal_value=0 -0.435438 0.0404032 0.0340811 -0.097615 0.102957 0.132531
internal_count=67010 21425 45585 45560 22899 22661 21449
shrinkage=0.05


Tree=50
num_leaves=8
num_cat=0
split_feature=3 0 2 0 3 3 8
split_gain=13.3347 8.1923 6.46964 8.44508 8.67945 7.24116 6.45638
threshold=68.833333333333357 54.500000000000007 29.950000000000003 44.500000000000007 81.833333333333357 114.50000000000001 1.0000000180025095e-35
decision_type=8 2 10 2 10 10 2
left_child=1 -1 3 4 -2 -5 -6
right_child=2 -3 -4 5 6 -7 -8
leaf_value=-0.029982519010445859 -0.026555733590136389 0.012052196606190425 0.014986638918733053 0.0025575619554196816 -0.0052619576244157459 0.050034374478057822 0.04008658362982568
leaf_count=20053 13191 1372 2404 24983 4763 50 194
internal_value=0 -0.423128 0.0382933 0.00368113 -0.206121 0.0672181 -0.0245008
internal_count=67010 21425 45585 43181 18148 25033 4957
shrinkage=0.05


Tree=51
num_leaves=8
num_cat=0
split_feature=4 2 5 0 5 4 3
split_gain=12.3249 7.64483 8.81104 6.67057 7.65115 6.59833 6.6343
threshold=117.25000000000001 24.650000000000002 1.5187529301453353 52.500000000000007 2.0613814756671904 101.33333333333336 72.166666666666671
decision_type=8 10 10 2 8 10 8
left_child=1 3 -3 -1 5 -5 -7
right_child=-2 2 -4 4 -6 6 -8
leaf_value=-0.032645455159423208 0.0022257617829974925 0.092931297246488714 -0.0024553377878973191 -0.035113294734328684 -0.033174358013408227 0.078331165834884697 -0.01086823020914033
leaf_count=21327 38800 444 3592 398 1166 871 412
internal_value=0 -0.340145 0.207776 -0.485438 0.0420504 0.582251 0.988025
internal_count=67010 28210 4036 24174 2847 1681 1283
shrinkage=0.05


Tree=52
num_leaves=8
num_cat=0
split_feature=3 0 6 8 0 2 5
split_gain=11.6777 7.4162 5.99605 5.82578 9.02459 7.25673 7.87995
threshold=68.833333333333357 54.500000000000007 12.15 1.0000000180025095e-35 41.500000000000007 33.750000000000007 1.3274294670846398
decision_type=8 2 10 2 2 10 8
left_child=1 -1 3 4 -2 6 -5
right_child=2 -3 -4 5 -6 -7 -8
leaf_value=-0.028988261329367306 -0.014340045465754517 0.010947214256795151 0.07114241711246759 0.064906098645607646 0.0023292770695519365 0.068663596387569706 0.0051803866743175588
leaf_count=20053 12293 1372 25 210 30432 73 2552
internal_value=0 -0.403231 0.0352374 0.0291661 -0.00388239 0.275818 0.194629
internal_count=67010 21425 45585 45560 42725 2835 2762
shrinkage=0.05


Tree=53
num_leaves=8
num_cat=0
split_feature=2 4 3 0 3 2 5
split_gain=11.0072 7.08247 7.9227 6.78149 10.2994 8.0949 8.18418
threshold=20.850000000000005 144.16666666666671 84.833333333333357 50.500000000000007 78.833333333333357 24.150000000000002 1.5187529301453353
decision_type=8 10 10 2 10 10 8
left_child=1 -1 -3 4 5 -2 -7
right_child=3 2 -4 -5 -6 6 -8
leaf_value=-0.021356845353598775 -0.032237740262474661 0.089089126403073426 -0.00087854078635905537 0.0081119154479575521 0.0020764383235445682 0.063987167588413371 -0.0086984804603151781
leaf_count=18412 14380 72 305 11884 13506 831 7620
internal_value=0 -0.304061 0.239548 0.0448429 -0.0402442 -0.359423 -0.00666545
internal_count=67010 18789 377 48221 36337 22831 8451
shrinkage=0.05


Tree=54
num_leaves=8
num_cat=0
split_feature=3 0 4 0 6 5 5
split_gain=10.1793 6.85497 5.5744 9.23297 7.11847 9.38978 7.12581
threshold=68.833333333333357 57.500000000000007 156.25000000000003 59.500000000000007 6.5500000000000007 2.1503424657534249 2.291287878787879
decision_type=8 2 10 2 10 10 10
left_child=1 -1 4 -4 -2 -6 -7
right_child=2 -3 3 -5 5 6 -8
leaf_value=-0.026216043105652783 -0.0016284453854813559 0.017616571870832237 0.018911697111663694 -0.036750596363503148 -0.011801483663688106 0.094721354337120076 0.022981987034371459
leaf_count=20730 42973 695 888 96 571 93 964
internal_value=0 -0.383038 0.032568 0.273442 0.000336864 0.340863 0.627042
internal_count=67010 21425 45585 984 44601 1628 1057
shrinkage=0.05


Tree=55
num_leaves=8
num_cat=0
split_feature=2 4 3 0 2 3 3
split_gain=9.75825 6.4578 6.98968 6.06489 8.52933 8.93624 7.90678
threshold=20.850000000000005 144.16666666666671 84.833333333333357 44.500000000000007 29.050000000000004 85.833333333333357 95.250000000000014
decision_type=8 10 10 2 10 10 10
left_child=1 -1 -3 4 5 -2 -6
right_child=3 2 -4 -5 6 -7 -8
leaf_value=-0.020527981071375115 -0.024601695353888089 0.081441504323116282 -0.0010663057470417714 0.0048724824154894771 0.026032188116907343 0.0016697545960926811 -0.018293588934894463
leaf_count=18412 18028 72 305 26030 1908 2087 168
internal_value=0 -0.289503 0.224898 0.0418905 -0.118432 -0.249218 0.250762
internal_count=67010 18789 377 48221 22191 20115 2076
shrinkage=0.05


Tree=56
num_leaves=8
num_cat=0
split_feature=3 0 0 6 6 5 5
split_gain=8.92729 6.3893 5.36283 5.1815 5.15846 5.51923 7.07425
threshold=68.833333333333357 54.500000000000007 34.500000000000007 12.15 5.5500000000000007 2.177598566308244 1.3439180107526885
decision_type=8 2 2 10 10 8 10
left_child=1 -1 -2 -4 -3 6 -6
right_child=2 4 3 -5 5 -7 -8
leaf_value=-0.027101894847941767 -0.022456083823065021 -0.022623632639087982 0.0019829479235629844 0.065610856474459051 -0.026800565740295657 -0.0097396685364335694 0.095132487953940872
leaf_count=20053 3561 656 42001 23 112 292 312
internal_value=0 -0.364434 0.0300811 0.045582 0.202819 0.677761 1.31676
internal_count=67010 21425 45585 42024 1372 716 424
shrinkage=0.05


Tree=57
num_leaves=8
num_cat=0
split_feature=2 4 3 0 4 8 6
split_gain=8.67218 5.94642 6.15374 5.58152 8.3931 11.6863 6.96841
threshold=20.850000000000005 144.16666666666671 84.833333333333357 50.500000000000007 132.83333333333334 1.0000000180025095e-35 6.8500000000000005
decision_type=8 10 10 2 10 2 10
left_child=1 -1 -3 4 5 6 -2
right_child=3 2 -4 -5 -6 -7 -8
leaf_value=-0.019753030487061535 -0.019179673849214606 0.074651270332132869 -0.001089178284135312 0.0072272467660207465 0.003570888570082956 0.026211812720916206 0.04275112983079106
leaf_count=18412 26902 72 305 11884 7853 1256 326
internal_value=0 -0.2758 0.214173 0.0391353 -0.0385421 -0.232447 -0.339252
internal_count=67010 18789 377 48221 36337 28484 27228
shrinkage=0.05


Tree=58
num_leaves=8
num_cat=0
split_feature=4 0 2 3 2 3 4
split_gain=7.99292 5.81173 8.46534 7.14535 7.85862 7.1435 6.10977
threshold=100.33333333333336 44.500000000000007 29.050000000000004 95.250000000000014 29.250000000000004 82.833333333333357 124.16666666666667
decision_type=8 2 10 10 10 10 10
left_child=-1 2 5 4 -4 -2 -7
right_child=1 -3 3 -5 -6 6 -8
leaf_value=-0.036576041314891228 -0.024078252059040916 0.0031990890062037615 0.11082457386510541 -0.017760491737971611 0.016944441686949568 0.048394495355031535 -0.0058980657623752975
leaf_count=5613 23272 32086 124 168 1760 569 3418
internal_value=0 0.0128487 -0.135271 0.237216 0.488431 -0.249857 -0.0452024
internal_count=67010 61397 29311 2052 1884 27259 3987
shrinkage=0.05


Tree=59
num_leaves=8
num_cat=0
split_feature=2 6 3 7 6 3 2
split_gain=7.64635 5.73185 5.09882 5.38625 9.01442 5.71004 10.7475
threshold=20.850000000000005 5.5500000000000007 113.25000000000001 1.0000000180025095e-35 6.0500000000000007 85.833333333333357 34.050000000000004
decision_type=8 10 10 2 8 8 10
left_child=1 -1 3 5 -5 6 -2
right_child=2 -3 -4 4 -6 -7 -8
leaf_value=-0.020439156419960955 -0.0066056242357304664 0.0065237643280952433 0.034782338748472329 0.10452918373083582 0.012076367031119493 0.0044387412325623231 0.056338775201973723
leaf_count=14735 38612 4054 76 75 984 8138 336
internal_value=0 -0.26163 0.0365344 0.025157 0.379482 0.00252255 -0.101995
internal_count=67010 18789 48221 48145 1059 47086 38948
shrinkage=0.05


Tree=60
num_leaves=8
num_cat=0
split_feature=4 0 2 5 3 4 2
split_gain=7.40751 5.46298 8.38268 11.0845 8.60346 7.86457 7.40265
threshold=100.33333333333336 50.500000000000007 26.550000000000004 2.55036231884058 89.833333333333357 138.25000000000003 27.350000000000005
decision_type=8 2 10 8 10 10 10
left_child=-1 2 4 6 -2 -6 -4
right_child=1 -3 3 -5 5 -7 -8
leaf_value=-0.035972085726143688 -0.014122155270550841 0.0054758071429706172 0.056099024383202779 -0.0051839385842140755 0.034064907639074847 -0.0026887085065128869 0.013341805496813665
leaf_count=5613 37718 14619 811 4071 605 1235 2338
internal_value=0 0.0123953 -0.0609416 0.127351 -0.162538 0.089053 0.438115
internal_count=67010 61397 46778 7220 39558 1840 3149
shrinkage=0.05


Tree=61
num_leaves=8
num_cat=0
split_feature=4 0 6 0 0 2 3
split_gain=6.97037 5.14847 4.60867 4.82411 24.7892 10.6669 10.6756
threshold=100.33333333333336 34.500000000000007 8.4500000000000011 58.500000000000007 59.500000000000007 24.450000000000003 76.166666666666671
decision_type=8 2 10 2 2 10 8
left_child=-1 -2 3 -3 5 -5 -7
right_child=1 2 -4 4 -6 6 -8
leaf_value=-0.035487267426659697 -0.020491672529233007 -0.00062196089324623226 0.026292611938755192 0.082119763969429452 -0.0076328743764865403 0.094893765417393888 -0.012279148693292878
leaf_count=5613 6886 51731 356 508 1655 78 183
internal_value=0 0.0118146 0.0277141 0.0151793 0.25686 1.06819 0.291373
internal_count=67010 61397 54511 54155 2424 769 261
shrinkage=0.05


Tree=62
num_leaves=8
num_cat=0
split_feature=2 4 3 6 3 0 2
split_gain=6.6639 5.28873 6.89808 4.79527 4.56566 4.76002 4.63658
threshold=20.850000000000005 144.16666666666671 80.833333333333357 12.15 113.25000000000001 38.500000000000007 21.650000000000002
decision_type=8 10 10 10 10 2 8
left_child=1 -1 -3 4 5 6 -2
right_child=3 2 -4 -5 -6 -7 -8
leaf_value=-0.01821514357834457 0.035555594172072429 0.098744163783432731 0.00093617091195076225 0.061903671155719223 0.032243352332026291 0.0019193031738767867 -0.021230424535441252
leaf_count=18412 1184 34 343 26 76 40519 6416
internal_value=0 -0.246673 0.212443 0.0340637 0.0281918 0.0172922 -0.318587
internal_count=67010 18789 377 48221 48195 48119 7600
shrinkage=0.05


Tree=63
num_leaves=8
num_cat=0
split_feature=4 4 0 0 0 3 4
split_gain=6.45683 4.59532 8.39212 7.30206 13.5797 7.52224 9.78731
threshold=100.33333333333336 156.25000000000003 59.500000000000007 58.500000000000007 59.500000000000007 78.833333333333357 119.33333333333336
decision_type=8 8 2 2 2 10 10
left_child=-1 3 -3 -2 5 6 -5
right_child=1 2 -4 4 -6 -7 -8
leaf_value=-0.034862460679520244 -0.0025212998342203671 0.016146139353679381 -0.036737959836606424 0.0044120038264600057 -0.0017966740768111337 0.023234560368045082 0.12363945719260583
leaf_count=5613 58079 904 97 195 1578 382 162
internal_value=0 0.0114478 0.226487 -0.0164205 0.299071 0.90963 1.7047
internal_count=67010 61397 1001 60396 2317 739 357
shrinkage=0.05


Tree=64
num_leaves=8
num_cat=0
split_feature=4 2 0 3 8 0 0
split_gain=6.07282 4.54218 6.0944 7.38324 5.87253 8.17577 5.86747
threshold=100.33333333333336 30.750000000000004 44.500000000000007 81.833333333333357 1.0000000180025095e-35 41.500000000000007 39.500000000000007
decision_type=8 10 2 10 2 2 2
left_child=-1 2 3 -2 -5 6 -6
right_child=1 -3 -4 4 5 -7 -8
leaf_value=-0.034360252701653708 -0.022292791607797999 0.012665695916902581 0.0018986243616483792 -0.004411400660460368 -0.0084148325901540737 -0.013289059888276248 0.1076321877420698
leaf_count=5613 23064 1964 31283 4884 32 105 65
internal_value=0 0.010973 -0.0134669 -0.183237 -0.0098758 0.740551 1.55729
internal_count=67010 61397 59433 28150 5086 202 97
shrinkage=0.05


Tree=65
num_leaves=8
num_cat=0
split_feature=2 6 5 6 0 4 8
split_gain=5.74649 5.22125 4.36686 4.32408 4.14965 6.51641 10.3906
threshold=20.850000000000005 5.5500000000000007 1.3274294670846398 12.15 50.500000000000007 132.83333333333334 1.0000000180025095e-35
decision_type=8 10 10 10 2 10 2
left_child=1 -1 -3 4 5 6 -2
right_child=3 2 -4 -5 -6 -7 -8
leaf_value=-0.018875752823136277 -0.016188943980765747 0.038803346484801375 -0.0052617847078726332 0.057991762678025187 0.005774314068974969 0.00267405589035554 0.024208804766177466
leaf_count=14735 27219 1279 2775 26 11876 7845 1255
internal_value=0 -0.231402 0.142519 0.0315734 0.0259328 -0.041952 -0.217377
internal_count=67010 18789 4054 48221 48195 36319 28474
shrinkage=0.05


Tree=66
num_leaves=8
num_cat=0
split_feature=4 0 2 7 6 6 4
split_gain=5.62236 4.11831 3.90934 6.00005 19.3515 6.98345 5.93624
threshold=100.33333333333336 34.500000000000007 26.950000000000003 1.0000000180025095e-35 6.6500000000000012 9.6500000000000004 144.16666666666671
decision_type=8 2 8 2 8 10 10
left_child=-1 -2 3 5 -5 6 -3
right_child=1 2 -4 4 -6 -7 -8
leaf_value=-0.033723034685632168 -0.018854495789448686 -0.0058141857547684139 0.0069652989886502875 0.10729779523304091 -0.0042014789380457286 0.080355870393380588 0.00628272042920294
leaf_count=5613 6886 44093 7494 188 453 35 2248
internal_value=0 0.0104238 0.0242626 -0.0215757 0.523716 -0.042238 -0.0504096
internal_count=67010 61397 54511 47017 641 46376 46341
shrinkage=0.05


Tree=67
num_leaves=8
num_cat=0
split_feature=4 0 8 3 4 5 2
split_gain=5.28567 3.79781 3.51833 6.20777 6.71331 6.51809 8.70284
threshold=100.33333333333336 34.500000000000007 1.0000000180025095e-35 94.833333333333357 155.16666666666671 1.3274294670846398 31.150000000000002
decision_type=8 2 2 8 10 8 8
left_child=-1 -2 -3 5 -5 -4 -7
right_child=1 2 3 4 -6 6 -8
leaf_value=-0.033205442281576791 -0.018271997454431213 -0.00013292853737798923 0.066988393761375484 -0.041380694281246286 0.022478418627621465 0.0046796017479028172 0.054919087037204661
leaf_count=5613 6886 51233 243 114 50 2684 187
internal_value=0 0.0100705 0.0232409 0.206497 -0.351271 0.325514 0.237031
internal_count=67010 61397 54511 3278 164 3114 2871
shrinkage=0.05


Tree=68
num_leaves=8
num_cat=0
split_feature=4 0 2 5 3 4 4
split_gain=4.96624 3.7215 6.30344 9.70905 6.8409 7.38549 6.89887
threshold=100.33333333333336 50.500000000000007 26.550000000000004 2.55036231884058 89.833333333333357 138.25000000000003 139.83333333333334
decision_type=8 2 10 8 10 10 10
left_child=-1 2 4 -4 6 -6 -2
right_child=1 -3 3 -5 5 -7 -8
leaf_value=-0.032681727453846711 -0.016306214467460087 0.0044331970379358314 0.01975186605314333 -0.0053991067912184344 0.0323817051346302 -0.0029519171718149981 0.01244842959208696
leaf_count=5613 36694 14619 3149 4071 605 1235 1024
internal_value=0 0.00963573 -0.0517287 0.10948 -0.142002 0.0799317 -0.252789
internal_count=67010 61397 46778 7220 39558 1840 37718
shrinkage=0.05


Tree=69
num_leaves=8
num_cat=0
split_feature=2 3 4 3 6 3 3
split_gain=4.75278 4.48122 4.39815 4.03159 3.91272 3.90935 5.80735
threshold=20.450000000000003 113.25000000000001 170.83333333333334 122.50000000000001 12.15 76.833333333333357 83.166666666666671
decision_type=8 10 10 8 10 10 10
left_child=5 4 -3 -4 -2 -1 -7
right_child=1 2 3 -5 -6 6 -8
leaf_value=-0.02572190962790645 0.00046498617189879074 -0.018087357212424431 0.070284766126770107 0.00070825786842366849 0.053574732613536305 0.022303167817134553 -0.015018512486560102
leaf_count=12530 51045 23 35 20 26 2059 1272
internal_value=0 0.0253981 0.62123 0.953746 0.0146705 -0.239115 -0.049078
internal_count=67010 51149 78 55 51071 15861 3331
shrinkage=0.05


Tree=70
num_leaves=8
num_cat=0
split_feature=4 2 6 2 5 3 8
split_gain=4.56005 3.40832 5.57981 7.36235 5.38513 5.19609 4.89684
threshold=100.33333333333336 30.750000000000004 5.2500000000000009 31.950000000000003 2.6454973118279574 85.833333333333357 1.0000000180025095e-35
decision_type=8 10 10 8 8 10 2
left_child=-1 -2 3 5 -5 -3 -4
right_child=1 2 6 4 -6 -7 -8
leaf_value=-0.031960082462770982 -0.00061888550785880569 0.0046118920852347796 -0.003814965020287948 0.047279417446792815 -0.026350784302950687 0.11089237044952767 0.030561006822273397
leaf_count=5613 59433 130 1303 118 165 58 190
internal_value=0 0.00908766 0.216098 0.781954 0.142182 1.62703 0.0777647
internal_count=67010 61397 1964 471 283 188 1493
shrinkage=0.05


Tree=71
num_leaves=8
num_cat=0
split_feature=4 0 5 3 2 4 3
split_gain=4.28296 3.41254 6.11181 11.4411 9.73418 5.72448 8.81999
threshold=100.33333333333336 50.500000000000007 1.0484653930472911 81.583333333333357 22.950000000000003 145.16666666666671 84.250000000000014
decision_type=8 2 10 10 10 10 10
left_child=-1 5 3 4 -3 -2 -7
right_child=1 2 -4 -5 -6 6 -8
leaf_value=-0.031423700758922611 -0.0061004680133995093 0.1096835863447585 0.0026535387254160419 -0.0037400875919223345 -0.015395696364962125 0.063204569889882101 0.0034600282346528878
leaf_count=5613 44911 421 13843 266 89 242 1625
internal_value=0 0.00880894 0.0842593 0.669954 1.56814 -0.0501217 0.134102
internal_count=67010 61397 14619 776 510 46778 1867
shrinkage=0.05


Tree=72
num_leaves=8
num_cat=0
split_feature=2 3 4 0 2 6 5
split_gain=4.29549 3.97529 3.91488 3.78936 3.99579 3.59885 8.4795
threshold=20.450000000000003 113.25000000000001 170.83333333333334 34.500000000000007 21.350000000000005 5.3500000000000005 1.9834699453551912
decision_type=8 10 10 2 8 10 8
left_child=5 3 -3 4 -2 6 -1
right_child=1 2 -4 -5 -6 -7 -8
leaf_value=-0.034560587423998722 0.036785529098409889 -0.017640423777030238 0.04433950602637559 0.0013605389942726381 -0.027612092787966371 0.00024762295541565888 0.019142749250255907
leaf_count=7053 898 23 55 45914 4259 6631 2177
internal_value=0 0.0242904 0.580764 0.0141054 -0.40299 -0.228675 -0.436116
internal_count=67010 51149 78 51071 5157 15861 9230
shrinkage=0.05


Tree=73
num_leaves=8
num_cat=0
split_feature=2 4 5 0 5 3 0
split_gain=4.08677 8.97984 6.51676 5.13172 5.24127 5.28479 4.44886
threshold=22.350000000000005 134.83333333333334 4.1953870625662786 54.500000000000007 1.1560470779220782 74.833333333333357 27.500000000000004
decision_type=8 10 8 2 8 10 2
left_child=1 3 -3 -1 5 -5 -2
right_child=6 2 -4 4 -6 -7 -8
leaf_value=-0.022115375466088594 -0.042006568071135758 0.0034434379472867236 0.093638815416576357 -0.011645757721221131 -0.0060715004215231962 0.097037324441722264 0.0025142268903599291
leaf_count=25832 1150 2881 44 177 2032 117 34777
internal_value=0 -0.126276 0.112089 -0.321232 0.0755359 1.08616 0.0417341
internal_count=67010 31083 2925 28158 2326 294 35927
shrinkage=0.05


Tree=74
num_leaves=8
num_cat=0
split_feature=4 6 0 8 0 5 5
split_gain=3.8699 3.09598 3.28099 8.74689 8.22987 9.0541 6.77694
threshold=100.33333333333336 12.15 41.500000000000007 1.0000000180025095e-35 39.500000000000007 2.8759615384615387 1.4919333853760086
decision_type=8 10 2 2 2 8 8
left_child=-1 2 3 6 -5 -6 -2
right_child=1 -3 -4 4 5 -7 -8
leaf_value=-0.030554019766304785 -0.041514989848380139 0.045969567645474191 0.0015279181236772441 -0.026841192303766078 0.1070754498075154 -0.0088463426044512582 -0.006353825816766418
leaf_count=5613 5059 27 41350 160 153 84 14564
internal_value=0 0.00835683 0.00391754 -0.157112 0.738947 1.33026 -0.245159
internal_count=67010 61397 61370 20020 397 237 19623
shrinkage=0.05


Tree=75
num_leaves=8
num_cat=0
split_feature=4 0 0 2 3 3 4
split_gain=3.63036 3.04045 18.6468 8.70086 8.42497 8.26077 6.26603
threshold=100.33333333333336 58.500000000000007 59.500000000000007 24.450000000000003 63.250000000000007 76.166666666666671 118.16666666666667
decision_type=8 2 2 10 8 8 8
left_child=-1 -2 3 6 -4 -5 -3
right_child=1 2 4 5 -6 -7 -8
leaf_value=-0.030006855700966478 -0.00066292855535855094 -0.014395684807325266 0.077782516891376718 0.074156830707145294 -0.01266169218164236 -0.01432765556516198 0.078144964409255974
leaf_count=5613 58951 158 115 79 1560 184 350
internal_value=0 0.00798264 0.194562 0.854934 -0.162867 0.186208 1.33817
internal_count=67010 61397 2446 771 1675 263 508
shrinkage=0.05


Tree=76
num_leaves=8
num_cat=0
split_feature=2 3 4 7 6 6 3
split_gain=3.64418 7.05858 5.4683 5.34324 15.9033 5.82871 5.78049
threshold=26.950000000000003 64.250000000000014 100.33333333333336 1.0000000180025095e-35 6.6500000000000012 6.6500000000000012 86.833333333333357
decision_type=8 8 10 2 8 10 10
left_child=2 -2 -1 5 -5 6 -4
right_child=1 -3 3 4 -6 -7 -8
leaf_value=-0.039706194752293117 0.081119417761649215 0.0043325115106781758 -0.0082623677371010864 0.09331498680145453 -0.00446313309564239 0.027304581946717046 0.0024213593626741929
leaf_count=5471 537 7984 46244 192 460 517 5605
internal_value=0 0.107859 -0.0433316 -0.030085 0.477371 -0.0493659 -0.0679028
internal_count=67010 8521 58489 53018 652 52366 51849
shrinkage=0.05


Tree=77
num_leaves=8
num_cat=0
split_feature=2 3 4 3 6 5 5
split_gain=3.39465 3.46358 3.46957 3.41559 3.30647 8.07185 5.75513
threshold=20.450000000000003 113.25000000000001 170.83333333333334 122.50000000000001 5.3500000000000005 1.9834699453551912 2.0613814756671904
decision_type=8 10 10 8 10 8 8
left_child=4 -2 -3 -4 5 -1 -7
right_child=1 2 3 -5 -6 6 -8
leaf_value=-0.03361554160199802 0.00060139592993954313 -0.0173192973603459 0.060852720298956324 -0.0013109419492344932 0.00086706971214488456 0.092995951509457303 -0.0003535425882399106
leaf_count=7053 51071 23 35 20 6631 225 1952
internal_value=0 0.0216073 0.536227 0.81739 -0.206198 -0.410865 0.382262
internal_count=67010 51149 78 55 15861 9230 2177
shrinkage=0.05


Tree=78
num_leaves=8
num_cat=0
split_feature=3 0 0 2 3 0 0
split_gain=3.21513 5.31755 3.89321 3.5852 8.88178 3.23495 14.914
threshold=68.833333333333357 61.500000000000007 65.500000000000014 28.150000000000002 64.833333333333357 58.500000000000007 59.500000000000007
decision_type=8 2 2 10 10 2 2
left_child=1 3 5 -1 -5 -2 -7
right_child=2 -3 -4 4 -6 6 -8
leaf_value=-0.020429654176186283 0.00016852643291640087 0.041747008568207483 -0.037225287519115836 0.095361766856036562 -0.034669034320186962 0.040746997602308793 -0.0074431432757136491
leaf_count=20621 43533 211 174 267 326 665 1213
internal_value=0 -0.239444 0.0177861 -0.329547 0.54283 0.0248098 0.234996
internal_count=67010 21425 45585 21214 593 45411 1878
shrinkage=0.05


Tree=79
num_leaves=8
num_cat=0
split_feature=2 3 4 4 7 6 6
split_gain=3.1437 5.6179 5.55163 5.0564 4.79199 13.393 5.39545
threshold=26.950000000000003 64.250000000000014 110.33333333333336 100.33333333333336 1.0000000180025095e-35 6.6500000000000012 8.5500000000000025
decision_type=8 8 10 10 2 8 10
left_child=3 2 -2 -1 6 -6 -5
right_child=1 -3 -4 4 5 -7 -8
leaf_value=-0.039115638904313604 0.12083636270904903 0.0040142478436001189 -0.0068594360880675194 -0.0027859506053739759 0.083296740046076928 -0.0042989954237663891 0.051728204775674795
leaf_count=5471 299 7984 238 52292 192 460 74
internal_value=0 0.0999807 1.39011 -0.0402191 -0.0277818 0.44815 -0.0462726
internal_count=67010 8521 537 58489 53018 652 52366
shrinkage=0.05


Tree=80
num_leaves=8
num_cat=0
split_feature=0 5 8 0 5 3 5
split_gain=3.11113 7.94727 5.05451 6.70398 7.11642 4.50777 10.6409
threshold=41.500000000000007 1.4919333853760086 1.0000000180025095e-35 39.500000000000007 2.8759615384615387 93.833333333333357 1.8012345679012347
decision_type=2 8 2 2 8 10 10
left_child=1 -1 5 -4 -5 -3 -7
right_child=-2 2 3 4 -6 6 -8
leaf_value=-0.03896902812522221 0.0013271855448957182 -0.012328026653430704 -0.026310269316823971 0.093493191413422563 -0.0087457753037694097 0.095989189873026112 -0.0010486913530686935
leaf_count=6302 44379 15589 161 138 84 43 314
internal_value=0 -0.154685 -0.0390725 0.635232 1.16149 -0.117421 0.285435
internal_count=67010 22631 16329 383 222 15946 357
shrinkage=0.05


Tree=81
num_leaves=8
num_cat=0
split_feature=4 0 0 0 3 4 3
split_gain=2.89435 7.19108 4.62855 8.57916 5.23536 7.07419 7.1332
threshold=156.25000000000003 59.500000000000007 58.500000000000007 59.500000000000007 78.833333333333357 119.33333333333336 71.833333333333357
decision_type=8 2 2 2 10 10 10
left_child=2 -2 -1 4 5 -4 -7
right_child=1 -3 3 -5 -6 6 -8
leaf_value=-0.0024617736785001315 0.012704642595286709 -0.036421749095621306 -0.00046173223353093701 -0.0025650568751615856 0.015775621176318155 0.0032321147553166906 0.12333612299805637
leaf_count=63573 904 97 230 1662 382 48 114
internal_value=0 0.168276 -0.021518 0.221969 0.667978 1.2666 1.84485
internal_count=67010 1001 66009 2436 774 392 162
shrinkage=0.05


Tree=82
num_leaves=8
num_cat=0
split_feature=0 2 4 5 5 5 0
split_gain=2.88293 2.86682 8.2698 6.30051 5.04461 5.3881 9.6768
threshold=34.500000000000007 22.350000000000005 134.83333333333334 4.1056618819776718 1.4191368788142984 1.2648830616583984 53.500000000000007
decision_type=2 8 10 8 8 10 2
left_child=-1 2 4 -4 5 6 -2
right_child=1 -3 3 -5 -6 -7 -8
leaf_value=-0.016716437122657933 -0.033677420274584972 0.002327704496515023 0.0041685311383209593 0.092862333362553215 -0.02263059300821595 0.033537928667738574 0.038751857210388763
leaf_count=7926 5088 32568 2724 27 15547 2557 573
internal_value=0 0.0119248 -0.0982535 0.126701 -0.301859 0.0501591 -0.237637
internal_count=67010 59084 26516 2751 23765 8218 5661
shrinkage=0.05


Tree=83
num_leaves=8
num_cat=0
split_feature=6 0 8 6 5 4 6
split_gain=2.79486 3.01561 7.37322 7.29577 6.53414 4.24835 5.48535
threshold=12.15 41.500000000000007 1.0000000180025095e-35 6.2500000000000009 1.4919333853760086 158.33333333333334 5.9500000000000011
decision_type=10 2 2 8 8 10 10
left_child=1 2 4 -4 -1 -6 -7
right_child=-2 -3 3 -5 5 6 -8
leaf_value=-0.041207366455899744 0.042863170440833903 0.0010963655471754284 0.066550292588482926 -0.015494549985557958 -0.010317070420402075 0.044024820289864486 -0.037464217080801956
leaf_count=6273 27 44358 269 143 15827 91 22
internal_value=0 -0.00335369 -0.157881 0.641917 -0.241042 -0.126093 0.489828
internal_count=67010 66983 22625 412 22213 15940 113
shrinkage=0.05


Tree=84
num_leaves=8
num_cat=0
split_feature=2 6 2 5 3 5 3
split_gain=2.74363 5.02614 6.3322 4.66128 4.5349 4.24475 4.05872
threshold=30.750000000000004 5.2500000000000009 31.950000000000003 2.6454973118279574 95.833333333333357 2.1503424657534249 85.833333333333357
decision_type=10 10 8 8 10 10 10
left_child=-1 2 6 5 -3 -4 -2
right_child=1 4 3 -5 -6 -7 -8
leaf_value=-0.00092209354271464224 0.0045316798785528948 0.011448643451771108 -0.015123816810689437 -0.025937897040815845 -0.018478917044267767 0.07698579859374477 0.097682452730904284
leaf_count=65028 134 1334 51 169 168 68 58
internal_value=0 0.184564 0.71128 0.118317 0.0538516 0.837116 1.46566
internal_count=67010 1982 480 288 1502 119 192
shrinkage=0.05


Tree=85
num_leaves=8
num_cat=0
split_feature=2 2 2 6 3 5 3
split_gain=2.74555 3.05671 3.51957 4.31395 5.22715 3.86054 3.83243
threshold=41.650000000000013 37.750000000000007 30.750000000000004 5.1500000000000012 99.166666666666671 1.8516016016016021 100.83333333333336
decision_type=10 10 10 8 10 10 8
left_child=1 2 6 -4 5 -5 -1
right_child=-2 -3 3 4 -6 -7 -8
leaf_value=-0.0020384490105709897 0.048105077390665912 -0.032922229120569087 0.066888189421123581 -0.017231584931562998 -0.021371029023372675 0.020420958463276337 0.010869811417880218
leaf_count=64394 46 139 90 210 101 1396 634
internal_value=0 -0.00276 0.00327724 0.223907 0.162336 0.297985 -0.0175361
internal_count=67010 66964 66825 1797 1707 1606 65028
shrinkage=0.05


Tree=86
num_leaves=8
num_cat=0
split_feature=1 5 3 5 5 3 6
split_gain=2.63596 9.71788 5.95163 5.20273 6.6715 10.1827 5.69399
threshold=1.5000000000000002 3.4456264775413716 75.833333333333357 2.55036231884058 2.2627264883520279 86.833333333333357 5.4500000000000011
decision_type=2 10 10 8 10 10 10
left_child=-1 3 -3 4 6 -6 -2
right_child=1 2 -4 -5 5 -7 -8
leaf_value=0.0013915168528455674 -0.022642070336311142 -0.028867307292930584 0.073165700664283614 -0.0303183159915222 -0.0080262355529615356 0.076108490443814347 0.0021255773704363236
leaf_count=48066 9401 183 137 1849 1165 94 6115
internal_value=0 -0.125653 1.01285 -0.187344 -0.0904767 0.543522 -0.187877
internal_count=67010 18944 320 18624 16775 1259 15516
shrinkage=0.05


Tree=87
num_leaves=8
num_cat=0
split_feature=4 6 3 5 3 6 5
split_gain=2.58492 3.17092 2.66411 4.70921 3.94453 4.27407 3.73779
threshold=100.33333333333336 5.2500000000000009 60.250000000000007 1.27374686716792 68.833333333333357 5.4500000000000011 1.7043854033290655
decision_type=8 8 8 10 8 8 10
left_child=1 -1 3 -2 5 -4 -5
right_child=2 -3 4 6 -6 -7 -8
leaf_value=0.023255105687282902 -0.032647686142358655 -0.042935886429332798 -0.03888701312216384 0.084890869364034671 0.0007996877927687713 -0.002386094032437315 0.012088466486164275
leaf_count=1528 1039 4085 5609 1128 45257 6508 1856
internal_value=0 -0.541646 0.00707488 0.525192 0.000358869 -0.332522 0.883215
internal_count=67010 5613 61397 4023 57374 12117 2984
shrinkage=0.05


Tree=88
num_leaves=8
num_cat=0
split_feature=0 6 6 7 3 6 2
split_gain=2.50821 2.45501 4.61803 5.28279 8.3735 5.12167 3.48046
threshold=34.500000000000007 8.4500000000000011 7.5500000000000007 1.0000000180025095e-35 90.250000000000014 5.9500000000000011 26.950000000000003
decision_type=2 10 10 2 8 8 10
left_child=-1 2 3 6 5 -5 -2
right_child=1 -3 -4 4 -6 -7 -8
leaf_value=-0.01581102293144122 -0.0023472267724558263 0.017958151035579101 -0.028607956450059136 0.10679352175646746 -0.023286256057202154 0.027083974408406427 0.0056902146268174138
leaf_count=7926 50955 366 345 65 80 592 6681
internal_value=0 0.0110651 0.00166159 0.0126468 0.441222 0.760946 -0.00449777
internal_count=67010 59084 58718 58373 737 657 57636
shrinkage=0.05


Tree=89
num_leaves=8
num_cat=0
split_feature=2 2 2 6 3 0 3
split_gain=2.48079 2.89003 2.99911 3.89518 4.70443 3.49535 3.63119
threshold=41.650000000000013 37.750000000000007 30.750000000000004 5.1500000000000012 99.166666666666671 34.500000000000007 71.166666666666671
decision_type=10 10 10 8 10 2 8
left_child=1 2 5 -4 -5 6 -1
right_child=-2 -3 3 4 -6 -7 -8
leaf_value=0.0059337621722638997 0.045088818562926014 -0.032342416751260698 0.062143872778206766 0.013641177337694783 -0.020853215585986708 -0.00021744419980355363 -0.038468515876694281
leaf_count=5228 46 139 90 1606 101 57416 2384
internal_value=0 -0.00267374 0.00313985 0.205283 0.146612 -0.0162261 -0.4373
internal_count=67010 66964 66825 1797 1707 65028 7612
shrinkage=0.05


Tree=90
num_leaves=8
num_cat=0
split_feature=2 6 5 6 5 2 2
split_gain=2.45066 6.78225 6.86292 2.73322 2.6504 6.14902 7.59799
threshold=18.350000000000005 5.8500000000000005 0.83536857781087137 12.15 3.9518002322880381 22.750000000000004 21.850000000000005
decision_type=8 10 8 10 10 8 10
left_child=1 2 -1 4 -2 6 -6
right_child=3 -3 -4 -5 5 -7 -8
leaf_value=0.049538146249154542 0.00088230393918622507 0.065946246229183381 -0.04336401258087403 0.043078896136183861 -0.031083093045802146 -0.02050219551257778 0.096591799009958151
leaf_count=263 61032 197 3670 26 146 1543 133
internal_value=0 -0.389365 -0.611249 0.00896714 0.00473415 -0.266408 0.902701
internal_count=67010 4130 3933 62880 62854 1822 279
shrinkage=0.05


Tree=91
num_leaves=8
num_cat=0
split_feature=4 6 3 0 3 6 0
split_gain=2.3759 3.06903 2.45602 4.47014 3.59986 4.09751 3.62956
threshold=100.33333333333336 5.2500000000000009 60.250000000000007 57.500000000000007 68.833333333333357 5.4500000000000011 65.500000000000014
decision_type=8 8 8 2 8 8 2
left_child=1 -1 3 -2 5 -4 -6
right_child=2 -3 4 -5 6 -7 -8
leaf_value=0.022625938700108716 0.004156277711888561 -0.042623861458173186 -0.038417667037518116 0.08043389645629484 0.0010882882192404829 -0.0022217331412677853 -0.036644701538278306
leaf_count=1528 3912 4085 5609 111 45083 6508 174
internal_value=0 -0.527278 0.00679352 0.500159 0.000291268 -0.320633 0.0150955
internal_count=67010 5613 61397 4023 57374 12117 45257
shrinkage=0.05


Tree=92
num_leaves=8
num_cat=0
split_feature=0 4 5 3 2 3 2
split_gain=2.35524 5.90086 5.3341 9.05941 8.82519 4.81959 4.64319
threshold=50.500000000000007 109.83333333333336 1.0484653930472911 82.833333333333357 22.950000000000003 68.833333333333357 18.350000000000005
decision_type=2 10 10 10 10 10 8
left_child=1 -1 3 4 5 -2 -3
right_child=2 6 -4 -5 -6 -7 -8
leaf_value=-0.028451162860278142 -0.0026925627964487723 -0.043342974956610471 0.0016781131634463764 -0.006084618427289812 -0.018352085188467582 0.10979500351691932 -0.00042964318193859896
leaf_count=13083 178 1500 14633 236 100 331 36949
internal_value=0 -0.0483343 0.0627024 0.598145 1.29868 1.8404 -0.0219794
internal_count=67010 51532 15478 845 609 509 38449
shrinkage=0.05


Tree=93
num_leaves=8
num_cat=0
split_feature=4 0 5 5 6 5 0
split_gain=2.29635 6.52057 4.20664 6.52877 4.86755 5.21994 4.75436
threshold=156.25000000000003 59.500000000000007 3.6960403726708084 4.1056618819776718 4.7500000000000009 3.0839201877934279 45.500000000000007
decision_type=8 2 10 8 10 8 2
left_child=-1 2 4 -4 5 -2 -6
right_child=1 -3 3 -5 6 -7 -8
leaf_value=-0.00096052130807060352 0.063914555886220956 -0.035823070173587872 0.070294807986985716 -0.0057291442095880642 -0.01902870636566854 -0.020733038766689523 0.010475851493457092
leaf_count=66009 63 97 48 38 239 29 487
internal_value=0 0.149013 0.228756 0.793866 0.138981 0.84633 0.0460481
internal_count=67010 1001 904 86 818 92 726
shrinkage=0.05


Tree=94
num_leaves=8
num_cat=0
split_feature=2 2 2 6 4 3 8
split_gain=2.25875 2.69905 2.67789 3.63439 5.31857 5.11759 3.9927
threshold=41.650000000000013 37.750000000000007 30.750000000000004 5.2500000000000009 146.25000000000003 95.833333333333357 1.0000000180025095e-35
decision_type=10 10 10 10 10 10 2
left_child=1 2 -1 4 -4 6 -5
right_child=-2 -3 3 5 -6 -7 -8
leaf_value=-0.00077353736309863832 0.042488916322155033 -0.031650191810788909 0.0064124680843133724 0.003469984568230792 0.070573285926990956 -0.021072146012503207 0.039347448870143159
leaf_count=65028 46 139 384 1063 53 146 151
internal_value=0 -0.00262662 0.00292463 0.192997 0.650319 0.0738498 0.25858
internal_count=67010 66964 66825 1797 437 1360 1214
shrinkage=0.05


Tree=95
num_leaves=8
num_cat=0
split_feature=1 5 3 5 3 0 2
split_gain=2.19252 8.35228 5.11706 5.0376 5.01869 6.54553 4.37959
threshold=1.5000000000000002 3.4456264775413716 75.833333333333357 2.7861904761904763 58.833333333333336 51.500000000000007 29.950000000000003
decision_type=2 10 10 8 10 2 10
left_child=4 3 -3 -2 5 -1 -6
right_child=1 2 -4 -5 6 -7 -8
leaf_value=0.0018082428637165712 -0.005064743971476513 -0.028529755002675225 0.065617391473445877 -0.036041012510239265 -0.00069827481470567903 0.11967372469533799 0.011827030351450994
leaf_count=1768 17443 183 137 1181 43989 156 2153
internal_value=0 -0.11543 0.917042 -0.174645 0.0252444 1.03466 0.0174454
internal_count=67010 18944 320 18624 48066 1924 46142
shrinkage=0.05


Tree=96
num_leaves=8
num_cat=0
split_feature=0 0 2 2 4 2 5
split_gain=2.19873 12.5373 6.82549 7.29579 6.52431 5.52047 7.85687
threshold=58.500000000000007 59.500000000000007 24.450000000000003 27.850000000000005 137.83333333333334 23.150000000000002 2.8306388526727519
decision_type=2 2 10 10 10 8 10
left_child=-1 2 5 -4 -5 -2 -7
right_child=1 -3 3 4 -6 6 -8
leaf_value=-0.00086151830579067352 0.02956171731064899 -0.0074424196801321134 -0.021702229987240654 0.092449707233488818 -0.017597400884976258 0.12181834703729202 -0.0089978609919678428
leaf_count=64445 406 1759 198 47 21 100 34
internal_value=0 0.157156 0.660717 0.0930601 1.03846 1.05807 1.8467
internal_count=67010 2565 806 266 68 540 134
shrinkage=0.05


Tree=97
num_leaves=8
num_cat=0
split_feature=4 3 6 3 6 6 0
split_gain=2.14159 2.92104 6.53679 4.12589 4.0491 3.81856 3.32738
threshold=95.333333333333357 60.250000000000007 5.2500000000000009 68.833333333333357 5.9500000000000011 5.4500000000000011 65.500000000000014
decision_type=8 8 8 8 10 8 2
left_child=-1 2 -2 5 -4 -3 -5
right_child=1 3 4 6 -6 -7 -8
leaf_value=-0.037110949300018257 0.08392440894516863 -0.03859385626761333 -0.014522946215820613 0.00096989299732218662 0.061205012083311208 -0.0039793642338152259 -0.0358731051550411
leaf_count=2477 1566 6250 3783 45358 238 7164 174
internal_value=0 0.00482803 0.494414 -0.00292006 0.0306174 -0.341088 0.0131443
internal_count=67010 64533 5587 58946 4021 13414 45532
shrinkage=0.05


Tree=98
num_leaves=8
num_cat=0
split_feature=0 4 5 3 2 6 2
split_gain=2.12955 5.34772 4.71107 7.71104 6.0888 4.5945 4.38818
threshold=50.500000000000007 109.83333333333336 1.0484653930472911 81.583333333333357 22.950000000000003 6.3500000000000005 18.350000000000005
decision_type=2 10 10 10 10 10 8
left_child=1 -1 3 4 -2 -4 -3
right_child=2 6 5 -5 -6 -7 -8
leaf_value=-0.027586179225745102 0.081832874480566462 -0.042973266710012052 -0.00079048817849229353 -0.0038473744077989892 -0.014750292697309065 0.016289872595708542 -0.00042382350184366622
leaf_count=13083 487 1500 13495 266 92 1138 36949
internal_value=0 -0.0459062 0.0596843 0.556263 1.22076 0.0319917 -0.0212443
internal_count=67010 51532 15478 845 579 14633 38449
shrinkage=0.05


Tree=99
num_leaves=8
num_cat=0
split_feature=0 4 0 0 5 5 5
split_gain=2.0637 2.11253 6.02843 3.70107 4.41188 5.41748 4.14818
threshold=26.500000000000004 156.25000000000003 59.500000000000007 57.500000000000007 3.6960403726708084 4.1056618819776718 3.2247448979591842
decision_type=2 8 2 2 10 8 8
left_child=-1 -2 3 4 6 -6 -3
right_child=1 2 -4 -5 5 -7 -8
leaf_value=-0.027809523009088285 -0.00068085250120997632 0.0079272915547533764 -0.034982393916943098 0.045063680531712912 0.065093598651432091 -0.0049560642798897317 -0.026927957301932627
leaf_count=2482 63540 645 97 65 45 37 99
internal_value=0 0.0057355 0.147939 0.223287 0.15677 0.738178 0.0595125
internal_count=67010 64528 988 891 826 82 744
shrinkage=0.05


end of trees

feature importances:
H25_age=153
H25_dbp=128
H25_bmi=121
H25_sbp=116
H25_lhrate=69
H25_a1c=68
H25_dl=32
H25_dm=11
H25_sex=2

parameters:
[boosting: gbdt]
[objective: binary]
[metric: binary]
[tree_learner: serial]
[device_type: cpu]
[data: ]
[valid: ]
[num_iterations: 100]
[learning_rate: 0.05]
[num_leaves: 8]
[num_threads: 0]
[max_depth: -1]
[min_data_in_leaf: 20]
[min_sum_hessian_in_leaf: 1]
[bagging_fraction: 0.4]
[bagging_freq: 0]
[bagging_seed: 3]
[feature_fraction: 1]
[feature_fraction_seed: 2]
[early_stopping_round: 0]
[max_delta_step: 0]
[lambda_l1: 0]
[lambda_l2: 1]
[min_gain_to_split: 0]
[drop_rate: 0.1]
[max_drop: 50]
[skip_drop: 0.5]
[xgboost_dart_mode: 0]
[uniform_drop: 0]
[drop_seed: 4]
[top_rate: 0.2]
[other_rate: 0.1]
[min_data_per_group: 100]
[max_cat_threshold: 32]
[cat_l2: 10]
[cat_smooth: 10]
[max_cat_to_onehot: 4]
[top_k: 20]
[monotone_constraints: ]
[feature_contri: ]
[forcedsplits_filename: ]
[refit_decay_rate: 0.9]
[verbosity: 0]
[max_bin: 255]
[min_data_in_bin: 3]
[bin_construct_sample_cnt: 200000]
[histogram_pool_size: -1]
[data_random_seed: 1]
[output_model: LightGBM_model.txt]
[snapshot_freq: -1]
[input_model: ]
[output_result: LightGBM_predict_result.txt]
[initscore_filename: ]
[valid_data_initscores: ]
[pre_partition: 0]
[enable_bundle: 1]
[max_conflict_rate: 0]
[is_enable_sparse: 1]
[sparse_threshold: 0.8]
[use_missing: 1]
[zero_as_missing: 0]
[two_round: 0]
[save_binary: 0]
[enable_load_from_binary_file: 1]
[header: 0]
[label_column: ]
[weight_column: ]
[group_column: ]
[ignore_column: ]
[categorical_feature: ]
[predict_raw_score: 0]
[predict_leaf_index: 0]
[predict_contrib: 0]
[num_iteration_predict: -1]
[pred_early_stop: 0]
[pred_early_stop_freq: 10]
[pred_early_stop_margin: 10]
[convert_model_language: ]
[convert_model: gbdt_prediction.cpp]
[num_class: 1]
[is_unbalance: 0]
[scale_pos_weight: 1]
[sigmoid: 1]
[boost_from_average: 1]
[reg_sqrt: 0]
[alpha: 0.9]
[fair_c: 1]
[poisson_max_delta_step: 0.7]
[tweedie_variance_power: 1.5]
[max_position: 20]
[label_gain: ]
[metric_freq: 1]
[is_provide_training_metric: 0]
[eval_at: ]
[num_machines: 1]
[local_listen_port: 12400]
[time_out: 120]
[machine_list_filename: ]
[machines: ]
[gpu_platform_id: -1]
[gpu_device_id: -1]
[gpu_use_dp: 0]

end of parameters

pandas_categorical:[]
