tree
version=v2
num_class=1
num_tree_per_iteration=1
label_index=0
max_feature_idx=8
objective=binary sigmoid:1
feature_names=H25_age H25_sex H25_bmi H25_dbp H25_sbp H25_lhrate H25_a1c H25_ht H25_dl
feature_infos=[18:74] [1:2] [0:65.599999999999994] [0:169] [0:238] [0.18181818181818185:8.8461538461538485] [2.7999999999999998:14.199999999999999] [0:1] [0:1]
tree_sizes=712 726 722 724 725 723 723 724 730 731 727 732 731 734 739 740 734 725 734 732 735 738 730 730 734

Tree=0
num_leaves=8
num_cat=0
split_feature=6 6 6 0 3 2 0
split_gain=5681.3 425.712 45.3521 38.5203 25.0601 20.1436 11.08
threshold=6.5500000000000007 6.1500000000000012 5.7500000000000009 42.500000000000007 91.833333333333357 32.550000000000004 52.500000000000007
decision_type=10 10 10 2 8 10 2
left_child=1 2 5 -3 -4 -1 -6
right_child=-2 3 4 -5 6 -7 -8
leaf_value=-5.2783349268608317 -3.8469460368575357 -5.2137333617433983 -5.233042568167134 -4.8820729242374226 -5.0532856077934731 -5.1668891441581204 -5.2365082816494821
leaf_count=58453 1182 214 6466 1295 385 618 208
internal_value=0 -0.56097 -0.733786 6.24915 0.302351 -0.858175 2.62936
internal_count=68821 67639 66130 1509 7059 59071 593
shrinkage=1


Tree=1
num_leaves=8
num_cat=0
split_feature=6 6 6 3 3 5 0
split_gain=1715.18 108.678 43.9368 20.9803 19.9214 11.2985 15.0238
threshold=6.1500000000000012 6.7500000000000009 5.7500000000000009 91.833333333333357 63.833333333333336 1.7835585585585589 41.500000000000007
decision_type=10 10 10 8 10 10 2
left_child=2 4 -1 -4 -2 -6 -7
right_child=1 -3 3 -5 5 6 -8
leaf_value=-0.042578396730301046 -0.00025060943240351376 0.41794024825036202 0.00095671574566844769 0.11558299431007855 0.099411422241319075 0.041075093550374656 0.26908683326531069
leaf_count=59071 129 863 6466 593 349 145 1205
internal_value=0 6.53722 -0.723476 0.287785 4.32872 4.57894 5.05387
internal_count=68821 2691 66130 7059 1828 1699 1350
shrinkage=0.05


Tree=2
num_leaves=8
num_cat=0
split_feature=6 6 6 0 2 2 2
split_gain=1183.73 42.4842 28.7121 35.9513 19.499 17.8241 13.5738
threshold=6.1500000000000012 5.7500000000000009 6.7500000000000009 38.500000000000007 32.550000000000004 27.450000000000003 30.750000000000004
decision_type=10 10 10 2 10 8 8
left_child=1 4 6 -4 -1 -3 -2
right_child=2 5 3 -5 -6 -7 -8
leaf_value=-0.04372859107019058 0.13863615694500869 -0.0042079611436265851 -0.0038074220613329539 0.28148230310528605 0.06498373104470398 0.077017277267644124 0.27481859292884586
leaf_count=58453 1584 5670 37 826 618 1389 244
internal_value=0 -0.713027 4.58187 5.3912 -0.844768 0.272555 3.38579
internal_count=68821 66130 2691 863 59071 7059 1828
shrinkage=0.05


Tree=3
num_leaves=8
num_cat=0
split_feature=6 6 2 0 5 0 3
split_gain=899.363 41.0103 18.2675 18.2637 26.0609 20.6696 16.9477
threshold=6.1500000000000012 5.7500000000000009 32.550000000000004 47.500000000000007 1.8551678108314265 38.500000000000007 89.833333333333357
decision_type=10 10 10 2 10 2 10
left_child=1 2 -1 4 -2 -6 -3
right_child=3 6 -4 -5 5 -7 -8
leaf_value=-0.043430821165830184 0.054556463273095691 -0.0010341768030849143 0.059368820346776777 0.14724586396049569 0.032276882024898201 0.25779387495464329 0.089721854690651678
leaf_count=58453 171 6277 618 1717 68 735 782
internal_value=0 -0.702369 -0.837726 3.53654 4.42497 4.85626 0.257054
internal_count=68821 66130 59071 2691 974 803 7059
shrinkage=0.05


Tree=4
num_leaves=8
num_cat=0
split_feature=6 2 1 6 3 1 6
split_gain=723.001 26.9717 26.8517 22.5554 16.138 13.0206 13.0135
threshold=6.0500000000000007 33.150000000000013 1.5000000000000002 5.7500000000000009 73.833333333333357 1.5000000000000002 5.5500000000000007
decision_type=10 10 2 10 10 2 8
left_child=1 3 -2 -1 -4 -5 -3
right_child=2 6 4 5 -6 -7 -8
leaf_value=-0.042950334440959886 0.15104777873438907 -0.029503651141894134 -0.0087105578164528574 0.022345395836657005 0.1059395862964401 -0.041859178248093674 0.13292405220072687
leaf_count=58565 2805 232 376 4026 375 2027 415
internal_value=0 -0.723245 2.75706 -0.760172 1.20789 0.0141551 1.61225
internal_count=68821 65265 3556 64618 751 6053 647
shrinkage=0.05


Tree=5
num_leaves=8
num_cat=0
split_feature=6 6 8 6 2 1 5
split_gain=595.622 25.7588 20.0393 20.7341 16.3476 15.3465 13.546
threshold=6.0500000000000007 5.7500000000000009 1.0000000180025095e-35 6.2500000000000009 32.550000000000004 1.5000000000000002 2.8969938107869146
decision_type=10 10 2 10 10 2 10
left_child=1 4 5 -4 -1 -2 -7
right_child=2 -3 3 -5 -6 6 -8
leaf_value=-0.042805894902210831 0.11332754673142081 0.004837588406289472 0.030565570715294282 0.22419127572685404 0.050894137932719352 0.010317434136899051 0.13582705857275307
leaf_count=58453 2463 6194 200 240 618 553 100
internal_value=0 -0.71287 2.30598 3.75402 -0.822977 2.07853 0.85734
internal_count=68821 65265 3556 440 59071 3116 653
shrinkage=0.05


Tree=6
num_leaves=8
num_cat=0
split_feature=6 6 2 6 0 0 0
split_gain=503.506 25.0632 18.4918 16.4312 12.7633 10.0303 9.59903
threshold=6.0500000000000007 5.6500000000000012 29.050000000000004 6.3500000000000005 47.500000000000007 38.500000000000007 51.500000000000007
decision_type=10 10 8 10 2 2 2
left_child=1 -1 -3 -2 5 -5 -6
right_child=3 2 -4 4 6 -7 -8
leaf_value=-0.042265227409545775 0.055949859629079959 -0.014792745047646084 0.072935004385209834 0.018156783436608013 0.049567148912864789 0.14865100491096603 0.10594323124956945
leaf_count=54990 1873 9272 1003 56 330 549 748
internal_value=0 -0.702279 -0.0706365 1.98044 2.21527 2.81037 1.80171
internal_count=68821 65265 10275 3556 1683 605 1078
shrinkage=0.05


Tree=7
num_leaves=8
num_cat=0
split_feature=6 6 3 2 6 0 0
split_gain=432.545 20.9064 20.194 17.9585 16.7721 8.37651 9.21963
threshold=5.9500000000000011 6.2500000000000009 88.833333333333357 25.050000000000004 5.6500000000000012 35.500000000000007 47.500000000000007
decision_type=10 10 8 8 8 2 2
left_child=3 2 -2 -1 -5 -3 -7
right_child=1 5 -4 4 -6 6 -8
leaf_value=-0.043647340530947522 0.013834501997358337 -0.026470232332320126 0.12694789805192361 -0.036931473870395665 0.013986514872518788 0.11933450429437627 0.079443751403855123
leaf_count=49255 2375 33 405 8207 6514 709 1323
internal_value=0 1.64599 0.760747 -0.724868 -0.255112 1.87733 1.91299
internal_count=68821 4845 2780 63976 14721 2065 2032
shrinkage=0.05


Tree=8
num_leaves=8
num_cat=0
split_feature=6 2 8 6 2 2 8
split_gain=376.739 17.7973 18.6514 16.021 15.4561 12.9151 12.0477
threshold=5.9500000000000011 25.050000000000004 1.0000000180025095e-35 6.7500000000000009 30.750000000000004 34.650000000000013 1.0000000180025095e-35
decision_type=10 8 2 10 8 10 2
left_child=1 -1 5 4 -2 -3 -5
right_child=3 2 -4 6 -6 -7 -8
leaf_value=-0.04335009037453854 0.039731461130071671 -0.026702657846382462 0.065647863394553779 0.081724599488362706 0.1118089364385418 0.078979436922476554 0.16654384029924085
leaf_count=49255 3558 13071 1340 800 424 310 63
internal_value=0 -0.714628 -0.246038 1.4559 1.04427 -0.429346 1.82792
internal_count=68821 63976 14721 4845 3982 13381 863
shrinkage=0.05


Tree=9
num_leaves=8
num_cat=0
split_feature=6 2 8 3 6 2 2
split_gain=331.387 17.6783 16.5546 13.587 21.1974 14.2742 20.1155
threshold=5.9500000000000011 25.050000000000004 1.0000000180025095e-35 88.833333333333357 6.1500000000000012 29.950000000000003 26.250000000000004
decision_type=10 8 2 10 10 10 8
left_child=1 -1 -3 4 -2 6 -5
right_child=3 2 -4 5 -6 -7 -8
leaf_value=-0.043042627352522178 -0.0070306587791049884 -0.020823875479538741 0.059338931758356674 0.11448468544990187 0.064045157439432468 0.15588594367188022 0.0099182779923086203
leaf_count=49255 1845 13381 1340 346 2188 190 276
internal_value=0 -0.704028 -0.235654 1.30194 1.11143 1.96718 1.35804
internal_count=68821 63976 14721 4845 4033 812 622
shrinkage=0.05


Tree=10
num_leaves=8
num_cat=0
split_feature=6 1 4 2 8 0 6
split_gain=294.669 17.8851 13.4373 13.1443 12.9812 17.5226 14.5533
threshold=5.8500000000000005 1.5000000000000002 133.83333333333334 25.450000000000003 1.0000000180025095e-35 53.500000000000007 9.3500000000000032
decision_type=10 2 10 10 2 2 10
left_child=3 4 -3 -1 6 -6 -2
right_child=1 2 -4 -5 5 -7 -8
leaf_value=-0.043121844458004641 0.049907161104742553 -0.015670855310479948 0.062204540866247188 -0.013170035404192397 0.14096930227689128 0.015930778899817852 0.1249857518912013
leaf_count=50245 4316 1394 423 11740 427 193 83
internal_value=0 1.10409 0.263236 -0.736768 1.25685 2.16138 1.11476
internal_count=68821 6836 1817 61985 5019 620 4399
shrinkage=0.05


Tree=11
num_leaves=8
num_cat=0
split_feature=6 6 2 2 8 6 3
split_gain=263.514 16.4731 13.0462 12.4034 11.8507 9.77861 7.15465
threshold=5.8500000000000005 6.2500000000000009 25.450000000000003 28.450000000000003 1.0000000180025095e-35 5.6500000000000012 91.833333333333357
decision_type=10 10 10 8 2 8 10
left_child=2 3 -1 -2 6 -4 -3
right_child=1 4 5 -5 -6 -7 -8
leaf_value=-0.042807491288137642 0.004974205292795535 0.045864323409493458 -0.033147722941437308 0.070927464929556483 0.10467525106482825 0.011818039259273633 0.084968068405443908
leaf_count=50245 3955 1570 6823 816 240 4917 255
internal_value=0 1.00233 -0.726787 0.421169 1.19902 -0.25381 1.05665
internal_count=68821 6836 61985 4771 2065 11740 1825
shrinkage=0.05


Tree=12
num_leaves=8
num_cat=0
split_feature=6 6 6 2 1 0 0
split_gain=236.652 13.5032 13.058 11.5141 9.84465 11.0507 10.131
threshold=5.8500000000000005 6.3500000000000005 5.6500000000000012 25.450000000000003 1.5000000000000002 58.500000000000007 53.500000000000007
decision_type=10 10 8 10 2 2 2
left_child=2 4 -1 -4 5 6 -2
right_child=1 -3 3 -5 -6 -7 -8
leaf_value=-0.045571134065398373 0.038700558135047497 0.055595341840000395 -0.031101661789858567 0.01112481686652686 -0.017318134798978882 0.11111103488148899 -0.025902982324687792
leaf_count=40034 2562 1683 17034 4917 1556 341 694
internal_value=0 0.914418 -0.716623 -0.387498 0.456075 0.70377 0.489127
internal_count=68821 6836 61985 21951 5153 3597 3256
shrinkage=0.05


Tree=13
num_leaves=8
num_cat=0
split_feature=6 6 1 2 5 7 4
split_gain=212.958 13.0625 11.6292 10.8355 10.6515 10.5652 10.348
threshold=5.8500000000000005 5.6500000000000012 1.5000000000000002 25.450000000000003 2.9954166666666668 1.0000000180025095e-35 129.83333333333334
decision_type=10 8 2 10 8 2 10
left_child=1 -1 5 -3 -4 -2 -6
right_child=2 3 4 -5 6 -7 -8
leaf_value=-0.045352821448577711 0.042464989091843805 -0.030508940756918276 -0.0066561120040582213 0.010479001935847696 -0.014182443350588698 0.092315847807635618 0.13381670690737107
leaf_count=40034 4571 17034 1611 4917 117 448 89
internal_value=0 -0.706259 0.836131 -0.375739 0.178317 0.94768 1.54487
internal_count=68821 61985 6836 21951 1817 5019 206
shrinkage=0.05


Tree=14
num_leaves=8
num_cat=0
split_feature=6 6 2 8 2 8 6
split_gain=193.021 16.689 15.7717 8.76777 8.29119 7.79047 7.16107
threshold=5.7500000000000009 6.2500000000000009 32.550000000000004 1.0000000180025095e-35 27.350000000000005 1.0000000180025095e-35 9.3500000000000032
decision_type=10 10 10 2 8 2 10
left_child=2 4 5 6 -2 -1 -3
right_child=1 3 -4 -5 -6 -7 -8
leaf_value=-0.042150888919061678 -0.00037482192483907382 0.035469622199680188 0.053578429764757018 0.08084458772618297 0.041649591268691402 0.0052178050018015327 0.0821877435855628
leaf_count=55812 6077 1734 618 240 1608 2641 91
internal_value=0 0.711695 -0.749664 0.913244 0.245628 -0.794804 0.799169
internal_count=68821 9750 59071 2065 7685 58453 1825
shrinkage=0.05


Tree=15
num_leaves=8
num_cat=0
split_feature=6 2 6 1 3 8 2
split_gain=175.714 14.7742 14.1863 9.13858 7.98624 7.60692 7.03732
threshold=5.7500000000000009 32.550000000000004 6.1500000000000012 1.5000000000000002 91.166666666666671 1.0000000180025095e-35 25.050000000000004
decision_type=10 10 10 2 8 2 10
left_child=1 5 3 4 -2 -1 -7
right_child=2 -3 -4 -5 -6 6 -8
leaf_value=-0.04180437872231705 0.0087261502836420285 0.049279064425912733 0.040423281473921768 -0.029760370005140719 0.072807124106214996 -0.033020003485348393 0.047264670557851801
leaf_count=55812 4250 618 2691 2303 506 1639 1002
internal_value=0 -0.739956 0.657652 0.145721 0.422224 -0.786353 0.0991881
internal_count=68821 59071 9750 7059 4756 58453 2641
shrinkage=0.05


Tree=16
num_leaves=8
num_cat=0
split_feature=6 2 1 2 5 7 6
split_gain=160.033 14.0304 12.6164 11.1707 11.8966 7.16885 8.31304
threshold=5.7500000000000009 31.650000000000002 1.5000000000000002 27.650000000000002 2.7549095109742017 1.0000000180025095e-35 9.3500000000000032
decision_type=10 10 2 10 10 2 10
left_child=1 -1 5 -4 -5 6 -2
right_child=2 -3 3 4 -6 -7 -8
leaf_value=-0.039126059295230504 0.028664489418471873 0.039303726364018826 -0.020715207149211927 -0.0013509012116907501 0.1105449772704909 0.069169739348430292 0.077740703423831922
leaf_count=58172 6266 899 2399 292 120 592 81
internal_value=0 -0.730023 0.607935 -0.00213068 0.87862 0.716558 0.641791
internal_count=68821 59071 9750 2811 412 6939 6347
shrinkage=0.05


Tree=17
num_leaves=8
num_cat=0
split_feature=6 2 6 1 0 2 0
split_gain=146.235 13.2428 11.6939 9.70627 8.16028 9.57655 13.4703
threshold=5.7500000000000009 31.650000000000002 6.7500000000000009 1.5000000000000002 58.500000000000007 22.950000000000003 60.500000000000007
decision_type=10 10 10 2 2 10 2
left_child=1 -1 3 4 -2 -6 -7
right_child=2 -3 -4 -5 5 6 -8
leaf_value=-0.038686356144682126 0.018270891233040824 0.036420606096971217 0.041661767808750902 -0.013669899448379786 -0.019211693686601423 0.15009094077294816 0.014636124679816905
leaf_count=58172 5584 899 863 2711 184 203 205
internal_value=0 -0.719871 0.564373 0.336058 0.482656 1.33296 1.84262
internal_count=68821 59071 9750 8887 6176 592 408
shrinkage=0.05


Tree=18
num_leaves=8
num_cat=0
split_feature=6 2 6 1 6 5 6
split_gain=133.766 12.5154 10.1137 8.18622 6.24658 5.63675 4.76334
threshold=5.7500000000000009 31.650000000000002 6.2500000000000009 1.5000000000000002 5.6500000000000012 2.9300285597715221 5.5500000000000007
decision_type=10 10 10 2 8 10 8
left_child=1 4 3 -2 -1 -6 -3
right_child=2 6 -4 -5 5 -7 -8
leaf_value=-0.045629770561879807 0.01852930100581144 -0.018896016631388832 0.033478859234271158 -0.025247577773911303 -0.030656818861267726 0.012491714685034289 0.064813725864430058
leaf_count=39482 5227 431 2065 2458 15759 2931 468
internal_value=0 -0.709504 0.524807 0.170562 -0.7647 -0.466549 0.67634
internal_count=68821 59071 9750 7685 58172 18690 899
shrinkage=0.05


Tree=19
num_leaves=8
num_cat=0
split_feature=6 2 6 2 2 6 8
split_gain=122.37 11.8619 8.97251 7.79467 8.79687 12.2083 6.54007
threshold=5.7500000000000009 31.650000000000002 6.7500000000000009 20.550000000000004 21.150000000000002 6.0500000000000007 1.0000000180025095e-35
decision_type=10 10 10 8 10 10 2
left_child=1 6 3 -2 5 -5 -1
right_child=2 -3 -4 4 -6 -7 -8
leaf_value=-0.040325361324456993 -0.026975550732184286 0.031554572771569221 0.035781074244587763 -0.013530696527115835 0.015182622395427437 0.14580095972722759 0.005611916757386399
leaf_count=55559 1358 899 863 353 7082 94 2613
internal_value=0 -0.698997 0.487853 0.290008 0.372701 1.70493 -0.75551
internal_count=68821 59071 9750 8887 7529 447 58172
shrinkage=0.05


Tree=20
num_leaves=8
num_cat=0
split_feature=6 2 2 1 6 8 6
split_gain=112.199 11.2318 8.27224 11.5056 8.24172 7.99999 6.55754
threshold=5.7500000000000009 31.650000000000002 27.350000000000005 1.5000000000000002 9.3500000000000032 1.0000000180025095e-35 5.6500000000000012
decision_type=10 10 8 2 10 2 8
left_child=1 6 3 4 -2 -4 -1
right_child=2 -3 5 -5 -6 -7 -8
leaf_value=-0.045232876910178917 0.017169238011156031 0.029400536602667449 0.027626760682361164 -0.020042901904661375 0.072751707764216952 0.070597504712336667 -0.021698940441787377
leaf_count=39482 4933 899 2030 2360 51 376 18690
internal_value=0 -0.688232 0.455147 0.293852 0.420809 0.7084 -0.746034
internal_count=68821 59071 9750 7344 4984 2406 58172
shrinkage=0.05


Tree=21
num_leaves=8
num_cat=0
split_feature=6 6 3 2 5 5 6
split_gain=103.324 10.5359 10.7501 8.7874 6.80032 8.98708 6.32019
threshold=5.6500000000000012 6.1500000000000012 91.833333333333357 31.650000000000002 3.3172667440960129 2.2516666666666674 1.0000000180025095e-35
decision_type=10 10 10 8 10 10 10
left_child=6 2 3 -2 5 -4 -1
right_child=1 -3 4 -5 -6 -7 -8
leaf_value=-0.018678369927369372 -0.013953849433061253 0.026207017521639026 0.0021169915746047764 0.058682470255154329 -0.030003286088623189 0.11701019744576593 -0.043539793501913657
leaf_count=14956 9871 2691 366 395 143 365 40034
internal_value=0 0.396479 0.0256028 -0.152427 1.04932 1.4605 -0.725489
internal_count=68821 13831 11140 10266 874 731 54990
shrinkage=0.05


Tree=22
num_leaves=8
num_cat=0
split_feature=6 3 2 6 5 3 0
split_gain=95.2816 9.15894 6.99216 9.98436 9.00172 8.90775 8.22354
threshold=5.6500000000000012 63.833333333333336 29.750000000000004 7.6500000000000012 2.5839743589743596 77.833333333333357 58.500000000000007
decision_type=10 10 8 10 10 10 2
left_child=-1 -2 3 6 -4 -5 -3
right_child=1 2 4 5 -6 -7 -8
leaf_value=-0.035768941949613803 -0.022226209125587086 0.0057246058436096576 0.010347898236534196 0.08592707998304816 0.055298299699545153 0.022555891739870274 0.041200680786332031
leaf_count=54990 1720 9520 583 67 783 153 1005
internal_value=0 0.371311 0.419923 0.319915 0.757925 0.87812 0.210751
internal_count=68821 13831 12111 10745 1366 220 10525
shrinkage=0.05


Tree=23
num_leaves=8
num_cat=0
split_feature=6 8 3 6 2 0 3
split_gain=87.9237 9.71776 11.3992 11.9872 9.3747 12.0203 10.0034
threshold=5.6500000000000012 1.0000000180025095e-35 91.833333333333357 6.1500000000000012 28.550000000000004 47.500000000000007 75.833333333333357
decision_type=10 2 10 10 8 2 10
left_child=-1 2 3 -2 6 -6 -3
right_child=1 4 -4 -5 5 -7 -8
leaf_value=-0.035248841150381051 -0.014330238714026789 0.069569910737282373 0.040812631686707505 0.015908893515297794 0.12374519472104797 0.022117119223593631 -0.0065133018648620387
leaf_count=54990 9299 413 1069 2042 140 170 698
internal_value=0 0.348326 0.26574 0.160859 0.873401 1.534 0.382934
internal_count=68821 13831 12410 11341 1421 310 1111
shrinkage=0.05


Tree=24
num_leaves=8
num_cat=0
split_feature=6 8 3 6 2 2 2
split_gain=81.2221 8.51059 9.81618 10.7612 8.28695 14.5968 11.309
threshold=5.6500000000000012 1.0000000180025095e-35 91.833333333333357 6.1500000000000012 24.650000000000002 26.550000000000004 29.250000000000004
decision_type=10 2 10 10 10 10 10
left_child=-1 2 3 -2 -4 -6 -7
right_child=1 -3 4 -5 5 6 -8
leaf_value=-0.034718385765539192 -0.013824754740623666 0.040560784352595636 -0.009830228275516939 0.014926531083887327 0.11426217699597295 -0.019408726559138615 0.056038611876600065
leaf_count=54990 9299 1421 369 2042 195 251 254
internal_value=0 0.327501 0.249974 0.151852 0.751723 1.01222 0.531674
internal_count=68821 13831 12410 11341 1069 700 505
shrinkage=0.05


end of trees

feature importances:
H25_a1c=65
H25_bmi=40
H25_age=18
H25_dbp=15
H25_dl=13
H25_sex=11
H25_lhrate=9
H25_sbp=2
H25_ht=2

parameters:
[boosting: gbdt]
[objective: binary]
[metric: binary]
[tree_learner: serial]
[device_type: cpu]
[data: ]
[valid: ]
[num_iterations: 100]
[learning_rate: 0.05]
[num_leaves: 8]
[num_threads: 0]
[max_depth: -1]
[min_data_in_leaf: 20]
[min_sum_hessian_in_leaf: 1]
[bagging_fraction: 0.4]
[bagging_freq: 0]
[bagging_seed: 3]
[feature_fraction: 0.9]
[feature_fraction_seed: 2]
[early_stopping_round: 0]
[max_delta_step: 0]
[lambda_l1: 0]
[lambda_l2: 1]
[min_gain_to_split: 0]
[drop_rate: 0.1]
[max_drop: 50]
[skip_drop: 0.5]
[xgboost_dart_mode: 0]
[uniform_drop: 0]
[drop_seed: 4]
[top_rate: 0.2]
[other_rate: 0.1]
[min_data_per_group: 100]
[max_cat_threshold: 32]
[cat_l2: 10]
[cat_smooth: 10]
[max_cat_to_onehot: 4]
[top_k: 20]
[monotone_constraints: ]
[feature_contri: ]
[forcedsplits_filename: ]
[refit_decay_rate: 0.9]
[verbosity: 0]
[max_bin: 255]
[min_data_in_bin: 3]
[bin_construct_sample_cnt: 200000]
[histogram_pool_size: -1]
[data_random_seed: 1]
[output_model: LightGBM_model.txt]
[snapshot_freq: -1]
[input_model: ]
[output_result: LightGBM_predict_result.txt]
[initscore_filename: ]
[valid_data_initscores: ]
[pre_partition: 0]
[enable_bundle: 1]
[max_conflict_rate: 0]
[is_enable_sparse: 1]
[sparse_threshold: 0.8]
[use_missing: 1]
[zero_as_missing: 0]
[two_round: 0]
[save_binary: 0]
[enable_load_from_binary_file: 1]
[header: 0]
[label_column: ]
[weight_column: ]
[group_column: ]
[ignore_column: ]
[categorical_feature: ]
[predict_raw_score: 0]
[predict_leaf_index: 0]
[predict_contrib: 0]
[num_iteration_predict: -1]
[pred_early_stop: 0]
[pred_early_stop_freq: 10]
[pred_early_stop_margin: 10]
[convert_model_language: ]
[convert_model: gbdt_prediction.cpp]
[num_class: 1]
[is_unbalance: 0]
[scale_pos_weight: 1]
[sigmoid: 1]
[boost_from_average: 1]
[reg_sqrt: 0]
[alpha: 0.9]
[fair_c: 1]
[poisson_max_delta_step: 0.7]
[tweedie_variance_power: 1.5]
[max_position: 20]
[label_gain: ]
[metric_freq: 1]
[is_provide_training_metric: 0]
[eval_at: ]
[num_machines: 1]
[local_listen_port: 12400]
[time_out: 120]
[machine_list_filename: ]
[machines: ]
[gpu_platform_id: -1]
[gpu_device_id: -1]
[gpu_use_dp: 0]

end of parameters

pandas_categorical:[]
