tree
version=v2
num_class=1
num_tree_per_iteration=1
label_index=0
max_feature_idx=9
objective=binary sigmoid:1
feature_names=H25_age H25_sex H25_bmi H25_dbp H25_sbp H25_lhrate H25_a1c H25_dm H25_dl H25_is_medicine
feature_infos=[18:74] [1:2] [2.7999999999999998:65.599999999999994] [31:145] [71:228] [0.097560975609756101:8.8461538461538485] [2.7999999999999998:15.300000000000001] [0:1] [0:1] [0:2]
tree_sizes=1332 1355 1344 1347 1359 1359 1353 1351 1361 1360 1361 1365 1365 1364 1365 1366 1368 1363 1371 1366 1368 1372 1369 1377 1378

Tree=0
num_leaves=16
num_cat=0
split_feature=3 3 0 0 4 3 2 3 2 0 2 4 0 3 0
split_gain=5431.44 1370.03 554.696 493.426 363.088 316.308 175.727 140.973 116.214 108.194 98.7166 92.7408 82.1291 81.6998 75.2448
threshold=89.583333333333357 79.166666666666671 56.500000000000007 56.500000000000007 139.25000000000003 101.58333333333336 24.450000000000003 92.583333333333357 26.950000000000003 47.500000000000007 25.050000000000004 131.83333333333334 38.500000000000007 85.583333333333357 50.500000000000007
decision_type=10 10 2 2 10 10 8 10 8 2 8 10 2 10 2
left_child=1 3 4 9 8 7 -5 14 13 -1 -11 -4 -6 -3 -2
right_child=5 2 11 6 12 -7 -8 -9 -10 10 -12 -13 -14 -15 -16
leaf_value=-2.7763019203819579 -2.6236202870074914 -2.7399190519045478 -2.6319855571025359 -2.7082983445752027 -2.7335862351967672 -2.3541592206365767 -2.5830422406643887 -2.4925125334162144 -2.6775755078462438 -2.761419955780156 -2.7097936741665425 -2.5253040061112344 -2.5970981100008941 -2.6980401317054388 -2.5214744739155943
leaf_count=32913 863 7524 746 2017 221 555 630 2205 2376 9488 1930 788 1425 2759 568
internal_value=0 -0.307484 0.753629 -0.665393 0.495854 4.59092 1.08033 4.10519 0.254558 -0.770014 -0.418947 3.12489 2.3295 0.0616273 3.01383
internal_count=67008 62817 15839 46978 14305 4191 2647 3636 12659 44331 11418 1534 1646 10283 1431
shrinkage=1


Tree=1
num_leaves=16
num_cat=0
split_feature=3 0 3 3 2 4 4 4 4 4 2 2 4 0 6
split_gain=4124.53 966.734 530.901 474.605 364.852 173.984 148.827 128.175 118.491 95.3694 79.6288 69.4487 56.9015 50.466 48.8969
threshold=87.833333333333357 53.500000000000007 79.583333333333357 92.583333333333357 24.450000000000003 131.83333333333334 139.25000000000003 135.83333333333334 139.25000000000003 144.16666666666671 26.250000000000004 25.550000000000004 112.33333333333336 38.500000000000007 5.8500000000000005
decision_type=10 2 10 10 8 10 10 8 10 10 8 8 10 2 10
left_child=1 2 11 8 5 12 10 -6 -2 -5 -4 -1 -3 -10 -13
right_child=3 4 6 9 7 -7 -8 -9 13 -11 -12 14 -14 -15 -16
leaf_value=-0.043540165363060809 0.068386160315511715 -0.027395561662937041 -0.0076444776132584564 0.15770170351209256 0.093262772596915566 0.091824604541886443 0.081541667827589148 0.21676352080592773 0.01747697205523437 0.23300026194037482 0.035081157008275722 -0.026895736876239341 0.020795296214214762 0.15585418170084592 0.026078150838174708
leaf_count=35986 2398 1708 7612 1188 1615 1102 1048 419 123 1572 2422 4999 2759 1157 900
internal_value=0 -0.369615 -0.577234 2.91178 0.989962 0.42772 0.223507 2.42397 1.92187 4.04154 0.0602258 -0.800399 0.0500856 2.87496 -0.37375
internal_count=67008 60570 52967 6438 7603 5569 11082 2034 3678 2760 10034 41885 4467 1280 5899
shrinkage=0.05


Tree=2
num_leaves=16
num_cat=0
split_feature=3 3 0 2 3 0 4 4 4 2 0 2 4 6 0
split_gain=3411.99 758.26 673.939 234.047 199.688 157.353 125.109 115.397 102.375 91.564 68.5265 59.9635 56.6527 52.5956 49.5041
threshold=83.166666666666671 89.583333333333357 53.500000000000007 24.550000000000004 75.833333333333357 56.500000000000007 139.25000000000003 143.16666666666671 127.16666666666667 24.750000000000004 38.500000000000007 21.550000000000004 121.16666666666667 8.2500000000000018 47.500000000000007
decision_type=10 10 2 8 10 2 10 10 10 8 2 8 8 10 2
left_child=2 5 4 8 -1 6 13 10 -4 -6 -3 -9 -5 -2 -11
right_child=1 7 3 12 9 -7 -8 11 -10 14 -12 -13 -14 -15 -16
leaf_value=-0.043126446905943423 0.02445102017330127 -0.0029779468725770778 -0.0055686178064269275 0.051526310194545538 -0.025354846258268993 0.12748345902804245 0.093942512459228134 0.10371183359444494 0.062355946733374114 -0.0027354637610199554 0.12247743124800843 0.1865930071662418 0.12704487398272549 0.19395656448104404 0.044825066434439932
leaf_count=34837 6012 161 3754 646 8853 789 1214 360 1161 3257 1857 1813 937 59 1298
internal_value=0 1.7717 -0.502403 0.708473 -0.687123 0.993451 0.791359 2.9293 0.236861 -0.250947 2.25845 3.47094 1.95469 0.533629 0.224572
internal_count=67008 12265 54743 6498 48245 8074 7285 4191 4915 13408 2018 2173 1583 6071 4555
shrinkage=0.05


Tree=3
num_leaves=16
num_cat=0
split_feature=3 0 3 3 4 0 4 2 2 3 0 0 0 0 6
split_gain=2917.78 621.571 538.668 195.576 189.352 117.913 98.2 96.4495 84.6696 82.1147 52.084 45.4662 41.9678 40.8494 40.8246
threshold=83.166666666666671 53.500000000000007 89.583333333333357 75.833333333333357 116.16666666666667 56.500000000000007 139.25000000000003 24.550000000000004 24.750000000000004 95.833333333333357 56.500000000000007 42.500000000000007 38.500000000000007 44.500000000000007 8.2500000000000018
decision_type=10 2 10 10 8 2 10 8 8 10 2 2 2 2 10
left_child=1 3 5 -1 -3 6 14 10 13 12 -6 -10 -4 -5 -2
right_child=2 4 9 8 7 -7 -8 -9 11 -11 -12 -13 -14 -15 -16
leaf_value=-0.042613903925969338 0.022731367696343721 -0.01113509883316683 0.022959481696366562 -0.039018293535237884 0.0041067972730204298 0.1088849371023871 0.082411438532946787 0.10020158433385584 -0.014137058950437971 0.14950932147130144 0.060517454564956663 0.027792992041011624 0.10779226020766595 -0.0097084528922522818 0.16265388106306228
leaf_count=34837 6012 2644 215 4517 1225 789 1214 1195 1919 1742 1434 2636 2234 4336 59
internal_value=0 -0.488706 1.56093 -0.673607 0.651996 0.904103 0.72657 1.17762 -0.241288 2.46697 0.716843 0.211162 2.02514 -0.492982 0.495698
internal_count=67008 54743 12265 48245 6498 8074 7285 3854 13408 4191 2659 4555 2449 8853 6071
shrinkage=0.05


Tree=4
num_leaves=16
num_cat=0
split_feature=4 3 3 0 0 0 2 4 9 0 0 0 2 6 2
split_gain=2534.81 455.281 423.099 228.724 172.887 143.187 138.333 112.722 63.0582 63.0182 56.7118 53.6721 50.7528 47.5161 47.2527
threshold=131.83333333333334 89.583333333333357 77.583333333333357 55.500000000000007 56.500000000000007 47.500000000000007 23.550000000000004 139.25000000000003 1.0000000180025095e-35 38.500000000000007 48.500000000000007 56.500000000000007 23.750000000000004 5.8500000000000005 22.850000000000005
decision_type=10 10 8 2 2 2 8 10 2 2 2 2 8 10 8
left_child=2 3 4 7 10 8 -7 -2 -4 -9 -1 -8 -3 -5 -6
right_child=1 12 5 13 14 6 11 9 -10 -11 -12 -13 -14 -15 -16
leaf_value=-0.044636171363030941 0.013917979463927225 0.085070409614279904 -0.018450959817926351 0.081653492570254782 -0.0072622735837642397 -0.00097114759478310786 0.045870046751371581 -0.014230012801827835 0.066208108458145717 0.079597206464763481 -0.023581160982062168 0.11177166143215851 0.12496611674431767 0.15305444700151002 0.053858439071872849
leaf_count=30928 6809 1369 6489 983 1197 2959 2146 335 372 1587 7777 511 2330 413 803
internal_value=0 1.33495 -0.497261 0.830446 -0.730444 0.146539 0.605054 0.552559 -0.269356 1.31711 -0.804288 1.22538 2.21334 2.08994 0.399251
internal_count=67008 13826 53182 10127 40705 12477 5616 8731 6861 1922 38705 2657 3699 1396 2000
shrinkage=0.05


Tree=5
num_leaves=16
num_cat=0
split_feature=3 0 3 3 4 0 2 4 2 0 3 0 0 6 2
split_gain=2234.77 535.981 300.527 184.639 142.623 89.6542 75.8565 71.7607 67.2263 49.3058 45.4686 38.6263 37.8332 37.6585 37.1977
threshold=83.166666666666671 53.500000000000007 90.583333333333357 75.833333333333357 116.16666666666667 56.500000000000007 24.750000000000004 139.25000000000003 22.450000000000003 56.500000000000007 104.16666666666667 44.500000000000007 39.500000000000007 5.8500000000000005 26.850000000000005
decision_type=10 2 10 10 8 2 8 10 8 2 10 2 2 10 10
left_child=1 3 5 14 -3 7 11 12 -6 -10 -4 -5 -2 -8 -1
right_child=2 4 10 6 8 -7 13 -9 9 -11 -12 -13 -14 -15 -16
leaf_value=-0.043628282746878216 -0.01525104369223855 -0.010699371596384852 0.090781079624920741 -0.038162171045702187 0.016866012547677792 0.090091919471548154 0.00069678513166107018 0.066508933077628382 0.035316022727161472 0.089836484340933942 0.14601137128378555 -0.009241173236297839 0.029496630393557356 0.048623567777906669 -0.01380631434147804
leaf_count=32535 860 2644 3238 4517 1575 864 3755 1456 1024 1255 340 4336 5507 800 2302
internal_value=0 -0.463657 1.26651 -0.648304 0.561901 0.828999 -0.228965 0.678142 0.98669 1.35975 1.9474 -0.474074 0.471668 0.193255 -0.832157
internal_count=67008 54743 12265 48245 6498 8687 13408 7823 3854 2279 3578 8853 6367 4555 34837
shrinkage=0.05


Tree=6
num_leaves=16
num_cat=0
split_feature=4 3 4 0 0 2 0 3 2 0 9 4 2 2 0
split_gain=1985.43 376.688 284.616 157.59 114.843 108.367 107.86 89.478 74.34 67.7764 53.7989 53.7218 51.292 48.7596 38.049
threshold=131.83333333333334 77.583333333333357 139.25000000000003 49.500000000000007 47.500000000000007 23.550000000000004 57.500000000000007 85.583333333333357 29.250000000000004 38.500000000000007 1.0000000180025095e-35 114.25000000000001 24.350000000000005 25.650000000000002 54.500000000000007
decision_type=10 8 10 2 2 8 2 10 10 2 2 10 8 8 2
left_child=1 3 6 -1 10 -6 7 13 11 -4 -3 -5 14 -2 -11
right_child=2 4 9 8 5 -7 -8 -9 -10 12 -12 -13 -14 -15 -16
leaf_value=-0.043151366476795482 -0.0084264356103929388 -0.017728942918539228 0.023803929188956893 -0.028980666999337275 -0.0019344213832276523 0.051842975501892347 0.091578889845595285 0.04766224190984656 0.11645479318674577 0.054542179117843127 0.058086395948899507 0.0058854874925302241 0.10171947835145723 0.034271396924050339 0.099714382430885762
leaf_count=32382 3620 6489 574 4567 2959 2657 648 2756 150 1566 372 3606 2425 1583 654
internal_value=0 -0.472515 1.10615 -0.706108 0.123489 0.518069 0.618525 0.464983 -0.188839 1.62485 -0.257765 -0.253406 1.73411 0.111759 1.37295
internal_count=67008 53182 13826 40705 12477 5616 8607 7959 8323 5219 6861 8173 4645 5203 2220
shrinkage=0.05


Tree=7
num_leaves=16
num_cat=0
split_feature=3 0 3 3 0 2 0 2 2 2 3 2 4 0 4
split_gain=1764.75 406.944 289.422 142.151 106.209 92.5658 75.1736 56.676 51.4673 50.3105 38.0564 37.828 37.4872 32.475 31.9852
threshold=81.250000000000014 56.500000000000007 89.583333333333357 73.166666666666671 47.500000000000007 22.450000000000003 44.500000000000007 23.950000000000003 29.450000000000003 24.150000000000002 101.58333333333336 29.250000000000004 133.83333333333334 57.500000000000007 115.33333333333336
decision_type=10 2 10 10 2 8 2 8 8 8 10 10 10 2 8
left_child=1 3 4 11 8 12 -5 -6 -2 -8 13 -1 -3 -4 -7
right_child=2 5 10 6 7 14 9 -9 -10 -11 -12 -13 -14 -15 -16
leaf_value=-0.042027260826105396 0.0020417959209308922 -0.012578508943567322 0.064346714922568424 -0.031106495159207354 0.026749962925765283 0.021944748386118131 -0.014656286280934811 0.063270870669619769 0.057089976657968472 0.019745031849494651 0.10735774894905709 0.010708039644767716 0.071811782463492721 0.11028303731336356 0.080836650727306031
leaf_count=31855 5380 1316 3276 7676 2991 481 4993 2593 659 2926 555 703 170 360 1074
internal_value=0 -0.503358 0.923391 -0.62948 0.554973 0.78722 -0.2932 0.897941 0.177131 -0.0117687 1.51667 -0.815575 0.0278613 1.38858 1.3347
internal_count=67008 51194 15814 48153 11623 3041 15595 5584 6039 7919 4191 32558 1486 3636 1555
shrinkage=0.05


Tree=8
num_leaves=16
num_cat=0
split_feature=4 3 4 0 0 2 0 2 2 9 0 3 0 3 0
split_gain=1586.93 334.426 200.202 157.305 121.901 94.763 86.2599 58.3231 57.8158 52.7816 51.3707 40.6811 39.6147 36.2168 36.0081
threshold=131.83333333333334 73.166666666666671 144.16666666666671 47.500000000000007 38.500000000000007 23.750000000000004 53.500000000000007 23.650000000000002 29.050000000000004 1.0000000180025095e-35 57.500000000000007 83.166666666666671 56.500000000000007 93.833333333333357 50.500000000000007
decision_type=10 8 10 2 2 8 2 8 10 2 2 10 2 10 2
left_child=1 6 4 9 -2 -5 -1 10 -8 11 -6 -3 -7 14 -9
right_child=2 3 -4 5 7 12 8 13 -10 -11 -12 -13 -14 -15 -16
leaf_value=-0.04266240047970038 -0.023267878872331078 -0.030787492212447667 0.0765860997703387 -0.0026045146255594793 0.014213925746111918 0.02774434315190091 -0.010938633109843204 0.031401344656639345 0.13454238604920873 0.038663389457104562 0.071847348557729535 0.0018740742223714029 0.073253557011822512 0.08425820164185005 0.063808606542006763
leaf_count=30263 1436 9154 3092 4892 3767 2831 2868 3015 67 586 425 1879 642 538 1553
internal_value=0 -0.44858 0.936701 -0.0415902 0.657739 0.346185 -0.764394 0.788584 -0.101123 -0.397747 0.454473 -0.473146 0.782292 1.02601 0.893671
internal_count=67008 53182 13826 19984 10734 8365 33198 9298 2935 11619 4192 11033 3473 5106 4568
shrinkage=0.05


Tree=9
num_leaves=16
num_cat=0
split_feature=3 0 3 2 2 0 6 2 0 0 2 0 4 4 4
split_gain=1420.44 364.043 201.596 111.333 89.6329 78.9902 54.2479 43.4316 43.2579 39.7458 39.5276 37.1417 37.017 32.6616 30.5954
threshold=81.250000000000014 53.500000000000007 89.583333333333357 24.650000000000002 22.450000000000003 47.500000000000007 5.8500000000000005 28.150000000000002 60.500000000000007 56.500000000000007 24.250000000000004 46.500000000000007 134.83333333333334 139.25000000000003 130.83333333333334
decision_type=10 2 10 8 8 2 10 8 2 2 8 2 10 10 10
left_child=1 3 5 11 12 7 14 -2 10 -6 -7 -1 -3 -13 -5
right_child=2 4 -4 6 9 8 -8 -9 -10 -11 -12 13 -14 -15 -16
leaf_value=-0.04399576237257171 -0.00045250638163848994 -0.01624686816747805 0.062774802958418863 -0.025121539883908851 0.013722708839350551 0.019235036477950385 0.028117765453127243 0.041086927773930949 0.092131578581620008 0.056659637449034052 0.049939440310948206 -0.028095231039144325 0.053806386246520004 0.08059005572317747 0.010903256083327647
leaf_count=26646 5015 2715 4191 6986 1330 3031 1317 1024 298 1555 2255 9075 234 93 1243
internal_value=0 -0.478121 0.786945 -0.65313 0.391148 0.481194 -0.226122 0.154339 0.764033 0.80112 0.674048 -0.784297 -0.15281 -0.526015 -0.372173
internal_count=67008 51194 15814 45360 5834 11623 9546 6039 5584 2885 5286 35814 2949 9168 8229
shrinkage=0.05


Tree=10
num_leaves=16
num_cat=0
split_feature=4 4 0 0 2 3 2 3 0 3 0 2 2 2 2
split_gain=1294.66 237.123 234.789 123.505 108.873 88.5869 58.6154 61.7985 53.0365 45.8938 40.1613 35.9784 35.7343 32.2191 30.2055
threshold=127.16666666666667 139.25000000000003 50.500000000000007 41.500000000000007 22.850000000000005 74.833333333333357 28.550000000000004 85.583333333333357 58.500000000000007 73.833333333333357 38.500000000000007 29.050000000000004 25.650000000000002 38.250000000000007 21.650000000000002
decision_type=10 10 2 2 8 10 8 10 2 8 2 10 10 8 8
left_child=2 3 5 12 -4 -1 7 8 -5 11 -3 -6 -2 -7 -12
right_child=1 10 4 6 9 13 -8 -9 -10 -11 14 -13 -14 -15 -16
leaf_value=-0.043012463555295685 -0.030265202189093982 0.014564657112010182 -0.019301101443616256 0.0029097010171445568 -0.0096995271923201853 -0.019173265289565866 0.065060447017513484 0.041195533202594531 0.055922291359090597 0.042053785219795699 0.035258255869920228 0.10072937589655132 0.010717035654692807 0.08104701019542658 0.065451423594415969
leaf_count=28619 2719 574 5264 5941 1611 9540 1066 2857 515 2116 879 80 1345 116 3766
internal_value=0 0.662945 -0.517245 0.352114 0.0585709 -0.706214 0.545346 0.442003 0.199169 0.516323 1.13084 -0.0197441 -0.29742 -0.350962 1.20492
internal_count=67008 19662 47346 14443 9071 38275 10379 9313 6456 3807 5219 1691 4064 9656 4645
shrinkage=0.05


Tree=11
num_leaves=16
num_cat=0
split_feature=3 0 3 0 4 2 4 2 3 9 2 0 2 0 5
split_gain=1171.65 264.987 202.32 91.7409 72.2789 65.5054 46.3232 45.3538 44.4903 41.5003 27.4783 27.4351 26.5156 26.5553 31.7277
threshold=79.166666666666671 52.500000000000007 87.833333333333357 44.500000000000007 115.33333333333336 25.550000000000004 131.83333333333334 26.250000000000004 95.833333333333357 1.0000000180025095e-35 21.750000000000004 46.500000000000007 22.950000000000003 58.500000000000007 1.7679865424430645
decision_type=10 2 10 2 8 8 10 10 10 2 8 2 8 2 10
left_child=1 5 3 7 -3 11 12 -2 -4 -7 -6 -1 -5 -14 -15
right_child=2 4 8 6 10 9 -8 -9 -10 -11 -12 -13 13 14 -16
leaf_value=-0.043489380359198901 -0.02178847707824021 -0.016139965243978698 0.039430518298300875 -0.0063962278075113746 0.00072105192984545259 -0.019020049688582702 0.038655604404852176 0.019659967386945351 0.064457174581285206 0.044691834696312216 0.038237919870148143 -0.026988710493908677 0.016288341813258451 0.19607583596677622 0.042343857720605393
leaf_count=26949 3772 2934 4696 2115 1127 5230 3529 1386 1742 529 2123 8086 2593 32 165
internal_value=0 -0.523767 0.593436 0.280207 0.21251 -0.70036 0.493899 -0.173175 0.964904 -0.245192 0.553668 -0.788206 0.234963 0.452489 1.46944
internal_count=67008 46978 20030 13592 6184 40794 8434 5158 6438 5759 3250 35035 4905 2790 197
shrinkage=0.05


Tree=12
num_leaves=16
num_cat=0
split_feature=4 0 4 2 0 3 2 3 0 0 4 0 2 6 6
split_gain=1066.67 215.658 174.984 103.709 99.2273 69.0272 45.9117 45.6548 41.9806 36.3941 31.7287 35.3105 31.4529 29.9163 26.3313
threshold=127.16666666666667 48.500000000000007 139.25000000000003 22.850000000000005 41.500000000000007 74.833333333333357 28.550000000000004 85.583333333333357 58.500000000000007 56.500000000000007 147.83333333333334 38.500000000000007 25.650000000000002 7.2500000000000009 5.9500000000000011
decision_type=10 2 10 8 2 10 8 10 2 2 10 2 10 10 8
left_child=1 5 4 13 12 -1 7 8 -6 -5 11 -4 -2 -3 -12
right_child=2 3 10 9 6 -7 -8 -9 -10 -11 14 -13 -14 -15 -16
leaf_value=-0.043450375494481601 -0.029135987434310919 -0.022624472923579511 -0.017495970293273901 0.0064622425338736692 0.0023676213995300335 -0.018731603461109858 0.056011995911760405 0.03505678634798106 0.048219998246785592 0.041432602438253231 0.048861728799464405 0.041939884778343955 0.0094368803311673764 0.10319005590536712 0.078946045445324728
leaf_count=26368 2719 7329 341 4070 5941 8359 1066 2857 515 1147 1529 2589 1345 73 760
internal_value=0 -0.492145 0.577401 -0.0401709 0.310494 -0.723354 0.476654 0.385138 0.175308 0.34996 0.963509 0.748351 -0.281645 -0.419624 1.18169
internal_count=67008 47346 19662 12619 14443 34727 10379 9313 6456 5217 5219 2930 4064 7402 2289
shrinkage=0.05


Tree=13
num_leaves=16
num_cat=0
split_feature=3 4 0 0 4 2 2 2 0 3 0 3 6 3 0
split_gain=976.97 192.971 187.277 87.4879 71.814 58.9836 34.6865 32.0036 31.2673 29.0065 28.2977 27.1745 29.7358 26.5005 24.3964
threshold=77.583333333333357 139.25000000000003 49.500000000000007 41.500000000000007 115.33333333333336 23.650000000000002 26.050000000000004 30.050000000000004 55.500000000000007 85.583333333333357 56.500000000000007 104.16666666666667 5.5500000000000007 87.583333333333357 53.500000000000007
decision_type=10 10 2 2 8 8 10 10 2 10 2 10 8 10 2
left_child=2 3 6 7 -4 9 -1 -2 13 14 -6 12 -3 -7 -5
right_child=1 11 4 5 10 8 -8 -9 -10 -11 -12 -13 -14 -15 -16
leaf_value=-0.041629360449883274 -0.020117061047465527 0.027689811980876628 -0.022517754709523691 -0.013682524600346227 0.0022257331891764481 0.015359759732362878 -0.015478321992260508 0.034600294083747436 0.05104516321808298 0.022038182767950946 0.035599721918718887 0.075663416008515186 0.050128536737558377 0.041539025038082739 0.016200826599337879
leaf_count=30361 4324 1863 4926 4063 2952 5003 3442 409 997 1840 1167 332 2721 1258 1350
internal_value=0 0.461084 -0.563024 0.239124 -0.040236 0.365338 -0.77111 -0.278073 0.572192 0.100204 0.315492 0.889941 0.824029 0.455208 -0.0796428
internal_count=67008 24160 42848 19244 9045 14511 33803 4733 7258 7253 4119 4916 4584 6261 5413
shrinkage=0.05


Tree=14
num_leaves=16
num_cat=0
split_feature=3 0 3 0 4 2 2 2 4 3 0 0 6 0 0
split_gain=889.671 180.246 169.188 105.944 65.4228 52.0635 40.0246 34.3021 32.6925 31.6905 29.1428 24.5043 22.3574 22.3151 18.606
threshold=77.583333333333357 49.500000000000007 87.833333333333357 44.500000000000007 115.33333333333336 27.450000000000003 30.150000000000002 26.050000000000004 145.83333333333334 92.583333333333357 53.500000000000007 56.500000000000007 6.6500000000000012 51.500000000000007 38.500000000000007
decision_type=10 2 10 2 8 8 10 10 10 10 2 2 10 2 2
left_child=1 7 3 6 12 8 14 -1 10 -4 -5 -6 -3 -7 -2
right_child=2 4 9 5 11 13 -8 -9 -10 -11 -12 -13 -14 -15 -16
leaf_value=-0.041145042266684084 -0.036451387282381079 -0.024760244420758391 0.028067838877029433 0.0023279562952654735 0.0021109432740926914 0.030292053972317379 0.03616692524350567 -0.014922253979732179 0.055711528051278818 0.047449650780416346 0.024057888364050532 0.032907741056961877 0.061368923288765788 0.072149313930646983 -0.010508547757966898
leaf_count=30361 1954 4799 3678 6251 2952 973 504 3442 343 2760 2751 1167 127 482 4464
internal_value=0 -0.549644 0.431319 0.187964 -0.0385077 0.389014 -0.251255 -0.759906 0.276479 0.769115 0.21929 0.296017 -0.436874 0.954243 -0.359482
internal_count=67008 42848 24160 17722 9045 10800 6922 33803 9345 6438 9002 4119 4926 1455 6418
shrinkage=0.05


Tree=15
num_leaves=16
num_cat=0
split_feature=4 0 4 2 0 3 2 3 0 3 0 2 9 4 0
split_gain=813.538 188.964 110.061 88.9369 78.4883 66.1619 36.0488 39.1891 34.2751 33.1851 31.6842 26.1696 25.5268 24.6284 33.282
threshold=127.16666666666667 48.500000000000007 139.25000000000003 21.850000000000005 38.500000000000007 74.833333333333357 28.550000000000004 85.583333333333357 58.500000000000007 71.833333333333357 56.500000000000007 29.050000000000004 1.0000000180025095e-35 159.25000000000003 38.500000000000007
decision_type=10 2 10 8 2 10 8 10 2 8 2 10 2 10 2
left_child=1 5 4 -3 -2 -1 7 8 -6 11 -11 -5 -7 14 -4
right_child=2 3 13 9 6 12 -8 -9 -10 10 -12 -13 -14 -15 -16
leaf_value=-0.042211116258367709 -0.027519771016351304 -0.02551546738940539 -0.0060503895518717078 -0.014053074770455226 -0.00031915121903653516 -0.020703094108011674 0.042645669849915135 0.027438032973972449 0.039334218782347746 0.0098056249218100057 0.044554507271860305 0.07775010651775123 0.029882361357704862 0.059873221044490312 0.03778011349927899
leaf_count=26368 2187 5592 508 2678 7163 7923 1350 3228 515 3325 934 90 436 647 4064
internal_value=0 -0.456623 0.479146 -0.0388271 0.266851 -0.689566 0.359649 0.280345 0.097744 0.23176 0.41596 -0.17401 -0.34491 0.770741 0.691194
internal_count=67008 47346 19662 12619 14443 34727 12256 10906 7678 7027 4259 2768 8359 5219 4572
shrinkage=0.05


Tree=16
num_leaves=16
num_cat=0
split_feature=3 0 3 0 4 2 2 2 4 3 6 6 6 0 2
split_gain=744.213 167.328 128.63 88.5223 56.5177 41.0259 35.7167 34.9858 26.5965 26.3954 25.9171 21.7888 19.9777 19.4536 19.4073
threshold=77.583333333333357 49.500000000000007 87.833333333333357 44.500000000000007 115.33333333333336 27.450000000000003 26.250000000000004 24.250000000000004 131.83333333333334 95.833333333333357 5.7500000000000009 7.2500000000000009 6.6500000000000012 56.500000000000007 23.250000000000004
decision_type=10 2 10 2 8 8 10 10 10 10 10 10 10 2 10
left_child=1 7 3 6 12 8 -2 -1 -5 14 -9 -8 -3 -6 -4
right_child=2 4 9 5 13 -7 11 10 -10 -11 -12 -13 -14 -15 -16
leaf_value=-0.041768169022818005 -0.022627780291984142 -0.023667377022385302 0.01385547620927698 0.0036349427698754173 0.0020702486609967727 0.041707801250151062 0.0057679372867148367 -0.027596104676540702 0.023267784058230118 0.044999067092022026 0.015069208298836918 0.10704572458432467 0.056040610536545327 0.029214776918843922 0.033366066846619649
leaf_count=26892 5150 4799 1663 5980 2952 1455 1716 5912 3365 1742 999 56 127 1167 3033
internal_value=0 -0.523982 0.380667 0.167864 -0.0344509 0.347015 -0.239089 -0.738042 0.246574 0.667138 -0.411329 0.210239 -0.414946 0.26999 0.538837
internal_count=67008 42848 24160 17722 9045 10800 6922 33803 9345 6438 6911 1772 4926 4119 4696
shrinkage=0.05


Tree=17
num_leaves=16
num_cat=0
split_feature=3 0 4 0 4 2 2 3 0 0 6 6 6 4 2
split_gain=678.927 160.574 114.878 63.373 51.4862 46.097 34.742 29.0625 25.1504 24.2114 24.1569 22.4314 20.9524 20.9807 20.6296
threshold=77.583333333333357 49.500000000000007 139.25000000000003 39.500000000000007 115.33333333333336 23.650000000000002 24.250000000000004 83.833333333333357 50.500000000000007 52.500000000000007 5.7500000000000009 5.9500000000000011 5.5500000000000007 153.25000000000003 30.050000000000004
decision_type=10 2 10 2 8 8 10 10 2 2 10 10 8 10 10
left_child=1 6 3 14 -3 7 -1 9 -7 -5 -8 -10 -4 -14 -2
right_child=2 4 12 5 -6 8 10 -9 11 -11 -12 -13 13 -15 -16
leaf_value=-0.041302785262223515 -0.02846738866129683 -0.020093084697576275 0.023279529082414586 -0.021075255289269502 0.01269296496292956 0.013297399734740149 -0.026914028595096329 0.013465613063787957 0.024652438103296669 0.010796578232222104 0.014138328228978092 0.057204408354158409 0.033629092342325806 0.058178145965886829 0.024670702775463408
leaf_count=26892 2658 4926 2020 3643 4119 5469 5912 3184 2131 1282 999 598 2227 669 279
internal_value=0 -0.510727 0.357284 0.185736 -0.0328872 0.260835 -0.726412 0.0366505 0.427841 -0.199982 -0.398573 0.64948 0.671031 0.808555 -0.423467
internal_count=67008 42848 24160 19244 9045 16307 33803 8109 8198 4925 6911 2729 4916 2896 2937
shrinkage=0.05


Tree=18
num_leaves=16
num_cat=0
split_feature=4 0 0 2 4 3 0 2 0 4 9 6 2 6 6
split_gain=623.129 167.333 83.2764 79.7156 56.2656 52.5943 32.8111 32.5095 30.7641 29.8262 27.2145 21.9672 21.4195 19.9982 16.4669
threshold=127.16666666666667 47.500000000000007 38.500000000000007 21.850000000000005 143.16666666666671 73.833333333333357 60.500000000000007 23.750000000000004 56.500000000000007 145.83333333333334 1.0000000180025095e-35 6.1500000000000012 21.550000000000004 7.2500000000000009 5.8500000000000005
decision_type=10 2 2 8 10 10 2 8 2 10 2 10 10 10 8
left_child=1 5 9 -3 6 -1 7 -4 11 -2 -7 -5 -6 -9 -12
right_child=2 3 4 8 12 10 -8 13 -10 -11 14 -13 -14 -15 -16
leaf_value=-0.042089694841171893 -0.026701817496455251 -0.024910595840555015 0.0048597028055663754 -0.0035815157727700185 0.014408453551437498 -0.022266821741175856 0.051592872409146798 0.02029303922301438 0.027862248876515901 0.02364665088089422 0.077149555028583394 0.038054844262334735 0.041482034645094416 0.061574881739677602 -0.0040092746715088452
leaf_count=23827 2471 6542 6417 6015 584 8463 469 6631 1551 290 190 526 2539 261 232
internal_value=0 -0.421728 0.401112 -0.0667266 0.466118 -0.678887 0.343097 0.301825 0.172538 -0.290991 -0.373395 0.0115772 0.738017 0.446347 0.634176
internal_count=67008 47346 19662 14634 16901 32712 13778 13309 8092 2761 8885 6541 3123 6892 422
shrinkage=0.05


Tree=19
num_leaves=16
num_cat=0
split_feature=3 0 3 0 2 2 2 0 0 6 2 6 3 4 2
split_gain=574.028 147.105 92.6075 69.563 46.8308 37.1414 34.7817 26.6357 26.3121 25.0399 22.4474 21.8707 19.8963 17.6344 16.8633
threshold=77.583333333333357 49.500000000000007 87.833333333333357 43.500000000000007 21.050000000000004 30.250000000000004 24.550000000000004 60.500000000000007 52.500000000000007 6.8500000000000005 29.250000000000004 5.7500000000000009 95.833333333333357 114.25000000000001 26.250000000000004
decision_type=10 2 10 2 8 8 10 2 2 10 8 10 10 10 10
left_child=1 6 3 9 -3 8 -1 10 -5 14 13 -8 -4 -6 -2
right_child=2 4 12 5 7 -7 11 -9 -10 -11 -12 -13 -14 -15 -16
leaf_value=-0.040112300075884545 -0.023680694443515199 -0.025856432899614687 0.0222945517218366 0.0035912378705737812 -0.018027393037241629 0.052480346103405566 -0.024930527649455296 0.043189992547621348 0.021235635487414421 0.070044062872247695 0.052497560281528979 0.015602426469362083 0.037588990519351544 0.0082714851839211373 0.0012142364575306376
leaf_count=27624 4488 3245 4696 7356 2279 540 5255 491 3726 97 237 924 1742 2793 1515
internal_value=0 -0.486518 0.318883 0.138466 -0.0331796 0.277872 -0.70416 0.166085 0.225136 -0.265163 0.054949 -0.349338 0.5549 -0.0207076 -0.311668
internal_count=67008 42848 24160 17722 9045 11622 33803 5800 11082 6100 5309 6179 6438 5072 6003
shrinkage=0.05


Tree=20
num_leaves=16
num_cat=0
split_feature=3 0 4 4 0 4 2 2 0 6 3 6 2 0 6
split_gain=524.203 141.501 83.7596 47.9941 37.6853 34.3884 31.6483 31.4449 28.4184 20.3606 18.0865 17.916 17.8731 20.0485 17.4403
threshold=77.583333333333357 48.500000000000007 131.83333333333334 115.33333333333336 39.500000000000007 147.83333333333334 24.550000000000004 23.550000000000004 38.500000000000007 5.7500000000000009 91.583333333333357 6.1500000000000012 23.650000000000002 57.500000000000007 5.9500000000000011
decision_type=10 2 10 8 2 10 10 8 2 10 10 10 8 2 8
left_child=1 6 4 -3 -2 8 -1 10 -4 -8 -6 -5 13 -10 -7
right_child=2 3 5 11 7 14 9 -9 12 -11 -12 -13 -14 -15 -16
leaf_value=-0.040467754413333057 -0.028822998351540393 -0.020228955280765078 -0.014091969699682098 0.0049147352547349692 -0.0087561220417883522 0.027119991037048707 -0.025373786824267337 0.014938414113620221 0.0054682363551639282 0.015489685733616525 0.052331769816855923 0.039474641700960877 0.025026496039014974 0.038319038174261376 0.049392074200585119
leaf_count=26355 1944 5832 1015 4260 5308 1494 5070 5112 3232 843 91 488 4859 367 738
internal_value=0 -0.473484 0.300037 -0.0638169 0.0420513 0.447849 -0.710593 0.117946 0.347516 -0.36017 -0.125116 0.198848 0.392705 0.213226 0.69498
internal_count=67008 42848 24160 10580 12455 11705 32268 10511 9473 5913 5399 4748 8458 3599 2232
shrinkage=0.05


Tree=21
num_leaves=16
num_cat=0
split_feature=4 0 0 4 6 2 2 3 4 0 0 6 3 3 9
split_gain=482.081 105.132 91.8123 71.0249 43.7023 41.9604 31.0134 31.5122 30.5492 21.1867 20.4532 19.9752 19.629 18.8055 15.9434
threshold=121.16666666666667 38.500000000000007 47.500000000000007 139.25000000000003 3.8500000000000001 21.850000000000005 23.650000000000002 85.583333333333357 145.83333333333334 50.500000000000007 61.500000000000007 6.1500000000000012 83.833333333333357 89.833333333333357 1.0000000180025095e-35
decision_type=10 2 2 10 10 8 8 10 10 2 2 10 10 10 2
left_child=2 8 12 4 13 -4 7 -6 -2 14 11 -7 -1 -3 -8
right_child=1 3 5 -5 6 10 9 -9 -10 -11 -12 -13 -14 -15 -16
leaf_value=-0.038487510861921176 -0.028915347405657644 -0.0088862882148364308 -0.02687677343892313 0.028207139021779289 -0.0043178452547380343 -0.0055050293383896226 0.0089861275696809066 0.025272297762993556 0.019205870363374393 0.032458602189812648 0.053103247147821553 0.036245037256040107 0.008931557243126791 0.026526472113058582 0.039800814978012994
leaf_count=25888 4589 5648 5332 4645 6024 4847 4265 1290 290 2305 211 458 364 277 575
internal_value=0 0.25236 -0.516285 0.31878 0.186161 -0.184762 0.293206 0.088123 -0.404622 0.439491 0.0529579 -0.014636 -0.740935 -0.101057 0.27078
internal_count=67008 29908 37100 25029 20384 10848 14459 7314 4879 7145 5516 5305 26252 5925 4840
shrinkage=0.05


Tree=22
num_leaves=16
num_cat=0
split_feature=4 4 0 0 2 0 2 3 0 2 0 3 6 6 6
split_gain=443.284 115.946 75.6186 69.8074 33.7928 33.6054 32.9121 30.5827 30.1998 22.7452 22.1906 20.8081 17.0841 16.0659 15.8078
threshold=118.16666666666667 131.83333333333334 43.500000000000007 47.500000000000007 21.850000000000005 55.500000000000007 28.650000000000002 92.583333333333357 31.500000000000004 24.450000000000003 61.500000000000007 89.833333333333357 6.7500000000000009 6.1500000000000012 4.8500000000000005
decision_type=8 10 2 2 8 2 8 10 2 10 2 10 10 10 10
left_child=3 2 11 -1 -5 7 -4 8 -3 -9 12 -2 -6 -7 -10
right_child=1 5 6 4 10 13 -8 9 14 -11 -12 -13 -14 -15 -16
leaf_value=-0.039727334224287494 -0.024984416844956656 -0.033249974356945627 0.0028816450428212487 -0.029308091712417467 -0.0069378662449643405 0.02798767692210638 0.037192963212272397 0.012378480619611635 0.00054973140599681042 0.036318583515936524 0.057659997162900239 0.03547077197228473 0.061773122447712117 0.057413275971168437 0.016267247571325034
leaf_count=22833 9099 756 11277 4648 4038 1690 859 936 2722 1199 177 124 127 324 6199
internal_value=0 0.204611 -0.0447173 -0.582503 -0.245807 0.380253 0.127308 0.304091 0.191828 0.526621 0.0151754 -0.445854 -0.0746475 0.666045 0.234696
internal_count=67008 35185 21359 31823 8990 13826 12136 11812 9677 2135 4342 9223 4165 2014 8921
shrinkage=0.05


Tree=23
num_leaves=16
num_cat=0
split_feature=3 0 3 0 2 2 2 9 0 0 3 2 2 6 2
split_gain=410.768 125.03 59.4418 54.1538 41.8451 31.9808 28.7171 23.2244 22.5075 22.2892 21.0694 20.0948 19.6994 18.7878 15.9036
threshold=77.583333333333357 48.500000000000007 92.583333333333357 44.500000000000007 21.050000000000004 24.550000000000004 28.250000000000004 1.0000000180025095e-35 56.500000000000007 58.500000000000007 82.250000000000014 30.250000000000004 24.050000000000004 5.7500000000000009 29.250000000000004
decision_type=10 2 10 2 8 10 10 2 2 2 10 8 8 10 10
left_child=1 5 3 6 -3 -1 10 -8 12 14 -2 -10 -5 -7 -6
right_child=2 4 -4 8 9 13 7 -9 11 -11 -12 -13 -14 -15 -16
leaf_value=-0.039187087703299955 -0.026607519439172729 -0.025334707553816328 0.027390261013328254 0.0022349496725054198 -0.0034089183830496072 -0.023345464298321766 0.0073227025066031522 0.074960503288667518 0.023166002205692343 0.028589104066893863 -0.0024441809827626948 0.092102385450740315 0.016733336398449431 0.016350455777065561 0.045559174388973875
leaf_count=26355 3786 3818 2760 6160 5702 5070 1124 132 2063 874 3023 55 5057 843 186
internal_value=0 -0.438765 0.255823 0.164882 -0.0577413 -0.677886 -0.121547 0.332638 0.275315 0.117737 -0.253766 0.517122 0.199611 -0.316859 -0.0106837
internal_count=67008 42848 24160 21400 10580 32268 8065 1256 13335 6762 6809 2118 11217 5913 5888
shrinkage=0.05


Tree=24
num_leaves=16
num_cat=0
split_feature=4 0 0 4 2 9 4 4 2 4 3 0 0 2 6
split_gain=383.199 100.771 66.5571 63.6752 30.2691 29.1243 28.127 20.8652 18.8562 18.7196 18.5736 26.3441 16.6267 15.2694 15.1836
threshold=118.16666666666667 38.500000000000007 53.500000000000007 131.83333333333334 27.350000000000005 1.0000000180025095e-35 145.83333333333334 147.83333333333334 24.050000000000004 105.25000000000001 81.583333333333357 52.500000000000007 60.500000000000007 23.650000000000002 6.5500000000000007
decision_type=10 2 2 10 8 2 10 10 10 8 10 2 2 8 8
left_child=2 6 5 4 10 8 -2 12 -1 -4 11 -3 13 -5 -12
right_child=1 3 9 7 -6 -7 -8 -9 -10 -11 14 -13 -14 -15 -16
leaf_value=-0.040362604060927704 -0.028981421347500341 -0.016905819822988243 -0.02744276857361835 0.0056650460581860939 0.021459177892044407 0.011828084425400941 0.016335787255528769 0.028762863280075653 -0.020573876196136039 0.010604348370710519 0.015821255660193777 0.0075448396103426829 0.039645766263799856 0.018410748589901632 -0.0069562413841006256
leaf_count=23046 5752 8495 969 4245 2130 922 290 2056 4817 2091 2624 2242 388 5382 1559
internal_value=0 0.185362 -0.558676 0.246936 0.0465644 -0.682795 -0.427705 0.378075 -0.723771 0.0148296 -0.0357997 -0.160661 0.305234 0.273014 0.15204
internal_count=67008 35163 31845 29121 17050 28785 6042 12071 27863 3060 14920 10737 10015 9627 4183
shrinkage=0.05


end of trees

feature importances:
H25_age=113
H25_bmi=87
H25_dbp=70
H25_sbp=64
H25_a1c=31
H25_is_medicine=9
H25_lhrate=1

parameters:
[boosting: gbdt]
[objective: binary]
[metric: binary]
[tree_learner: serial]
[device_type: cpu]
[data: ]
[valid: ]
[num_iterations: 100]
[learning_rate: 0.05]
[num_leaves: 16]
[num_threads: 0]
[max_depth: -1]
[min_data_in_leaf: 20]
[min_sum_hessian_in_leaf: 1]
[bagging_fraction: 0.4]
[bagging_freq: 0]
[bagging_seed: 3]
[feature_fraction: 1]
[feature_fraction_seed: 2]
[early_stopping_round: 0]
[max_delta_step: 0]
[lambda_l1: 0]
[lambda_l2: 1]
[min_gain_to_split: 0]
[drop_rate: 0.1]
[max_drop: 50]
[skip_drop: 0.5]
[xgboost_dart_mode: 0]
[uniform_drop: 0]
[drop_seed: 4]
[top_rate: 0.2]
[other_rate: 0.1]
[min_data_per_group: 100]
[max_cat_threshold: 32]
[cat_l2: 10]
[cat_smooth: 10]
[max_cat_to_onehot: 4]
[top_k: 20]
[monotone_constraints: ]
[feature_contri: ]
[forcedsplits_filename: ]
[refit_decay_rate: 0.9]
[verbosity: 0]
[max_bin: 255]
[min_data_in_bin: 3]
[bin_construct_sample_cnt: 200000]
[histogram_pool_size: -1]
[data_random_seed: 1]
[output_model: LightGBM_model.txt]
[snapshot_freq: -1]
[input_model: ]
[output_result: LightGBM_predict_result.txt]
[initscore_filename: ]
[valid_data_initscores: ]
[pre_partition: 0]
[enable_bundle: 1]
[max_conflict_rate: 0]
[is_enable_sparse: 1]
[sparse_threshold: 0.8]
[use_missing: 1]
[zero_as_missing: 0]
[two_round: 0]
[save_binary: 0]
[enable_load_from_binary_file: 1]
[header: 0]
[label_column: ]
[weight_column: ]
[group_column: ]
[ignore_column: ]
[categorical_feature: ]
[predict_raw_score: 0]
[predict_leaf_index: 0]
[predict_contrib: 0]
[num_iteration_predict: -1]
[pred_early_stop: 0]
[pred_early_stop_freq: 10]
[pred_early_stop_margin: 10]
[convert_model_language: ]
[convert_model: gbdt_prediction.cpp]
[num_class: 1]
[is_unbalance: 0]
[scale_pos_weight: 1]
[sigmoid: 1]
[boost_from_average: 1]
[reg_sqrt: 0]
[alpha: 0.9]
[fair_c: 1]
[poisson_max_delta_step: 0.7]
[tweedie_variance_power: 1.5]
[max_position: 20]
[label_gain: ]
[metric_freq: 1]
[is_provide_training_metric: 0]
[eval_at: ]
[num_machines: 1]
[local_listen_port: 12400]
[time_out: 120]
[machine_list_filename: ]
[machines: ]
[gpu_platform_id: -1]
[gpu_device_id: -1]
[gpu_use_dp: 0]

end of parameters

pandas_categorical:[]
